{"learner":{"attributes":{"best_iteration":"40","best_score":"0.47854708834459053"},"feature_names":["win_odds","market_implied_prob","implied_prob_norm","odds_rank","actual_wt","draw","draw_relative","field_size","jockey_win_rate","jockey_place_rate","jockey_rides","trainer_win_rate","trainer_place_rate","last_6_avg","last_6_best","last_2_avg","last_6_trend","gear_change","stable_change","ai_unluckiness","distance","race_sec_sum","sec_pos_1","sec_pos_2","sec_pos_pre","venue","track_type","course","race_class","track_condition"],"feature_types":["float","float","float","float","float","int","float","int","float","float","float","float","float","float","float","float","float","float","float","float","float","float","float","float","float","float","float","float","float","float"],"gradient_booster":{"model":{"cats":{"enc":[],"feature_segments":[],"sorted_idx":[]},"gbtree_model_param":{"num_parallel_tree":"1","num_trees":"71"},"iteration_indptr":[0,1,2,3,4,5,6,7,8,9,10,11,12,13,14,15,16,17,18,19,20,21,22,23,24,25,26,27,28,29,30,31,32,33,34,35,36,37,38,39,40,41,42,43,44,45,46,47,48,49,50,51,52,53,54,55,56,57,58,59,60,61,62,63,64,65,66,67,68,69,70,71],"tree_info":[0,0,0,0,0,0,0,0,0,0,0,0,0,0,0,0,0,0,0,0,0,0,0,0,0,0,0,0,0,0,0,0,0,0,0,0,0,0,0,0,0,0,0,0,0,0,0,0,0,0,0,0,0,0,0,0,0,0,0,0,0,0,0,0,0,0,0,0,0,0,0],"trees":[{"base_weights":[-6.8027184E-5,2.4132614E-1,-2.8202897E-1,4.6964556E-1,1.3649389E-1,-1.5506575E-1,-4.616695E-1,4.0421003E-1,6.161623E-1,6.354685E-2,2.2761725E-1,-8.241689E-2,-2.163086E-1,-3.946716E-1,-5.5884165E-1,4.7564474E-1,3.8278085E-1,5.750325E-1,7.3587614E-1,1.0720673E-1,2.951665E-2,1.9425486E-1,2.6798344E-1,-5.8397718E-2,-1.3568462E-1,-2.6539198E-1,-1.8483526E-1,-3.572338E-1,-4.3809813E-1,-6.528741E-1,-5.2786833E-1,4.980189E-1,3.4267932E-1,4.1392252E-1,3.5158193E-1,6.040787E-1,5.3563297E-1,5.6729347E-1,7.4935097E-1,1.1821491E-1,-1.0939279E-2,5.057008E-2,-1.605176E-2,1.5904562E-1,2.2150765E-1,2.7855125E-1,1.8669935E-1,-1.0157335E-1,-3.066885E-2,-1.831524E-1,-1.02933064E-1,-2.1899317E-1,-3.2506853E-1,-1.7908822E-1,-4.115296E-1,-3.8037747E-1,-2.9876214E-1,-4.9912393E-1,-4.088548E-1,-6.992704E-1,-5.801663E-1,-6.1539537E-1,-4.9669015E-1,2.5305817E-2,1.0007601E-2,2.7373923E-2,1.469595E-2,2.1883471E-2,1.808223E-2,1.820105E-2,1.0520708E-2,3.0417413E-2,1.7511267E-2,2.9537672E-2,2.3554837E-2,3.510691E-2,1.659906E-2,3.545208E-2,4.0123265E-2,7.511101E-3,4.8497734E-3,3.1604653E-3,-1.0307048E-2,2.857067E-3,-3.6082503E-3,1.9325912E-3,-1.8664122E-3,8.716788E-3,3.971809E-3,1.02612255E-2,1.392996E-2,1.5483962E-2,1.2607964E-2,1.3511484E-2,3.875218E-3,-3.895859E-3,-7.997516E-3,-2.3828214E-4,-5.6688436E-3,-6.104925E-3,-1.078199E-2,-8.169834E-3,-2.554532E-3,-9.603958E-3,-1.308278E-2,-1.6846525E-2,-5.7356693E-3,-7.956245E-3,-1.1612585E-2,-2.8821519E-2,-1.7223565E-2,-1.7721752E-2,-2.1896323E-2,-1.2536104E-2,-1.6675001E-2,-2.6684439E-2,-2.0827716E-2,-1.9931294E-2,-2.654177E-2,-3.0605951E-2,-3.5834577E-2,-3.2533E-2,-2.690028E-2,-2.7678644E-2,-3.295745E-2,-2.4413068E-2,-3.5718393E-2],"categories":[],"categories_nodes":[],"categories_segments":[],"categories_sizes":[],"default_left":[0,0,0,0,0,0,0,0,0,0,0,0,0,0,0,0,0,0,0,0,0,0,0,0,0,0,0,0,0,0,0,0,0,0,0,0,0,0,0,0,0,0,0,0,0,0,0,0,0,0,0,0,0,0,0,0,0,0,0,0,0,0,0,0,0,0,0,0,0,0,0,0,0,0,0,0,0,0,0,0,0,0,0,0,0,0,0,0,0,0,0,0,0,0,0,0,0,0,0,0,0,0,0,0,0,0,0,0,0,0,0,0,0,0,0,0,0,0,0,0,0,0,0,0,0,0,0],"id":0,"left_children":[1,3,5,7,9,11,13,15,17,19,21,23,25,27,29,31,33,35,37,39,41,43,45,47,49,51,53,55,57,59,61,63,65,67,69,71,73,75,77,79,81,83,85,87,89,91,93,95,97,99,101,103,105,107,109,111,113,115,117,119,121,123,125,-1,-1,-1,-1,-1,-1,-1,-1,-1,-1,-1,-1,-1,-1,-1,-1,-1,-1,-1,-1,-1,-1,-1,-1,-1,-1,-1,-1,-1,-1,-1,-1,-1,-1,-1,-1,-1,-1,-1,-1,-1,-1,-1,-1,-1,-1,-1,-1,-1,-1,-1,-1,-1,-1,-1,-1,-1,-1,-1,-1,-1,-1,-1,-1],"loss_changes":[1.858996E3,3.5213873E2,2.8725458E2,4.4139343E1,6.702864E1,3.2828934E1,3.3738525E1,4.7216797E0,6.6054077E0,8.321579E0,5.9864807E0,4.3146267E0,6.138153E0,4.8685913E0,5.8482666E0,2.0162354E0,2.2536316E0,8.97583E-1,3.9598083E-1,3.1927586E0,3.0229743E0,2.323883E0,1.6886444E0,2.7866921E0,1.612278E0,4.2552567E0,3.1099014E0,2.139923E0,2.3417664E0,1.3572998E0,4.073456E0,1.411026E0,9.2841244E-1,1.3688965E0,2.1011353E0,4.4415283E-1,1.3638458E0,7.4636745E-1,1.4093018E-1,1.5100536E0,3.0535326E0,1.7421007E0,1.1609781E0,1.2961941E0,1.2287979E0,1.3934021E0,2.1331806E0,1.2454243E0,3.042501E0,8.207731E-1,1.9448724E0,9.625931E-1,1.661583E0,2.4942703E0,4.610157E-1,1.6205139E0,7.1222305E-1,1.0837173E0,9.986267E-1,3.829956E-2,2.7246857E-1,7.63855E-1,1.8316345E0,0E0,0E0,0E0,0E0,0E0,0E0,0E0,0E0,0E0,0E0,0E0,0E0,0E0,0E0,0E0,0E0,0E0,0E0,0E0,0E0,0E0,0E0,0E0,0E0,0E0,0E0,0E0,0E0,0E0,0E0,0E0,0E0,0E0,0E0,0E0,0E0,0E0,0E0,0E0,0E0,0E0,0E0,0E0,0E0,0E0,0E0,0E0,0E0,0E0,0E0,0E0,0E0,0E0,0E0,0E0,0E0,0E0,0E0,0E0,0E0,0E0,0E0,0E0,0E0],"parents":[2147483647,0,0,1,1,2,2,3,3,4,4,5,5,6,6,7,7,8,8,9,9,10,10,11,11,12,12,13,13,14,14,15,15,16,16,17,17,18,18,19,19,20,20,21,21,22,22,23,23,24,24,25,25,26,26,27,27,28,28,29,29,30,30,31,31,32,32,33,33,34,34,35,35,36,36,37,37,38,38,39,39,40,40,41,41,42,42,43,43,44,44,45,45,46,46,47,47,48,48,49,49,50,50,51,51,52,52,53,53,54,54,55,55,56,56,57,57,58,58,59,59,60,60,61,61,62,62],"right_children":[2,4,6,8,10,12,14,16,18,20,22,24,26,28,30,32,34,36,38,40,42,44,46,48,50,52,54,56,58,60,62,64,66,68,70,72,74,76,78,80,82,84,86,88,90,92,94,96,98,100,102,104,106,108,110,112,114,116,118,120,122,124,126,-1,-1,-1,-1,-1,-1,-1,-1,-1,-1,-1,-1,-1,-1,-1,-1,-1,-1,-1,-1,-1,-1,-1,-1,-1,-1,-1,-1,-1,-1,-1,-1,-1,-1,-1,-1,-1,-1,-1,-1,-1,-1,-1,-1,-1,-1,-1,-1,-1,-1,-1,-1,-1,-1,-1,-1,-1,-1,-1,-1,-1,-1,-1,-1],"split_conditions":[1.7E1,5.7E0,4.9E1,3.22581E-1,1.06383E-1,2.6E1,1.04E2,3.8E0,5E-1,6E0,1.38889E-1,9E0,1E0,7E1,4.854E-3,1.0069E2,2.5E-1,2.8E0,7.94702E-2,3.9372823E-1,9.882E1,1E0,1.0803E2,1E0,4.5455E-2,3.6E1,1.2E1,9E0,1E0,2.209857E-1,1E0,1.34E2,6.3574776E-2,5.1E0,1.0908E2,1.8518518E-1,2.308E-1,6.451613E-2,6.25E-1,5E0,9.485E1,9E0,1.2E1,1.016E2,9E0,1.2E2,3.6363637E-1,2.2E1,9.447E1,1.92E-1,2.0608108E-1,1E1,1.2035011E-1,9.403E1,5.8536585E-2,9.361E1,1.1E1,2.1428572E-1,1E1,6.882E1,3.448276E-2,1.16E2,1.3E1,2.5305817E-2,1.0007601E-2,2.7373923E-2,1.469595E-2,2.1883471E-2,1.808223E-2,1.820105E-2,1.0520708E-2,3.0417413E-2,1.7511267E-2,2.9537672E-2,2.3554837E-2,3.510691E-2,1.659906E-2,3.545208E-2,4.0123265E-2,7.511101E-3,4.8497734E-3,3.1604653E-3,-1.0307048E-2,2.857067E-3,-3.6082503E-3,1.9325912E-3,-1.8664122E-3,8.716788E-3,3.971809E-3,1.02612255E-2,1.392996E-2,1.5483962E-2,1.2607964E-2,1.3511484E-2,3.875218E-3,-3.895859E-3,-7.997516E-3,-2.3828214E-4,-5.6688436E-3,-6.104925E-3,-1.078199E-2,-8.169834E-3,-2.554532E-3,-9.603958E-3,-1.308278E-2,-1.6846525E-2,-5.7356693E-3,-7.956245E-3,-1.1612585E-2,-2.8821519E-2,-1.7223565E-2,-1.7721752E-2,-2.1896323E-2,-1.2536104E-2,-1.6675001E-2,-2.6684439E-2,-2.0827716E-2,-1.9931294E-2,-2.654177E-2,-3.0605951E-2,-3.5834577E-2,-3.2533E-2,-2.690028E-2,-2.7678644E-2,-3.295745E-2,-2.4413068E-2,-3.5718393E-2],"split_indices":[0,0,0,1,1,0,0,0,1,3,1,3,25,0,1,21,6,0,8,9,21,25,21,25,1,0,24,5,25,12,25,4,11,0,21,11,6,8,1,3,21,24,0,21,5,4,6,0,21,9,9,3,11,21,8,21,3,9,24,21,8,4,24,0,0,0,0,0,0,0,0,0,0,0,0,0,0,0,0,0,0,0,0,0,0,0,0,0,0,0,0,0,0,0,0,0,0,0,0,0,0,0,0,0,0,0,0,0,0,0,0,0,0,0,0,0,0,0,0,0,0,0,0,0,0,0,0],"split_type":[0,0,0,0,0,0,0,0,0,0,0,0,0,0,0,0,0,0,0,0,0,0,0,0,0,0,0,0,0,0,0,0,0,0,0,0,0,0,0,0,0,0,0,0,0,0,0,0,0,0,0,0,0,0,0,0,0,0,0,0,0,0,0,0,0,0,0,0,0,0,0,0,0,0,0,0,0,0,0,0,0,0,0,0,0,0,0,0,0,0,0,0,0,0,0,0,0,0,0,0,0,0,0,0,0,0,0,0,0,0,0,0,0,0,0,0,0,0,0,0,0,0,0,0,0,0,0],"sum_hessian":[2.731058E4,1.4713828E4,1.2596751E4,4.6288794E3,1.0084948E4,7.381586E3,5.2151655E3,3.202415E3,1.4264645E3,5.6020405E3,4.482908E3,3.3774534E3,4.0041323E3,3.0898486E3,2.1253167E3,7.340952E2,2.4683198E3,1.0660183E3,3.6044617E2,2.4528923E3,3.1491482E3,2.4575615E3,2.0253464E3,2.3292554E3,1.048198E3,1.5615026E3,2.44263E3,1.6642949E3,1.4255538E3,5.2162573E2,1.6036909E3,6.260106E2,1.080846E2,1.2291547E3,1.2391652E3,6.0538324E2,4.6063507E2,2.9868107E1,3.3057806E2,2.2438247E3,2.0906754E2,2.1538984E3,9.952498E2,1.0752408E3,1.3823208E3,1.7901768E3,2.3516965E2,9.0986847E2,1.419387E3,4.260782E2,6.221198E2,8.811074E2,6.8039514E2,2.3839824E3,5.8647354E1,1.1884061E3,4.758887E2,4.566132E2,9.689407E2,3.131688E2,2.0845695E2,4.162911E2,1.1873998E3,6.087624E2,1.7248182E1,1.881816E1,8.926644E1,8.4015027E2,3.8900436E2,1.1373668E3,1.0179832E2,5.9399634E2,1.13869095E1,2.4404341E2,2.1659166E2,1.7726276E1,1.21418295E1,1.9610211E2,1.3447595E2,8.9210565E2,1.3517191E3,1.5200404E2,5.7063496E1,2.044946E3,1.0895237E2,2.7846832E2,7.167815E2,9.0100085E2,1.7423993E2,1.0791345E3,3.0318637E2,8.164653E2,9.7371155E2,1.3240768E2,1.0276196E2,6.4914813E2,2.6072034E2,1.081676E3,3.377109E2,1.4963182E2,2.7644638E2,2.8618805E2,3.3593173E2,5.436454E2,3.37462E2,6.4350604E2,3.6889095E1,1.7360674E3,6.479151E2,1.4758724E1,4.388863E1,8.2407947E2,3.643267E2,2.0315588E2,2.7273282E2,3.1802136E2,1.3859181E2,8.9791235E2,7.1028305E1,5.8192E1,2.5497679E2,7.261312E1,1.3584383E2,1.7818011E2,2.38111E2,1.1462579E3,4.114185E1],"tree_param":{"num_deleted":"0","num_feature":"30","num_nodes":"127","size_leaf_vector":"1"}},{"base_weights":[-5.338233E-4,-1.5192309E-1,1.584865E-1,-7.994848E-2,-3.011764E-1,3.3888495E-1,9.5975034E-2,-4.7949754E-2,-1.4950974E-1,-4.1430336E-1,-2.546222E-1,2.9833907E-1,5.51909E-1,5.6278683E-2,1.5413038E-1,-1.2065926E-2,-7.9949506E-2,-1.3986564E-1,-2.5089696E-1,-4.5887354E-1,-3.645686E-1,-3.2848707E-1,-2.2048745E-1,2.59256E-1,3.6659163E-1,5.0231415E-1,6.379209E-1,7.657054E-2,1.9962061E-2,1.6164754E-1,3.136069E-2,6.3929716E-3,-5.23165E-2,-7.386573E-2,-2.024976E-1,-1.4337118E-1,7.764211E-2,-6.179217E-1,-2.3262374E-1,-5.160109E-1,-3.947247E-1,-3.8620815E-1,-2.2271655E-1,-3.6315003E-1,-2.5751674E-1,-1.716347E-1,-2.5162724E-1,2.9274327E-1,2.2994207E-1,3.8911536E-1,3.1005186E-1,5.085856E-1,8.769048E-3,7.444061E-1,6.0206175E-1,8.467123E-2,-1.8273208E-2,2.8102344E-2,-1.3270985E-1,1.9196449E-1,1.2750852E-1,-5.3784335E-1,6.472553E-2,8.0909405E-4,-4.7088377E-3,2.3093503E-2,-2.8612842E-3,-3.9053743E-3,6.524563E-3,-3.782811E-2,-8.566468E-3,-8.864554E-3,-6.2290616E-3,9.901855E-3,-7.5551257E-3,-3.6672033E-2,-2.2460867E-2,-1.3542891E-2,-5.687591E-3,-2.4131669E-2,-3.2039784E-2,-2.3891786E-2,-1.8029138E-2,-1.813729E-2,-2.2806585E-2,-1.4570804E-2,-4.960145E-3,-1.3846717E-2,-1.9990902E-2,-1.1079142E-2,-1.6710399E-2,-9.778844E-3,-4.942779E-3,-1.2303024E-2,-2.3190275E-2,9.2645325E-3,1.5407452E-2,1.4676458E-2,1.0331176E-2,1.843819E-2,2.3507783E-2,2.6982639E-2,1.4248862E-2,2.4719978E-2,3.10329E-2,2.8103996E-2,3.9679877E-2,3.492478E-2,2.8102476E-2,4.0707407E-3,1.4106016E-2,-1.5276688E-3,1.1023852E-2,1.589801E-3,-1.4780081E-2,-8.600281E-3,1.4253329E-2,1.1486343E-2,7.838195E-3,7.1620145E-3,3.1952092E-3,-3.180008E-2,-1.974465E-2,-1.380869E-2,4.3567275E-3],"categories":[],"categories_nodes":[],"categories_segments":[],"categories_sizes":[],"default_left":[0,0,0,0,0,0,0,0,0,0,0,0,0,0,0,0,0,0,0,0,0,0,0,0,0,0,0,0,0,0,0,0,0,0,0,0,0,0,0,0,0,0,0,0,0,0,0,0,0,0,0,0,0,0,0,0,0,0,0,0,0,0,0,0,0,0,0,0,0,0,0,0,0,0,0,0,0,0,0,0,0,0,0,0,0,0,0,0,0,0,0,0,0,0,0,0,0,0,0,0,0,0,0,0,0,0,0,0,0,0,0,0,0,0,0,0,0,0,0,0,0,0,0,0,0],"id":1,"left_children":[1,3,5,7,9,11,13,15,17,19,21,23,25,27,29,31,33,35,37,39,41,43,45,47,49,51,53,55,57,59,61,63,65,67,69,71,73,75,77,79,81,83,85,87,89,91,93,95,97,99,101,103,-1,105,107,109,111,113,115,117,119,121,123,-1,-1,-1,-1,-1,-1,-1,-1,-1,-1,-1,-1,-1,-1,-1,-1,-1,-1,-1,-1,-1,-1,-1,-1,-1,-1,-1,-1,-1,-1,-1,-1,-1,-1,-1,-1,-1,-1,-1,-1,-1,-1,-1,-1,-1,-1,-1,-1,-1,-1,-1,-1,-1,-1,-1,-1,-1,-1,-1,-1,-1,-1],"loss_changes":[1.2469508E3,2.8502686E2,2.8484235E2,3.9843567E1,4.5358154E1,5.5982178E1,4.3304672E1,1.4081497E1,5.4800262E0,5.4081116E0,1.5354248E1,1.44783325E1,4.1085205E0,8.216949E0,7.0187683E0,4.296503E0,4.818245E0,3.9400024E0,3.1335735E0,4.644043E0,3.5778503E0,4.658676E0,6.3273163E0,3.3462524E0,2.4096375E0,1.2706909E0,9.876251E-1,5.498184E0,4.973658E0,7.3979187E0,8.397888E0,3.9051359E0,4.6158404E0,5.3651886E0,5.1553E0,3.2101517E0,2.2985752E0,1.104126E-1,2.0920944E0,2.5907288E0,1.6077728E0,1.5312958E0,1.3316646E0,3.9845886E0,1.6823158E0,2.8267136E0,2.904068E0,2.6237946E0,2.6956635E0,2.1635742E0,3.133232E0,7.269287E-1,0E0,3.6557388E-1,7.1295166E-1,4.215206E0,1.6597167E0,4.5497813E0,3.3751414E0,5.01033E0,3.3689766E0,9.249401E-2,3.2086284E0,0E0,0E0,0E0,0E0,0E0,0E0,0E0,0E0,0E0,0E0,0E0,0E0,0E0,0E0,0E0,0E0,0E0,0E0,0E0,0E0,0E0,0E0,0E0,0E0,0E0,0E0,0E0,0E0,0E0,0E0,0E0,0E0,0E0,0E0,0E0,0E0,0E0,0E0,0E0,0E0,0E0,0E0,0E0,0E0,0E0,0E0,0E0,0E0,0E0,0E0,0E0,0E0,0E0,0E0,0E0,0E0,0E0,0E0,0E0,0E0,0E0,0E0],"parents":[2147483647,0,0,1,1,2,2,3,3,4,4,5,5,6,6,7,7,8,8,9,9,10,10,11,11,12,12,13,13,14,14,15,15,16,16,17,17,18,18,19,19,20,20,21,21,22,22,23,23,24,24,25,25,26,26,27,27,28,28,29,29,30,30,31,31,32,32,33,33,34,34,35,35,36,36,37,37,38,38,39,39,40,40,41,41,42,42,43,43,44,44,45,45,46,46,47,47,48,48,49,49,50,50,51,51,53,53,54,54,55,55,56,56,57,57,58,58,59,59,60,60,61,61,62,62],"right_children":[2,4,6,8,10,12,14,16,18,20,22,24,26,28,30,32,34,36,38,40,42,44,46,48,50,52,54,56,58,60,62,64,66,68,70,72,74,76,78,80,82,84,86,88,90,92,94,96,98,100,102,104,-1,106,108,110,112,114,116,118,120,122,124,-1,-1,-1,-1,-1,-1,-1,-1,-1,-1,-1,-1,-1,-1,-1,-1,-1,-1,-1,-1,-1,-1,-1,-1,-1,-1,-1,-1,-1,-1,-1,-1,-1,-1,-1,-1,-1,-1,-1,-1,-1,-1,-1,-1,-1,-1,-1,-1,-1,-1,-1,-1,-1,-1,-1,-1,-1,-1,-1,-1,-1,-1],"split_conditions":[5.812524E-2,4.9E1,5.4E0,3.1E1,6.596167E-3,3.0295816E-1,9.64631E-2,8E0,7E0,4.8666634E-3,1E0,2.147671E-1,5E-1,1.2E1,7E0,1.25E2,1E1,6E0,6E0,2.1715419E-1,2.9089028E-1,1.3676879E-2,1.1E1,2.308E-1,2E0,1.2336E2,1.6E0,6E0,1.1048E2,7E0,6E0,8E0,6E0,9E0,8E0,1E0,9.434E1,2.3010753E-1,8.108108E-2,8.288E1,3.448276E-2,1.24E2,1.21E2,1.1E1,9.922E1,9E0,1.3E1,2.0242023E-1,2.2277677E-1,3.1345138E-1,1.63E2,1.0056E2,8.769048E-3,1.3611615E-1,1E0,5E0,4.376E3,1.2E1,8E0,1.22E2,1.1546499E-1,7.94702E-2,5.785E1,8.0909405E-4,-4.7088377E-3,2.3093503E-2,-2.8612842E-3,-3.9053743E-3,6.524563E-3,-3.782811E-2,-8.566468E-3,-8.864554E-3,-6.2290616E-3,9.901855E-3,-7.5551257E-3,-3.6672033E-2,-2.2460867E-2,-1.3542891E-2,-5.687591E-3,-2.4131669E-2,-3.2039784E-2,-2.3891786E-2,-1.8029138E-2,-1.813729E-2,-2.2806585E-2,-1.4570804E-2,-4.960145E-3,-1.3846717E-2,-1.9990902E-2,-1.1079142E-2,-1.6710399E-2,-9.778844E-3,-4.942779E-3,-1.2303024E-2,-2.3190275E-2,9.2645325E-3,1.5407452E-2,1.4676458E-2,1.0331176E-2,1.843819E-2,2.3507783E-2,2.6982639E-2,1.4248862E-2,2.4719978E-2,3.10329E-2,2.8103996E-2,3.9679877E-2,3.492478E-2,2.8102476E-2,4.0707407E-3,1.4106016E-2,-1.5276688E-3,1.1023852E-2,1.589801E-3,-1.4780081E-2,-8.600281E-3,1.4253329E-2,1.1486343E-2,7.838195E-3,7.1620145E-3,3.1952092E-3,-3.180008E-2,-1.974465E-2,-1.380869E-2,4.3567275E-3],"split_indices":[2,0,0,0,2,2,2,3,24,2,25,2,1,0,24,4,24,22,22,12,12,2,3,6,3,21,0,24,21,0,22,24,10,22,22,25,21,12,8,21,8,4,4,3,21,5,24,12,12,12,10,21,0,8,25,22,10,24,23,4,8,8,21,0,0,0,0,0,0,0,0,0,0,0,0,0,0,0,0,0,0,0,0,0,0,0,0,0,0,0,0,0,0,0,0,0,0,0,0,0,0,0,0,0,0,0,0,0,0,0,0,0,0,0,0,0,0,0,0,0,0,0,0,0,0],"split_type":[0,0,0,0,0,0,0,0,0,0,0,0,0,0,0,0,0,0,0,0,0,0,0,0,0,0,0,0,0,0,0,0,0,0,0,0,0,0,0,0,0,0,0,0,0,0,0,0,0,0,0,0,0,0,0,0,0,0,0,0,0,0,0,0,0,0,0,0,0,0,0,0,0,0,0,0,0,0,0,0,0,0,0,0,0,0,0,0,0,0,0,0,0,0,0,0,0,0,0,0,0,0,0,0,0,0,0,0,0,0,0,0,0,0,0,0,0,0,0,0,0,0,0,0,0],"sum_hessian":[5.1794645E4,2.6534E4,2.5260645E4,1.7902426E4,8.631573E3,6.499543E3,1.8761102E4,1.2263027E4,5.6393984E3,2.5141875E3,6.117386E3,5.4622812E3,1.0372616E3,1.1151292E4,7.609809E3,5.7813384E3,6.4816895E3,5.151737E3,4.8766174E2,1.3216002E3,1.1925873E3,1.9307572E3,4.186629E3,3.4764058E3,1.9858754E3,6.622467E2,3.7501486E2,7.153292E3,3.998E3,7.170448E3,4.3936115E2,3.9641992E3,1.817139E3,6.176658E3,3.0503125E2,5.0703594E3,8.1377464E1,2.15716E1,4.6609015E2,6.952753E2,6.263249E2,1.033243E3,1.5934424E2,1.2944243E3,6.3633295E2,1.6323213E3,2.5543076E3,1.6184993E3,1.8579066E3,1.41593E3,5.6994525E2,6.49237E2,1.3009709E1,8.9495445E1,2.855194E2,6.590499E3,5.627928E2,3.7963965E3,2.0160341E2,3.7953696E3,3.3750784E3,2.3490652E1,4.1587048E2,3.613336E3,3.5086334E2,1.6304705E1,1.8008342E3,6.051664E3,1.24994225E2,1.5005818E1,2.9002542E2,1.8044696E3,3.26589E3,5.3403748E1,2.7973715E1,1.0817154E1,1.0754446E1,3.516928E2,1.1439733E2,5.523897E2,1.428856E2,1.7859036E2,4.4773453E2,7.7828296E2,2.5496004E2,1.0151898E2,5.782526E1,3.8880295E2,9.0562134E2,4.359544E2,2.0037857E2,1.2269907E3,4.0533063E2,2.4911096E3,6.319783E1,2.0458423E2,1.413915E3,4.954048E2,1.3625018E3,1.1361583E3,2.7977173E2,5.4094673E1,5.158506E2,5.8109406E2,6.8142944E1,2.165573E1,6.783972E1,7.890141E1,2.06618E2,6.484959E3,1.0554037E2,5.360909E2,2.6701916E1,3.7544575E3,4.1939037E1,1.8480872E2,1.6794699E1,1.8283896E3,1.9669801E3,2.704821E3,6.7025726E2,1.1882388E1,1.1608264E1,2.4952585E1,3.909179E2],"tree_param":{"num_deleted":"0","num_feature":"30","num_nodes":"125","size_leaf_vector":"1"}},{"base_weights":[-8.5376186E-4,1.2629126E-1,-1.5246733E-1,2.9907665E-1,7.215157E-2,-9.437532E-2,-2.925576E-1,4.2607966E-1,2.3869564E-1,3.3330657E-2,1.2444646E-1,-1.503252E-1,-6.6047706E-2,-2.6345178E-1,-3.961906E-1,3.6895645E-1,5.390079E-1,2.1138929E-1,2.912832E-1,6.2019035E-2,1.2528497E-2,1.2956765E-1,-2.6053311E-2,-1.848219E-1,-1.0947047E-1,-3.2229453E-2,-8.971382E-2,-3.1516844E-1,-2.0389499E-1,-4.9406284E-1,-3.6363855E-1,2.5466418E-1,4.1365597E-1,2.3036006E-1,5.5275834E-1,8.288751E-2,2.225051E-1,2.9760084E-1,1.1183294E-1,1.21184975E-1,4.8536375E-2,-1.7274433E-1,1.8518E-2,1.5317886E-1,1.0505545E-1,-1.02967635E-1,9.433269E-2,-3.9191805E-2,-1.8236887E-1,-1.0404974E-1,-3.855214E-1,-4.912734E-3,-7.92775E-2,-1.12957336E-1,-4.4407994E-2,-3.0934358E-1,-5.727185E-1,-1.968432E-1,-4.305769E-1,-6.3988745E-1,-4.4575292E-1,-4.5951778E-1,-3.4384695E-1,-1.475019E-3,1.3736367E-2,2.6254684E-2,1.987595E-2,2.8443545E-2,7.313368E-4,2.6224574E-2,3.624759E-2,9.357249E-4,1.8179594E-2,1.33760935E-2,9.307892E-3,2.3211532E-3,1.503665E-2,1.0640569E-3,1.773951E-2,7.181313E-3,-3.93125E-3,8.094469E-4,3.6667932E-3,-3.4952965E-3,-1.7985638E-2,-1.6880886E-3,1.4787861E-3,9.74356E-3,6.543634E-3,4.1766814E-3,8.019793E-3,-1.9113548E-3,-1.177443E-2,1.7441003E-4,2.0201864E-2,-8.519245E-3,-1.4286505E-2,-4.3490194E-3,-9.695628E-3,-1.4962285E-2,-3.0880773E-2,-1.0881108E-2,1.7325119E-4,-1.5597182E-2,-3.278711E-3,-1.0486799E-2,-5.1197056E-3,-1.3867004E-3,-6.9991346E-3,-1.417661E-2,-1.74073E-2,-3.1753227E-2,-1.8180197E-2,-1.0038699E-2,1.2182549E-2,-2.6810093E-2,-1.0662042E-2,-2.1727694E-2,-3.366444E-2,-2.0209448E-2,-2.7892167E-2,-2.6061598E-2,-1.6521877E-2,-1.6557967E-2,-2.6231054E-2],"categories":[],"categories_nodes":[],"categories_segments":[],"categories_sizes":[],"default_left":[0,0,0,0,0,0,0,0,0,0,0,0,0,0,0,0,0,0,0,0,0,0,0,0,0,0,0,0,0,0,0,0,0,0,0,0,0,0,0,0,0,0,0,0,0,0,0,0,0,0,0,0,0,0,0,0,0,0,0,0,0,0,0,0,0,0,0,0,0,0,0,0,0,0,0,0,0,0,0,0,0,0,0,0,0,0,0,0,0,0,0,0,0,0,0,0,0,0,0,0,0,0,0,0,0,0,0,0,0,0,0,0,0,0,0,0,0,0,0,0,0,0,0,0,0],"id":2,"left_children":[1,3,5,7,9,11,13,15,17,19,21,23,25,27,29,31,33,35,37,39,41,43,45,47,49,51,53,55,57,59,61,63,65,67,69,71,73,75,77,79,81,83,85,87,89,91,93,-1,95,97,99,101,103,105,107,109,111,113,115,117,119,121,123,-1,-1,-1,-1,-1,-1,-1,-1,-1,-1,-1,-1,-1,-1,-1,-1,-1,-1,-1,-1,-1,-1,-1,-1,-1,-1,-1,-1,-1,-1,-1,-1,-1,-1,-1,-1,-1,-1,-1,-1,-1,-1,-1,-1,-1,-1,-1,-1,-1,-1,-1,-1,-1,-1,-1,-1,-1,-1,-1,-1,-1,-1],"loss_changes":[9.68E2,2.5546646E2,1.86367E2,4.9864258E1,4.2216484E1,2.5652695E1,2.0144836E1,1.3336792E1,6.283142E0,7.123316E0,6.8324585E0,7.648918E0,8.601681E0,1.6088226E1,4.503769E0,7.029663E0,2.8548584E0,4.14093E0,1.675766E0,3.9965744E0,7.683533E0,4.9433136E0,2.7172775E0,4.1901855E0,3.6914272E0,5.690129E0,6.6549225E0,4.0308533E0,3.8158798E0,2.2798386E0,1.9425049E0,2.2615051E0,1.5937653E0,2.3055103E0,2.890625E0,4.1980963E0,4.3344574E0,1.1312103E0,1.1555804E0,4.1836443E0,3.2781334E0,4.14409E0,3.8773017E0,4.0316315E0,4.9978027E0,1.5258512E0,3.220438E0,0E0,3.5908127E0,3.7366295E0,7.6942825E-1,4.994609E0,5.164953E0,4.2509384E0,3.4161391E0,2.6506653E0,5.6256866E-1,4.1497498E0,1.5563631E0,3.130989E-1,1.064106E0,1.3128357E0,1.9397888E0,0E0,0E0,0E0,0E0,0E0,0E0,0E0,0E0,0E0,0E0,0E0,0E0,0E0,0E0,0E0,0E0,0E0,0E0,0E0,0E0,0E0,0E0,0E0,0E0,0E0,0E0,0E0,0E0,0E0,0E0,0E0,0E0,0E0,0E0,0E0,0E0,0E0,0E0,0E0,0E0,0E0,0E0,0E0,0E0,0E0,0E0,0E0,0E0,0E0,0E0,0E0,0E0,0E0,0E0,0E0,0E0,0E0,0E0,0E0,0E0,0E0,0E0],"parents":[2147483647,0,0,1,1,2,2,3,3,4,4,5,5,6,6,7,7,8,8,9,9,10,10,11,11,12,12,13,13,14,14,15,15,16,16,17,17,18,18,19,19,20,20,21,21,22,22,23,23,24,24,25,25,26,26,27,27,28,28,29,29,30,30,31,31,32,32,33,33,34,34,35,35,36,36,37,37,38,38,39,39,40,40,41,41,42,42,43,43,44,44,45,45,46,46,48,48,49,49,50,50,51,51,52,52,53,53,54,54,55,55,56,56,57,57,58,58,59,59,60,60,61,61,62,62],"right_children":[2,4,6,8,10,12,14,16,18,20,22,24,26,28,30,32,34,36,38,40,42,44,46,48,50,52,54,56,58,60,62,64,66,68,70,72,74,76,78,80,82,84,86,88,90,92,94,-1,96,98,100,102,104,106,108,110,112,114,116,118,120,122,124,-1,-1,-1,-1,-1,-1,-1,-1,-1,-1,-1,-1,-1,-1,-1,-1,-1,-1,-1,-1,-1,-1,-1,-1,-1,-1,-1,-1,-1,-1,-1,-1,-1,-1,-1,-1,-1,-1,-1,-1,-1,-1,-1,-1,-1,-1,-1,-1,-1,-1,-1,-1,-1,-1,-1,-1,-1,-1,-1,-1,-1,-1],"split_conditions":[1.7E1,5.7E0,5.8E1,3.6E0,1.06383E-1,2.9412E-2,1.53E2,4E-1,1.3E1,1.2E1,9E0,1.3E1,2.2E1,1.4E1,1.9704433E-1,1.2E1,7E0,9E0,2.3524521E-1,2.0591341E-1,9E0,1.22E2,1.1E1,7E0,1.3E1,5.625E-1,1.4E1,1.2E1,1.3E1,3.597E-3,1E0,7E0,2.8E0,2.8E-1,6.25E-1,3.091E3,4.6E0,1E1,1.3E2,2.547E3,1E0,5.714286E-1,1.9880319E-1,7E0,1.4E1,8.2E0,9.959E1,-3.9191805E-2,6E0,1.28E2,9.498E1,2.5E1,1E1,1E1,9.259259E-2,9.1E1,9.838275E-2,1.3E1,7.723577E-2,1.8147014E-1,8.242E1,8.31E2,1E1,-1.475019E-3,1.3736367E-2,2.6254684E-2,1.987595E-2,2.8443545E-2,7.313368E-4,2.6224574E-2,3.624759E-2,9.357249E-4,1.8179594E-2,1.33760935E-2,9.307892E-3,2.3211532E-3,1.503665E-2,1.0640569E-3,1.773951E-2,7.181313E-3,-3.93125E-3,8.094469E-4,3.6667932E-3,-3.4952965E-3,-1.7985638E-2,-1.6880886E-3,1.4787861E-3,9.74356E-3,6.543634E-3,4.1766814E-3,8.019793E-3,-1.9113548E-3,-1.177443E-2,1.7441003E-4,2.0201864E-2,-8.519245E-3,-1.4286505E-2,-4.3490194E-3,-9.695628E-3,-1.4962285E-2,-3.0880773E-2,-1.0881108E-2,1.7325119E-4,-1.5597182E-2,-3.278711E-3,-1.0486799E-2,-5.1197056E-3,-1.3867004E-3,-6.9991346E-3,-1.417661E-2,-1.74073E-2,-3.1753227E-2,-1.8180197E-2,-1.0038699E-2,1.2182549E-2,-2.6810093E-2,-1.0662042E-2,-2.1727694E-2,-3.366444E-2,-2.0209448E-2,-2.7892167E-2,-2.6061598E-2,-1.6521877E-2,-1.6557967E-2,-2.6231054E-2],"split_indices":[0,0,0,0,1,1,0,1,7,0,24,7,0,7,12,7,7,7,8,12,7,4,22,7,24,6,7,24,24,1,25,7,0,12,1,10,0,10,4,10,25,6,12,0,7,0,21,0,24,4,21,10,7,7,8,0,11,22,8,12,21,10,24,0,0,0,0,0,0,0,0,0,0,0,0,0,0,0,0,0,0,0,0,0,0,0,0,0,0,0,0,0,0,0,0,0,0,0,0,0,0,0,0,0,0,0,0,0,0,0,0,0,0,0,0,0,0,0,0,0,0,0,0,0,0],"split_type":[0,0,0,0,0,0,0,0,0,0,0,0,0,0,0,0,0,0,0,0,0,0,0,0,0,0,0,0,0,0,0,0,0,0,0,0,0,0,0,0,0,0,0,0,0,0,0,0,0,0,0,0,0,0,0,0,0,0,0,0,0,0,0,0,0,0,0,0,0,0,0,0,0,0,0,0,0,0,0,0,0,0,0,0,0,0,0,0,0,0,0,0,0,0,0,0,0,0,0,0,0,0,0,0,0,0,0,0,0,0,0,0,0,0,0,0,0,0,0,0,0,0,0,0,0],"sum_hessian":[5.021352E4,2.731064E4,2.2902877E4,6.5146816E3,2.0795959E4,1.6190675E4,6.712202E3,2.0972834E3,4.4173984E3,1.1936547E4,8.859412E3,5.4406123E3,1.07500625E4,5.2431733E3,1.4690288E3,1.3956034E3,7.016801E2,2.910912E3,1.506486E3,5.016408E3,6.920138E3,8.568E3,2.9141226E2,2.9479304E3,2.4926821E3,4.426736E3,6.323327E3,2.804002E3,2.4391711E3,3.6311008E2,1.1059187E3,3.94248E2,1.00135535E3,3.0684135E1,6.7099603E2,2.3242867E2,2.6784834E3,1.454617E3,5.186905E1,9.294993E2,4.0869092E3,2.1583675E2,6.704302E3,4.3615347E3,4.2064653E3,1.7789821E2,1.13514046E2,1.0723694E1,2.9372068E3,2.446027E3,4.6654987E1,2.8013433E3,1.6253927E3,4.178244E3,2.1450828E3,2.7441404E3,5.9861557E1,2.367393E3,7.177811E1,8.731185E1,2.7579822E2,1.8542447E2,9.204942E2,2.596877E1,3.6827924E2,1.2267252E2,8.786828E2,1.1306305E1,1.937783E1,5.798545E2,9.11415E1,1.9004773E2,4.2380943E1,1.1937012E3,1.4847823E3,1.811033E1,1.4365066E3,3.8578262E1,1.3290785E1,8.358982E2,9.360116E1,1.7742731E3,2.312636E3,1.401331E2,7.570364E1,1.1701062E3,5.5341953E3,1.5174817E3,2.8440532E3,3.0304404E3,1.1760251E3,1.2037823E2,5.751998E1,8.855098E1,2.4963066E1,2.634414E3,3.0279272E2,2.0572268E3,3.8880026E2,3.568079E1,1.0974199E1,1.0520615E2,2.6961372E3,8.919515E1,1.5361975E3,4.0931433E2,3.7689297E3,1.8275399E3,3.175429E2,1.6529231E3,1.0912173E3,4.454412E1,1.5317436E1,2.3469937E3,2.039935E1,4.731563E1,2.4462475E1,1.4175924E1,7.313593E1,2.0455397E2,7.124425E1,1.2339188E2,6.203259E1,8.627727E2,5.7721504E1],"tree_param":{"num_deleted":"0","num_feature":"30","num_nodes":"125","size_leaf_vector":"1"}},{"base_weights":[1.0876807E-3,-1.5727146E-1,9.710744E-2,-2.8536853E-1,-1.0836965E-1,5.704732E-2,2.9418558E-1,-3.7152162E-1,-2.5328666E-1,-7.1593836E-2,-1.5498073E-1,1.1757572E-1,1.8566152E-2,2.4492146E-1,4.4173422E-1,-4.1991407E-1,-3.224879E-1,-3.0873397E-1,-1.9575286E-1,-9.7332686E-2,-1.3632452E-2,-1.830259E-1,-1.20055E-1,1.2444019E-1,1.2488966E-2,-7.601018E-3,4.688829E-2,2.2068548E-1,3.0990627E-1,3.7672698E-1,5.1865494E-1,-3.8138285E-1,-5.171825E-1,-3.7268987E-1,-2.7626255E-1,-2.7860457E-1,-3.7499592E-1,-1.5038353E-1,-2.619001E-1,-1.866704E-1,-8.385654E-2,-2.3570364E-2,8.44039E-2,-1.4967215E-1,-2.2194842E-1,-1.15029216E-1,-3.4514818E-1,1.0359334E-1,1.5589714E-1,-4.4807988E-1,3.2927386E-2,7.92386E-3,-4.0882803E-2,-1.3153141E-2,5.9648488E-2,2.2763942E-1,8.115994E-2,7.3292926E-2,3.3116025E-1,2.0870247E-1,4.341142E-1,2.1507727E-1,5.357058E-1,-1.7869093E-2,-2.5627246E-2,-3.040877E-2,-2.3191478E-2,-1.706522E-2,-2.386721E-2,-6.832978E-3,-1.6362274E-2,-1.2688862E-2,-1.6651321E-2,-1.7845973E-2,-2.3704633E-2,-6.7829187E-3,-1.290487E-2,-9.618439E-3,-1.4610422E-2,-9.8778885E-3,9.911505E-3,-3.7313437E-3,-9.144454E-3,-7.94484E-4,-2.0808756E-2,9.810899E-3,-9.319941E-3,-1.0498525E-2,-6.0051037E-3,-1.2841E-2,-7.899314E-3,-5.3208703E-3,-9.7282E-3,-2.2881126E-2,-7.5720274E-3,4.0195994E-3,8.115764E-3,9.908693E-3,6.381797E-3,-1.5179996E-2,-2.756611E-2,-8.659306E-3,2.639428E-3,6.935808E-4,-5.9960424E-3,-3.460925E-3,-4.1335104E-5,-1.5368371E-2,-1.172246E-4,3.1456132E-3,-8.241278E-3,1.5408516E-2,1.0834048E-2,1.5414402E-2,-7.617726E-4,7.4207904E-3,-2.078775E-2,1.7309947E-2,6.945538E-3,7.0744837E-3,2.1643113E-2,2.2062784E-2,4.926775E-3,5.0042354E-4,2.7890403E-2,2.5398407E-2,3.7961137E-2],"categories":[],"categories_nodes":[],"categories_segments":[],"categories_sizes":[],"default_left":[0,0,0,0,0,0,0,0,0,0,0,0,0,0,0,0,0,0,0,0,0,0,0,0,0,0,0,0,0,0,0,0,0,0,0,0,0,0,0,0,0,0,0,0,0,0,0,0,0,0,0,0,0,0,0,0,0,0,0,0,0,0,0,0,0,0,0,0,0,0,0,0,0,0,0,0,0,0,0,0,0,0,0,0,0,0,0,0,0,0,0,0,0,0,0,0,0,0,0,0,0,0,0,0,0,0,0,0,0,0,0,0,0,0,0,0,0,0,0,0,0,0,0,0,0,0,0],"id":3,"left_children":[1,3,5,7,9,11,13,15,17,19,21,23,25,27,29,31,33,35,37,39,41,43,45,47,49,51,53,55,57,59,61,63,65,67,69,71,73,75,77,79,81,83,85,87,89,91,93,95,97,99,101,103,105,107,109,111,113,115,117,119,121,123,125,-1,-1,-1,-1,-1,-1,-1,-1,-1,-1,-1,-1,-1,-1,-1,-1,-1,-1,-1,-1,-1,-1,-1,-1,-1,-1,-1,-1,-1,-1,-1,-1,-1,-1,-1,-1,-1,-1,-1,-1,-1,-1,-1,-1,-1,-1,-1,-1,-1,-1,-1,-1,-1,-1,-1,-1,-1,-1,-1,-1,-1,-1,-1,-1],"loss_changes":[7.4858307E2,1.1637631E2,2.4194614E2,1.4094788E1,2.3045135E1,5.9326355E1,3.752356E1,3.1647491E0,1.1882507E1,1.1217915E1,5.787567E0,7.139679E0,1.1541641E1,6.0479736E0,6.2783356E0,2.4137726E0,1.51017E0,3.698166E0,5.482689E0,6.2538605E0,2.2562206E0,4.234909E0,2.9518738E0,6.0776825E0,5.739204E0,4.183124E0,5.730503E0,2.7293396E0,5.2684174E0,6.710312E0,2.9404907E0,1.3996658E0,6.639099E-1,9.222145E-1,2.5585556E0,1.6898804E0,8.920975E-1,1.699852E0,1.5185356E0,2.8960972E0,4.1240215E0,6.330626E0,6.491416E0,3.1371193E0,3.338852E0,1.7520447E0,1.1781106E0,7.6053085E0,4.397522E0,2.1907616E-1,2.3966255E0,4.1998477E0,2.9228249E0,4.170351E0,4.529278E0,2.3133545E0,2.982346E0,3.295755E0,2.7430878E0,2.673151E0,1.2142715E0,2.318285E0,3.0754852E0,0E0,0E0,0E0,0E0,0E0,0E0,0E0,0E0,0E0,0E0,0E0,0E0,0E0,0E0,0E0,0E0,0E0,0E0,0E0,0E0,0E0,0E0,0E0,0E0,0E0,0E0,0E0,0E0,0E0,0E0,0E0,0E0,0E0,0E0,0E0,0E0,0E0,0E0,0E0,0E0,0E0,0E0,0E0,0E0,0E0,0E0,0E0,0E0,0E0,0E0,0E0,0E0,0E0,0E0,0E0,0E0,0E0,0E0,0E0,0E0,0E0,0E0,0E0,0E0],"parents":[2147483647,0,0,1,1,2,2,3,3,4,4,5,5,6,6,7,7,8,8,9,9,10,10,11,11,12,12,13,13,14,14,15,15,16,16,17,17,18,18,19,19,20,20,21,21,22,22,23,23,24,24,25,25,26,26,27,27,28,28,29,29,30,30,31,31,32,32,33,33,34,34,35,35,36,36,37,37,38,38,39,39,40,40,41,41,42,42,43,43,44,44,45,45,46,46,47,47,48,48,49,49,50,50,51,51,52,52,53,53,54,54,55,55,56,56,57,57,58,58,59,59,60,60,61,61,62,62],"right_children":[2,4,6,8,10,12,14,16,18,20,22,24,26,28,30,32,34,36,38,40,42,44,46,48,50,52,54,56,58,60,62,64,66,68,70,72,74,76,78,80,82,84,86,88,90,92,94,96,98,100,102,104,106,108,110,112,114,116,118,120,122,124,126,-1,-1,-1,-1,-1,-1,-1,-1,-1,-1,-1,-1,-1,-1,-1,-1,-1,-1,-1,-1,-1,-1,-1,-1,-1,-1,-1,-1,-1,-1,-1,-1,-1,-1,-1,-1,-1,-1,-1,-1,-1,-1,-1,-1,-1,-1,-1,-1,-1,-1,-1,-1,-1,-1,-1,-1,-1,-1,-1,-1,-1,-1,-1,-1],"split_conditions":[3.8907684E-2,1.4493E-2,1.92308E-1,5.386645E-3,1E1,5E0,2.5584346E-1,2.1868365E-1,1.4E1,1.4E1,1.4E1,7E0,6.268488E-2,2.63158E-1,3.2205185E-1,1.4E1,1.7158177E-1,1.2E1,1.3E1,1.7812297E-2,6E0,1.1E1,1.3E1,1.44928E-1,6E0,1.25E2,1.2E1,1.2096E2,9E0,1.1E1,7E0,8.427E1,3.597E-3,8.273E1,7.681499E-2,1.23E2,1.0062E2,8.6021505E-2,2.0829876E-1,1.33E2,6E0,5E0,1.2E1,2.1182665E-1,1.9890541E-2,3.064133E-1,1.4E1,1.4E1,1.2E2,7.511497E-2,7.41333E-2,1.1E1,1.3E1,5.651E1,1.2E1,5.5363324E-2,2.4675325E-1,4.9262536E-1,5E0,1.0048E2,1.2199E2,2.0604396E-1,5.0769216E-1,-1.7869093E-2,-2.5627246E-2,-3.040877E-2,-2.3191478E-2,-1.706522E-2,-2.386721E-2,-6.832978E-3,-1.6362274E-2,-1.2688862E-2,-1.6651321E-2,-1.7845973E-2,-2.3704633E-2,-6.7829187E-3,-1.290487E-2,-9.618439E-3,-1.4610422E-2,-9.8778885E-3,9.911505E-3,-3.7313437E-3,-9.144454E-3,-7.94484E-4,-2.0808756E-2,9.810899E-3,-9.319941E-3,-1.0498525E-2,-6.0051037E-3,-1.2841E-2,-7.899314E-3,-5.3208703E-3,-9.7282E-3,-2.2881126E-2,-7.5720274E-3,4.0195994E-3,8.115764E-3,9.908693E-3,6.381797E-3,-1.5179996E-2,-2.756611E-2,-8.659306E-3,2.639428E-3,6.935808E-4,-5.9960424E-3,-3.460925E-3,-4.1335104E-5,-1.5368371E-2,-1.172246E-4,3.1456132E-3,-8.241278E-3,1.5408516E-2,1.0834048E-2,1.5414402E-2,-7.617726E-4,7.4207904E-3,-2.078775E-2,1.7309947E-2,6.945538E-3,7.0744837E-3,2.1643113E-2,2.2062784E-2,4.926775E-3,5.0042354E-4,2.7890403E-2,2.5398407E-2,3.7961137E-2],"split_indices":[2,1,1,2,3,3,2,12,7,7,7,24,2,1,2,3,9,3,3,2,22,3,24,1,22,4,7,21,7,7,7,21,1,21,11,4,21,8,12,4,23,24,24,12,2,12,23,7,4,11,2,24,7,21,24,8,12,9,23,21,21,8,2,0,0,0,0,0,0,0,0,0,0,0,0,0,0,0,0,0,0,0,0,0,0,0,0,0,0,0,0,0,0,0,0,0,0,0,0,0,0,0,0,0,0,0,0,0,0,0,0,0,0,0,0,0,0,0,0,0,0,0,0,0,0,0,0],"split_type":[0,0,0,0,0,0,0,0,0,0,0,0,0,0,0,0,0,0,0,0,0,0,0,0,0,0,0,0,0,0,0,0,0,0,0,0,0,0,0,0,0,0,0,0,0,0,0,0,0,0,0,0,0,0,0,0,0,0,0,0,0,0,0,0,0,0,0,0,0,0,0,0,0,0,0,0,0,0,0,0,0,0,0,0,0,0,0,0,0,0,0,0,0,0,0,0,0,0,0,0,0,0,0,0,0,0,0,0,0,0,0,0,0,0,0,0,0,0,0,0,0,0,0,0,0,0,0],"sum_hessian":[4.9228723E4,1.8582E4,3.0646723E4,5.132558E3,1.3449442E4,2.5470598E4,5.176125E3,1.3897966E3,3.7427615E3,7.519303E3,5.9301396E3,9.898631E3,1.5571966E4,3.8824856E3,1.2936392E3,6.9566565E2,6.94131E2,1.903717E3,1.8390444E3,5.206554E3,2.3127488E3,3.2866995E3,2.6434402E3,9.291508E3,6.071236E2,8.094287E3,7.4776787E3,2.8310469E3,1.0514388E3,7.0431006E2,5.893291E2,5.018052E2,1.9386046E2,3.2936685E2,3.6476413E2,1.3122429E3,5.914741E2,1.0927903E3,7.4625415E2,6.807556E2,4.525799E3,2.100574E3,2.121749E2,1.7725765E3,1.514123E3,2.5871855E3,5.625453E1,5.590751E3,3.7007568E3,2.4908161E1,5.8221545E2,5.5201006E3,2.5741868E3,1.3106334E3,6.1670454E3,2.6960444E3,1.3500233E2,8.7028465E1,9.644104E2,1.8048961E2,5.2382043E2,3.2064255E1,5.5726483E2,4.2733334E2,7.447188E1,6.781086E1,1.2604959E2,2.5665738E2,7.270946E1,9.856122E1,2.662029E2,9.050298E2,4.072131E2,5.0411847E2,8.735567E1,9.633533E2,1.2943697E2,2.287708E2,5.1748334E2,6.625026E2,1.825296E1,4.141565E3,3.8423343E2,2.0612886E3,3.928534E1,1.5036487E2,6.181003E1,5.8123663E2,1.1913398E3,9.779424E2,5.3618066E2,2.3365305E3,2.5065503E2,3.4727768E1,2.1526762E1,4.0091018E3,1.581649E3,1.4803094E3,2.2204473E3,1.2023218E1,1.2884943E1,5.0493073E1,5.3172235E2,5.2755557E3,2.445447E2,1.507238E3,1.0669486E3,4.5470745E1,1.2651627E3,6.079373E3,8.767217E1,3.1968027E2,2.3763643E3,3.956965E1,9.543269E1,7.604385E1,1.0984611E1,8.9369995E2,7.071046E1,1.4010982E2,4.037979E1,5.1259686E2,1.1223588E1,2.070492E1,1.1359336E1,4.9865594E2,5.8608906E1],"tree_param":{"num_deleted":"0","num_feature":"30","num_nodes":"127","size_leaf_vector":"1"}},{"base_weights":[5.0606346E-4,-1.3875726E-1,9.838149E-2,-2.4120525E-1,-7.9271846E-2,2.756482E-1,5.9466384E-2,-3.216805E-1,-2.0371181E-1,-5.5820365E-2,-1.2913918E-1,4.9292532E-1,2.422221E-1,9.523252E-2,2.1878844E-3,-3.9707616E-1,-2.951117E-1,-2.518168E-1,-1.6223925E-1,-1.6529423E-1,-4.569308E-2,-1.580025E-1,-9.330403E-2,4.1198933E-1,5.4378635E-1,2.1220319E-1,3.0178756E-1,6.2759265E-2,1.2788859E-1,-1.4734094E-1,5.075425E-3,-4.243571E-1,-2.7439356E-1,-2.0661792E-1,-3.1735992E-1,-2.2744532E-1,-3.6738977E-1,-9.179404E-2,-1.9216691E-1,-1.0799772E-1,-3.2858303E-1,-6.790279E-2,-1.687603E-2,-1.8130101E-1,-1.0342387E-1,-5.5076104E-2,-1.3315427E-1,-1.5200743E-3,4.3357587E-1,5.0789744E-1,3.157812E-2,2.4547659E-1,1.8201691E-1,1.7852965E-1,3.5347503E-1,1.2955685E-1,5.0985206E-2,1.3409674E-1,3.584465E-2,-4.0425777E-1,-7.0973344E-2,9.931589E-3,-6.564481E-2,-2.1592049E-2,-8.632238E-3,1.0428432E-3,-1.800571E-2,-2.1697838E-2,-9.567748E-3,-9.548041E-3,-1.6558982E-2,-1.5156201E-2,-1.0528499E-2,-1.931029E-2,-6.7298575E-3,-1.3414522E-2,-3.7426178E-3,-1.6865386E-2,-9.203529E-3,-1.6735852E-2,-3.3741512E-3,-2.0442529E-2,-7.1238503E-3,6.19116E-3,-3.6606097E-3,3.0484467E-3,-1.3720394E-3,-1.1525709E-2,-7.825159E-3,-1.9011645E-2,-4.4557992E-3,-1.2822628E-3,-8.606781E-3,-6.158608E-3,-1.8357387E-2,2.4315597E-2,1.3078573E-2,2.4530416E-2,3.3055827E-2,1.275441E-2,5.2857636E-3,4.9088597E-3,1.0455421E-2,9.759233E-3,-1.6370915E-2,1.9697202E-2,1.5397352E-2,4.6244813E-3,1.1707052E-2,1.7414502E-3,4.5194463E-3,7.253621E-3,4.444268E-3,-1.69861E-2,2.7033067E-3,-3.151613E-2,-1.0209559E-2,3.0180987E-3,-1.2278703E-2,3.3080866E-4,9.416188E-3,-2.7076397E-2,-1.5603494E-3],"categories":[],"categories_nodes":[],"categories_segments":[],"categories_sizes":[],"default_left":[0,0,0,0,0,0,0,0,0,0,0,0,0,0,0,0,0,0,0,0,0,0,0,0,0,0,0,0,0,0,0,0,0,0,0,0,0,0,0,0,0,0,0,0,0,0,0,0,0,0,0,0,0,0,0,0,0,0,0,0,0,0,0,0,0,0,0,0,0,0,0,0,0,0,0,0,0,0,0,0,0,0,0,0,0,0,0,0,0,0,0,0,0,0,0,0,0,0,0,0,0,0,0,0,0,0,0,0,0,0,0,0,0,0,0,0,0,0,0,0,0,0,0],"id":4,"left_children":[1,3,5,7,9,11,13,15,17,19,21,23,25,27,29,31,33,35,37,39,41,43,45,47,49,51,53,55,57,59,61,63,65,67,69,71,73,75,77,79,81,83,85,87,89,91,93,-1,95,97,-1,99,101,103,105,107,109,111,113,115,117,119,121,-1,-1,-1,-1,-1,-1,-1,-1,-1,-1,-1,-1,-1,-1,-1,-1,-1,-1,-1,-1,-1,-1,-1,-1,-1,-1,-1,-1,-1,-1,-1,-1,-1,-1,-1,-1,-1,-1,-1,-1,-1,-1,-1,-1,-1,-1,-1,-1,-1,-1,-1,-1,-1,-1,-1,-1,-1,-1,-1,-1],"loss_changes":[6.5635736E2,1.2110065E2,1.950622E2,2.1961884E1,1.4699173E1,3.684973E1,4.7507034E1,4.5272064E0,9.900162E0,9.476917E0,4.144821E0,2.5657501E0,7.8277893E0,1.5130554E1,3.8500285E0,1.8958511E0,3.3174286E0,6.4093323E0,5.629776E0,6.738163E0,5.011347E0,2.8118324E0,2.7294912E0,2.5501366E0,9.8043823E-1,2.9062195E0,9.343948E0,5.624443E0,4.0619125E0,3.28575E0,3.0046866E0,8.485718E-1,2.84733E0,1.1247215E0,2.3319855E0,2.370758E0,1.6993217E0,2.373868E0,2.1460648E0,4.913973E0,2.7436829E0,4.5110836E0,2.8062398E0,1.8661613E0,2.6128821E0,3.1604347E0,2.00766E0,0E0,2.171032E0,4.6582794E-1,0E0,1.8465042E0,3.4871407E0,3.7570333E0,1.7935638E0,4.135113E0,3.8729172E0,3.2953186E0,3.1050582E0,1.6123562E0,3.0288026E0,4.840314E0,9.196344E0,0E0,0E0,0E0,0E0,0E0,0E0,0E0,0E0,0E0,0E0,0E0,0E0,0E0,0E0,0E0,0E0,0E0,0E0,0E0,0E0,0E0,0E0,0E0,0E0,0E0,0E0,0E0,0E0,0E0,0E0,0E0,0E0,0E0,0E0,0E0,0E0,0E0,0E0,0E0,0E0,0E0,0E0,0E0,0E0,0E0,0E0,0E0,0E0,0E0,0E0,0E0,0E0,0E0,0E0,0E0,0E0,0E0,0E0,0E0,0E0],"parents":[2147483647,0,0,1,1,2,2,3,3,4,4,5,5,6,6,7,7,8,8,9,9,10,10,11,11,12,12,13,13,14,14,15,15,16,16,17,17,18,18,19,19,20,20,21,21,22,22,23,23,24,24,25,25,26,26,27,27,28,28,29,29,30,30,31,31,32,32,33,33,34,34,35,35,36,36,37,37,38,38,39,39,40,40,41,41,42,42,43,43,44,44,45,45,46,46,48,48,49,49,51,51,52,52,53,53,54,54,55,55,56,56,57,57,58,58,59,59,60,60,61,61,62,62],"right_children":[2,4,6,8,10,12,14,16,18,20,22,24,26,28,30,32,34,36,38,40,42,44,46,48,50,52,54,56,58,60,62,64,66,68,70,72,74,76,78,80,82,84,86,88,90,92,94,-1,96,98,-1,100,102,104,106,108,110,112,114,116,118,120,122,-1,-1,-1,-1,-1,-1,-1,-1,-1,-1,-1,-1,-1,-1,-1,-1,-1,-1,-1,-1,-1,-1,-1,-1,-1,-1,-1,-1,-1,-1,-1,-1,-1,-1,-1,-1,-1,-1,-1,-1,-1,-1,-1,-1,-1,-1,-1,-1,-1,-1,-1,-1,-1,-1,-1,-1,-1,-1,-1,-1],"split_conditions":[5.5556E-2,1.6374666E-2,5.4E0,7.180876E-3,1E1,2.8E0,6E0,4.854E-3,1.3E1,1E1,1.4E1,1.2E1,2.63158E-1,9.64631E-2,9E0,2.7416918E-1,6.889E1,1.2E1,1.1E1,8E0,1.3E1,2.7181877E-2,1.2E2,4.705246E-2,5E-1,2.5E-1,1.2E1,4.9462367E-2,7E0,6.909E1,8E0,1.0888889E-1,2.7880183E-1,1.8584071E-1,1.1E1,1.1E1,1.2E1,1.980198E-2,1E0,4.2674255E-2,2.929293E-1,6E0,6.798E1,2.1209678E-1,2.1617852E-2,5E0,3.874144E-2,-1.5200743E-3,1.28E2,1.0048E2,3.157812E-2,8E0,1.2E1,7E0,2.222E-1,4.5528457E-2,1.4E1,1.3611615E-1,6E0,8E0,1.2E2,7E0,7E0,-2.1592049E-2,-8.632238E-3,1.0428432E-3,-1.800571E-2,-2.1697838E-2,-9.567748E-3,-9.548041E-3,-1.6558982E-2,-1.5156201E-2,-1.0528499E-2,-1.931029E-2,-6.7298575E-3,-1.3414522E-2,-3.7426178E-3,-1.6865386E-2,-9.203529E-3,-1.6735852E-2,-3.3741512E-3,-2.0442529E-2,-7.1238503E-3,6.19116E-3,-3.6606097E-3,3.0484467E-3,-1.3720394E-3,-1.1525709E-2,-7.825159E-3,-1.9011645E-2,-4.4557992E-3,-1.2822628E-3,-8.606781E-3,-6.158608E-3,-1.8357387E-2,2.4315597E-2,1.3078573E-2,2.4530416E-2,3.3055827E-2,1.275441E-2,5.2857636E-3,4.9088597E-3,1.0455421E-2,9.759233E-3,-1.6370915E-2,1.9697202E-2,1.5397352E-2,4.6244813E-3,1.1707052E-2,1.7414502E-3,4.5194463E-3,7.253621E-3,4.444268E-3,-1.69861E-2,2.7033067E-3,-3.151613E-2,-1.0209559E-2,3.0180987E-3,-1.2278703E-2,3.3080866E-4,9.416188E-3,-2.7076397E-2,-1.5603494E-3],"split_indices":[1,2,0,2,3,0,3,1,7,7,7,7,1,2,7,12,21,3,3,3,7,2,4,11,1,6,7,8,24,21,24,11,12,12,3,7,5,8,25,8,12,3,21,12,8,24,2,0,4,21,0,24,7,24,6,8,7,8,22,7,4,22,22,0,0,0,0,0,0,0,0,0,0,0,0,0,0,0,0,0,0,0,0,0,0,0,0,0,0,0,0,0,0,0,0,0,0,0,0,0,0,0,0,0,0,0,0,0,0,0,0,0,0,0,0,0,0,0,0,0,0,0,0],"split_type":[0,0,0,0,0,0,0,0,0,0,0,0,0,0,0,0,0,0,0,0,0,0,0,0,0,0,0,0,0,0,0,0,0,0,0,0,0,0,0,0,0,0,0,0,0,0,0,0,0,0,0,0,0,0,0,0,0,0,0,0,0,0,0,0,0,0,0,0,0,0,0,0,0,0,0,0,0,0,0,0,0,0,0,0,0,0,0,0,0,0,0,0,0,0,0,0,0,0,0,0,0,0,0,0,0,0,0,0,0,0,0,0,0,0,0,0,0,0,0,0,0,0,0],"sum_hessian":[4.815173E4,1.9873725E4,2.8278006E4,7.2993896E3,1.2574334E4,5.089257E3,2.3188748E4,2.3175225E3,4.981867E3,8.553796E3,4.020538E3,6.7671454E2,4.4125425E3,1.4274641E4,8.914107E3,6.0024133E2,1.7172812E3,2.304153E3,2.677714E3,7.229993E2,7.830797E3,2.2250051E3,1.7955328E3,2.6465887E2,4.120557E2,2.936973E3,1.4755695E3,7.158821E3,7.1158203E3,1.6793074E2,8.746177E3,4.8903558E2,1.1120571E2,3.470713E2,1.37021E3,1.9053331E3,3.988199E2,7.996128E2,1.8781014E3,5.364318E2,1.8656747E2,4.421629E3,3.409168E3,1.557723E3,6.6728217E2,9.176361E2,8.7789667E2,1.2294235E1,2.5236464E2,2.9728958E2,1.14766106E2,1.3936567E3,1.5433162E3,4.3727167E2,1.0382977E3,1.0712593E3,6.087561E3,6.6657725E3,4.5004767E2,3.7495228E1,1.3043552E2,8.184995E3,5.611815E2,4.7422046E2,1.4815135E1,2.519217E1,8.601354E1,2.0109674E1,3.269616E2,1.3650609E2,1.2337039E3,3.44306E2,1.5610271E3,3.6838525E2,3.0434612E1,6.873226E1,7.3088055E2,9.7081856E1,1.7810195E3,8.022622E1,4.5620563E2,1.2951204E2,5.7055443E1,1.185457E2,4.303083E3,4.0681757E2,3.0023506E3,5.191449E2,1.0385781E3,3.1538774E1,6.3574335E2,7.342513E2,1.8338478E2,8.43442E2,3.445471E1,1.9174791E2,6.061672E1,2.7092108E2,2.6368479E1,1.303208E3,9.044875E1,3.780362E2,1.16528E3,4.2393076E2,1.3340912E1,5.4563763E2,4.926601E2,7.923243E2,2.7893503E2,4.3187026E3,1.7688586E3,5.3618916E3,1.3038809E3,2.000831E1,4.3003937E2,1.6594147E1,2.0901083E1,7.481424E1,5.5621273E1,8.036671E3,1.4832433E2,3.6876366E1,5.243051E2],"tree_param":{"num_deleted":"0","num_feature":"30","num_nodes":"123","size_leaf_vector":"1"}},{"base_weights":[-3.4983715E-4,-1.2551253E-1,1.0183797E-1,-2.3336975E-1,-6.764472E-2,2.5221854E-1,6.0445007E-2,-3.114997E-1,-1.9863799E-1,-1.08880594E-1,-4.160084E-2,4.737432E-1,2.2371303E-1,1.0751427E-1,2.3254346E-2,-2.7888405E-1,-3.677511E-1,-2.3902977E-1,-1.6320907E-1,-1.371256E-1,-6.259567E-2,-5.8856744E-2,-6.809619E-3,3.690738E-1,5.057255E-1,2.9190516E-1,1.9704983E-1,1.3258119E-1,8.387588E-2,5.3975523E-2,1.3229786E-3,-2.9536214E-1,-1.4811705E-1,-4.582597E-1,-3.3668765E-1,-1.9225213E-1,-3.0102953E-1,-1.542363E-1,-2.9526755E-1,-8.92141E-2,-1.6122822E-1,-5.9015542E-2,-2.8741358E-2,-1.080521E-1,-4.895554E-2,3.3356227E-2,-4.1176684E-2,5.3012913E-1,2.9336506E-1,4.737987E-1,5.9108084E-1,1.7687367E-1,3.2983306E-1,5.2080475E-2,2.051969E-1,2.735911E-2,1.4417829E-1,9.0703875E-2,-7.296767E-3,6.363695E-2,-4.4686608E-2,-6.652197E-2,1.28494315E-2,-2.7854329E-2,-1.4460998E-2,-5.684977E-3,-1.9406551E-2,-2.4874745E-2,-1.4742452E-2,-1.557595E-2,-2.3041284E-2,8.449133E-3,-9.840705E-3,-1.6476037E-2,-1.0251597E-2,-6.7304284E-3,-9.1297785E-3,-7.1487837E-3,-1.8253168E-2,-1.0355473E-2,-2.4242408E-3,-8.792927E-3,-4.208607E-3,9.75995E-3,-3.2313706E-3,2.2757646E-2,-5.744532E-3,-2.009065E-3,-4.9508507E-3,3.4829795E-3,-3.1125252E-3,-4.5725065E-3,2.4021782E-4,2.027912E-2,3.6682874E-2,2.3973498E-2,1.012089E-2,2.4104653E-2,1.1402927E-2,1.9599339E-2,3.0406872E-2,9.865146E-3,-2.061307E-2,1.4861578E-2,1.874134E-2,-1.150133E-2,9.27982E-3,9.442296E-3,1.1750787E-2,2.7651654E-3,-6.6114925E-3,3.9042707E-3,7.7470685E-3,4.0034074E-3,1.0299247E-2,-4.313353E-3,2.1138052E-3,-1.0710532E-3,3.5282061E-3,-4.36107E-3,6.07042E-3,-5.358045E-4,-6.624428E-3,8.7110646E-4,-5.397673E-3],"categories":[],"categories_nodes":[],"categories_segments":[],"categories_sizes":[],"default_left":[0,0,0,0,0,0,0,0,0,0,0,0,0,0,0,0,0,0,0,0,0,0,0,0,0,0,0,0,0,0,0,0,0,0,0,0,0,0,0,0,0,0,0,0,0,0,0,0,0,0,0,0,0,0,0,0,0,0,0,0,0,0,0,0,0,0,0,0,0,0,0,0,0,0,0,0,0,0,0,0,0,0,0,0,0,0,0,0,0,0,0,0,0,0,0,0,0,0,0,0,0,0,0,0,0,0,0,0,0,0,0,0,0,0,0,0,0,0,0,0,0,0,0,0,0],"id":5,"left_children":[1,3,5,7,9,11,13,15,17,19,21,23,25,27,29,31,33,35,37,39,41,43,45,47,49,51,53,55,57,59,61,63,65,67,69,71,73,75,77,79,81,83,-1,85,87,89,91,93,95,97,99,101,103,105,107,109,111,113,115,117,119,121,123,-1,-1,-1,-1,-1,-1,-1,-1,-1,-1,-1,-1,-1,-1,-1,-1,-1,-1,-1,-1,-1,-1,-1,-1,-1,-1,-1,-1,-1,-1,-1,-1,-1,-1,-1,-1,-1,-1,-1,-1,-1,-1,-1,-1,-1,-1,-1,-1,-1,-1,-1,-1,-1,-1,-1,-1,-1,-1,-1,-1,-1,-1],"loss_changes":[6.071933E2,1.3316525E2,1.626708E2,2.0155548E1,1.4911125E1,3.551422E1,3.5876E1,4.100708E0,7.345764E0,7.019123E0,5.111027E0,1.9631805E0,9.032959E0,5.3490753E0,7.7148466E0,3.0899887E0,2.2009277E0,6.929199E0,3.2156754E0,3.8398361E0,3.7054696E0,2.7668133E0,3.8994381E0,1.722311E0,1.053093E0,6.0640793E0,4.2380676E0,5.351433E0,2.9006653E0,4.549199E0,5.226333E0,1.9135132E0,1.3168738E0,1.2078934E0,1.8167648E0,2.3006897E0,2.7612E0,1.4111023E0,1.797431E0,5.3646345E0,2.4871063E0,2.9030142E0,0E0,3.72153E0,2.0778275E0,4.525639E0,3.5193129E0,9.1934586E-1,1.7139816E0,6.260147E-1,2.0013046E-1,4.29521E0,1.4349136E0,7.3027596E0,1.6160889E0,1.9557767E0,2.799759E0,5.297352E0,1.2778828E0,2.561346E0,3.020061E0,3.5714808E0,3.1574652E0,0E0,0E0,0E0,0E0,0E0,0E0,0E0,0E0,0E0,0E0,0E0,0E0,0E0,0E0,0E0,0E0,0E0,0E0,0E0,0E0,0E0,0E0,0E0,0E0,0E0,0E0,0E0,0E0,0E0,0E0,0E0,0E0,0E0,0E0,0E0,0E0,0E0,0E0,0E0,0E0,0E0,0E0,0E0,0E0,0E0,0E0,0E0,0E0,0E0,0E0,0E0,0E0,0E0,0E0,0E0,0E0,0E0,0E0,0E0,0E0,0E0,0E0],"parents":[2147483647,0,0,1,1,2,2,3,3,4,4,5,5,6,6,7,7,8,8,9,9,10,10,11,11,12,12,13,13,14,14,15,15,16,16,17,17,18,18,19,19,20,20,21,21,22,22,23,23,24,24,25,25,26,26,27,27,28,28,29,29,30,30,31,31,32,32,33,33,34,34,35,35,36,36,37,37,38,38,39,39,40,40,41,41,43,43,44,44,45,45,46,46,47,47,48,48,49,49,50,50,51,51,52,52,53,53,54,54,55,55,56,56,57,57,58,58,59,59,60,60,61,61,62,62],"right_children":[2,4,6,8,10,12,14,16,18,20,22,24,26,28,30,32,34,36,38,40,42,44,46,48,50,52,54,56,58,60,62,64,66,68,70,72,74,76,78,80,82,84,-1,86,88,90,92,94,96,98,100,102,104,106,108,110,112,114,116,118,120,122,124,-1,-1,-1,-1,-1,-1,-1,-1,-1,-1,-1,-1,-1,-1,-1,-1,-1,-1,-1,-1,-1,-1,-1,-1,-1,-1,-1,-1,-1,-1,-1,-1,-1,-1,-1,-1,-1,-1,-1,-1,-1,-1,-1,-1,-1,-1,-1,-1,-1,-1,-1,-1,-1,-1,-1,-1,-1,-1,-1,-1,-1,-1],"split_conditions":[4.8407562E-2,2.1277E-2,5.7E0,9.009E-3,2.7794795E-2,2.8E0,9.7E0,1.79E2,1.3E1,1.4E1,1.4E1,1E1,3.9E0,7.6E0,6E0,2.936508E-1,1.9782214E-1,1.1E1,1.4E1,9E0,3.862E3,1.86E2,1.19E2,6.917E1,4.046054E-1,1.1E1,9E0,1.18E2,7E0,3.9372823E-1,1.2E1,1.3E1,1.27E2,1.9753087E-1,9.319E1,1.2E-1,1.4340785E-2,1.2E1,6.440511E-2,1E1,8.462E-1,7E0,-2.8741358E-2,5.659E1,1.11363634E-1,2.780873E-1,2.4E-1,5.625E-1,1.074E3,2E0,2.5E-1,7E0,1.3E1,8.585858E-2,1.3E1,7.3E0,1.1E1,1E0,2.5333333E-1,1.4332248E-1,4.9262536E-1,1.21E2,1.1093E2,-2.7854329E-2,-1.4460998E-2,-5.684977E-3,-1.9406551E-2,-2.4874745E-2,-1.4742452E-2,-1.557595E-2,-2.3041284E-2,8.449133E-3,-9.840705E-3,-1.6476037E-2,-1.0251597E-2,-6.7304284E-3,-9.1297785E-3,-7.1487837E-3,-1.8253168E-2,-1.0355473E-2,-2.4242408E-3,-8.792927E-3,-4.208607E-3,9.75995E-3,-3.2313706E-3,2.2757646E-2,-5.744532E-3,-2.009065E-3,-4.9508507E-3,3.4829795E-3,-3.1125252E-3,-4.5725065E-3,2.4021782E-4,2.027912E-2,3.6682874E-2,2.3973498E-2,1.012089E-2,2.4104653E-2,1.1402927E-2,1.9599339E-2,3.0406872E-2,9.865146E-3,-2.061307E-2,1.4861578E-2,1.874134E-2,-1.150133E-2,9.27982E-3,9.442296E-3,1.1750787E-2,2.7651654E-3,-6.6114925E-3,3.9042707E-3,7.7470685E-3,4.0034074E-3,1.0299247E-2,-4.313353E-3,2.1138052E-3,-1.0710532E-3,3.5282061E-3,-4.36107E-3,6.07042E-3,-5.358045E-4,-6.624428E-3,8.7110646E-4,-5.397673E-3],"split_indices":[2,1,0,1,2,0,0,0,7,7,7,7,0,0,3,12,12,3,3,3,10,10,4,21,2,7,7,10,22,9,7,10,4,9,21,12,2,3,11,7,6,3,0,21,11,12,12,6,10,3,9,22,7,11,7,0,7,22,12,9,9,4,21,0,0,0,0,0,0,0,0,0,0,0,0,0,0,0,0,0,0,0,0,0,0,0,0,0,0,0,0,0,0,0,0,0,0,0,0,0,0,0,0,0,0,0,0,0,0,0,0,0,0,0,0,0,0,0,0,0,0,0,0,0,0],"split_type":[0,0,0,0,0,0,0,0,0,0,0,0,0,0,0,0,0,0,0,0,0,0,0,0,0,0,0,0,0,0,0,0,0,0,0,0,0,0,0,0,0,0,0,0,0,0,0,0,0,0,0,0,0,0,0,0,0,0,0,0,0,0,0,0,0,0,0,0,0,0,0,0,0,0,0,0,0,0,0,0,0,0,0,0,0,0,0,0,0,0,0,0,0,0,0,0,0,0,0,0,0,0,0,0,0,0,0,0,0,0,0,0,0,0,0,0,0,0,0,0,0,0,0,0,0],"sum_hessian":[4.7471695E4,2.1337121E4,2.6134574E4,7.449429E3,1.3887692E4,5.639864E3,2.0494709E4,2.2900142E3,5.159415E3,5.3746714E3,8.513021E3,6.4121045E2,4.9986533E3,9.045124E3,1.1449585E4,1.4533124E3,8.367018E2,2.4081677E3,2.751247E3,3.336585E3,2.0380867E3,5.6901187E3,2.8229023E3,1.5300536E2,4.882051E2,1.4022915E3,3.5963618E3,4.3876797E3,4.657445E3,4.768488E3,6.681097E3,1.2895555E3,1.6375684E2,2.1027562E2,6.2642615E2,1.3749187E3,1.0332489E3,2.5782358E3,1.7301141E2,1.1183057E3,2.2182793E3,2.0250482E3,1.3038435E1,9.5167737E2,4.7384414E3,1.3016516E3,1.5212509E3,4.7006374E1,1.0599898E2,3.600724E2,1.281327E2,3.4911734E2,1.0531742E3,1.9174965E2,3.404612E3,4.359159E2,3.9517637E3,4.3329517E3,3.2449323E2,4.343508E3,4.249802E2,9.6954767E2,5.71155E3,2.751268E1,1.262043E3,1.4450835E2,1.9248486E1,1.679146E2,4.236102E1,5.2374725E2,1.02678856E2,1.6697605E1,1.3582212E3,7.94898E2,2.3835089E2,1.5270771E3,1.0511586E3,5.533058E1,1.1768083E2,2.8609308E2,8.322125E2,1.8632334E3,3.550459E2,4.3008404E1,1.9820398E3,1.0630364E1,9.41047E2,4.0333254E3,7.0511597E2,9.4361694E2,3.5803467E2,7.262334E2,7.950174E2,3.1018015E1,1.59883585E1,3.3393696E1,7.2605286E1,3.4738544E2,1.2686947E1,1.2003439E1,1.16129265E2,3.3805966E2,1.1057694E1,6.1509515E2,4.3807904E2,6.1366E1,1.3038364E2,2.2036094E3,1.2010027E3,3.7151642E2,6.439947E1,5.5456976E2,3.3971938E3,3.968515E3,3.6443695E2,1.2485585E2,1.9963737E2,3.2694104E2,4.0165667E3,3.3871463E2,8.626558E1,5.2585315E2,4.4369452E2,5.5040625E3,2.0748698E2],"tree_param":{"num_deleted":"0","num_feature":"30","num_nodes":"125","size_leaf_vector":"1"}},{"base_weights":[1.7135582E-3,-1.19899265E-1,9.7626336E-2,-6.614158E-2,-2.204473E-1,2.4042454E-1,5.942794E-2,-1.04086526E-1,-3.983702E-2,-2.7525574E-1,-1.7301726E-1,4.4739357E-1,2.1010411E-1,1.0645542E-1,2.706151E-2,-9.897146E-2,-2.0664094E-1,-9.504261E-2,-3.0033864E-2,-2.577494E-1,-3.6850703E-1,-1.6836883E-1,-3.4871623E-1,4.0175825E-1,5.319639E-1,1.8823686E-1,2.872262E-1,1.32494E-1,8.580451E-2,2.0448777E-3,4.471846E-2,-1.0155875E-1,2.3231359E-1,-5.4520386E-1,-1.6551292E-1,-1.7493495E-1,-6.0636945E-2,-2.4592716E-2,-1.5344033E-1,-3.454957E-1,-2.2846852E-1,-4.5056096E-1,-3.1595296E-1,-1.4165837E-1,-2.0016453E-1,-4.0365365E-1,-3.807122E-3,4.2512327E-1,3.2880196E-1,1.333253E-2,5.4259914E-1,2.905068E-1,1.746947E-1,3.5092086E-1,2.5034556E-1,1.3887541E-1,-1.2411111E-1,1.067224E-1,3.633682E-2,-5.731507E-3,6.752493E-2,5.8392894E-2,5.2021765E-3,1.4664746E-3,-5.3247768E-3,-1.6148329E-3,1.6169844E-2,-1.8210538E-2,-3.420775E-2,-1.0350955E-2,-2.1749397E-3,-9.797289E-3,1.2988763E-2,-2.5509836E-3,-1.7701803E-2,-1.9155249E-4,-2.7715384E-3,-1.2598042E-2,-1.493493E-3,-1.4989997E-2,-1.9395156E-2,-1.4559487E-2,-1.0313827E-2,-1.1406361E-2,-2.4365703E-2,-1.4468498E-2,-2.4485046E-2,-1.0431374E-2,-5.5667474E-3,-4.715673E-3,-1.06013855E-2,-1.7886296E-2,-3.2873984E-2,1.2140294E-2,2.189101E-2,1.915391E-2,8.6824875E-3,3.2897342E-2,2.575616E-2,1.5613933E-2,4.864827E-3,9.876198E-3,6.4372974E-3,1.9927665E-3,1.8201493E-2,1.3993568E-2,7.8046396E-3,7.934747E-3,4.6254504E-3,-1.575042E-2,9.506643E-4,5.84421E-3,1.4706157E-3,-4.200872E-3,3.1368819E-3,-1.8669387E-4,-1.3127128E-2,9.473319E-3,-1.3579434E-3,4.007453E-3,8.3399686E-4,1.1127014E-3,-8.237681E-3],"categories":[],"categories_nodes":[],"categories_segments":[],"categories_sizes":[],"default_left":[0,0,0,0,0,0,0,0,0,0,0,0,0,0,0,0,0,0,0,0,0,0,0,0,0,0,0,0,0,0,0,0,0,0,0,0,0,0,0,0,0,0,0,0,0,0,0,0,0,0,0,0,0,0,0,0,0,0,0,0,0,0,0,0,0,0,0,0,0,0,0,0,0,0,0,0,0,0,0,0,0,0,0,0,0,0,0,0,0,0,0,0,0,0,0,0,0,0,0,0,0,0,0,0,0,0,0,0,0,0,0,0,0,0,0,0,0,0,0,0,0,0,0],"id":6,"left_children":[1,3,5,7,9,11,13,15,17,19,21,23,25,27,29,31,33,35,37,39,41,43,45,47,49,51,53,55,57,59,61,63,65,67,69,71,73,75,77,79,81,83,85,87,89,91,-1,93,95,-1,97,99,101,103,105,107,109,111,113,115,117,119,121,-1,-1,-1,-1,-1,-1,-1,-1,-1,-1,-1,-1,-1,-1,-1,-1,-1,-1,-1,-1,-1,-1,-1,-1,-1,-1,-1,-1,-1,-1,-1,-1,-1,-1,-1,-1,-1,-1,-1,-1,-1,-1,-1,-1,-1,-1,-1,-1,-1,-1,-1,-1,-1,-1,-1,-1,-1,-1,-1,-1],"loss_changes":[5.4736694E2,1.11826904E2,1.4309229E2,1.3454819E1,1.8690369E1,3.4650116E1,3.1504929E1,2.8751945E0,4.307847E0,5.3612213E0,3.099434E0,2.5131836E0,8.093155E0,4.526161E0,5.416527E0,4.531826E0,3.5484943E0,3.289753E0,4.53912E0,7.159546E0,2.1256943E0,3.172676E0,1.4477596E0,6.494751E-1,5.4537964E-1,5.1660004E0,2.4146194E0,6.125931E0,4.8687286E0,2.5845315E0,3.8842068E0,3.3758698E0,1.0001352E0,4.5173645E-1,1.178329E0,3.347169E0,2.354375E0,4.1492763E0,3.46839E0,1.2459183E0,2.8843155E0,1.5483475E0,1.354557E0,4.143387E0,2.137764E0,7.2002697E-1,0E0,6.976166E-1,9.1645145E-1,0E0,4.0322113E-1,1.81604E0,3.4663544E0,1.5682678E0,1.8434982E0,3.3307571E0,2.4936414E0,2.596115E0,4.4567575E0,2.3266294E0,6.2260275E0,4.845255E0,5.36274E0,0E0,0E0,0E0,0E0,0E0,0E0,0E0,0E0,0E0,0E0,0E0,0E0,0E0,0E0,0E0,0E0,0E0,0E0,0E0,0E0,0E0,0E0,0E0,0E0,0E0,0E0,0E0,0E0,0E0,0E0,0E0,0E0,0E0,0E0,0E0,0E0,0E0,0E0,0E0,0E0,0E0,0E0,0E0,0E0,0E0,0E0,0E0,0E0,0E0,0E0,0E0,0E0,0E0,0E0,0E0,0E0,0E0,0E0,0E0,0E0],"parents":[2147483647,0,0,1,1,2,2,3,3,4,4,5,5,6,6,7,7,8,8,9,9,10,10,11,11,12,12,13,13,14,14,15,15,16,16,17,17,18,18,19,19,20,20,21,21,22,22,23,23,24,24,25,25,26,26,27,27,28,28,29,29,30,30,31,31,32,32,33,33,34,34,35,35,36,36,37,37,38,38,39,39,40,40,41,41,42,42,43,43,44,44,45,45,47,47,48,48,50,50,51,51,52,52,53,53,54,54,55,55,56,56,57,57,58,58,59,59,60,60,61,61,62,62],"right_children":[2,4,6,8,10,12,14,16,18,20,22,24,26,28,30,32,34,36,38,40,42,44,46,48,50,52,54,56,58,60,62,64,66,68,70,72,74,76,78,80,82,84,86,88,90,92,-1,94,96,-1,98,100,102,104,106,108,110,112,114,116,118,120,122,-1,-1,-1,-1,-1,-1,-1,-1,-1,-1,-1,-1,-1,-1,-1,-1,-1,-1,-1,-1,-1,-1,-1,-1,-1,-1,-1,-1,-1,-1,-1,-1,-1,-1,-1,-1,-1,-1,-1,-1,-1,-1,-1,-1,-1,-1,-1,-1,-1,-1,-1,-1,-1,-1,-1,-1,-1,-1,-1,-1],"split_conditions":[4.7959417E-2,4.8E1,5.7E0,2.8144242E-2,9.375976E-3,2.9E0,9.5E0,1E1,4.155496E-2,1.4E1,1.2E1,3.719477E-1,2.2031851E-1,4E0,6.268488E-2,1E1,1E1,9.8E1,1E1,1E0,2.1002387E-1,1.2E2,1.4E1,9.809E1,5.185185E-2,5.5655297E-2,1.011392E-1,1E1,9.915E1,9E-1,9.949E1,1.7670682E-1,6.92E1,1.1E1,2.827944E-1,1.3E1,2.9E1,7E0,1.84E3,1.2E1,2.0153846E-1,1.11E2,1.3E1,1E0,9E0,9.975E1,-3.807122E-3,5.9633028E-2,2.8E0,1.333253E-2,1.6E0,3.3811322E-1,5E-1,4.7577094E-2,9.975E1,5.556E-1,8.6021505E-2,1.9427402E-1,1.86E2,4.1666666E-1,5.68E2,5.4545456E-1,1.2624113E-1,1.4664746E-3,-5.3247768E-3,-1.6148329E-3,1.6169844E-2,-1.8210538E-2,-3.420775E-2,-1.0350955E-2,-2.1749397E-3,-9.797289E-3,1.2988763E-2,-2.5509836E-3,-1.7701803E-2,-1.9155249E-4,-2.7715384E-3,-1.2598042E-2,-1.493493E-3,-1.4989997E-2,-1.9395156E-2,-1.4559487E-2,-1.0313827E-2,-1.1406361E-2,-2.4365703E-2,-1.4468498E-2,-2.4485046E-2,-1.0431374E-2,-5.5667474E-3,-4.715673E-3,-1.06013855E-2,-1.7886296E-2,-3.2873984E-2,1.2140294E-2,2.189101E-2,1.915391E-2,8.6824875E-3,3.2897342E-2,2.575616E-2,1.5613933E-2,4.864827E-3,9.876198E-3,6.4372974E-3,1.9927665E-3,1.8201493E-2,1.3993568E-2,7.8046396E-3,7.934747E-3,4.6254504E-3,-1.575042E-2,9.506643E-4,5.84421E-3,1.4706157E-3,-4.200872E-3,3.1368819E-3,-1.8669387E-4,-1.3127128E-2,9.473319E-3,-1.3579434E-3,4.007453E-3,8.3399686E-4,1.1127014E-3,-8.237681E-3],"split_indices":[2,0,0,2,2,0,0,24,8,3,24,2,2,3,2,22,23,10,24,25,12,4,22,21,11,8,8,24,21,6,21,12,21,24,12,5,0,5,10,3,12,0,5,25,3,21,0,8,0,0,0,12,6,11,21,6,8,8,10,12,10,6,8,0,0,0,0,0,0,0,0,0,0,0,0,0,0,0,0,0,0,0,0,0,0,0,0,0,0,0,0,0,0,0,0,0,0,0,0,0,0,0,0,0,0,0,0,0,0,0,0,0,0,0,0,0,0,0,0,0,0,0,0],"split_type":[0,0,0,0,0,0,0,0,0,0,0,0,0,0,0,0,0,0,0,0,0,0,0,0,0,0,0,0,0,0,0,0,0,0,0,0,0,0,0,0,0,0,0,0,0,0,0,0,0,0,0,0,0,0,0,0,0,0,0,0,0,0,0,0,0,0,0,0,0,0,0,0,0,0,0,0,0,0,0,0,0,0,0,0,0,0,0,0,0,0,0,0,0,0,0,0,0,0,0,0,0,0,0,0,0,0,0,0,0,0,0,0,0,0,0,0,0,0,0,0,0,0,0],"sum_hessian":[4.6924992E4,2.0690357E4,2.6234635E4,1.3483243E4,7.2071143E3,5.535567E3,2.0699068E4,5.519E3,7.9642427E3,3.341265E3,3.8658494E3,7.0556757E2,4.8299995E3,8.437433E3,1.2261636E4,5.2586797E3,2.603201E2,1.199677E3,6.764566E3,2.8163145E3,5.249504E2,3.7681152E3,9.7734146E1,4.6201077E2,2.4355684E2,3.765709E3,1.0642904E3,3.7295078E3,4.7079243E3,5.0739297E3,7.187706E3,5.2186167E3,4.006332E1,2.6870203E1,2.334499E2,3.598939E2,8.3978314E2,6.4800513E3,2.845144E2,7.019564E2,2.1143582E3,2.0199594E2,3.229544E2,2.0507808E3,1.7173345E3,8.093978E1,1.6794367E1,3.4628302E2,1.1572775E2,1.0391736E1,2.331651E2,4.379412E2,3.3277676E3,3.8714926E2,6.771411E2,3.6394587E3,9.004922E1,3.3079626E3,1.3999617E3,4.536133E3,5.377968E2,5.339513E3,1.8481929E3,1.894995E2,5.029117E3,1.0424386E1,2.9638935E1,1.3242328E1,1.3627875E1,1.7367374E2,5.977616E1,3.4382507E2,1.606883E1,8.1426636E2,2.5516798E1,3.8734092E3,2.606642E3,1.577245E2,1.2678991E2,3.4176245E2,3.6019397E2,5.494176E2,1.5649406E3,2.96653E1,1.7233064E2,2.8241156E2,4.054285E1,6.373395E2,1.4134414E3,1.7397389E2,1.5433606E3,7.0578514E1,1.0361266E1,2.3855923E1,3.224271E2,8.4647E1,3.1080744E1,4.044127E1,1.9272383E2,3.9303583E2,4.4905376E1,2.2209888E3,1.106779E3,1.5818964E1,3.713303E2,5.1411835E2,1.6302283E2,2.547917E3,1.0915416E3,3.8070454E1,5.1978767E1,2.9232173E3,3.8474545E2,2.5145648E2,1.1485051E3,4.502127E3,3.4005695E1,2.3462578E2,3.0317105E2,3.5086104E3,1.8309026E3,1.6804595E3,1.6773329E2],"tree_param":{"num_deleted":"0","num_feature":"30","num_nodes":"123","size_leaf_vector":"1"}},{"base_weights":[-1.0145964E-6,-1.399707E-1,7.4008666E-2,-2.3793542E-1,-9.887072E-2,4.395441E-2,2.4593382E-1,-3.1030193E-1,-2.097176E-1,-1.3456036E-1,-7.1327515E-2,1.4062535E-2,9.664893E-2,2.1758345E-1,4.4736585E-1,-4.097442E-1,-2.8298563E-1,-2.4831419E-1,-1.691929E-1,-1.607843E-1,-9.5634736E-2,-1.0181708E-1,-5.2036338E-2,2.63871E-2,-2.769595E-2,1.033944E-1,-2.5576954E-3,1.9103527E-1,2.7015835E-1,3.278752E-1,4.8738733E-1,-3.7075582E-1,-5.1489425E-1,-3.1743357E-1,-2.3487814E-1,-1.7946272E-1,-2.967922E-1,-9.9823445E-2,-2.0958795E-1,-1.7405939E-1,-6.015592E-2,-3.5417847E-2,-1.1724664E-1,-1.04093656E-1,1.6638381E-2,-3.3362374E-2,-1.0029855E-1,1.2447994E-2,5.943146E-2,-6.3796654E-2,7.485577E-4,1.2746832E-1,8.1740625E-2,-5.2323546E-2,9.037626E-2,2.0008656E-1,7.542585E-2,1.5969469E-1,3.2173127E-1,3.6924353E-1,2.1812697E-3,4.489653E-1,5.8380514E-1,-1.3708231E-2,-2.1855194E-2,-2.7360398E-2,-1.3976033E-2,-2.2022715E-2,-1.4458502E-2,-9.130667E-3,-1.5104547E-2,-1.3447465E-2,-7.2634416E-3,-1.3625479E-2,-1.82803E-2,-3.8783562E-3,-1.3174887E-2,-8.115898E-3,-1.293885E-2,-7.60348E-3,-1.1136827E-2,-5.0217453E-3,7.177574E-3,7.9156406E-4,-6.4395242E-3,-5.0017606E-3,-1.0789751E-2,-4.9967794E-3,-1.5982345E-2,-1.2664691E-3,-9.823274E-3,-1.3230245E-2,-3.85016E-3,1.5838876E-3,-1.0673477E-3,5.9830057E-3,2.21791E-3,-3.3863657E-3,1.4215896E-2,-4.5157257E-3,8.255967E-4,6.5280655E-3,-6.9728307E-3,-7.615331E-3,4.2076115E-3,-6.407821E-3,1.1274779E-3,-1.4188497E-2,6.783105E-3,1.0766067E-2,7.147883E-3,8.409306E-3,-5.966583E-3,1.4923312E-2,4.294741E-3,1.627046E-2,4.1437265E-4,2.2312896E-2,1.1149741E-2,2.2834275E-2,1.0818159E-2,2.506944E-2,3.1053398E-2],"categories":[],"categories_nodes":[],"categories_segments":[],"categories_sizes":[],"default_left":[0,0,0,0,0,0,0,0,0,0,0,0,0,0,0,0,0,0,0,0,0,0,0,0,0,0,0,0,0,0,0,0,0,0,0,0,0,0,0,0,0,0,0,0,0,0,0,0,0,0,0,0,0,0,0,0,0,0,0,0,0,0,0,0,0,0,0,0,0,0,0,0,0,0,0,0,0,0,0,0,0,0,0,0,0,0,0,0,0,0,0,0,0,0,0,0,0,0,0,0,0,0,0,0,0,0,0,0,0,0,0,0,0,0,0,0,0,0,0,0,0,0,0],"id":7,"left_children":[1,3,5,7,9,11,13,15,17,19,21,23,25,27,29,31,33,35,37,39,41,43,45,47,49,51,53,55,57,59,61,63,65,67,69,71,73,75,77,79,81,83,85,87,-1,89,91,93,95,97,99,101,103,105,107,109,111,113,115,117,-1,119,121,-1,-1,-1,-1,-1,-1,-1,-1,-1,-1,-1,-1,-1,-1,-1,-1,-1,-1,-1,-1,-1,-1,-1,-1,-1,-1,-1,-1,-1,-1,-1,-1,-1,-1,-1,-1,-1,-1,-1,-1,-1,-1,-1,-1,-1,-1,-1,-1,-1,-1,-1,-1,-1,-1,-1,-1,-1,-1,-1,-1],"loss_changes":[4.8146362E2,6.470099E1,1.5707915E2,9.63504E0,1.1123932E1,4.0762417E1,2.573529E1,3.498352E0,5.30838E0,5.019417E0,3.755928E0,8.499575E0,6.268486E0,5.485977E0,2.5046768E0,9.7543335E-1,1.6606064E0,5.7875137E0,4.663807E0,3.9242554E0,2.5827847E0,2.485342E0,3.5283241E0,5.872487E0,3.8648248E0,4.561577E0,2.7672827E0,2.7470627E0,7.518524E0,1.6636381E0,1.276474E0,1.2331314E0,4.1278267E-1,1.9842224E0,1.4931202E0,2.181036E0,1.6136932E0,2.227756E0,2.4125633E0,2.750946E0,2.8436656E0,2.5211718E0,2.4588299E0,2.1773071E0,0E0,3.6988685E0,4.162142E0,5.829537E0,3.4288034E0,2.2887812E0,3.024624E0,3.445572E0,2.620552E0,2.2151985E0,3.5742383E0,2.099266E0,3.5114954E0,4.3259516E0,1.0404434E0,1.3035069E0,0E0,4.422531E-1,4.1812897E-2,0E0,0E0,0E0,0E0,0E0,0E0,0E0,0E0,0E0,0E0,0E0,0E0,0E0,0E0,0E0,0E0,0E0,0E0,0E0,0E0,0E0,0E0,0E0,0E0,0E0,0E0,0E0,0E0,0E0,0E0,0E0,0E0,0E0,0E0,0E0,0E0,0E0,0E0,0E0,0E0,0E0,0E0,0E0,0E0,0E0,0E0,0E0,0E0,0E0,0E0,0E0,0E0,0E0,0E0,0E0,0E0,0E0,0E0,0E0,0E0],"parents":[2147483647,0,0,1,1,2,2,3,3,4,4,5,5,6,6,7,7,8,8,9,9,10,10,11,11,12,12,13,13,14,14,15,15,16,16,17,17,18,18,19,19,20,20,21,21,22,22,23,23,24,24,25,25,26,26,27,27,28,28,29,29,30,30,31,31,32,32,33,33,34,34,35,35,36,36,37,37,38,38,39,39,40,40,41,41,42,42,43,43,45,45,46,46,47,47,48,48,49,49,50,50,51,51,52,52,53,53,54,54,55,55,56,56,57,57,58,58,59,59,61,61,62,62],"right_children":[2,4,6,8,10,12,14,16,18,20,22,24,26,28,30,32,34,36,38,40,42,44,46,48,50,52,54,56,58,60,62,64,66,68,70,72,74,76,78,80,82,84,86,88,-1,90,92,94,96,98,100,102,104,106,108,110,112,114,116,118,-1,120,122,-1,-1,-1,-1,-1,-1,-1,-1,-1,-1,-1,-1,-1,-1,-1,-1,-1,-1,-1,-1,-1,-1,-1,-1,-1,-1,-1,-1,-1,-1,-1,-1,-1,-1,-1,-1,-1,-1,-1,-1,-1,-1,-1,-1,-1,-1,-1,-1,-1,-1,-1,-1,-1,-1,-1,-1,-1,-1,-1,-1],"split_conditions":[4.5455E-2,1.4925E-2,1.92308E-1,6.849315E-3,2.7027E-2,1.05263E-1,3.7037E-1,1.9704433E-1,1.4E1,1.4E1,1E0,8E0,7E0,2.63158E-1,1E1,1.4E1,1.870146E-1,1.1E1,1.2E1,3.0504403E-1,1E1,2.1883786E-1,9.838275E-2,1.4E1,8.184E1,4E0,2.7880183E-1,1.3049853E-1,1.2E1,1.32E2,5E-1,2.727E-1,1.3E1,1E0,6.659506E-2,1.1E1,1.24E2,9.090909E-2,1.18E2,1.1E1,9.33082E-2,8.172E1,2.7122465E-1,3.8818565E-1,1.6638381E-2,1E1,2.7666667E-1,5.333E-1,6.937E1,4.111E3,1.51E2,1.3726E2,6E0,2.6213592E-1,6.856E1,1.0014E2,2.38095E-1,9.375E-2,1E1,9.403E1,2.1812697E-3,1.7E-1,6.909E1,-1.3708231E-2,-2.1855194E-2,-2.7360398E-2,-1.3976033E-2,-2.2022715E-2,-1.4458502E-2,-9.130667E-3,-1.5104547E-2,-1.3447465E-2,-7.2634416E-3,-1.3625479E-2,-1.82803E-2,-3.8783562E-3,-1.3174887E-2,-8.115898E-3,-1.293885E-2,-7.60348E-3,-1.1136827E-2,-5.0217453E-3,7.177574E-3,7.9156406E-4,-6.4395242E-3,-5.0017606E-3,-1.0789751E-2,-4.9967794E-3,-1.5982345E-2,-1.2664691E-3,-9.823274E-3,-1.3230245E-2,-3.85016E-3,1.5838876E-3,-1.0673477E-3,5.9830057E-3,2.21791E-3,-3.3863657E-3,1.4215896E-2,-4.5157257E-3,8.255967E-4,6.5280655E-3,-6.9728307E-3,-7.615331E-3,4.2076115E-3,-6.407821E-3,1.1274779E-3,-1.4188497E-2,6.783105E-3,1.0766067E-2,7.147883E-3,8.409306E-3,-5.966583E-3,1.4923312E-2,4.294741E-3,1.627046E-2,4.1437265E-4,2.2312896E-2,1.1149741E-2,2.2834275E-2,1.0818159E-2,2.506944E-2,3.1053398E-2],"split_indices":[1,1,1,1,1,1,1,12,7,7,25,3,24,1,7,3,9,3,3,12,3,8,11,7,21,3,12,11,7,4,1,6,5,25,8,7,4,8,4,3,8,21,9,9,0,24,12,6,21,10,10,21,10,9,21,21,1,8,23,21,0,11,21,0,0,0,0,0,0,0,0,0,0,0,0,0,0,0,0,0,0,0,0,0,0,0,0,0,0,0,0,0,0,0,0,0,0,0,0,0,0,0,0,0,0,0,0,0,0,0,0,0,0,0,0,0,0,0,0,0,0,0,0],"split_type":[0,0,0,0,0,0,0,0,0,0,0,0,0,0,0,0,0,0,0,0,0,0,0,0,0,0,0,0,0,0,0,0,0,0,0,0,0,0,0,0,0,0,0,0,0,0,0,0,0,0,0,0,0,0,0,0,0,0,0,0,0,0,0,0,0,0,0,0,0,0,0,0,0,0,0,0,0,0,0,0,0,0,0,0,0,0,0,0,0,0,0,0,0,0,0,0,0,0,0,0,0,0,0,0,0,0,0,0,0,0,0,0,0,0,0,0,0,0,0,0,0,0,0],"sum_hessian":[4.6475305E4,1.6074242E4,3.040106E4,4.7492593E3,1.1324983E4,2.5878494E4,4.522567E3,1.3295475E3,3.4197117E3,4.9312876E3,6.393696E3,1.6512666E4,9.365826E3,3.9663997E3,5.5616736E2,2.8349884E2,1.0460486E3,1.7488977E3,1.670814E3,2.94448E3,1.9868075E3,2.4760452E3,3.9176506E3,1.2750008E4,3.762659E3,8.76951E3,5.96317E2,2.638632E3,1.3277673E3,1.4184837E2,4.14319E2,2.1011624E2,7.338262E1,6.0630115E2,4.3974753E2,7.2454944E2,1.0243483E3,6.1616315E2,1.0546509E3,2.6006653E3,3.4381464E2,5.2543524E2,1.4613722E3,2.4638984E3,1.2146681E1,2.8259177E3,1.0917329E3,8.96829E3,3.781718E3,1.6576229E3,2.105036E3,4.150377E3,4.6191323E3,3.8863898E2,2.0767801E2,2.44637E3,1.9226202E2,4.2390494E2,9.038624E2,1.2356614E2,1.8282223E1,3.0030527E2,1.14013725E2,8.764807E1,1.2246816E2,6.3359352E1,1.0023269E1,1.1054696E2,4.9575415E2,2.4947346E2,1.9027405E2,1.9841776E2,5.2613165E2,7.608308E2,2.6351752E2,5.437045E2,7.245867E1,5.400094E2,5.146414E2,1.7942438E3,8.0642163E2,2.8747858E2,5.6336063E1,3.3977472E2,1.8566055E2,1.2458075E3,2.1556473E2,2.4187048E3,4.5193752E1,2.6943723E3,1.3154526E2,1.3427919E2,9.5745374E2,5.7159204E3,3.2523696E3,7.5560126E2,3.0261167E3,1.6399117E3,1.7711252E1,3.0992255E2,1.7951134E3,4.1033403E3,4.703659E1,4.6475883E1,4.5726567E3,1.9272841E2,1.9591057E2,2.1854288E1,1.8582372E2,1.9291482E3,5.17222E2,1.30326E2,6.1936024E1,1.4611305E2,2.7779187E2,8.9334186E2,1.0520555E1,7.959838E1,4.3967762E1,2.8972577E2,1.0579498E1,3.9999622E1,7.401411E1],"tree_param":{"num_deleted":"0","num_feature":"30","num_nodes":"123","size_leaf_vector":"1"}},{"base_weights":[6.594279E-4,-1.0709468E-1,8.917749E-2,-5.9872072E-2,-2.0428775E-1,5.026432E-2,1.9512573E-1,-8.485819E-2,-3.2366633E-2,-2.7617624E-1,-1.7279455E-1,9.225839E-2,2.5418669E-2,4.2949405E-1,1.7483838E-1,-1.0150332E-1,-5.7072572E-2,-2.6485818E-2,-1.0700426E-1,-3.422159E-1,-2.5844145E-1,-2.1386887E-1,-1.371409E-1,9.8598175E-2,2.1433977E-3,2.8234258E-2,-1.8067442E-1,2.82322E-1,4.8061302E-1,1.583454E-1,2.6300478E-1,-8.422194E-2,-1.3271853E-1,-4.9626127E-2,-2.2014296E-1,-3.1155096E-2,1.17678665E-1,-3.6944542E-2,-8.09647E-2,-3.060188E-1,-4.8265365E-1,-3.421879E-1,-2.3893173E-1,-1.9609924E-1,-3.0841345E-1,-1.0617421E-1,-1.7984319E-1,-3.4205843E-2,1.0256722E-1,-2.129661E-2,1.9913763E-2,2.284099E-2,1.1739519E-1,-3.1116521E-2,-1.1997567E-1,3.0024132E-2,2.3151886E-1,4.505152E-1,5.6152076E-1,1.4423612E-1,2.0011756E-1,-1.6377114E-1,2.7252424E-1,6.308801E-3,-4.398677E-3,-3.5559305E-3,-7.6040598E-3,7.6123453E-3,-2.6897923E-3,-1.2840412E-2,4.949205E-3,-6.423808E-4,-2.8767812E-3,-4.8626084E-3,8.382809E-3,-5.2624983E-3,1.9063098E-2,-1.8313562E-2,-1.0858941E-2,-2.8816292E-2,-1.9936228E-2,-1.3695446E-2,-2.1739794E-2,-1.37055805E-2,-9.457824E-3,-7.902215E-3,-1.2833242E-2,-1.6818477E-2,-2.6097235E-3,5.868049E-3,-5.8199163E-3,-4.9270256E-3,-1.0123203E-2,1.8371119E-3,-1.11294985E-2,3.8246084E-3,6.0888543E-3,-3.61837E-3,4.8195487E-3,1.8377223E-3,-4.304945E-5,2.1156114E-2,5.045673E-3,8.523672E-3,-7.213083E-3,1.4386117E-2,-5.175833E-3,2.39491E-2,1.8034585E-2,1.6390804E-2,2.9152278E-2,9.408768E-3,6.4031305E-3,9.228663E-3,1.5169524E-2,6.45217E-3,-2.2993008E-2,1.579813E-2,1.0799743E-2],"categories":[],"categories_nodes":[],"categories_segments":[],"categories_sizes":[],"default_left":[0,0,0,0,0,0,0,0,0,0,0,0,0,0,0,0,0,0,0,0,0,0,0,0,0,0,0,0,0,0,0,0,0,0,0,0,0,0,0,0,0,0,0,0,0,0,0,0,0,0,0,0,0,0,0,0,0,0,0,0,0,0,0,0,0,0,0,0,0,0,0,0,0,0,0,0,0,0,0,0,0,0,0,0,0,0,0,0,0,0,0,0,0,0,0,0,0,0,0,0,0,0,0,0,0,0,0,0,0,0,0,0,0,0,0,0,0,0,0],"id":8,"left_children":[1,3,5,7,9,11,13,15,17,19,21,23,25,27,29,31,33,35,37,39,41,43,45,47,49,51,53,55,57,59,61,63,65,67,69,71,73,-1,75,77,79,81,83,85,87,89,91,93,95,-1,97,99,101,-1,103,-1,105,107,109,111,113,115,117,-1,-1,-1,-1,-1,-1,-1,-1,-1,-1,-1,-1,-1,-1,-1,-1,-1,-1,-1,-1,-1,-1,-1,-1,-1,-1,-1,-1,-1,-1,-1,-1,-1,-1,-1,-1,-1,-1,-1,-1,-1,-1,-1,-1,-1,-1,-1,-1,-1,-1,-1,-1,-1,-1,-1,-1],"loss_changes":[4.3885303E2,9.522612E1,1.0413049E2,9.595875E0,1.5312988E1,1.927465E1,3.218564E1,3.3786812E0,2.9159489E0,2.3302917E0,6.8837433E0,3.9232101E0,6.741672E0,3.9257278E0,9.041061E0,2.4568138E0,3.320835E0,4.153881E0,7.9261374E0,2.0590553E0,2.5848389E0,3.6217346E0,3.326233E0,3.385418E0,3.4499469E0,5.505045E0,4.123484E0,2.1496525E0,7.192764E-1,3.0738068E0,4.0374374E0,2.3376656E0,1.9316254E0,2.2180066E0,1.4240208E0,2.8838825E0,2.0962608E0,0E0,5.2852955E0,1.782589E0,4.5597076E-1,1.8161621E0,2.2718658E0,4.2181473E0,2.4537811E0,3.3706741E0,1.9331627E0,2.5066864E0,3.1113129E0,0E0,3.0792599E0,3.5621572E0,3.2480383E0,0E0,1.0044967E0,0E0,2.3595638E0,5.842476E-1,3.330078E-1,2.774994E0,2.0735931E0,1.9726385E0,2.2933273E0,0E0,0E0,0E0,0E0,0E0,0E0,0E0,0E0,0E0,0E0,0E0,0E0,0E0,0E0,0E0,0E0,0E0,0E0,0E0,0E0,0E0,0E0,0E0,0E0,0E0,0E0,0E0,0E0,0E0,0E0,0E0,0E0,0E0,0E0,0E0,0E0,0E0,0E0,0E0,0E0,0E0,0E0,0E0,0E0,0E0,0E0,0E0,0E0,0E0,0E0,0E0,0E0,0E0,0E0,0E0,0E0],"parents":[2147483647,0,0,1,1,2,2,3,3,4,4,5,5,6,6,7,7,8,8,9,9,10,10,11,11,12,12,13,13,14,14,15,15,16,16,17,17,18,18,19,19,20,20,21,21,22,22,23,23,24,24,25,25,26,26,27,27,28,28,29,29,30,30,31,31,32,32,33,33,34,34,35,35,36,36,38,38,39,39,40,40,41,41,42,42,43,43,44,44,45,45,46,46,47,47,48,48,50,50,51,51,52,52,54,54,56,56,57,57,58,58,59,59,60,60,61,61,62,62],"right_children":[2,4,6,8,10,12,14,16,18,20,22,24,26,28,30,32,34,36,38,40,42,44,46,48,50,52,54,56,58,60,62,64,66,68,70,72,74,-1,76,78,80,82,84,86,88,90,92,94,96,-1,98,100,102,-1,104,-1,106,108,110,112,114,116,118,-1,-1,-1,-1,-1,-1,-1,-1,-1,-1,-1,-1,-1,-1,-1,-1,-1,-1,-1,-1,-1,-1,-1,-1,-1,-1,-1,-1,-1,-1,-1,-1,-1,-1,-1,-1,-1,-1,-1,-1,-1,-1,-1,-1,-1,-1,-1,-1,-1,-1,-1,-1,-1,-1,-1,-1],"split_conditions":[4.8407562E-2,4.9E1,1.2883897E-1,3.2421954E-2,7.180876E-3,5E0,2.8E0,1.4E1,8E0,1.9654556E-1,1.3E1,7E0,1.2E1,1E1,2.2597301E-1,1E1,3.3900708E-1,6E0,6E0,1.4E1,1E0,1.2E1,1.2E2,5.64E1,6E0,9.861138E-2,1E1,1.6E0,4.046054E-1,1.4E1,7E0,5.6338027E-2,6.958E1,1.40625E-1,9.333E-1,9.96E2,1.2E1,-3.6944542E-2,3.1522956E-1,1.7391305E-1,1.298077E-1,7.013E1,5.386645E-3,7.029E1,9.231E-1,9E0,1.98E2,1.663E3,1E0,-2.129661E-2,7.067E1,1.24E2,9E0,-3.1116521E-2,8.9E0,3.0024132E-2,1.32E2,4.8735735E-1,2.64E-1,4.5E0,3.047E3,2.1428572E-1,2.727E-1,6.308801E-3,-4.398677E-3,-3.5559305E-3,-7.6040598E-3,7.6123453E-3,-2.6897923E-3,-1.2840412E-2,4.949205E-3,-6.423808E-4,-2.8767812E-3,-4.8626084E-3,8.382809E-3,-5.2624983E-3,1.9063098E-2,-1.8313562E-2,-1.0858941E-2,-2.8816292E-2,-1.9936228E-2,-1.3695446E-2,-2.1739794E-2,-1.37055805E-2,-9.457824E-3,-7.902215E-3,-1.2833242E-2,-1.6818477E-2,-2.6097235E-3,5.868049E-3,-5.8199163E-3,-4.9270256E-3,-1.0123203E-2,1.8371119E-3,-1.11294985E-2,3.8246084E-3,6.0888543E-3,-3.61837E-3,4.8195487E-3,1.8377223E-3,-4.304945E-5,2.1156114E-2,5.045673E-3,8.523672E-3,-7.213083E-3,1.4386117E-2,-5.175833E-3,2.39491E-2,1.8034585E-2,1.6390804E-2,2.9152278E-2,9.408768E-3,6.4031305E-3,9.228663E-3,1.5169524E-2,6.45217E-3,-2.2993008E-2,1.579813E-2,1.0799743E-2],"split_indices":[2,0,2,2,2,3,0,7,24,12,7,24,24,7,2,3,12,22,22,3,25,3,4,21,22,2,22,0,2,7,7,9,21,12,6,10,7,0,12,9,9,21,2,21,6,3,10,10,25,0,21,4,7,0,0,0,4,9,9,0,10,6,6,0,0,0,0,0,0,0,0,0,0,0,0,0,0,0,0,0,0,0,0,0,0,0,0,0,0,0,0,0,0,0,0,0,0,0,0,0,0,0,0,0,0,0,0,0,0,0,0,0,0,0,0,0,0,0,0],"split_type":[0,0,0,0,0,0,0,0,0,0,0,0,0,0,0,0,0,0,0,0,0,0,0,0,0,0,0,0,0,0,0,0,0,0,0,0,0,0,0,0,0,0,0,0,0,0,0,0,0,0,0,0,0,0,0,0,0,0,0,0,0,0,0,0,0,0,0,0,0,0,0,0,0,0,0,0,0,0,0,0,0,0,0,0,0,0,0,0,0,0,0,0,0,0,0,0,0,0,0,0,0,0,0,0,0,0,0,0,0,0,0,0,0,0,0,0,0,0,0],"sum_hessian":[4.6008117E4,2.0749406E4,2.5258713E4,1.3965627E4,6.783779E3,1.8474709E4,6.7840034E3,7.31686E3,6.648767E3,2.064178E3,4.719601E3,6.866408E3,1.1608301E4,5.3884625E2,6.245157E3,4.5740786E3,2.7427812E3,6.164418E3,4.8434933E2,4.3310645E2,1.6310714E3,2.1907632E3,2.5288376E3,6.4150044E3,4.5140414E2,1.14527E4,1.5560078E2,1.4059486E2,3.9825137E2,5.2633555E3,9.818018E2,2.9465217E3,1.6275568E3,2.6242517E3,1.18529526E2,5.971784E3,1.9263356E2,1.8086214E1,4.6626312E2,3.4687915E2,8.622728E1,3.0505753E2,1.3260139E3,1.8467426E3,3.4402072E2,1.4678639E3,1.0609738E3,1.8593721E2,6.229067E3,1.7076426E1,4.3432773E2,1.0800636E4,6.5206494E2,1.7683002E1,1.3791779E2,1.7868904E1,1.2272597E2,2.9505765E2,1.0319371E2,3.9377607E3,1.3255946E3,2.106822E1,9.607336E2,5.104726E1,2.8954744E3,3.9035675E2,1.2372001E3,5.238871E1,2.571863E3,1.0648992E2,1.2039602E1,3.526182E3,2.4456025E3,3.6163727E1,1.5646983E2,4.4372238E2,2.2540756E1,2.048347E2,1.4204445E2,3.7975964E1,4.8251316E1,1.7787192E2,1.27185616E2,7.742719E2,5.51742E2,1.1363524E3,7.1039014E2,3.0989523E2,3.4125492E1,6.3742817E1,1.4041211E3,2.3210614E2,8.288676E2,1.3565327E2,5.0283943E1,2.644484E3,3.5845833E3,1.9685117E2,2.3747656E2,6.805275E3,3.9953604E3,3.20926E1,6.1997235E2,1.0177709E1,1.27740074E2,1.0521669E2,1.7509281E1,2.2076163E2,7.429603E1,1.0071579E1,9.312213E1,1.0566051E3,2.8811558E3,1.1545958E3,1.709988E2,1.0876338E1,1.0191882E1,5.406769E2,4.200567E2],"tree_param":{"num_deleted":"0","num_feature":"30","num_nodes":"119","size_leaf_vector":"1"}},{"base_weights":[-3.7016955E-3,-8.774054E-2,9.854914E-2,-4.678393E-2,-1.9954003E-1,2.466763E-1,7.312416E-2,-1.5108541E-2,-7.590426E-2,-2.7199712E-1,-1.6737522E-1,4.1942257E-1,2.1078922E-1,1.0013436E-1,3.19751E-2,-9.516692E-3,-9.131266E-2,-9.42707E-2,-4.4550043E-2,-2.4272284E-1,-3.182614E-1,-2.0476702E-1,-1.3490851E-1,2.6764414E-1,4.7398174E-1,2.532621E-1,1.5903051E-1,1.0559034E-1,1.8937599E-2,1.8273376E-2,6.688115E-2,-1.3009137E-2,1.7704518E-1,-3.4723353E-1,-5.5354156E-2,-1.9902286E-1,-8.939179E-2,-2.8240839E-2,-8.911473E-2,-2.7840966E-1,-2.0683312E-1,-2.9822552E-1,-4.3499804E-1,-3.341963E-1,-1.939548E-1,-1.1801293E-1,-1.7890662E-1,3.1226983E-2,2.1349755E-1,4.4166493E-1,5.651505E-1,2.6164845E-1,1.0253225E-1,-2.2457872E-1,1.6802444E-1,1.3861455E-1,9.019355E-2,-1.4636846E-1,3.956373E-2,3.4746137E-2,-1.6521702E-2,7.4885376E-2,-8.7259375E-2,2.0991375E-4,-2.0228352E-3,-6.79006E-3,1.4769501E-2,-1.3067365E-2,-2.5209418E-2,-3.870771E-3,1.4168513E-2,-7.663969E-3,-2.114717E-2,-3.652875E-3,-5.9536123E-3,-1.8631686E-3,1.017494E-2,-5.630204E-3,1.0444991E-3,-1.1999345E-2,-1.8708622E-2,-9.738119E-3,-2.4309127E-2,-1.40498355E-2,-1.958759E-2,-2.4825172E-2,-1.2426425E-2,-2.6523152E-2,-1.333335E-2,-1.15417205E-2,-7.666806E-3,-7.863369E-3,-4.530904E-3,-1.0694576E-2,-5.395538E-3,1.333605E-2,-2.6175173E-3,2.2938894E-2,1.6041009E-2,1.7910693E-2,2.9312944E-2,1.8986648E-2,1.2527289E-2,-4.2080833E-3,9.806035E-3,-2.5060076E-2,5.647353E-4,4.2260126E-3,9.621058E-3,7.932135E-3,4.891949E-3,7.082283E-3,4.0795146E-3,-1.1102504E-2,3.7294102E-3,3.4956553E-3,-3.1555693E-3,-5.0136517E-3,2.1524464E-3,-7.91391E-5,-7.629951E-3,-1.8706595E-3,4.282947E-3,-8.344907E-3,1.11688925E-2],"categories":[],"categories_nodes":[],"categories_segments":[],"categories_sizes":[],"default_left":[0,0,0,0,0,0,0,0,0,0,0,0,0,0,0,0,0,0,0,0,0,0,0,0,0,0,0,0,0,0,0,0,0,0,0,0,0,0,0,0,0,0,0,0,0,0,0,0,0,0,0,0,0,0,0,0,0,0,0,0,0,0,0,0,0,0,0,0,0,0,0,0,0,0,0,0,0,0,0,0,0,0,0,0,0,0,0,0,0,0,0,0,0,0,0,0,0,0,0,0,0,0,0,0,0,0,0,0,0,0,0,0,0,0,0,0,0,0,0,0,0,0,0,0,0],"id":9,"left_children":[1,3,5,7,9,11,13,15,17,19,21,23,25,27,29,31,33,35,37,39,41,43,45,47,49,51,53,55,57,59,61,63,65,67,69,71,73,75,77,79,81,83,85,87,89,91,93,-1,95,97,99,101,103,105,107,109,111,113,115,117,119,121,123,-1,-1,-1,-1,-1,-1,-1,-1,-1,-1,-1,-1,-1,-1,-1,-1,-1,-1,-1,-1,-1,-1,-1,-1,-1,-1,-1,-1,-1,-1,-1,-1,-1,-1,-1,-1,-1,-1,-1,-1,-1,-1,-1,-1,-1,-1,-1,-1,-1,-1,-1,-1,-1,-1,-1,-1,-1,-1,-1,-1,-1,-1],"loss_changes":[3.9180542E2,1.1458551E2,7.744786E1,1.689515E1,1.55920105E1,1.8589645E1,1.951062E1,3.7384477E0,5.4916153E0,2.714386E0,5.6168365E0,4.156349E0,5.4482346E0,4.6935196E0,3.3271022E0,5.3297205E0,5.5003457E0,3.0575447E0,2.5611196E0,1.5647125E0,1.7311325E0,2.9564285E0,1.83107E0,2.5540314E0,8.6756134E-1,1.7045212E0,3.9295216E0,5.0373764E0,2.2854018E0,2.8657303E0,2.4262905E0,3.7913923E0,5.6054883E0,8.617544E-1,3.9606867E0,2.6697683E0,2.7796173E0,5.409742E0,2.4429903E0,2.2364502E0,2.0478935E0,9.892311E-1,1.1882744E0,2.0462646E0,2.9529114E0,1.9248676E0,1.689188E0,0E0,1.743927E0,4.412079E-1,2.078247E-1,1.605072E0,1.3065524E0,1.7196478E0,2.2302628E0,2.5619736E0,2.98806E0,1.2603867E0,1.8591309E0,3.8079414E0,3.2661908E0,2.2595682E0,2.4438415E0,0E0,0E0,0E0,0E0,0E0,0E0,0E0,0E0,0E0,0E0,0E0,0E0,0E0,0E0,0E0,0E0,0E0,0E0,0E0,0E0,0E0,0E0,0E0,0E0,0E0,0E0,0E0,0E0,0E0,0E0,0E0,0E0,0E0,0E0,0E0,0E0,0E0,0E0,0E0,0E0,0E0,0E0,0E0,0E0,0E0,0E0,0E0,0E0,0E0,0E0,0E0,0E0,0E0,0E0,0E0,0E0,0E0,0E0,0E0,0E0,0E0,0E0],"parents":[2147483647,0,0,1,1,2,2,3,3,4,4,5,5,6,6,7,7,8,8,9,9,10,10,11,11,12,12,13,13,14,14,15,15,16,16,17,17,18,18,19,19,20,20,21,21,22,22,23,23,24,24,25,25,26,26,27,27,28,28,29,29,30,30,31,31,32,32,33,33,34,34,35,35,36,36,37,37,38,38,39,39,40,40,41,41,42,42,43,43,44,44,45,45,46,46,48,48,49,49,50,50,51,51,52,52,53,53,54,54,55,55,56,56,57,57,58,58,59,59,60,60,61,61,62,62],"right_children":[2,4,6,8,10,12,14,16,18,20,22,24,26,28,30,32,34,36,38,40,42,44,46,48,50,52,54,56,58,60,62,64,66,68,70,72,74,76,78,80,82,84,86,88,90,92,94,-1,96,98,100,102,104,106,108,110,112,114,116,118,120,122,124,-1,-1,-1,-1,-1,-1,-1,-1,-1,-1,-1,-1,-1,-1,-1,-1,-1,-1,-1,-1,-1,-1,-1,-1,-1,-1,-1,-1,-1,-1,-1,-1,-1,-1,-1,-1,-1,-1,-1,-1,-1,-1,-1,-1,-1,-1,-1,-1,-1,-1,-1,-1,-1,-1,-1,-1,-1,-1,-1,-1,-1,-1],"split_conditions":[6.268488E-2,4.9E1,4.6E0,2.2E1,7.180876E-3,2.8E0,9.6E0,8E0,1.4E1,1.79E2,1.3E1,1E1,2.7272728E-1,7E0,1.4E1,7E0,8E0,3.7E1,1.354E3,1.8642746E-1,9.361E1,1E1,6.818182E-2,1.6E0,4.046054E-1,8E0,7E0,1.111E-1,7E0,9.780335E-2,1E1,5.625E-1,6.67E2,8.163265E-2,1.2113721E-1,1.28E2,3.5E1,3.6996912E-2,6E0,1.23E2,1.3E1,3.3E2,7.692E-1,1.8439716E-1,1.2376284E-2,1.6891892E-1,1.257E3,3.1226983E-2,1.32E2,1.2858221E-1,2.5853658E-1,5.5363324E-2,9E0,1.21E2,1.1E1,9.663E1,5.4E0,1.3822417E-1,1.1E1,1.2391304E-1,1.0829E2,3.902439E-2,8.151268E-2,2.0991375E-4,-2.0228352E-3,-6.79006E-3,1.4769501E-2,-1.3067365E-2,-2.5209418E-2,-3.870771E-3,1.4168513E-2,-7.663969E-3,-2.114717E-2,-3.652875E-3,-5.9536123E-3,-1.8631686E-3,1.017494E-2,-5.630204E-3,1.0444991E-3,-1.1999345E-2,-1.8708622E-2,-9.738119E-3,-2.4309127E-2,-1.40498355E-2,-1.958759E-2,-2.4825172E-2,-1.2426425E-2,-2.6523152E-2,-1.333335E-2,-1.15417205E-2,-7.666806E-3,-7.863369E-3,-4.530904E-3,-1.0694576E-2,-5.395538E-3,1.333605E-2,-2.6175173E-3,2.2938894E-2,1.6041009E-2,1.7910693E-2,2.9312944E-2,1.8986648E-2,1.2527289E-2,-4.2080833E-3,9.806035E-3,-2.5060076E-2,5.647353E-4,4.2260126E-3,9.621058E-3,7.932135E-3,4.891949E-3,7.082283E-3,4.0795146E-3,-1.1102504E-2,3.7294102E-3,3.4956553E-3,-3.1555693E-3,-5.0136517E-3,2.1524464E-3,-7.91391E-5,-7.629951E-3,-1.8706595E-3,4.282947E-3,-8.344907E-3,1.11688925E-2],"split_indices":[2,0,0,0,2,0,0,24,7,0,7,7,6,24,7,22,22,10,10,9,21,7,8,0,2,24,7,6,22,11,24,6,10,8,11,4,0,2,22,4,24,0,6,9,2,9,10,0,4,11,9,8,22,4,7,21,0,2,24,9,21,8,2,0,0,0,0,0,0,0,0,0,0,0,0,0,0,0,0,0,0,0,0,0,0,0,0,0,0,0,0,0,0,0,0,0,0,0,0,0,0,0,0,0,0,0,0,0,0,0,0,0,0,0,0,0,0,0,0,0,0,0,0,0,0],"split_type":[0,0,0,0,0,0,0,0,0,0,0,0,0,0,0,0,0,0,0,0,0,0,0,0,0,0,0,0,0,0,0,0,0,0,0,0,0,0,0,0,0,0,0,0,0,0,0,0,0,0,0,0,0,0,0,0,0,0,0,0,0,0,0,0,0,0,0,0,0,0,0,0,0,0,0,0,0,0,0,0,0,0,0,0,0,0,0,0,0,0,0,0,0,0,0,0,0,0,0,0,0,0,0,0,0,0,0,0,0,0,0,0,0,0,0,0,0,0,0,0,0,0,0,0,0],"sum_hessian":[4.559365E4,2.5025559E4,2.0568092E4,1.83168E4,6.708757E3,3.0119026E3,1.7556188E4,8.774228E3,9.542573E3,2.0602378E3,4.648519E3,5.1623975E2,2.4956628E3,1.0598145E4,6.958044E3,8.17544E3,5.987879E2,6.0163516E3,3.5262214E3,1.2656368E3,7.9460114E2,2.1579307E3,2.4905884E3,1.3806413E2,3.7817563E2,1.3686578E3,1.1270051E3,9.930563E3,6.6758124E2,4.997781E3,1.960263E3,8.0261206E3,1.4931902E2,7.2702095E1,5.260858E2,2.6597485E2,5.7503765E3,2.5826797E3,9.435418E2,6.312238E2,6.3441296E2,6.8123346E2,1.1336763E2,1.640644E2,1.9938663E3,1.8022095E3,6.8837897E2,1.6799517E1,1.2126461E2,2.8352005E2,9.4655556E1,1.2958245E3,7.283342E1,2.526881E1,1.1017363E3,3.1551519E3,6.775411E3,7.338093E1,5.9420026E2,3.391955E3,1.6058256E3,1.8639841E3,9.627892E1,4.933845E3,3.092276E3,4.0941643E1,1.08377365E2,4.8711887E1,2.399021E1,4.9464105E2,3.1444738E1,2.2225595E2,4.37189E1,3.711344E3,2.0390327E3,2.486702E3,9.597784E1,7.774986E2,1.6604323E2,4.5298102E2,1.7824281E2,6.097622E2,2.4650726E1,5.7864374E2,1.0258972E2,8.39987E1,2.9368927E1,4.0244045E1,1.23820366E2,1.0425776E3,9.512886E2,7.388133E2,1.0633961E3,4.5979254E2,2.2858643E2,1.0103404E2,2.023057E1,2.459013E2,3.761875E1,1.0424905E1,8.423065E1,1.0851325E2,1.1873112E3,2.4353273E1,4.848015E1,1.1112106E1,1.4156703E1,2.5011533E2,8.51621E2,2.113938E3,1.0412141E3,9.683985E2,5.8070127E3,5.4655495E1,1.8725433E1,4.5888052E2,1.3531976E2,1.958578E2,3.1960974E3,1.4478846E3,1.5794089E2,1.6295428E2,1.7010298E3,7.7000786E1,1.9278141E1],"tree_param":{"num_deleted":"0","num_feature":"30","num_nodes":"125","size_leaf_vector":"1"}},{"base_weights":[1.0642742E-3,8.503851E-2,-1.0080677E-1,2.089137E-1,5.331847E-2,-1.99085E-1,-5.177102E-2,4.241637E-1,1.8628007E-1,9.438227E-2,2.3202388E-2,-2.6416722E-1,-1.7119639E-1,-3.8891204E-2,-9.070034E-2,2.9845768E-1,4.671444E-1,1.6013144E-1,2.4347015E-1,1.1366985E-1,7.981596E-2,2.876028E-2,-3.9947033E-2,-3.2500473E-1,-2.3314187E-1,-2.272809E-1,-1.500503E-1,-2.40131E-2,-5.9433226E-2,-1.2720366E-1,-5.232573E-2,3.6473733E-1,-3.6446095E-2,2.7664734E-2,4.41191E-1,2.0005102E-1,1.1542789E-1,2.2459373E-1,4.321739E-1,1.1887286E-1,-3.957164E-2,4.4715893E-1,7.751648E-2,5.2026637E-2,1.3886879E-2,1.8548857E-1,-5.9768453E-2,-2.92068E-1,-4.7132164E-1,-3.2614893E-1,-2.1232791E-1,-2.671402E-1,-1.9117291E-1,-1.5156396E-1,1.4720741E-2,-1.6744249E-1,-1.817586E-2,-8.836554E-2,-2.684643E-2,-1.5165827E-1,-3.2823116E-2,6.213206E-2,-7.487796E-2,2.6065519E-3,2.0484915E-2,5.153538E-3,-8.832147E-3,2.385101E-2,1.7297132E-2,1.18058445E-2,7.7854283E-3,5.4470855E-3,2.210706E-2,1.2042379E-2,6.816136E-3,2.6331702E-2,1.9171895E-2,-3.3766644E-3,6.0811695E-3,5.0452272E-3,-1.5544682E-2,9.611523E-3,3.3116423E-2,4.4015935E-3,2.095131E-3,2.2267154E-3,7.4208663E-3,3.7520172E-4,4.8326547E-3,1.9181626E-2,-8.791353E-3,-9.080622E-3,-1.4407405E-3,-1.6563104E-2,-1.2353089E-2,-2.0894792E-2,-2.8519554E-2,-2.0686088E-2,-1.3216041E-2,-9.487126E-3,-1.573961E-2,-1.4350216E-2,-3.3465251E-3,-1.1284719E-2,-4.801933E-3,-6.2881336E-3,-8.563264E-3,-6.4979345E-3,-1.9971142E-2,1.7071852E-2,-1.0194586E-3,-3.7423593E-3,-9.0949675E-3,2.4456687E-3,-3.0257711E-3,-6.035905E-3,-1.0600093E-2,3.2050076E-3,-6.1333547E-3,4.276619E-3,-1.8602397E-2,-1.6303321E-2,-3.320476E-3],"categories":[],"categories_nodes":[],"categories_segments":[],"categories_sizes":[],"default_left":[0,0,0,0,0,0,0,0,0,0,0,0,0,0,0,0,0,0,0,0,0,0,0,0,0,0,0,0,0,0,0,0,0,0,0,0,0,0,0,0,0,0,0,0,0,0,0,0,0,0,0,0,0,0,0,0,0,0,0,0,0,0,0,0,0,0,0,0,0,0,0,0,0,0,0,0,0,0,0,0,0,0,0,0,0,0,0,0,0,0,0,0,0,0,0,0,0,0,0,0,0,0,0,0,0,0,0,0,0,0,0,0,0,0,0,0,0,0,0,0,0,0,0],"id":10,"left_children":[1,3,5,7,9,11,13,15,17,19,21,23,25,27,29,31,33,35,37,39,41,43,45,47,49,51,53,55,57,59,61,63,65,-1,67,69,71,73,75,77,79,81,83,85,87,89,91,93,95,97,99,101,103,105,-1,107,109,111,113,115,117,119,121,-1,-1,-1,-1,-1,-1,-1,-1,-1,-1,-1,-1,-1,-1,-1,-1,-1,-1,-1,-1,-1,-1,-1,-1,-1,-1,-1,-1,-1,-1,-1,-1,-1,-1,-1,-1,-1,-1,-1,-1,-1,-1,-1,-1,-1,-1,-1,-1,-1,-1,-1,-1,-1,-1,-1,-1,-1,-1,-1,-1],"loss_changes":[3.8705008E2,9.744014E1,9.851213E1,2.455156E1,2.4417759E1,1.2305725E1,6.8357086E0,2.4552994E0,6.8047943E0,2.3380585E0,3.9998498E0,3.77359E0,5.618637E0,3.131547E0,4.7423744E0,2.790905E0,5.5210114E-1,5.5864944E0,5.010872E0,2.8688736E0,3.9886932E0,3.6231146E0,4.1311235E0,3.1694412E0,2.5521774E0,1.8244095E0,2.3752441E0,4.9757853E0,4.056634E0,4.0035706E0,4.2752438E0,1.4481077E0,4.4035447E-1,0E0,7.8575516E-1,2.6167068E0,3.0991974E0,1.8404694E0,3.934021E-1,1.7896652E0,4.5560293E0,1.4864798E0,1.7694035E0,2.9423952E0,3.3747935E0,5.4197807E0,3.1940174E0,9.1088104E-1,4.203987E-1,1.2213154E0,2.5076103E0,2.43404E0,2.2353497E0,1.7337646E0,0E0,1.9692187E0,4.5560074E0,2.8693295E0,5.171229E0,2.5492306E0,3.1312416E0,2.8042006E0,2.919324E0,0E0,0E0,0E0,0E0,0E0,0E0,0E0,0E0,0E0,0E0,0E0,0E0,0E0,0E0,0E0,0E0,0E0,0E0,0E0,0E0,0E0,0E0,0E0,0E0,0E0,0E0,0E0,0E0,0E0,0E0,0E0,0E0,0E0,0E0,0E0,0E0,0E0,0E0,0E0,0E0,0E0,0E0,0E0,0E0,0E0,0E0,0E0,0E0,0E0,0E0,0E0,0E0,0E0,0E0,0E0,0E0,0E0,0E0,0E0,0E0],"parents":[2147483647,0,0,1,1,2,2,3,3,4,4,5,5,6,6,7,7,8,8,9,9,10,10,11,11,12,12,13,13,14,14,15,15,16,16,17,17,18,18,19,19,20,20,21,21,22,22,23,23,24,24,25,25,26,26,27,27,28,28,29,29,30,30,31,31,32,32,34,34,35,35,36,36,37,37,38,38,39,39,40,40,41,41,42,42,43,43,44,44,45,45,46,46,47,47,48,48,49,49,50,50,51,51,52,52,53,53,55,55,56,56,57,57,58,58,59,59,60,60,61,61,62,62],"right_children":[2,4,6,8,10,12,14,16,18,20,22,24,26,28,30,32,34,36,38,40,42,44,46,48,50,52,54,56,58,60,62,64,66,-1,68,70,72,74,76,78,80,82,84,86,88,90,92,94,96,98,100,102,104,106,-1,108,110,112,114,116,118,120,122,-1,-1,-1,-1,-1,-1,-1,-1,-1,-1,-1,-1,-1,-1,-1,-1,-1,-1,-1,-1,-1,-1,-1,-1,-1,-1,-1,-1,-1,-1,-1,-1,-1,-1,-1,-1,-1,-1,-1,-1,-1,-1,-1,-1,-1,-1,-1,-1,-1,-1,-1,-1,-1,-1,-1,-1,-1,-1,-1,-1],"split_conditions":[1.7E1,5.7E0,1.7085444E-2,2.8E0,9.6E0,7.180876E-3,3.5E1,1E1,1.3E1,4E0,1.3226452E-1,2.078449E-1,1E0,1.22E2,1.3E1,1.32E2,2E0,4.6E0,2.5584346E-1,1.2246E2,7E0,1.2E1,5.6976743E-2,1.4E1,1E0,1.2376284E-2,2.160187E-1,4.1666668E-2,2.5333333E-1,1.04397446E-1,5.6976743E-2,6.5022424E-2,1.0817506E-1,2.7664734E-2,2.1626873E-1,2.7272728E-1,4.0563992E-1,2.1653056E-1,1.10966906E-1,5.611E1,5.556E-1,2.8707123E-1,1.05934285E-1,1.1184452E-1,1.2E1,9.809E1,1.5384616E-1,1.4E1,2.78E2,7.305503E-2,1.26E2,8.4745765E-2,9.5046856E-2,1.1E1,1.4720741E-2,7.692E-1,5.571E1,2.3893805E-1,6.964E1,8.072289E-2,2.028707E-2,2.1933086E-1,1.8584071E-1,2.6065519E-3,2.0484915E-2,5.153538E-3,-8.832147E-3,2.385101E-2,1.7297132E-2,1.18058445E-2,7.7854283E-3,5.4470855E-3,2.210706E-2,1.2042379E-2,6.816136E-3,2.6331702E-2,1.9171895E-2,-3.3766644E-3,6.0811695E-3,5.0452272E-3,-1.5544682E-2,9.611523E-3,3.3116423E-2,4.4015935E-3,2.095131E-3,2.2267154E-3,7.4208663E-3,3.7520172E-4,4.8326547E-3,1.9181626E-2,-8.791353E-3,-9.080622E-3,-1.4407405E-3,-1.6563104E-2,-1.2353089E-2,-2.0894792E-2,-2.8519554E-2,-2.0686088E-2,-1.3216041E-2,-9.487126E-3,-1.573961E-2,-1.4350216E-2,-3.3465251E-3,-1.1284719E-2,-4.801933E-3,-6.2881336E-3,-8.563264E-3,-6.4979345E-3,-1.9971142E-2,1.7071852E-2,-1.0194586E-3,-3.7423593E-3,-9.0949675E-3,2.4456687E-3,-3.0257711E-3,-6.035905E-3,-1.0600093E-2,3.2050076E-3,-6.1333547E-3,4.276619E-3,-1.8602397E-2,-1.6303321E-2,-3.320476E-3],"split_indices":[0,0,2,0,0,2,0,7,7,3,8,12,25,4,7,4,0,0,2,21,7,0,11,3,25,2,8,11,12,11,11,8,11,0,8,6,12,8,8,21,6,12,11,8,5,21,8,7,0,11,4,8,11,3,0,6,21,12,21,11,2,12,12,0,0,0,0,0,0,0,0,0,0,0,0,0,0,0,0,0,0,0,0,0,0,0,0,0,0,0,0,0,0,0,0,0,0,0,0,0,0,0,0,0,0,0,0,0,0,0,0,0,0,0,0,0,0,0,0,0,0,0,0],"split_type":[0,0,0,0,0,0,0,0,0,0,0,0,0,0,0,0,0,0,0,0,0,0,0,0,0,0,0,0,0,0,0,0,0,0,0,0,0,0,0,0,0,0,0,0,0,0,0,0,0,0,0,0,0,0,0,0,0,0,0,0,0,0,0,0,0,0,0,0,0,0,0,0,0,0,0,0,0,0,0,0,0,0,0,0,0,0,0,0,0,0,0,0,0,0,0,0,0,0,0,0,0,0,0,0,0,0,0,0,0,0,0,0,0,0,0,0,0,0,0,0,0,0,0],"sum_hessian":[4.524297E4,2.4800012E4,2.0442955E4,5.0546553E3,1.9745357E4,6.803738E3,1.3639217E4,4.7924124E2,4.575414E3,8.353322E3,1.1392034E4,2.0383865E3,4.7653516E3,1.0249993E4,3.389224E3,1.24132866E2,3.5510837E2,3.1424243E3,1.4329896E3,3.5912559E3,4.762067E3,1.0471007E4,9.210274E2,6.852356E2,1.3531509E3,1.3021056E3,3.4632458E3,5.945776E3,4.3042173E3,1.7357761E3,1.6534481E3,1.0355047E2,2.0582392E1,7.750803E1,2.7760034E2,1.658201E3,1.4842233E3,1.304671E3,1.2831865E2,3.4735427E3,1.1771297E2,2.8420515E1,4.7336465E3,4.0824153E3,6.388592E3,7.376101E1,8.472664E2,5.617735E2,1.2346214E2,2.4476216E2,1.1083887E3,6.1586206E2,6.862435E2,3.4521484E3,1.1097484E1,2.3143356E2,5.7143423E3,2.279046E3,2.0251713E3,1.3780957E3,3.5768036E2,2.718733E2,1.3815748E3,1.3292103E1,9.025837E1,1.0448942E1,1.013345E1,1.9880756E2,7.879278E1,9.120567E2,7.4614435E2,1.4566383E3,2.7584906E1,1.100332E3,2.0433896E2,4.0335167E1,8.7983475E1,5.0166363E1,3.4233765E3,7.7971535E1,3.9741436E1,1.3875039E1,1.4545475E1,3.6534526E3,1.0801938E3,3.789337E3,2.9307852E2,5.9321973E3,4.5639426E2,4.7597164E1,2.6163847E1,1.7065266E2,6.766137E2,2.9687604E2,2.6489743E2,8.3597946E1,3.9864197E1,9.893705E1,1.458251E2,9.1053784E2,1.9785088E2,5.5987933E2,5.5982754E1,5.025208E2,1.8372273E2,1.497879E3,1.9542694E3,2.0058319E2,3.0850376E1,3.4017445E1,5.6803247E3,1.9928251E3,2.8622092E2,6.229643E2,1.4022069E3,9.129806E2,4.651152E2,1.7219919E2,1.8548116E2,2.5873184E2,1.314146E1,4.3835476E1,1.3377393E3],"tree_param":{"num_deleted":"0","num_feature":"30","num_nodes":"123","size_leaf_vector":"1"}},{"base_weights":[4.994496E-4,-1.0778839E-1,7.362231E-2,-2.1724552E-1,-7.2325E-2,4.5741335E-2,2.0481323E-1,-1.9562814E-1,-3.0161807E-1,-4.867151E-2,-1.1690881E-1,1.0288208E-2,7.118452E-2,3.366249E-1,1.7508522E-1,-2.527611E-1,-1.7803632E-1,-3.762947E-1,-2.7251467E-1,-3.7642214E-2,-8.328291E-2,-1.1006334E-1,-2.4340385E-1,2.4240905E-2,-1.4692877E-2,7.795072E-2,-2.9467982E-3,4.230813E-1,2.864372E-1,2.3692417E-1,1.6065863E-1,-2.8733525E-1,-1.9895838E-1,-1.6212781E-1,-2.277729E-1,-3.3644313E-1,-4.8741502E-1,-4.22814E-1,-2.446975E-1,-3.4628134E-2,-1.7454928E-1,-1.5076168E-1,-6.291326E-2,-1.4976214E-1,-9.2004605E-2,-2.6501262E-1,7.964266E-3,2.7959839E-2,-1.2836345E-1,-7.9531044E-2,1.6511796E-2,1.08310126E-1,6.377381E-2,6.80428E-3,-2.4853536E-1,4.3314495E-3,4.3456632E-1,2.964083E-1,3.511487E-2,3.9556703E-1,2.2177866E-1,2.2992979E-1,1.489762E-1,-1.3386856E-2,-2.6023125E-2,6.1538187E-3,-1.1146555E-2,-6.440447E-3,-9.631227E-3,-1.305711E-2,-7.802322E-3,-2.7459858E-2,-1.578614E-2,-2.6440322E-2,-1.6687876E-2,-2.4395E-2,-8.753648E-3,-1.1720477E-2,-2.636744E-2,-1.4013709E-3,-3.9920015E-3,-1.3783676E-2,-4.826039E-3,-1.3461131E-2,-3.5997683E-3,-3.6307217E-3,2.29133E-3,-8.139521E-3,2.5890144E-3,-3.8967251E-3,-9.461885E-3,-9.815837E-3,-1.9906973E-2,-6.2856004E-3,1.5942127E-3,-1.1129514E-2,2.1718636E-3,-1.3420007E-3,-6.3531385E-3,-5.556934E-4,2.9712622E-3,6.919143E-3,3.6746305E-3,4.673195E-3,2.556322E-3,3.3537806E-3,-1.5393364E-3,-2.5796419E-2,-5.767021E-3,2.9713739E-2,2.0725854E-2,1.7264578E-2,1.2456412E-2,1.3207271E-2,-1.02138175E-2,5.9005087E-3,2.3375448E-2,1.1792584E-2,3.3751987E-3,8.504595E-3,1.7621312E-2,8.906288E-3,6.1515416E-3],"categories":[],"categories_nodes":[],"categories_segments":[],"categories_sizes":[],"default_left":[0,0,0,0,0,0,0,0,0,0,0,0,0,0,0,0,0,0,0,0,0,0,0,0,0,0,0,0,0,0,0,0,0,0,0,0,0,0,0,0,0,0,0,0,0,0,0,0,0,0,0,0,0,0,0,0,0,0,0,0,0,0,0,0,0,0,0,0,0,0,0,0,0,0,0,0,0,0,0,0,0,0,0,0,0,0,0,0,0,0,0,0,0,0,0,0,0,0,0,0,0,0,0,0,0,0,0,0,0,0,0,0,0,0,0,0,0,0,0,0,0,0,0],"id":11,"left_children":[1,3,5,7,9,11,13,15,17,19,21,23,25,27,29,31,33,35,37,39,41,43,45,47,49,51,53,55,57,59,61,63,65,67,69,71,73,75,77,79,81,83,85,87,89,91,-1,93,95,97,99,101,103,105,107,-1,109,111,113,115,117,119,121,-1,-1,-1,-1,-1,-1,-1,-1,-1,-1,-1,-1,-1,-1,-1,-1,-1,-1,-1,-1,-1,-1,-1,-1,-1,-1,-1,-1,-1,-1,-1,-1,-1,-1,-1,-1,-1,-1,-1,-1,-1,-1,-1,-1,-1,-1,-1,-1,-1,-1,-1,-1,-1,-1,-1,-1,-1,-1,-1,-1],"loss_changes":[3.5672498E2,7.0472275E1,9.835301E1,8.044952E0,1.4459526E1,2.0006134E1,1.8409302E1,3.512741E0,1.8629608E0,3.4186916E0,4.0898056E0,3.2307673E0,6.476982E0,3.6375656E0,3.3946686E0,1.488575E0,2.107193E0,9.474716E-1,2.6324387E0,2.7997446E0,2.9667826E0,3.2207603E0,2.1587734E0,3.3786821E0,6.7225876E0,5.0858536E0,2.5903118E0,1.1837006E0,1.3708534E0,1.6560707E0,2.4931107E0,2.1616516E0,2.562191E0,2.0649338E0,1.525135E0,6.5522003E-1,2.3070908E-1,1.5403042E0,1.488987E0,1.983594E0,1.1271639E0,4.658683E0,1.7596936E0,3.7083206E0,4.2313614E0,2.036459E0,0E0,3.505671E0,2.3028765E0,2.7002072E0,2.660365E0,3.9321442E0,3.0249252E0,2.35982E0,1.4116533E0,0E0,7.3152924E-1,1.1389656E0,1.2693865E0,1.1823053E0,1.4274025E0,3.230091E0,2.001339E0,0E0,0E0,0E0,0E0,0E0,0E0,0E0,0E0,0E0,0E0,0E0,0E0,0E0,0E0,0E0,0E0,0E0,0E0,0E0,0E0,0E0,0E0,0E0,0E0,0E0,0E0,0E0,0E0,0E0,0E0,0E0,0E0,0E0,0E0,0E0,0E0,0E0,0E0,0E0,0E0,0E0,0E0,0E0,0E0,0E0,0E0,0E0,0E0,0E0,0E0,0E0,0E0,0E0,0E0,0E0,0E0,0E0,0E0,0E0,0E0],"parents":[2147483647,0,0,1,1,2,2,3,3,4,4,5,5,6,6,7,7,8,8,9,9,10,10,11,11,12,12,13,13,14,14,15,15,16,16,17,17,18,18,19,19,20,20,21,21,22,22,23,23,24,24,25,25,26,26,27,27,28,28,29,29,30,30,31,31,32,32,33,33,34,34,35,35,36,36,37,37,38,38,39,39,40,40,41,41,42,42,43,43,44,44,45,45,47,47,48,48,49,49,50,50,51,51,52,52,53,53,54,54,56,56,57,57,58,58,59,59,60,60,61,61,62,62],"right_children":[2,4,6,8,10,12,14,16,18,20,22,24,26,28,30,32,34,36,38,40,42,44,46,48,50,52,54,56,58,60,62,64,66,68,70,72,74,76,78,80,82,84,86,88,90,92,-1,94,96,98,100,102,104,106,108,-1,110,112,114,116,118,120,122,-1,-1,-1,-1,-1,-1,-1,-1,-1,-1,-1,-1,-1,-1,-1,-1,-1,-1,-1,-1,-1,-1,-1,-1,-1,-1,-1,-1,-1,-1,-1,-1,-1,-1,-1,-1,-1,-1,-1,-1,-1,-1,-1,-1,-1,-1,-1,-1,-1,-1,-1,-1,-1,-1,-1,-1,-1,-1,-1,-1],"split_conditions":[4.297265E-2,1.4925E-2,1.4856341E-1,1.7E2,3.8E1,7.346235E-2,3.2E0,1E0,2.0242023E-1,7.2727275E-1,1E1,5.385E-1,6E0,2.5E0,3.8E0,1.9607843E-1,6.968641E-2,1.4E1,1E0,1.2E1,1E1,1E0,3.3333334E-1,1.2E1,9E0,4E0,4.869715E-1,4.65718E-2,7E0,5.7569295E-2,5.882353E-2,2.134E3,1.9879518E-1,1.2E1,1.084E3,1.1E1,4.854E-3,1.1E1,1.31E2,1.12128146E-1,8.108108E-2,2.2677596E-1,1.1776859E-1,1.2035011E-1,1.29E2,1.8553153E-2,7.964266E-3,7.604017E-2,2.576E3,5.4674704E-2,5.823632E-2,3.6363637E-1,1.111E-1,8.1E0,8.986406E-2,4.3314495E-3,1.6E0,2.308E-1,9.615385E-2,6.5972224E-2,5E0,2.1174005E-1,2.308E-1,-1.3386856E-2,-2.6023125E-2,6.1538187E-3,-1.1146555E-2,-6.440447E-3,-9.631227E-3,-1.305711E-2,-7.802322E-3,-2.7459858E-2,-1.578614E-2,-2.6440322E-2,-1.6687876E-2,-2.4395E-2,-8.753648E-3,-1.1720477E-2,-2.636744E-2,-1.4013709E-3,-3.9920015E-3,-1.3783676E-2,-4.826039E-3,-1.3461131E-2,-3.5997683E-3,-3.6307217E-3,2.29133E-3,-8.139521E-3,2.5890144E-3,-3.8967251E-3,-9.461885E-3,-9.815837E-3,-1.9906973E-2,-6.2856004E-3,1.5942127E-3,-1.1129514E-2,2.1718636E-3,-1.3420007E-3,-6.3531385E-3,-5.556934E-4,2.9712622E-3,6.919143E-3,3.6746305E-3,4.673195E-3,2.556322E-3,3.3537806E-3,-1.5393364E-3,-2.5796419E-2,-5.767021E-3,2.9713739E-2,2.0725854E-2,1.7264578E-2,1.2456412E-2,1.3207271E-2,-1.02138175E-2,5.9005087E-3,2.3375448E-2,1.1792584E-2,3.3751987E-3,8.504595E-3,1.7621312E-2,8.906288E-3,6.1515416E-3],"split_indices":[2,1,2,0,0,2,0,25,12,6,24,6,24,0,0,9,8,3,25,24,5,25,12,24,5,3,9,11,24,8,8,10,9,3,10,3,1,5,4,11,11,12,11,11,4,2,0,9,10,2,2,6,6,0,2,0,0,6,11,11,24,9,6,0,0,0,0,0,0,0,0,0,0,0,0,0,0,0,0,0,0,0,0,0,0,0,0,0,0,0,0,0,0,0,0,0,0,0,0,0,0,0,0,0,0,0,0,0,0,0,0,0,0,0,0,0,0,0,0,0,0,0,0],"split_type":[0,0,0,0,0,0,0,0,0,0,0,0,0,0,0,0,0,0,0,0,0,0,0,0,0,0,0,0,0,0,0,0,0,0,0,0,0,0,0,0,0,0,0,0,0,0,0,0,0,0,0,0,0,0,0,0,0,0,0,0,0,0,0,0,0,0,0,0,0,0,0,0,0,0,0,0,0,0,0,0,0,0,0,0,0,0,0,0,0,0,0,0,0,0,0,0,0,0,0,0,0,0,0,0,0,0,0,0,0,0,0,0,0,0,0,0,0,0,0,0,0,0,0],"sum_hessian":[4.5048605E4,1.8157959E4,2.6890646E4,4.442166E3,1.3715794E4,2.217856E4,4.7120854E3,3.5387966E3,9.033691E2,8.962775E3,4.753018E3,9.267048E3,1.2911513E4,8.652615E2,3.8468237E3,8.299616E2,2.7088352E3,2.4998933E2,6.5337976E2,6.79846E3,2.1643154E3,4.5107803E3,2.4223782E2,5.946035E3,3.3210125E3,1.1831558E4,1.079955E3,3.1507092E2,5.501906E2,7.247575E2,3.1220664E3,5.0262753E2,3.2733408E2,2.0556006E3,6.532346E2,1.8696498E2,6.302435E1,9.9823364E1,5.535564E2,6.653239E3,1.4522157E2,5.0036124E2,1.6639541E3,1.4080804E3,3.1026997E3,2.3022556E2,1.2012276E1,5.8053765E3,1.406589E2,1.078506E3,2.2425063E3,3.7641384E3,8.0674194E3,1.0396481E3,4.0306866E1,1.068212E1,3.043888E2,5.290225E2,2.1168058E1,6.0973053E1,6.637845E2,4.4784985E2,2.6742166E3,4.6563208E2,3.6995472E1,2.2392525E1,3.0494156E2,9.848437E2,1.0707568E3,4.4402176E2,2.0921289E2,1.4329222E1,1.7263576E2,4.772656E1,1.5297792E1,7.828667E1,2.15367E1,5.358807E2,1.7675726E1,5.8070566E3,8.4618195E2,6.2146847E1,8.307472E1,1.9886276E2,3.0149847E2,1.5279694E3,1.3598477E2,1.3227654E3,8.5315094E1,2.7120537E3,3.9064597E2,1.5349435E2,7.67312E1,1.4379092E2,5.6615854E3,9.064667E1,5.001224E1,5.1223517E2,5.662708E2,1.3647107E3,8.777957E2,2.0180903E3,1.7460481E3,2.4080527E3,5.6593667E3,3.9904968E2,6.4059845E2,1.2446548E1,2.786032E1,3.0755497E1,2.736333E2,2.5700226E2,2.7202026E2,1.0765285E1,1.0402775E1,1.309438E1,4.787867E1,6.0781085E2,5.597358E1,3.0248062E2,1.4536923E2,1.2565837E3,1.4176328E3],"tree_param":{"num_deleted":"0","num_feature":"30","num_nodes":"123","size_leaf_vector":"1"}},{"base_weights":[1.8179063E-4,6.50293E-2,-1.16232365E-1,1.8660615E-1,3.3060614E-2,-7.8088805E-2,-2.0852715E-1,3.987721E-1,1.6827513E-1,7.712438E-2,9.199917E-3,-1.2238887E-1,-6.1297417E-2,-2.760764E-1,-1.8938226E-1,2.7119133E-1,4.453911E-1,1.4937589E-1,2.3458996E-1,1.0675201E-1,6.2449627E-2,3.5346415E-2,-2.3413617E-3,-1.0264261E-1,-1.6394465E-1,-7.998179E-2,-2.9459609E-2,-2.3866543E-1,-3.364034E-1,-2.573838E-1,-1.6509683E-1,-6.88377E-3,3.0771676E-1,5.464807E-1,4.1654158E-1,1.23798E-2,1.5674913E-1,1.3525833E-1,2.8318205E-1,3.3085164E-2,1.0420651E-1,6.5699354E-2,-1.5605605E-1,-9.7268E-2,4.0880844E-2,-1.8662715E-4,-1.4845182E-1,-1.1350322E-1,-4.9888794E-3,-1.7342049E-1,1.6010842E-1,-7.479038E-2,-2.0317495E-1,-8.307323E-3,-8.666191E-2,-1.8594189E-1,-2.9129183E-1,-3.4811828E-1,1.2159678E-3,-3.4189618E-1,-2.2141019E-1,-1.4934288E-1,-2.2371994E-1,2.2782385E-2,1.1850218E-2,2.0218665E-2,2.8520823E-2,2.1256438E-2,9.080791E-3,-9.9545345E-3,7.3575503E-3,1.1043741E-2,7.243389E-3,7.900241E-3,-8.202418E-3,1.1820006E-2,1.6938552E-2,5.515029E-3,-4.6663303E-3,6.9150697E-3,3.0036212E-3,-1.3707091E-2,7.566441E-3,-8.476338E-3,5.853742E-3,2.4496403E-3,-2.297565E-3,-1.0284289E-4,7.878986E-3,-1.0185074E-2,1.3331826E-2,-5.4737995E-3,-2.405191E-2,-3.686063E-3,7.787378E-3,-8.373361E-3,-2.3502575E-2,1.6621454E-2,-5.3886627E-3,-2.5406121E-3,-4.6768864E-3,-1.3789314E-2,1.5655321E-3,1.5207973E-2,-5.981109E-4,-5.328927E-3,5.4701795E-3,-3.0313449E-3,-1.1508286E-2,-1.2878701E-2,-1.7673686E-2,-1.9147228E-2,-1.335789E-2,-1.0744807E-2,-1.9825296E-2,-1.1847517E-2,3.8619628E-4,-7.0296624E-3,-1.2455169E-2,-1.0185129E-2,-1.9544989E-2],"categories":[],"categories_nodes":[],"categories_segments":[],"categories_sizes":[],"default_left":[0,0,0,0,0,0,0,0,0,0,0,0,0,0,0,0,0,0,0,0,0,0,0,0,0,0,0,0,0,0,0,0,0,0,0,0,0,0,0,0,0,0,0,0,0,0,0,0,0,0,0,0,0,0,0,0,0,0,0,0,0,0,0,0,0,0,0,0,0,0,0,0,0,0,0,0,0,0,0,0,0,0,0,0,0,0,0,0,0,0,0,0,0,0,0,0,0,0,0,0,0,0,0,0,0,0,0,0,0,0,0,0,0,0,0,0,0,0,0,0,0],"id":12,"left_children":[1,3,5,7,9,11,13,15,17,19,21,23,25,27,29,31,33,35,37,39,41,43,45,47,49,51,53,55,57,59,61,-1,63,65,67,69,71,73,75,-1,77,79,81,83,85,87,89,91,93,95,97,99,101,103,105,107,109,111,-1,113,115,117,119,-1,-1,-1,-1,-1,-1,-1,-1,-1,-1,-1,-1,-1,-1,-1,-1,-1,-1,-1,-1,-1,-1,-1,-1,-1,-1,-1,-1,-1,-1,-1,-1,-1,-1,-1,-1,-1,-1,-1,-1,-1,-1,-1,-1,-1,-1,-1,-1,-1,-1,-1,-1,-1,-1,-1,-1,-1,-1],"loss_changes":[3.3692258E2,1.113993E2,5.6194122E1,2.3142365E1,2.38627E1,8.397591E0,5.985153E0,2.6976166E0,6.8515472E0,3.4597816E0,4.4435716E0,2.5307846E0,4.872967E0,2.2415543E0,5.970001E0,1.9744091E0,7.7996826E-1,4.3201675E0,5.835388E0,3.6597424E0,3.7981052E0,3.3136086E0,3.2164798E0,2.2343884E0,3.0934925E0,3.2874756E0,3.668517E0,1.7172699E0,1.6622009E0,2.831581E0,2.4467392E0,0E0,1.1375656E0,1.935196E-2,4.7350693E-1,6.288391E0,3.0615005E0,2.7605028E0,2.0426178E0,0E0,3.1746464E0,2.1392765E0,2.889741E0,2.822389E0,3.0518074E0,2.9713356E0,3.4594197E0,2.7542038E0,2.3531032E0,1.6351204E0,1.3692045E0,2.223486E0,3.554099E0,2.533226E0,3.2080417E0,1.7688131E0,5.7515526E-1,9.6657944E-1,0E0,1.882225E0,2.40036E0,1.8151512E0,1.8171864E0,0E0,0E0,0E0,0E0,0E0,0E0,0E0,0E0,0E0,0E0,0E0,0E0,0E0,0E0,0E0,0E0,0E0,0E0,0E0,0E0,0E0,0E0,0E0,0E0,0E0,0E0,0E0,0E0,0E0,0E0,0E0,0E0,0E0,0E0,0E0,0E0,0E0,0E0,0E0,0E0,0E0,0E0,0E0,0E0,0E0,0E0,0E0,0E0,0E0,0E0,0E0,0E0,0E0,0E0,0E0,0E0,0E0,0E0],"parents":[2147483647,0,0,1,1,2,2,3,3,4,4,5,5,6,6,7,7,8,8,9,9,10,10,11,11,12,12,13,13,14,14,15,15,16,16,17,17,18,18,19,19,20,20,21,21,22,22,23,23,24,24,25,25,26,26,27,27,28,28,29,29,30,30,32,32,33,33,34,34,35,35,36,36,37,37,38,38,40,40,41,41,42,42,43,43,44,44,45,45,46,46,47,47,48,48,49,49,50,50,51,51,52,52,53,53,54,54,55,55,56,56,57,57,59,59,60,60,61,61,62,62],"right_children":[2,4,6,8,10,12,14,16,18,20,22,24,26,28,30,32,34,36,38,40,42,44,46,48,50,52,54,56,58,60,62,-1,64,66,68,70,72,74,76,-1,78,80,82,84,86,88,90,92,94,96,98,100,102,104,106,108,110,112,-1,114,116,118,120,-1,-1,-1,-1,-1,-1,-1,-1,-1,-1,-1,-1,-1,-1,-1,-1,-1,-1,-1,-1,-1,-1,-1,-1,-1,-1,-1,-1,-1,-1,-1,-1,-1,-1,-1,-1,-1,-1,-1,-1,-1,-1,-1,-1,-1,-1,-1,-1,-1,-1,-1,-1,-1,-1,-1,-1,-1,-1],"split_conditions":[2.2E1,6.2E0,6.5E1,2.8E0,1E1,2.381E-2,1E0,1E1,2.63158E-1,4E0,6E0,8.273E1,1.4E1,1.2E1,5.386645E-3,5.564702E-2,2E0,9E0,1.2E1,6E0,2.3325635E-1,3.3E1,1.2E1,1.1490126E-1,1.1546499E-1,1E1,1.368E3,6.996E1,1.011392E-1,2.0525059E-1,1.03053436E-1,-6.88377E-3,9.75863E-2,6.823E1,2E0,2.6041666E-1,5.882353E-2,2.3140496E-1,1.3E1,3.3085164E-2,1E1,5.737E1,9.361E1,8.073084E-2,3.9372823E-1,3.978E3,3.3034688E-1,3.0897704E-1,2.537143E-1,1.2E1,4.8E1,5.7276994E-2,9.808917E-2,6E0,1E1,2.0087336E-1,6.0606062E-2,2.0179372E-1,1.2159678E-3,1.79E2,8.67347E-2,1.4E1,2.795031E-1,2.2782385E-2,1.1850218E-2,2.0218665E-2,2.8520823E-2,2.1256438E-2,9.080791E-3,-9.9545345E-3,7.3575503E-3,1.1043741E-2,7.243389E-3,7.900241E-3,-8.202418E-3,1.1820006E-2,1.6938552E-2,5.515029E-3,-4.6663303E-3,6.9150697E-3,3.0036212E-3,-1.3707091E-2,7.566441E-3,-8.476338E-3,5.853742E-3,2.4496403E-3,-2.297565E-3,-1.0284289E-4,7.878986E-3,-1.0185074E-2,1.3331826E-2,-5.4737995E-3,-2.405191E-2,-3.686063E-3,7.787378E-3,-8.373361E-3,-2.3502575E-2,1.6621454E-2,-5.3886627E-3,-2.5406121E-3,-4.6768864E-3,-1.3789314E-2,1.5655321E-3,1.5207973E-2,-5.981109E-4,-5.328927E-3,5.4701795E-3,-3.0313449E-3,-1.1508286E-2,-1.2878701E-2,-1.7673686E-2,-1.9147228E-2,-1.335789E-2,-1.0744807E-2,-1.9825296E-2,-1.1847517E-2,3.8619628E-4,-7.0296624E-3,-1.2455169E-2,-1.0185129E-2,-1.9544989E-2],"split_indices":[0,0,0,0,0,1,25,7,1,3,3,21,7,3,2,11,0,7,7,7,8,10,24,11,8,24,10,21,8,12,11,0,11,21,3,9,8,8,7,0,24,21,21,2,9,10,9,12,9,24,0,8,11,3,23,12,8,9,0,0,8,3,9,0,0,0,0,0,0,0,0,0,0,0,0,0,0,0,0,0,0,0,0,0,0,0,0,0,0,0,0,0,0,0,0,0,0,0,0,0,0,0,0,0,0,0,0,0,0,0,0,0,0,0,0,0,0,0,0,0,0],"split_type":[0,0,0,0,0,0,0,0,0,0,0,0,0,0,0,0,0,0,0,0,0,0,0,0,0,0,0,0,0,0,0,0,0,0,0,0,0,0,0,0,0,0,0,0,0,0,0,0,0,0,0,0,0,0,0,0,0,0,0,0,0,0,0,0,0,0,0,0,0,0,0,0,0,0,0,0,0,0,0,0,0,0,0,0,0,0,0,0,0,0,0,0,0,0,0,0,0,0,0,0,0,0,0,0,0,0,0,0,0,0,0,0,0,0,0,0,0,0,0,0,0],"sum_hessian":[4.462842E4,2.8662605E4,1.5965816E4,5.966641E3,2.2695963E4,1.1298303E4,4.6675137E3,4.728661E2,5.493775E3,7.971918E3,1.4724046E4,3.1036838E3,8.194619E3,1.0277758E3,3.6397378E3,1.2837193E2,3.4449417E2,4.277866E3,1.2159087E3,2.6385457E3,5.3333726E3,4.508372E3,1.0215673E4,2.1062952E3,9.973887E2,5.1630903E3,3.0315288E3,6.3743524E2,3.903405E2,9.552756E2,2.6844622E3,1.0300333E1,1.180716E2,7.250206E1,2.719921E2,2.1861633E2,4.05925E3,4.0066187E2,8.152468E2,1.0865093E1,2.6276804E3,5.2559033E3,7.746914E1,1.7994751E2,4.328425E3,1.0068196E4,1.4747742E2,1.8953416E3,2.1095366E2,9.6950366E2,2.7885027E1,4.955856E3,2.0723442E2,2.2139856E3,8.175431E2,3.2068823E2,3.1674698E2,3.7809634E2,1.2244158E1,2.8267834E2,6.725972E2,2.1186567E3,5.658054E2,3.642548E1,8.164612E1,1.3030944E1,5.947112E1,2.616196E2,1.0372498E1,8.4908516E1,1.3370782E2,6.3178796E2,3.4274622E3,3.7280203E2,2.7859814E1,4.455438E2,3.69703E2,2.5494688E3,7.8211784E1,3.763556E2,4.879548E3,5.6046368E1,2.142277E1,1.3473503E2,4.5212475E1,3.9590054E3,3.6941922E2,9.951217E3,1.16979065E2,1.3060298E2,1.6874443E1,1.8760824E3,1.9259132E1,1.4814629E2,6.2807365E1,9.5196265E2,1.7540977E1,1.6822582E1,1.1062445E1,2.176188E3,2.7796682E3,1.5810052E2,