{"learner":{"attributes":{"best_iteration":"13","best_score":"0.4617644659798491"},"feature_names":["win_odds","market_implied_prob","implied_prob_norm","odds_rank","actual_wt","draw","draw_relative","field_size","jockey_win_rate","jockey_place_rate","jockey_rides","trainer_win_rate","trainer_place_rate","last_6_avg","last_6_best","last_2_avg","last_6_trend","gear_change","stable_change","ai_unluckiness","distance","race_sec_sum","sec_pos_1","sec_pos_2","sec_pos_pre","venue","track_type","course","race_class","track_condition"],"feature_types":["float","float","float","float","float","int","float","int","float","float","int","float","float","float","float","float","float","float","float","float","float","float","float","float","float","float","float","float","float","float"],"gradient_booster":{"model":{"cats":{"enc":[],"feature_segments":[],"sorted_idx":[]},"gbtree_model_param":{"num_parallel_tree":"1","num_trees":"44"},"iteration_indptr":[0,1,2,3,4,5,6,7,8,9,10,11,12,13,14,15,16,17,18,19,20,21,22,23,24,25,26,27,28,29,30,31,32,33,34,35,36,37,38,39,40,41,42,43,44],"tree_info":[0,0,0,0,0,0,0,0,0,0,0,0,0,0,0,0,0,0,0,0,0,0,0,0,0,0,0,0,0,0,0,0,0,0,0,0,0,0,0,0,0,0,0,0],"trees":[{"base_weights":[2.4773879E-6,2.4078417E-1,-2.83549E-1,4.6206987E-1,1.3842258E-1,-1.5763558E-1,-4.623089E-1,6.391009E-1,4.078215E-1,2.293156E-1,6.855335E-2,-8.183015E-2,-2.1241152E-1,-5.6188536E-1,-3.9633617E-1,5.9760684E-1,7.216602E-1,4.7994322E-1,3.7643138E-1,2.680983E-1,1.9636762E-1,1.2298459E-1,2.7507825E-2,-4.7734726E-2,-1.0860596E-1,-2.619792E-1,-1.8082498E-1,-5.3328305E-1,-6.440643E-1,-3.595651E-1,-4.3743676E-1,6.1081153E-1,5.237281E-1,4.055899E-2,6.858238E-1,5.0456727E-1,4.0347347E-1,4.1280895E-1,3.406679E-1,2.9794878E-1,2.3484357E-1,1.690438E-1,2.173455E-1,1.3302256E-1,3.5274047E-2,8.019604E-2,7.42897E-3,2.663569E-2,-6.196785E-2,-7.802799E-2,-1.4343168E-1,-1.9814846E-1,-3.1558493E-1,-1.599057E-1,-2.2237153E-1,-6.103192E-1,-5.0595593E-1,-3.4265924E-2,-5.8766085E-1,-4.1007388E-1,-3.31977E-1,-4.890671E-1,-4.1254666E-1,3.152129E-2,2.7908742E-2,2.7065972E-2,1.5586306E-2,3.6548916E-2,3.120083E-2,2.6717875E-2,2.2554012E-2,9.317325E-3,2.0753691E-2,1.6080495E-2,2.1491824E-2,1.577217E-2,1.9977896E-2,1.2637111E-2,1.6176647E-2,4.4970745E-3,1.2477032E-2,-4.313182E-3,8.718881E-3,1.1094417E-2,2.2100394E-3,6.147999E-3,1.1180191E-2,4.6332194E-3,-3.629587E-3,5.498932E-3,1.4641589E-3,-7.218418E-5,5.3804405E-3,1.9938236E-3,-9.8848995E-3,-1.8062886E-3,-6.185015E-3,-8.116683E-3,-2.8711508E-3,-6.8755606E-3,-1.6708838E-2,-1.1444314E-2,-8.070278E-3,-1.6308082E-2,-5.472689E-3,-7.372964E-3,-1.1061612E-2,-1.9511404E-3,-1.14213955E-2,-3.1211156E-2,-2.401462E-2,-2.7250394E-2,-2.3852974E-2,-3.23436E-2,-2.7448533E-2,-1.907974E-2,-2.5527343E-2,-1.5598415E-2,-1.9279806E-2,-2.0208346E-2,-2.585266E-2,-1.9809652E-2,-2.4348015E-2],"categories":[],"categories_nodes":[],"categories_segments":[],"categories_sizes":[],"default_left":[0,0,0,0,0,0,0,0,0,0,0,0,0,0,0,0,0,0,0,0,0,0,0,0,0,0,0,0,0,0,0,0,0,0,0,0,0,0,0,0,0,0,0,0,0,0,0,0,0,0,0,0,0,0,0,0,0,0,0,0,0,0,0,0,0,0,0,0,0,0,0,0,0,0,0,0,0,0,0,0,0,0,0,0,0,0,0,0,0,0,0,0,0,0,0,0,0,0,0,0,0,0,0,0,0,0,0,0,0,0,0,0,0,0,0,0,0,0,0,0,0,0,0],"id":0,"left_children":[1,3,5,7,9,11,13,15,17,19,21,23,25,27,29,31,33,35,37,39,41,43,45,47,49,51,53,55,57,59,61,63,65,-1,67,69,71,73,75,77,79,81,83,85,87,89,91,93,95,97,99,101,103,105,107,109,111,-1,113,115,117,119,121,-1,-1,-1,-1,-1,-1,-1,-1,-1,-1,-1,-1,-1,-1,-1,-1,-1,-1,-1,-1,-1,-1,-1,-1,-1,-1,-1,-1,-1,-1,-1,-1,-1,-1,-1,-1,-1,-1,-1,-1,-1,-1,-1,-1,-1,-1,-1,-1,-1,-1,-1,-1,-1,-1,-1,-1,-1,-1,-1,-1],"loss_changes":[1.8631438E3,3.342127E2,2.819922E2,4.4559814E1,6.407199E1,3.0519333E1,3.3796387E1,3.3127747E0,7.913025E0,5.551178E0,1.2747126E1,2.812605E0,6.6358795E0,4.501587E0,4.5552673E0,3.953247E-1,6.010132E-1,1.8310394E0,3.1061096E0,1.9269257E0,1.3245163E0,2.155182E0,3.4428108E0,1.4406843E0,1.82901E0,5.6147003E0,2.2332306E0,2.9224243E0,8.244171E-1,2.1649933E0,1.6844788E0,2.8408813E-1,2.7202606E-1,0E0,2.808838E-1,1.0549164E0,5.981293E-1,1.7756348E0,1.7518005E0,1.1399918E0,2.0140915E0,1.4257202E0,1.0441322E0,1.9785843E0,1.5746636E0,1.3584766E0,2.0959628E0,6.586369E-1,1.8163857E0,1.5928802E0,8.6507607E-1,8.21455E-1,1.9267807E0,1.2953453E0,9.589882E-1,4.1801453E-1,1.025116E0,0E0,1.7133331E-1,1.4622498E0,1.0311737E0,9.126129E-1,1.02005E0,0E0,0E0,0E0,0E0,0E0,0E0,0E0,0E0,0E0,0E0,0E0,0E0,0E0,0E0,0E0,0E0,0E0,0E0,0E0,0E0,0E0,0E0,0E0,0E0,0E0,0E0,0E0,0E0,0E0,0E0,0E0,0E0,0E0,0E0,0E0,0E0,0E0,0E0,0E0,0E0,0E0,0E0,0E0,0E0,0E0,0E0,0E0,0E0,0E0,0E0,0E0,0E0,0E0,0E0,0E0,0E0,0E0,0E0,0E0,0E0],"parents":[2147483647,0,0,1,1,2,2,3,3,4,4,5,5,6,6,7,7,8,8,9,9,10,10,11,11,12,12,13,13,14,14,15,15,16,16,17,17,18,18,19,19,20,20,21,21,22,22,23,23,24,24,25,25,26,26,27,27,28,28,29,29,30,30,31,31,32,32,34,34,35,35,36,36,37,37,38,38,39,39,40,40,41,41,42,42,43,43,44,44,45,45,46,46,47,47,48,48,49,49,50,50,51,51,52,52,53,53,54,54,55,55,56,56,58,58,59,59,60,60,61,61,62,62],"right_children":[2,4,6,8,10,12,14,16,18,20,22,24,26,28,30,32,34,36,38,40,42,44,46,48,50,52,54,56,58,60,62,64,66,-1,68,70,72,74,76,78,80,82,84,86,88,90,92,94,96,98,100,102,104,106,108,110,112,-1,114,116,118,120,122,-1,-1,-1,-1,-1,-1,-1,-1,-1,-1,-1,-1,-1,-1,-1,-1,-1,-1,-1,-1,-1,-1,-1,-1,-1,-1,-1,-1,-1,-1,-1,-1,-1,-1,-1,-1,-1,-1,-1,-1,-1,-1,-1,-1,-1,-1,-1,-1,-1,-1,-1,-1,-1,-1,-1,-1,-1,-1,-1,-1],"split_conditions":[1.7E1,5.7E0,4.9E1,2.9E0,9.4E0,2.5E1,9.524E-3,5E-1,3.8E0,7.3E0,1.2E1,8E0,1E0,2.07E2,7E1,2.8E0,1.6E0,4.8566017E-1,2.5E-1,1.22E2,1E0,3.78125E-1,6E0,6E0,4.286E-1,3.3E1,3.9E1,1E0,2.1805556E-1,1E0,1E0,2.160187E-1,8E-1,4.055899E-2,2.667E-1,3E-1,4.605263E-2,6.244931E-2,9E0,2.3488373E-1,1.9386332E-1,1.09792285E-1,2.2864652E-1,1.1047786E-1,6.667E-1,2.6785713E-1,1.2E1,1.3049853E-1,1.25E2,1.7391305E-1,4.647658E-1,2.1085595E-1,1.25E-1,1.1E1,1.7670682E-1,1.03984065E-1,6.803E-3,-3.4265924E-2,3.448276E-2,1.2E1,2.852853E-1,1.1E1,8.125E-1,3.152129E-2,2.7908742E-2,2.7065972E-2,1.5586306E-2,3.6548916E-2,3.120083E-2,2.6717875E-2,2.2554012E-2,9.317325E-3,2.0753691E-2,1.6080495E-2,2.1491824E-2,1.577217E-2,1.9977896E-2,1.2637111E-2,1.6176647E-2,4.4970745E-3,1.2477032E-2,-4.313182E-3,8.718881E-3,1.1094417E-2,2.2100394E-3,6.147999E-3,1.1180191E-2,4.6332194E-3,-3.629587E-3,5.498932E-3,1.4641589E-3,-7.218418E-5,5.3804405E-3,1.9938236E-3,-9.8848995E-3,-1.8062886E-3,-6.185015E-3,-8.116683E-3,-2.8711508E-3,-6.8755606E-3,-1.6708838E-2,-1.1444314E-2,-8.070278E-3,-1.6308082E-2,-5.472689E-3,-7.372964E-3,-1.1061612E-2,-1.9511404E-3,-1.14213955E-2,-3.1211156E-2,-2.401462E-2,-2.7250394E-2,-2.3852974E-2,-3.23436E-2,-2.7448533E-2,-1.907974E-2,-2.5527343E-2,-1.5598415E-2,-1.9279806E-2,-2.0208346E-2,-2.585266E-2,-1.9809652E-2,-2.4348015E-2],"split_indices":[0,0,0,0,0,0,1,1,0,0,0,3,25,0,0,0,0,9,6,4,25,9,3,3,6,0,0,25,12,25,25,8,6,0,6,6,11,11,5,9,12,9,8,8,6,9,5,11,4,9,9,9,11,3,12,11,1,0,8,3,12,3,6,0,0,0,0,0,0,0,0,0,0,0,0,0,0,0,0,0,0,0,0,0,0,0,0,0,0,0,0,0,0,0,0,0,0,0,0,0,0,0,0,0,0,0,0,0,0,0,0,0,0,0,0,0,0,0,0,0,0,0,0],"split_type":[0,0,0,0,0,0,0,0,0,0,0,0,0,0,0,0,0,0,0,0,0,0,0,0,0,0,0,0,0,0,0,0,0,0,0,0,0,0,0,0,0,0,0,0,0,0,0,0,0,0,0,0,0,0,0,0,0,0,0,0,0,0,0,0,0,0,0,0,0,0,0,0,0,0,0,0,0,0,0,0,0,0,0,0,0,0,0,0,0,0,0,0,0,0,0,0,0,0,0,0,0,0,0,0,0,0,0,0,0,0,0,0,0,0,0,0,0,0,0,0,0,0,0],"sum_hessian":[2.7287209E4,1.4756594E4,1.2530615E4,4.666032E3,1.0090562E4,7.353147E3,5.1774683E3,1.091925E3,3.5741072E3,4.3844893E3,5.7060723E3,3.085525E3,4.267622E3,2.0602688E3,3.1171995E3,7.3217474E2,3.597503E2,1.0795203E3,2.4945872E3,2.0106438E3,2.3738452E3,2.452186E3,3.2538862E3,1.3584734E3,1.7270516E3,1.6581897E3,2.6094326E3,1.5338893E3,5.2637946E2,1.6504014E3,1.4667981E3,6.1498737E2,1.1718738E2,9.665916E1,2.6309113E2,8.1233997E2,2.6718027E2,1.2314497E3,1.2631375E3,1.0553605E3,9.552833E2,1.0349172E3,1.338928E3,2.199903E3,2.5228305E2,8.9702924E2,2.356857E3,2.1808286E2,1.1403905E3,9.213346E2,8.057171E2,7.5905084E2,8.9913885E2,1.7387809E3,8.706516E2,3.9605725E2,1.137832E3,2.9757758E2,2.288019E2,5.781152E2,1.0722863E3,4.7104495E2,9.957532E2,4.4003732E2,1.7495003E2,1.06774155E2,1.0413227E1,1.4576956E2,1.1732158E2,5.1597296E2,2.96367E2,1.4415997E1,2.5276427E2,1.9687547E2,1.0345742E3,8.8879443E2,3.7434296E2,3.8534476E2,6.7001575E2,8.862512E1,8.666582E2,2.0868332E1,1.0140489E3,1.3044221E3,3.4505882E1,1.9820739E3,2.178292E2,1.6476189E2,8.752116E1,5.652271E2,3.3180212E2,2.1660054E3,1.9085156E2,2.0670482E2,1.1378034E1,8.049939E2,3.353966E2,1.7960384E2,7.417308E2,7.831306E2,2.2586432E1,4.1045166E2,3.4859918E2,8.547013E2,4.4437515E1,1.4482571E3,2.9052383E2,2.807771E1,8.425739E2,3.5436404E2,4.1693226E1,4.762909E2,6.6154114E2,8.420937E1,1.4459253E2,4.5417657E2,1.2393861E2,7.858527E2,2.8643353E2,1.20606735E2,3.5043823E2,8.2153186E2,1.742213E2],"tree_param":{"num_deleted":"0","num_feature":"30","num_nodes":"123","size_leaf_vector":"1"}},{"base_weights":[2.489672E-4,-1.8192513E-1,1.3241868E-1,-3.2209316E-1,-1.0931079E-1,5.136078E-2,2.819392E-1,-4.4507256E-1,-2.8487274E-1,-7.54743E-2,-1.7208166E-1,8.9705706E-2,3.7652394E-3,2.2367021E-1,4.3150458E-1,-5.0013864E-1,-3.8729885E-1,-3.6536774E-1,-2.5259468E-1,-1.0155104E-1,-4.5992486E-2,-2.009696E-1,-1.3044041E-1,1.1406801E-1,5.709416E-2,1.7500391E-2,-1.962668E-2,2.6760623E-1,1.8749173E-1,3.7274677E-1,5.455561E-1,-4.55252E-1,-5.490303E-1,-2.2340775E-1,-3.9697078E-1,-4.3027502E-1,-3.2681194E-1,-2.1867311E-1,-2.9148877E-1,-1.0952531E-1,-6.4127645E-3,-8.384627E-2,-2.0746501E-2,-2.53353E-1,-1.6734593E-1,-2.2229707E-1,-1.08645685E-1,1.2852998E-1,7.138084E-2,6.7685895E-2,-9.575137E-2,1.197979E-2,1.05974734E-1,-1.7208695E-2,-3.7373495E-1,3.024606E-1,2.3691465E-1,2.2295418E-1,1.5897867E-1,4.0319955E-1,3.295641E-1,3.6663797E-2,5.275193E-1,-2.7937924E-2,-2.1543754E-2,-2.4843147E-2,-3.1451333E-2,-1.867355E-2,2.9109016E-3,-2.4802685E-2,-1.8875122E-2,-1.8424073E-2,-2.387119E-2,-1.3557396E-2,-1.8040584E-2,-1.1313663E-2,-4.9598725E-3,-1.3748434E-2,-1.8628018E-2,-4.6849954E-3,-7.5352043E-3,-3.231382E-3,5.6586233E-3,-2.9731567E-3,-9.95593E-3,-4.0845983E-3,-5.297166E-4,-1.3018618E-2,4.58967E-3,-7.845874E-3,-1.6970154E-2,-1.2217015E-2,7.227575E-4,-4.689721E-3,-9.842063E-3,4.7195763E-3,7.576318E-3,-3.465272E-4,6.524293E-3,4.4395687E-4,4.059994E-3,2.5970738E-3,-1.0710608E-2,4.6060162E-4,6.8319575E-3,4.299115E-3,2.3156848E-2,-5.0853686E-3,-3.4518918E-4,-6.8002627E-3,-2.831983E-2,1.3262219E-2,1.7404722E-2,1.4969784E-2,1.0686367E-2,1.1866843E-2,4.289256E-3,1.0045589E-2,5.865319E-3,1.8155565E-2,2.266664E-2,9.771104E-3,1.8007316E-2,2.7525762E-2,2.36678E-2],"categories":[],"categories_nodes":[],"categories_segments":[],"categories_sizes":[],"default_left":[0,0,0,0,0,0,0,0,0,0,0,0,0,0,0,0,0,0,0,0,0,0,0,0,0,0,0,0,0,0,0,0,0,0,0,0,0,0,0,0,0,0,0,0,0,0,0,0,0,0,0,0,0,0,0,0,0,0,0,0,0,0,0,0,0,0,0,0,0,0,0,0,0,0,0,0,0,0,0,0,0,0,0,0,0,0,0,0,0,0,0,0,0,0,0,0,0,0,0,0,0,0,0,0,0,0,0,0,0,0,0,0,0,0,0,0,0,0,0,0,0,0,0,0,0],"id":1,"left_children":[1,3,5,7,9,11,13,15,17,19,21,23,25,27,29,31,33,35,37,39,41,43,45,47,49,51,53,55,57,59,61,63,65,67,69,71,73,75,77,79,81,83,85,87,89,91,93,95,97,99,101,103,105,107,109,111,113,115,117,119,121,-1,123,-1,-1,-1,-1,-1,-1,-1,-1,-1,-1,-1,-1,-1,-1,-1,-1,-1,-1,-1,-1,-1,-1,-1,-1,-1,-1,-1,-1,-1,-1,-1,-1,-1,-1,-1,-1,-1,-1,-1,-1,-1,-1,-1,-1,-1,-1,-1,-1,-1,-1,-1,-1,-1,-1,-1,-1,-1,-1,-1,-1,-1,-1],"loss_changes":[1.2471077E3,2.2162292E2,3.63786E2,3.388922E1,3.0459991E1,3.5526016E1,9.186438E1,5.2935486E0,1.4737213E1,7.163521E0,6.0177155E0,8.558609E0,2.791205E0,1.20234375E1,1.9614807E1,1.680542E0,1.2525558E0,3.9420166E0,5.3154907E0,3.7523003E0,4.1822233E0,5.1791916E0,4.101471E0,3.799675E0,7.4725914E0,2.672105E0,2.745485E0,3.5951538E0,4.179962E0,2.4378967E0,3.0104675E0,9.3117523E-1,1.4243317E0,2.1111257E0,1.3515015E0,1.586113E0,1.8469696E0,1.9586868E0,2.437378E0,2.9602776E0,2.6780293E0,4.910639E0,1.625011E0,2.8270416E0,3.191803E0,2.0609493E0,2.1656952E0,3.6026382E0,7.237942E0,3.4273205E0,5.2474465E0,1.7766806E0,2.254726E0,2.7798223E0,9.191141E-1,2.6273804E0,2.583397E0,3.6403732E0,4.020687E0,2.1304932E0,3.2687912E0,0E0,8.840332E-1,0E0,0E0,0E0,0E0,0E0,0E0,0E0,0E0,0E0,0E0,0E0,0E0,0E0,0E0,0E0,0E0,0E0,0E0,0E0,0E0,0E0,0E0,0E0,0E0,0E0,0E0,0E0,0E0,0E0,0E0,0E0,0E0,0E0,0E0,0E0,0E0,0E0,0E0,0E0,0E0,0E0,0E0,0E0,0E0,0E0,0E0,0E0,0E0,0E0,0E0,0E0,0E0,0E0,0E0,0E0,0E0,0E0,0E0,0E0,0E0,0E0,0E0],"parents":[2147483647,0,0,1,1,2,2,3,3,4,4,5,5,6,6,7,7,8,8,9,9,10,10,11,11,12,12,13,13,14,14,15,15,16,16,17,17,18,18,19,19,20,20,21,21,22,22,23,23,24,24,25,25,26,26,27,27,28,28,29,29,30,30,31,31,32,32,33,33,34,34,35,35,36,36,37,37,38,38,39,39,40,40,41,41,42,42,43,43,44,44,45,45,46,46,47,47,48,48,49,49,50,50,51,51,52,52,53,53,54,54,55,55,56,56,57,57,58,58,59,59,60,60,62,62],"right_children":[2,4,6,8,10,12,14,16,18,20,22,24,26,28,30,32,34,36,38,40,42,44,46,48,50,52,54,56,58,60,62,64,66,68,70,72,74,76,78,80,82,84,86,88,90,92,94,96,98,100,102,104,106,108,110,112,114,116,118,120,122,-1,124,-1,-1,-1,-1,-1,-1,-1,-1,-1,-1,-1,-1,-1,-1,-1,-1,-1,-1,-1,-1,-1,-1,-1,-1,-1,-1,-1,-1,-1,-1,-1,-1,-1,-1,-1,-1,-1,-1,-1,-1,-1,-1,-1,-1,-1,-1,-1,-1,-1,-1,-1,-1,-1,-1,-1,-1,-1,-1,-1,-1,-1,-1],"split_conditions":[4.5183424E-2,1.457443E-2,1.1848025E-1,6.803E-3,1E1,6E0,2.1825838E-1,2.1715419E-1,1E0,3.2528393E-2,2.329501E-2,5E0,1.24E2,5.3E0,3.097677E-1,2.07E2,1.1E1,9.125841E-3,1.2E1,1.2E1,1E0,1E0,2.16E2,6.364E-1,1.9514138E-1,8.522993E-2,2.3325635E-1,2.222E-1,1.2E2,3E-1,1.6E0,2.2624435E-2,1.4E1,7.72E2,1E0,1.16E2,1.1E1,1.3E1,1.4E1,1.368E3,2.713552E-2,9.2307694E-2,4.3243244E-2,3.6031175E-1,1.32E2,9.286E-1,2.9141715E-1,1E0,1E1,6.2704094E-2,1.929E3,3.862E3,9.6E0,1.03E2,2.4924472E-1,1.8478832E-1,2.2277677E-1,1.9810247E-1,5E-1,1.16E2,5E0,3.6663797E-2,2.160187E-1,-2.7937924E-2,-2.1543754E-2,-2.4843147E-2,-3.1451333E-2,-1.867355E-2,2.9109016E-3,-2.4802685E-2,-1.8875122E-2,-1.8424073E-2,-2.387119E-2,-1.3557396E-2,-1.8040584E-2,-1.1313663E-2,-4.9598725E-3,-1.3748434E-2,-1.8628018E-2,-4.6849954E-3,-7.5352043E-3,-3.231382E-3,5.6586233E-3,-2.9731567E-3,-9.95593E-3,-4.0845983E-3,-5.297166E-4,-1.3018618E-2,4.58967E-3,-7.845874E-3,-1.6970154E-2,-1.2217015E-2,7.227575E-4,-4.689721E-3,-9.842063E-3,4.7195763E-3,7.576318E-3,-3.465272E-4,6.524293E-3,4.4395687E-4,4.059994E-3,2.5970738E-3,-1.0710608E-2,4.6060162E-4,6.8319575E-3,4.299115E-3,2.3156848E-2,-5.0853686E-3,-3.4518918E-4,-6.8002627E-3,-2.831983E-2,1.3262219E-2,1.7404722E-2,1.4969784E-2,1.0686367E-2,1.1866843E-2,4.289256E-3,1.0045589E-2,5.865319E-3,1.8155565E-2,2.266664E-2,9.771104E-3,1.8007316E-2,2.7525762E-2,2.36678E-2],"split_indices":[2,2,2,1,3,3,2,12,25,2,2,3,4,0,2,0,3,2,3,5,25,25,10,6,8,2,8,6,4,6,0,8,3,10,25,4,3,5,3,10,2,8,8,12,4,6,12,25,5,2,10,10,0,10,12,2,12,8,6,4,5,0,8,0,0,0,0,0,0,0,0,0,0,0,0,0,0,0,0,0,0,0,0,0,0,0,0,0,0,0,0,0,0,0,0,0,0,0,0,0,0,0,0,0,0,0,0,0,0,0,0,0,0,0,0,0,0,0,0,0,0,0,0,0,0],"split_type":[0,0,0,0,0,0,0,0,0,0,0,0,0,0,0,0,0,0,0,0,0,0,0,0,0,0,0,0,0,0,0,0,0,0,0,0,0,0,0,0,0,0,0,0,0,0,0,0,0,0,0,0,0,0,0,0,0,0,0,0,0,0,0,0,0,0,0,0,0,0,0,0,0,0,0,0,0,0,0,0,0,0,0,0,0,0,0,0,0,0,0,0,0,0,0,0,0,0,0,0,0,0,0,0,0,0,0,0,0,0,0,0,0,0,0,0,0,0,0,0,0,0,0,0,0],"sum_hessian":[5.1792703E4,2.1776717E4,3.0015984E4,7.4303745E3,1.4346343E4,1.946499E4,1.0550994E4,1.7238083E3,5.7065664E3,9.323002E3,5.023341E3,1.0779608E4,8.685382E3,7.5946846E3,2.956309E3,8.786657E2,8.4514264E2,1.6303873E3,4.076179E3,4.9458975E3,4.377105E3,2.963579E3,2.0597617E3,6.1687646E3,4.6108438E3,5.4723853E3,3.2129963E3,3.4267551E3,4.1679297E3,1.9539359E3,1.00237317E3,4.6347134E2,4.1519434E2,4.8439167E1,7.967035E2,6.0378204E2,1.0266052E3,2.1808052E3,1.8953737E3,4.563264E3,3.8263312E2,1.7503351E3,2.62677E3,1.1560292E3,1.8075498E3,3.932328E2,1.6665289E3,4.6062153E3,1.5625491E3,4.3125537E3,2.9828992E2,5.1520444E3,3.203407E2,3.192247E3,2.0749279E1,1.6004146E3,1.8263406E3,1.8545526E3,2.3133767E3,1.1409741E3,8.1296185E2,8.439281E1,9.179804E2,8.416746E1,3.793039E2,2.5567458E2,1.5951976E2,3.138804E1,1.7051126E1,1.2681365E2,6.6988983E2,2.65124E2,3.3865802E2,3.92683E2,6.3392224E2,2.0495354E3,1.3126993E2,1.5781781E3,3.171956E2,3.298785E3,1.2644791E3,2.576614E2,1.2497171E2,1.4459866E3,3.043485E2,3.7407535E2,2.2526948E3,1.1332279E3,2.2801247E1,1.706057E3,1.0149283E2,3.5970935E2,3.352343E1,1.4281123E3,2.3841667E2,1.8560251E3,2.7501902E3,6.7245734E2,8.9009174E2,8.061613E2,3.5063926E3,1.3301407E2,1.6527583E2,5.041191E3,1.108535E2,3.0453485E2,1.5805849E1,3.4602512E2,2.846222E3,1.0051914E1,1.0697365E1,8.852606E2,7.1515393E2,4.911002E2,1.3352404E3,1.6778895E3,1.7666315E2,1.1511754E3,1.1622014E3,6.385836E2,5.023905E2,1.523041E2,6.606578E2,6.3796014E2,2.8002026E2],"tree_param":{"num_deleted":"0","num_feature":"30","num_nodes":"125","size_leaf_vector":"1"}},{"base_weights":[8.959051E-4,1.264836E-1,-1.5051797E-1,2.9083577E-1,7.412689E-2,-7.920145E-2,-2.7892482E-1,5.0158286E-1,2.511327E-1,1.2628873E-1,3.6951613E-2,-2.7983045E-2,-1.0107261E-1,-3.6577743E-1,-2.373904E-1,4.576095E-1,6.07198E-1,3.2696775E-1,2.2844175E-1,1.1257735E-1,1.6409755E-1,-2.1937013E-2,4.8697326E-2,-1.9270667E-1,-2.2464514E-2,-1.24268584E-1,-5.855924E-2,-3.4010226E-1,-4.3654588E-1,-2.8165728E-1,-1.7808433E-1,2.9921848E-1,4.872552E-1,3.501251E-1,6.272186E-1,2.361621E-1,3.6019385E-1,6.878713E-2,2.3735152E-1,1.9721225E-2,1.2004708E-1,1.852549E-1,1.211508E-1,1.8908594E-2,-8.245857E-2,6.52252E-2,1.3016407E-2,-2.3236339E-1,1.1709544E-2,5.0739164E-4,-6.2119544E-2,-9.4858855E-2,-1.4810304E-1,-4.848358E-2,-1.7917152E-1,-4.0929633E-1,-3.2048148E-1,-4.8124152E-1,-3.5868236E-1,-3.312355E-1,-2.2678325E-1,-1.509683E-1,-2.1410525E-1,2.5439828E-3,1.687711E-2,2.5451256E-2,1.9654926E-2,2.6792018E-2,7.18565E-3,2.8844628E-2,3.601519E-2,1.3307005E-2,-6.4804456E-3,2.0073043E-2,1.6532397E-2,-8.505054E-3,9.318265E-3,1.6160462E-2,1.1169687E-2,-2.4470605E-3,7.01113E-3,7.5888275E-3,5.102393E-3,1.10971E-2,7.6973415E-3,1.306268E-2,5.152212E-3,-8.39171E-4,7.3610866E-3,-1.1273292E-2,-2.2578903E-3,3.3427496E-3,-1.769356E-2,1.604742E-3,-1.3016731E-3,-1.7749663E-2,-7.527021E-3,1.1714204E-3,-1.6597611E-3,1.5073578E-3,-4.1282754E-3,-6.1355727E-3,-2.7100113E-3,-1.820225E-2,-7.1275434E-3,-1.46498E-3,-4.854824E-3,-1.5081914E-2,-5.6479997E-3,-1.8308315E-2,-2.3804763E-2,-2.0745847E-2,-1.4747101E-2,-2.5774492E-2,-2.0847617E-2,-1.5973497E-2,-2.6193682E-2,-1.6806053E-2,-4.6672663E-3,-1.2216574E-2,-8.318482E-3,3.457422E-3,-7.836205E-3,-1.0953877E-2,4.9132477E-3],"categories":[],"categories_nodes":[],"categories_segments":[],"categories_sizes":[],"default_left":[0,0,0,0,0,0,0,0,0,0,0,0,0,0,0,0,0,0,0,0,0,0,0,0,0,0,0,0,0,0,0,0,0,0,0,0,0,0,0,0,0,0,0,0,0,0,0,0,0,0,0,0,0,0,0,0,0,0,0,0,0,0,0,0,0,0,0,0,0,0,0,0,0,0,0,0,0,0,0,0,0,0,0,0,0,0,0,0,0,0,0,0,0,0,0,0,0,0,0,0,0,0,0,0,0,0,0,0,0,0,0,0,0,0,0,0,0,0,0,0,0,0,0,0,0],"id":2,"left_children":[1,3,5,7,9,11,13,15,17,19,21,23,25,27,29,31,33,35,37,39,41,43,45,47,49,51,53,55,57,59,61,63,65,67,69,71,73,75,77,79,81,83,85,87,89,91,93,95,-1,97,99,101,103,105,107,109,111,113,115,117,119,121,123,-1,-1,-1,-1,-1,-1,-1,-1,-1,-1,-1,-1,-1,-1,-1,-1,-1,-1,-1,-1,-1,-1,-1,-1,-1,-1,-1,-1,-1,-1,-1,-1,-1,-1,-1,-1,-1,-1,-1,-1,-1,-1,-1,-1,-1,-1,-1,-1,-1,-1,-1,-1,-1,-1,-1,-1,-1,-1,-1,-1,-1,-1],"loss_changes":[9.523724E2,2.3555124E2,2.0791748E2,5.5213684E1,4.0258812E1,1.6352448E1,2.9160645E1,4.5868225E0,9.505371E0,4.4605103E0,8.38768E0,3.9684367E0,1.008181E1,4.614044E0,1.4356567E1,3.3458557E0,1.349411E0,3.7764435E0,6.083969E0,4.3976593E0,2.0648766E0,4.9874535E0,5.960678E0,2.450522E0,3.8531637E0,4.6252365E0,4.382601E0,2.4861145E0,2.243515E0,8.468811E0,2.2611923E0,1.1232567E0,1.0805817E0,8.5411954E-1,9.034805E-1,3.82576E0,1.0074005E0,6.4381065E0,4.7949066E0,3.924654E0,3.337555E0,1.7313614E0,1.9037457E0,5.5211596E0,4.3260374E0,4.742401E0,2.3859527E0,1.2510414E0,0E0,2.070509E0,2.9293985E0,3.3516006E0,4.3289795E0,3.1085272E0,2.221921E0,1.0422745E0,3.511139E0,7.497635E-1,1.498085E0,1.8836365E0,1.5430222E0,1.7124081E0,1.5841751E0,0E0,0E0,0E0,0E0,0E0,0E0,0E0,0E0,0E0,0E0,0E0,0E0,0E0,0E0,0E0,0E0,0E0,0E0,0E0,0E0,0E0,0E0,0E0,0E0,0E0,0E0,0E0,0E0,0E0,0E0,0E0,0E0,0E0,0E0,0E0,0E0,0E0,0E0,0E0,0E0,0E0,0E0,0E0,0E0,0E0,0E0,0E0,0E0,0E0,0E0,0E0,0E0,0E0,0E0,0E0,0E0,0E0,0E0,0E0,0E0,0E0,0E0],"parents":[2147483647,0,0,1,1,2,2,3,3,4,4,5,5,6,6,7,7,8,8,9,9,10,10,11,11,12,12,13,13,14,14,15,15,16,16,17,17,18,18,19,19,20,20,21,21,22,22,23,23,24,24,25,25,26,26,27,27,28,28,29,29,30,30,31,31,32,32,33,33,34,34,35,35,36,36,37,37,38,38,39,39,40,40,41,41,42,42,43,43,44,44,45,45,46,46,47,47,49,49,50,50,51,51,52,52,53,53,54,54,55,55,56,56,57,57,58,58,59,59,60,60,61,61,62,62],"right_children":[2,4,6,8,10,12,14,16,18,20,22,24,26,28,30,32,34,36,38,40,42,44,46,48,50,52,54,56,58,60,62,64,66,68,70,72,74,76,78,80,82,84,86,88,90,92,94,96,-1,98,100,102,104,106,108,110,112,114,116,118,120,122,124,-1,-1,-1,-1,-1,-1,-1,-1,-1,-1,-1,-1,-1,-1,-1,-1,-1,-1,-1,-1,-1,-1,-1,-1,-1,-1,-1,-1,-1,-1,-1,-1,-1,-1,-1,-1,-1,-1,-1,-1,-1,-1,-1,-1,-1,-1,-1,-1,-1,-1,-1,-1,-1,-1,-1,-1,-1,-1,-1,-1,-1,-1],"split_conditions":[1.7E1,5.7E0,4.9E1,2.9E0,9.4E0,2.2E1,8.929E-3,5E-1,3.7E0,1.4E1,1.2E1,2.5E1,1.4E1,2.07E2,1.4E1,1E1,7E0,1.2E1,9E0,1.8928571E-1,8.1E0,5.333E-1,1.4E1,8.667E-1,5.714E-1,3E1,2.801E3,1E0,2.3510571E-1,1.5152E-2,1.2E2,7.723036E-2,2.8E0,2.886076E-1,6.25E-1,2.3140496E-1,1.1366652E-1,8.163265E-2,5.7276994E-2,1.354E3,7E0,8.4337346E-2,4.7709923E-2,3.077E-1,9E0,2.4E-1,1.25E2,1E0,1.1709544E-2,9.1909386E-2,6.0240965E-2,1E0,8E0,1.26E2,3.091E3,6E-1,1.9587629E-1,7.44E2,6.870229E-2,1.1133552E-1,7.692E-1,1.7E1,1.05E0,2.5439828E-3,1.687711E-2,2.5451256E-2,1.9654926E-2,2.6792018E-2,7.18565E-3,2.8844628E-2,3.601519E-2,1.3307005E-2,-6.4804456E-3,2.0073043E-2,1.6532397E-2,-8.505054E-3,9.318265E-3,1.6160462E-2,1.1169687E-2,-2.4470605E-3,7.01113E-3,7.5888275E-3,5.102393E-3,1.10971E-2,7.6973415E-3,1.306268E-2,5.152212E-3,-8.39171E-4,7.3610866E-3,-1.1273292E-2,-2.2578903E-3,3.3427496E-3,-1.769356E-2,1.604742E-3,-1.3016731E-3,-1.7749663E-2,-7.527021E-3,1.1714204E-3,-1.6597611E-3,1.5073578E-3,-4.1282754E-3,-6.1355727E-3,-2.7100113E-3,-1.820225E-2,-7.1275434E-3,-1.46498E-3,-4.854824E-3,-1.5081914E-2,-5.6479997E-3,-1.8308315E-2,-2.3804763E-2,-2.0745847E-2,-1.4747101E-2,-2.5774492E-2,-2.0847617E-2,-1.5973497E-2,-2.6193682E-2,-1.6806053E-2,-4.6672663E-3,-1.2216574E-2,-8.318482E-3,3.457422E-3,-7.836205E-3,-1.0953877E-2,4.9132477E-3],"split_indices":[0,0,0,0,0,0,1,1,0,7,7,10,7,0,7,7,7,7,7,12,0,6,0,6,6,0,10,25,12,1,4,11,0,12,1,8,8,8,8,10,0,8,8,6,7,8,4,25,0,11,11,25,7,4,10,6,12,10,8,8,6,10,19,0,0,0,0,0,0,0,0,0,0,0,0,0,0,0,0,0,0,0,0,0,0,0,0,0,0,0,0,0,0,0,0,0,0,0,0,0,0,0,0,0,0,0,0,0,0,0,0,0,0,0,0,0,0,0,0,0,0,0,0,0,0],"split_type":[0,0,0,0,0,0,0,0,0,0,0,0,0,0,0,0,0,0,0,0,0,0,0,0,0,0,0,0,0,0,0,0,0,0,0,0,0,0,0,0,0,0,0,0,0,0,0,0,0,0,0,0,0,0,0,0,0,0,0,0,0,0,0,0,0,0,0,0,0,0,0,0,0,0,0,0,0,0,0,0,0,0,0,0,0,0,0,0,0,0,0,0,0,0,0,0,0,0,0,0,0,0,0,0,0,0,0,0,0,0,0,0,0,0,0,0,0,0,0,0,0,0,0,0,0],"sum_hessian":[5.0081418E4,2.737546E4,2.2705955E4,6.6127925E3,2.076267E4,1.4599231E4,8.106723E3,1.0464612E3,5.566331E3,8.638839E3,1.212383E4,4.369323E3,1.0229908E4,2.6200754E3,5.486648E3,7.4260645E2,3.0385468E2,1.2788607E3,4.2874707E3,6.342653E3,2.2961865E3,2.0159152E3,1.0107915E4,1.4053545E2,4.2287876E3,6.6174165E3,3.6124915E3,1.9268208E3,6.932546E2,3.1395188E3,2.347129E3,1.1882756E2,6.2377893E2,2.3289925E1,2.8056473E2,3.4475793E2,9.341027E2,2.2708302E2,4.0603875E3,4.7251108E2,5.8701416E3,1.5361174E3,7.600691E2,1.2040186E3,8.1189667E2,6.90746E3,3.200455E3,1.29007E2,1.1528434E1,2.67827E3,1.5505176E3,2.9644778E3,3.6529385E3,3.335273E3,2.7721866E2,4.2128137E2,1.5055394E3,4.3714297E2,2.561116E2,1.6467013E3,1.4928176E3,1.3420469E3,1.00508215E3,1.619715E1,1.0263041E2,5.0306055E2,1.2071835E2,1.1419489E1,1.1870436E1,1.8678035E2,9.378439E1,3.1889426E2,2.5863676E1,3.8449203E2,5.496107E2,7.4754555E1,1.5232846E2,5.646895E2,3.495698E3,3.013779E2,1.7113316E2,2.1219978E3,3.7481436E3,7.0449493E2,8.316225E2,8.545069E1,6.746184E2,9.4267114E2,2.6134738E2,1.669155E2,6.449812E2,6.8815396E3,2.5920568E1,2.1501455E3,1.0503096E3,5.02931E1,7.871391E1,1.5942986E3,1.0839714E3,2.8117624E2,1.2693413E3,1.7580995E3,1.2063784E3,8.994922E1,3.5629893E3,2.3926646E3,9.4260834E2,9.603459E1,1.8118407E2,2.5993256E2,1.6134883E2,3.1724387E2,1.1882957E3,2.8062796E2,1.5651501E2,2.0935075E2,4.6760868E1,1.6131589E3,3.354229E1,1.1544445E3,3.3837317E2,3.391805E1,1.3081288E3,9.896279E2,1.5454186E1],"tree_param":{"num_deleted":"0","num_feature":"30","num_nodes":"125","size_leaf_vector":"1"}},{"base_weights":[1.3526207E-3,-1.404984E-1,1.18380494E-1,-2.6471674E-1,-8.7228715E-2,7.553805E-2,2.929328E-1,-3.366618E-1,-2.2258173E-1,-6.108562E-2,-1.4529763E-1,2.8267793E-2,1.2327074E-1,2.5566903E-1,5.01724E-1,-3.1502846E-1,-4.2249942E-1,-2.7446932E-1,-1.7910661E-1,-1.5967071E-1,-5.1790442E-2,-1.6418564E-1,-9.7382195E-2,3.8400095E-2,-4.584248E-2,1.379375E-1,7.657002E-2,2.2580467E-1,3.185254E-1,3.5819936E-1,5.2867234E-1,-3.6661655E-1,-2.5644365E-1,-5.113601E-1,-3.619611E-1,-2.4579416E-1,-3.8274863E-1,-9.718968E-2,-2.0780715E-1,-1.0132683E-1,-3.232149E-1,-6.727006E-2,-2.07999E-2,-1.9678998E-1,-1.3633336E-1,-1.5025729E-1,-4.440346E-2,-5.1784117E-2,4.531736E-2,-3.0167243E-1,-3.995748E-2,1.1925505E-1,1.707377E-1,8.3030105E-2,-8.530288E-2,2.8454039E-1,2.1845648E-1,1.940857E-1,3.6709568E-1,5.5698276E-1,2.4746121E-1,4.8790494E-1,6.371756E-1,-1.5133567E-2,-2.1165038E-2,-2.350681E-3,-1.3345114E-2,-3.0218625E-2,-2.1027703E-2,-9.910371E-3,-1.8856764E-2,-1.662234E-2,-1.1322718E-2,-2.2243757E-2,-1.6751913E-2,-1.28546E-2,-3.8391452E-3,-9.708468E-3,-1.5567856E-2,-4.14945E-3,-2.2803182E-2,-7.40677E-3,-1.9897725E-2,-8.480938E-3,-2.9426517E-3,-6.228145E-4,-5.451696E-3,-1.0966947E-2,-6.88942E-3,-5.3160763E-3,-8.025168E-3,-8.6940145E-3,1.0871261E-3,-2.9478208E-3,1.3879731E-2,-2.4766788E-2,-1.8305607E-3,4.4194534E-3,1.6597299E-3,7.699158E-4,-2.4308346E-2,1.1643351E-2,-2.66808E-3,6.06443E-3,-1.5128237E-2,7.942844E-3,1.3209084E-2,6.351379E-3,2.7957358E-3,-1.7632058E-2,6.326537E-4,9.290476E-3,1.6671835E-2,-1.7296302E-4,1.1079657E-2,1.7701581E-2,5.1940684E-3,1.6803885E-2,2.0080358E-2,1.1528123E-2,3.2460187E-2,-3.5270087E-3,1.5883347E-2,2.4787668E-2,1.4437208E-2,2.990087E-2,3.6994543E-2],"categories":[],"categories_nodes":[],"categories_segments":[],"categories_sizes":[],"default_left":[0,0,0,0,0,0,0,0,0,0,0,0,0,0,0,0,0,0,0,0,0,0,0,0,0,0,0,0,0,0,0,0,0,0,0,0,0,0,0,0,0,0,0,0,0,0,0,0,0,0,0,0,0,0,0,0,0,0,0,0,0,0,0,0,0,0,0,0,0,0,0,0,0,0,0,0,0,0,0,0,0,0,0,0,0,0,0,0,0,0,0,0,0,0,0,0,0,0,0,0,0,0,0,0,0,0,0,0,0,0,0,0,0,0,0,0,0,0,0,0,0,0,0,0,0,0,0],"id":3,"left_children":[1,3,5,7,9,11,13,15,17,19,21,23,25,27,29,31,33,35,37,39,41,43,45,47,49,51,53,55,57,59,61,63,65,67,69,71,73,75,77,79,81,83,85,87,89,91,93,95,97,99,101,103,105,107,109,111,113,115,117,119,121,123,125,-1,-1,-1,-1,-1,-1,-1,-1,-1,-1,-1,-1,-1,-1,-1,-1,-1,-1,-1,-1,-1,-1,-1,-1,-1,-1,-1,-1,-1,-1,-1,-1,-1,-1,-1,-1,-1,-1,-1,-1,-1,-1,-1,-1,-1,-1,-1,-1,-1,-1,-1,-1,-1,-1,-1,-1,-1,-1,-1,-1,-1,-1,-1,-1],"loss_changes":[8.154947E2,1.4692297E2,2.0127383E2,2.0128052E1,2.3587822E1,4.876539E1,4.1141388E1,4.4342346E0,9.438782E0,9.815067E0,4.350479E0,8.157363E0,7.3554993E0,8.381073E0,2.9136505E0,5.855057E0,2.4625168E0,5.8536835E0,5.366989E0,8.775919E0,4.69878E0,3.11438E0,3.8214874E0,5.9631653E0,1.9553573E0,4.9938965E0,2.6971645E0,1.2568665E0,8.680298E0,2.7221966E0,2.6676178E0,3.657425E0,2.0135841E0,1.4097862E0,6.611519E-1,2.4674988E0,1.0344696E0,1.926353E0,2.3346024E0,4.397871E0,3.1114178E0,5.6184998E0,2.402416E0,2.0869408E0,1.338501E0,2.7811193E0,3.2218118E0,4.5660286E0,4.6311665E0,1.7174718E0,4.6879864E0,4.5114594E0,3.2520676E0,2.9447212E0,2.6026967E0,1.5626125E0,1.8944855E0,5.8586664E0,9.786835E-1,1.2255373E0,1.9254594E0,6.285858E-1,2.8405762E-1,0E0,0E0,0E0,0E0,0E0,0E0,0E0,0E0,0E0,0E0,0E0,0E0,0E0,0E0,0E0,0E0,0E0,0E0,0E0,0E0,0E0,0E0,0E0,0E0,0E0,0E0,0E0,0E0,0E0,0E0,0E0,0E0,0E0,0E0,0E0,0E0,0E0,0E0,0E0,0E0,0E0,0E0,0E0,0E0,0E0,0E0,0E0,0E0,0E0,0E0,0E0,0E0,0E0,0E0,0E0,0E0,0E0,0E0,0E0,0E0,0E0,0E0,0E0,0E0],"parents":[2147483647,0,0,1,1,2,2,3,3,4,4,5,5,6,6,7,7,8,8,9,9,10,10,11,11,12,12,13,13,14,14,15,15,16,16,17,17,18,18,19,19,20,20,21,21,22,22,23,23,24,24,25,25,26,26,27,27,28,28,29,29,30,30,31,31,32,32,33,33,34,34,35,35,36,36,37,37,38,38,39,39,40,40,41,41,42,42,43,43,44,44,45,45,46,46,47,47,48,48,49,49,50,50,51,51,52,52,53,53,54,54,55,55,56,56,57,57,58,58,59,59,60,60,61,61,62,62],"right_children":[2,4,6,8,10,12,14,16,18,20,22,24,26,28,30,32,34,36,38,40,42,44,46,48,50,52,54,56,58,60,62,64,66,68,70,72,74,76,78,80,82,84,86,88,90,92,94,96,98,100,102,104,106,108,110,112,114,116,118,120,122,124,126,-1,-1,-1,-1,-1,-1,-1,-1,-1,-1,-1,-1,-1,-1,-1,-1,-1,-1,-1,-1,-1,-1,-1,-1,-1,-1,-1,-1,-1,-1,-1,-1,-1,-1,-1,-1,-1,-1,-1,-1,-1,-1,-1,-1,-1,-1,-1,-1,-1,-1,-1,-1,-1,-1,-1,-1,-1,-1,-1,-1,-1,-1,-1,-1],"split_conditions":[4.8245896E-2,1.8182E-2,1.92308E-1,8.929E-3,1E1,1.0101E-1,2.9282153E-1,1.4E1,1.3E1,1E1,3.3333E-2,8E0,5E0,2.7027E-1,9E0,1.4E1,2.1002387E-1,1.2E1,1.1E1,8E0,1.4E1,1.3E1,7.594936E-2,1E1,9.150327E-2,1.3E1,3.773E3,5.5363324E-2,1.2E1,2.820513E-1,4.055219E-1,1.2E1,1.1E1,4.831E-3,6.292683E-2,1.1E1,7.004471E-2,2.4770642E-2,2.7122465E-1,3.18E3,4.15E2,1.8971743E-2,1.1047786E-1,9.382151E-2,5.5045873E-2,2.547E3,4.496601E-2,8.597285E-2,5.1767677E-2,1.13E2,3.119584E-2,4.509E3,1.78571E-1,1.18E2,1.2E1,1.7708333E-1,1.851369E-1,9.375E-2,1.3E1,2.7890012E-1,4E-1,2E0,5.09763E-1,-1.5133567E-2,-2.1165038E-2,-2.350681E-3,-1.3345114E-2,-3.0218625E-2,-2.1027703E-2,-9.910371E-3,-1.8856764E-2,-1.662234E-2,-1.1322718E-2,-2.2243757E-2,-1.6751913E-2,-1.28546E-2,-3.8391452E-3,-9.708468E-3,-1.5567856E-2,-4.14945E-3,-2.2803182E-2,-7.40677E-3,-1.9897725E-2,-8.480938E-3,-2.9426517E-3,-6.228145E-4,-5.451696E-3,-1.0966947E-2,-6.88942E-3,-5.3160763E-3,-8.025168E-3,-8.6940145E-3,1.0871261E-3,-2.9478208E-3,1.3879731E-2,-2.4766788E-2,-1.8305607E-3,4.4194534E-3,1.6597299E-3,7.699158E-4,-2.4308346E-2,1.1643351E-2,-2.66808E-3,6.06443E-3,-1.5128237E-2,7.942844E-3,1.3209084E-2,6.351379E-3,2.7957358E-3,-1.7632058E-2,6.326537E-4,9.290476E-3,1.6671835E-2,-1.7296302E-4,1.1079657E-2,1.7701581E-2,5.1940684E-3,1.6803885E-2,2.0080358E-2,1.1528123E-2,3.2460187E-2,-3.5270087E-3,1.5883347E-2,2.4787668E-2,1.4437208E-2,2.990087E-2,3.6994543E-2],"split_indices":[2,1,1,1,3,1,2,3,7,7,1,3,3,1,7,7,12,3,3,3,7,7,11,7,9,7,10,8,7,12,2,3,3,1,11,7,11,8,9,10,10,2,8,11,8,10,2,9,8,4,8,10,1,4,7,9,9,8,7,9,1,3,2,0,0,0,0,0,0,0,0,0,0,0,0,0,0,0,0,0,0,0,0,0,0,0,0,0,0,0,0,0,0,0,0,0,0,0,0,0,0,0,0,0,0,0,0,0,0,0,0,0,0,0,0,0,0,0,0,0,0,0,0,0,0,0,0],"split_type":[0,0,0,0,0,0,0,0,0,0,0,0,0,0,0,0,0,0,0,0,0,0,0,0,0,0,0,0,0,0,0,0,0,0,0,0,0,0,0,0,0,0,0,0,0,0,0,0,0,0,0,0,0,0,0,0,0,0,0,0,0,0,0,0,0,0,0,0,0,0,0,0,0,0,0,0,0,0,0,0,0,0,0,0,0,0,0,0,0,0,0,0,0,0,0,0,0,0,0,0,0,0,0,0,0,0,0,0,0,0,0,0,0,0,0,0,0,0,0,0,0,0,0,0,0,0,0],"sum_hessian":[4.912264E4,2.2206117E4,2.6916523E4,6.663555E3,1.5542562E4,2.1613178E4,5.303347E3,2.4585757E3,4.2049795E3,1.0718885E4,4.823677E3,1.0859992E4,1.0753185E4,4.50207E3,8.01277E2,1.9674072E3,4.911684E2,1.9145952E3,2.2903843E3,9.221663E2,9.796719E3,3.4580898E3,1.3655868E3,9.554228E3,1.3057649E3,8.1817E3,2.5714844E3,3.055114E3,1.446956E3,1.2892511E2,6.7235187E2,1.0433796E3,9.240276E2,1.9600983E2,2.9515857E2,1.516308E3,3.9828726E2,5.953956E2,1.6949886E3,6.80883E2,2.4128333E2,6.532565E3,3.2641536E3,1.5903434E3,1.8677465E3,6.825429E2,6.830438E2,6.801569E2,8.87407E3,2.8231617E1,1.2775333E3,5.2156123E3,2.9660881E3,2.4732673E3,9.821707E1,3.3551828E2,2.7195957E3,4.0761636E2,1.0393397E3,4.4684067E1,8.424104E1,4.9272083E2,1.7963106E2,4.9326688E2,5.5011273E2,4.4211132E1,8.7981647E2,9.403475E1,1.0197508E2,2.6223793E1,2.6893478E2,2.7371747E2,1.2425905E3,1.6939009E2,2.2889716E2,6.60722E1,5.293234E2,1.5002739E3,1.9471468E2,6.485887E2,3.2294323E1,7.307807E1,1.6820525E2,4.9495068E2,6.0376143E3,2.983197E3,2.8095673E2,1.1486427E3,4.4170068E2,8.355926E2,1.0321539E3,6.0011084E2,8.243209E1,6.542896E2,2.8754223E1,2.1450329E1,6.587066E2,1.9476945E3,6.9263765E3,1.0721783E1,1.7509832E1,5.9060284E1,1.218473E3,5.191298E3,2.4314219E1,2.6339036E3,3.3218445E2,9.416537E2,1.5316136E3,2.5640322E1,7.257675E1,1.12718475E2,2.227998E2,3.7902615E1,2.681693E3,1.4593202E2,2.6168433E2,5.530299E2,4.863098E2,1.0614317E1,3.4069748E1,1.52338E1,6.900724E1,4.726073E2,2.0113512E1,1.3499054E2,4.4640526E1],"tree_param":{"num_deleted":"0","num_feature":"30","num_nodes":"127","size_leaf_vector":"1"}},{"base_weights":[-1.3164259E-4,-1.0734611E-1,1.293336E-1,-5.316237E-2,-2.4069202E-1,3.0568323E-1,9.448306E-2,-1.3204431E-2,-9.511437E-2,-3.0041128E-1,-1.920692E-1,2.6360285E-1,4.8076263E-1,5.7455663E-2,1.3292354E-1,-6.960135E-2,-6.572183E-3,-1.260556E-1,-7.358161E-2,-2.8011104E-1,-4.092438E-1,-2.4026501E-1,-1.4837804E-1,3.0726433E-1,2.2451091E-1,3.368399E-1,5.0845605E-1,7.435343E-2,2.8333338E-2,5.8225993E-2,1.4566353E-1,-1.611925E-1,-3.624897E-2,1.2865326E-2,-3.6098324E-2,-1.6251272E-1,-8.599743E-2,-5.3874254E-2,-1.0559785E-1,-3.3302215E-1,-2.2148088E-1,-4.788431E-1,-3.6715692E-1,-2.0372586E-1,-2.915018E-1,-1.3282289E-1,-2.2635634E-1,2.020219E-1,3.5199612E-1,2.7011716E-1,1.6627993E-1,5.43346E-1,2.4621116E-1,4.6961516E-1,6.1404645E-1,1.1654211E-1,6.577595E-2,5.4759394E-2,-1.530894E-2,4.6467412E-2,4.6048898E-1,1.431374E-1,4.6956465E-1,-3.534351E-3,-1.4954241E-2,-3.4688146E-5,-9.447256E-3,-7.660761E-4,1.3491432E-3,-1.1577225E-2,-1.5865458E-3,-9.155705E-3,-4.216899E-3,-2.6763843E-3,-7.1178535E-3,-4.4750976E-3,-5.324577E-4,-1.1377608E-2,-4.8504616E-3,-1.1403676E-2,-1.8675841E-2,-1.0530067E-2,-2.1265421E-2,-1.9784484E-2,-2.953501E-2,-1.7099077E-2,-2.3351064E-2,-1.5002878E-2,-8.416628E-3,-2.0025084E-2,-1.3180447E-2,-1.1315897E-2,-6.0981163E-3,8.5894373E-4,-1.2729923E-2,2.4751097E-2,8.157427E-3,1.6447684E-2,1.9810617E-2,1.4217067E-2,-1.3772849E-3,6.7637274E-3,1.2291267E-2,1.9255001E-2,3.3463072E-2,7.5958744E-3,3.2311685E-2,1.9568654E-2,2.475584E-2,2.8954793E-2,3.5532262E-2,2.2896703E-3,7.00085E-3,-3.2304828E-3,3.438284E-3,2.4160638E-3,1.7343814E-2,1.4966706E-4,-7.3423297E-3,1.6114351E-3,7.8123244E-3,1.3710354E-2,3.0193476E-2,1.0172237E-2,6.4840144E-3,2.6408542E-2,1.5231276E-2],"categories":[],"categories_nodes":[],"categories_segments":[],"categories_sizes":[],"default_left":[0,0,0,0,0,0,0,0,0,0,0,0,0,0,0,0,0,0,0,0,0,0,0,0,0,0,0,0,0,0,0,0,0,0,0,0,0,0,0,0,0,0,0,0,0,0,0,0,0,0,0,0,0,0,0,0,0,0,0,0,0,0,0,0,0,0,0,0,0,0,0,0,0,0,0,0,0,0,0,0,0,0,0,0,0,0,0,0,0,0,0,0,0,0,0,0,0,0,0,0,0,0,0,0,0,0,0,0,0,0,0,0,0,0,0,0,0,0,0,0,0,0,0,0,0,0,0],"id":4,"left_children":[1,3,5,7,9,11,13,15,17,19,21,23,25,27,29,31,33,35,37,39,41,43,45,47,49,51,53,55,57,59,61,63,65,67,69,71,73,75,77,79,81,83,85,87,89,91,93,95,97,99,101,103,105,107,109,111,113,115,117,119,121,123,125,-1,-1,-1,-1,-1,-1,-1,-1,-1,-1,-1,-1,-1,-1,-1,-1,-1,-1,-1,-1,-1,-1,-1,-1,-1,-1,-1,-1,-1,-1,-1,-1,-1,-1,-1,-1,-1,-1,-1,-1,-1,-1,-1,-1,-1,-1,-1,-1,-1,-1,-1,-1,-1,-1,-1,-1,-1,-1,-1,-1,-1,-1,-1,-1],"loss_changes":[6.666677E2,1.8980795E2,1.3368588E2,3.1316479E1,2.1983337E1,2.6319946E1,2.5851974E1,3.5790188E0,6.062706E0,7.4077454E0,8.78064E0,4.874466E0,2.5963287E0,4.5527477E0,8.473724E0,3.0699563E0,4.91543E0,5.445606E0,3.3864975E0,8.838013E0,1.3857117E0,3.6646118E0,2.636814E0,6.3571167E0,4.023163E0,2.0187511E0,2.091858E0,2.1117096E0,3.9222944E0,6.129333E0,6.1625977E0,3.3295655E0,4.014143E0,2.0557055E0,2.894834E0,3.1347885E0,3.255887E0,5.127101E0,2.1223984E0,6.3237305E0,2.9389572E0,1.6041603E0,6.862602E-1,3.9196472E0,2.4048843E0,1.8360977E0,2.509512E0,4.5847416E0,8.445587E-1,3.6382103E0,1.6324959E0,4.2475128E-1,2.9858642E0,6.6130066E-1,1.0442734E-1,1.6348982E0,1.9026337E0,3.9666367E0,3.0895827E0,1.9715765E0,8.178215E-1,6.106079E0,4.044304E-1,0E0,0E0,0E0,0E0,0E0,0E0,0E0,0E0,0E0,0E0,0E0,0E0,0E0,0E0,0E0,0E0,0E0,0E0,0E0,0E0,0E0,0E0,0E0,0E0,0E0,0E0,0E0,0E0,0E0,0E0,0E0,0E0,0E0,0E0,0E0,0E0,0E0,0E0,0E0,0E0,0E0,0E0,0E0,0E0,0E0,0E0,0E0,0E0,0E0,0E0,0E0,0E0,0E0,0E0,0E0,0E0,0E0,0E0,0E0,0E0,0E0,0E0,0E0,0E0],"parents":[2147483647,0,0,1,1,2,2,3,3,4,4,5,5,6,6,7,7,8,8,9,9,10,10,11,11,12,12,13,13,14,14,15,15,16,16,17,17,18,18,19,19,20,20,21,21,22,22,23,23,24,24,25,25,26,26,27,27,28,28,29,29,30,30,31,31,32,32,33,33,34,34,35,35,36,36,37,37,38,38,39,39,40,40,41,41,42,42,43,43,44,44,45,45,46,46,47,47,48,48,49,49,50,50,51,51,52,52,53,53,54,54,55,55,56,56,57,57,58,58,59,59,60,60,61,61,62,62],"right_children":[2,4,6,8,10,12,14,16,18,20,22,24,26,28,30,32,34,36,38,40,42,44,46,48,50,52,54,56,58,60,62,64,66,68,70,72,74,76,78,80,82,84,86,88,90,92,94,96,98,100,102,104,106,108,110,112,114,116,118,120,122,124,126,-1,-1,-1,-1,-1,-1,-1,-1,-1,-1,-1,-1,-1,-1,-1,-1,-1,-1,-1,-1,-1,-1,-1,-1,-1,-1,-1,-1,-1,-1,-1,-1,-1,-1,-1,-1,-1,-1,-1,-1,-1,-1,-1,-1,-1,-1,-1,-1,-1,-1,-1,-1,-1,-1,-1,-1,-1,-1,-1,-1,-1,-1,-1,-1],"split_conditions":[6.2704094E-2,4.8E1,4.6E0,2.3E1,9.125841E-3,2.9282153E-1,9.645466E-2,1.1E1,2.4016304E-2,1.4E1,1.3E1,3.8E0,9E0,6E0,1.1E1,2.2318214E-1,8E0,1.3E1,1.23E2,1.4E1,2.1002387E-1,1.1E1,1.3E1,1.2E1,3.077E-1,9.75863E-2,4.055219E-1,5.0574712E-2,9.3417235E-2,1.6438356E-1,1.05E0,6.440511E-2,5.779714E-2,7.004471E-2,3.846154E-2,1.0372511E-1,1.1E1,1.14E2,1E1,1.1E1,8.871791E-3,2.07E2,6.584362E-2,1.1E1,1.9524238E-1,2.4770642E-2,5.4E1,6.2418725E-2,1.4E1,3.472288E-1,9E0,2.5333333E-1,8.125E-1,1.2E1,5.09763E-1,2.8538812E-2,8E0,2.1708436E-1,8.462E-1,2.145749E-1,1.8518518E-1,5.4E0,9.970675E-2,-3.534351E-3,-1.4954241E-2,-3.4688146E-5,-9.447256E-3,-7.660761E-4,1.3491432E-3,-1.1577225E-2,-1.5865458E-3,-9.155705E-3,-4.216899E-3,-2.6763843E-3,-7.1178535E-3,-4.4750976E-3,-5.324577E-4,-1.1377608E-2,-4.8504616E-3,-1.1403676E-2,-1.8675841E-2,-1.0530067E-2,-2.1265421E-2,-1.9784484E-2,-2.953501E-2,-1.7099077E-2,-2.3351064E-2,-1.5002878E-2,-8.416628E-3,-2.0025084E-2,-1.3180447E-2,-1.1315897E-2,-6.0981163E-3,8.5894373E-4,-1.2729923E-2,2.4751097E-2,8.157427E-3,1.6447684E-2,1.9810617E-2,1.4217067E-2,-1.3772849E-3,6.7637274E-3,1.2291267E-2,1.9255001E-2,3.3463072E-2,7.5958744E-3,3.2311685E-2,1.9568654E-2,2.475584E-2,2.8954793E-2,3.5532262E-2,2.2896703E-3,7.00085E-3,-3.2304828E-3,3.438284E-3,2.4160638E-3,1.7343814E-2,1.4966706E-4,-7.3423297E-3,1.6114351E-3,7.8123244E-3,1.3710354E-2,3.0193476E-2,1.0172237E-2,6.4840144E-3,2.6408542E-2,1.5231276E-2],"split_indices":[2,0,0,0,2,2,2,7,2,3,7,0,7,3,7,12,3,7,4,7,12,3,3,7,6,11,2,8,11,11,19,11,2,11,11,11,3,4,7,3,2,0,8,7,12,8,0,8,7,12,5,12,6,7,2,8,7,8,6,8,11,0,11,0,0,0,0,0,0,0,0,0,0,0,0,0,0,0,0,0,0,0,0,0,0,0,0,0,0,0,0,0,0,0,0,0,0,0,0,0,0,0,0,0,0,0,0,0,0,0,0,0,0,0,0,0,0,0,0,0,0,0,0,0,0,0,0],"split_type":[0,0,0,0,0,0,0,0,0,0,0,0,0,0,0,0,0,0,0,0,0,0,0,0,0,0,0,0,0,0,0,0,0,0,0,0,0,0,0,0,0,0,0,0,0,0,0,0,0,0,0,0,0,0,0,0,0,0,0,0,0,0,0,0,0,0,0,0,0,0,0,0,0,0,0,0,0,0,0,0,0,0,0,0,0,0,0,0,0,0,0,0,0,0,0,0,0,0,0,0,0,0,0,0,0,0,0,0,0,0,0,0,0,0,0,0,0,0,0,0,0,0,0,0,0,0,0],"sum_hessian":[4.802692E4,2.6271111E4,2.1755809E4,1.8681482E4,7.58963E3,3.5886855E3,1.8167123E4,9.568812E3,9.112671E3,3.4038242E3,4.1858057E3,2.8953044E3,6.9338116E2,9.254915E3,8.912207E3,1.00587976E3,8.562932E3,3.7374033E3,5.3752676E3,2.8717395E3,5.3208466E2,1.988161E3,2.1976445E3,1.3644742E3,1.5308302E3,1.1401386E2,5.793673E2,5.855691E3,3.3992244E3,1.2993549E3,7.6128525E3,2.6748596E2,7.383938E2,5.1639736E3,3.398958E3,1.9550481E3,1.7823551E3,3.3288813E3,2.0463859E3,1.507031E3,1.3647085E3,1.9659569E2,3.3548895E2,1.1634391E3,8.24722E2,1.834417E3,3.632274E2,4.0861783E2,9.558564E2,8.56435E2,6.7439514E2,3.3251625E1,8.076224E1,4.275447E2,1.5182262E2,9.872541E2,4.868437E3,2.1170586E3,1.2821656E3,1.2635358E3,3.5818993E1,7.5553696E3,5.7483253E1,1.6240453E2,1.0508144E2,5.997475E2,1.386463E2,1.7232584E3,3.440715E3,7.31555E1,3.3258027E3,1.5462285E3,4.0881952E2,1.1320891E3,6.5026605E2,1.8242212E3,1.5046602E3,1.3295764E2,1.9134283E3,4.2143768E2,1.0855934E3,1.2974868E3,6.7221725E1,1.15368996E2,8.122669E1,2.714756E2,6.4013374E1,3.1059622E2,8.528428E2,1.6532109E2,6.594009E2,1.8884808E2,1.645569E3,3.778601E1,3.2544138E2,4.6488205E1,3.6212964E2,6.339334E2,3.2192297E2,8.174185E2,3.901648E1,4.8719553E2,1.871996E2,1.6532537E1,1.671909E1,6.6472946E1,1.4289292E1,1.0911469E2,3.1843002E2,1.1662214E2,3.5200478E1,2.4669994E2,7.4055414E2,1.0866827E2,4.7597686E3,2.0725461E3,4.4512527E1,1.1264127E3,1.5575296E2,1.1196119E3,1.4392383E2,1.6845518E1,1.8973475E1,1.3757758E3,6.1795938E3,4.0788174E1,1.669508E1],"tree_param":{"num_deleted":"0","num_feature":"30","num_nodes":"127","size_leaf_vector":"1"}},{"base_weights":[1.3582458E-3,-1.424007E-1,8.5741155E-2,-2.6151296E-1,-9.581207E-2,2.614571E-1,4.998727E-2,-2.382119E-1,-3.4488168E-1,-6.567902E-2,-1.3827564E-1,2.2856186E-1,4.784316E-1,1.160852E-4,8.788393E-2,-2.8265417E-1,-1.9226198E-1,-4.015759E-1,-2.8918308E-1,-1.6327362E-1,-5.549134E-2,-1.6621086E-1,-1.0546778E-1,2.0183876E-1,2.8485808E-1,3.474047E-1,5.22859E-1,-1.283981E-1,4.00493E-3,1.2530357E-1,6.8317644E-2,-2.2611623E-1,-3.199071E-1,-1.4078915E-1,-2.8068286E-1,-3.6931205E-1,-5.0316954E-1,-3.439132E-1,-1.9952305E-1,-1.4499728E-1,-4.4533843E-1,-7.323822E-2,-2.122775E-2,-1.8676156E-1,-1.2148339E-1,-1.0257935E-1,-2.1782683E-2,2.1724366E-1,1.692742E-1,1.773803E-1,3.3139274E-1,2.8459227E-1,5.059517E-1,4.890874E-1,6.213706E-1,-6.536461E-2,-3.570129E-1,2.6455676E-2,-1.4559672E-2,1.4622697E-1,8.730422E-2,5.723796E-2,1.0126885E-1,-1.1935397E-2,-1.890151E-5,-1.4763064E-2,-1.934157E-2,-6.4538675E-3,-1.3179882E-2,-1.20190745E-2,-1.8256415E-2,-1.7261242E-2,-2.450327E-2,-2.7046565E-2,-9.517427E-3,-1.4276174E-2,-1.9585012E-2,-7.0946305E-3,-1.784864E-2,-3.9226664E-3,-1.10114E-2,-1.2047007E-2,-3.2133225E-2,-2.3866498E-3,-5.438159E-3,-1.1872237E-3,1.9046305E-2,-9.640538E-3,1.1077933E-3,-1.0401229E-2,-5.324703E-3,-4.8853103E-3,-1.2931535E-2,1.0614564E-2,2.0328652E-2,3.5495018E-3,1.0227054E-2,7.87328E-3,2.8385345E-2,1.4569811E-2,1.8977975E-2,1.761633E-2,8.228606E-4,8.480916E-3,3.0782847E-2,2.5125062E-2,1.7122682E-2,2.0989874E-2,3.2000814E-2,2.2074427E-3,-9.084831E-3,-2.187996E-2,1.1111434E-3,2.4699322E-3,-1.0395665E-3,1.7390787E-4,-1.8008298E-3,7.1195103E-3,1.887844E-2,6.1988817E-3,1.7551871E-4,-5.531211E-4,3.1722914E-3,1.6330505E-3,5.785218E-3],"categories":[],"categories_nodes":[],"categories_segments":[],"categories_sizes":[],"default_left":[0,0,0,0,0,0,0,0,0,0,0,0,0,0,0,0,0,0,0,0,0,0,0,0,0,0,0,0,0,0,0,0,0,0,0,0,0,0,0,0,0,0,0,0,0,0,0,0,0,0,0,0,0,0,0,0,0,0,0,0,0,0,0,0,0,0,0,0,0,0,0,0,0,0,0,0,0,0,0,0,0,0,0,0,0,0,0,0,0,0,0,0,0,0,0,0,0,0,0,0,0,0,0,0,0,0,0,0,0,0,0,0,0,0,0,0,0,0,0,0,0,0,0,0,0],"id":5,"left_children":[1,3,5,7,9,11,13,15,17,19,21,23,25,27,29,31,33,35,37,39,41,43,45,47,49,51,53,55,57,59,61,63,65,67,69,71,73,75,77,79,81,83,85,87,89,91,-1,93,95,97,99,101,103,105,107,109,111,113,115,117,119,121,123,-1,-1,-1,-1,-1,-1,-1,-1,-1,-1,-1,-1,-1,-1,-1,-1,-1,-1,-1,-1,-1,-1,-1,-1,-1,-1,-1,-1,-1,-1,-1,-1,-1,-1,-1,-1,-1,-1,-1,-1,-1,-1,-1,-1,-1,-1,-1,-1,-1,-1,-1,-1,-1,-1,-1,-1,-1,-1,-1,-1,-1,-1],"loss_changes":[5.748694E2,9.7242035E1,1.8759174E2,9.490051E0,1.6115013E1,3.5924072E1,4.6896935E1,7.8168335E0,3.2758102E0,7.3213654E0,4.7753525E0,6.5405426E0,3.6819916E0,5.3556647E0,1.0314674E1,4.050003E0,8.599693E0,1.5505753E0,2.6077461E0,3.5252514E0,4.058758E0,2.5719757E0,2.2516556E0,1.4568863E0,6.98983E0,1.5593796E0,1.3385162E0,4.51232E0,4.3355947E0,3.835373E0,3.3751793E0,2.2192993E0,1.8278275E0,1.6945038E0,2.285736E0,1.0111847E0,1.3727474E0,8.292999E-1,1.8468342E0,3.264101E0,1.5347986E0,3.9801865E0,2.3164926E0,2.446251E0,1.1343355E0,1.790863E0,0E0,1.8056107E0,3.3154945E0,3.2373514E0,1.7818832E0,2.2606983E0,1.6389456E0,5.6027985E-1,1.9112396E-1,3.1668458E0,2.0818396E0,5.1047783E0,2.2039595E0,2.7153854E0,5.2886524E0,2.9401588E0,2.302845E0,0E0,0E0,0E0,0E0,0E0,0E0,0E0,0E0,0E0,0E0,0E0,0E0,0E0,0E0,0E0,0E0,0E0,0E0,0E0,0E0,0E0,0E0,0E0,0E0,0E0,0E0,0E0,0E0,0E0,0E0,0E0,0E0,0E0,0E0,0E0,0E0,0E0,0E0,0E0,0E0,0E0,0E0,0E0,0E0,0E0,0E0,0E0,0E0,0E0,0E0,0E0,0E0,0E0,0E0,0E0,0E0,0E0,0E0,0E0,0E0,0E0,0E0],"parents":[2147483647,0,0,1,1,2,2,3,3,4,4,5,5,6,6,7,7,8,8,9,9,10,10,11,11,12,12,13,13,14,14,15,15,16,16,17,17,18,18,19,19,20,20,21,21,22,22,23,23,24,24,25,25,26,26,27,27,28,28,29,29,30,30,31,31,32,32,33,33,34,34,35,35,36,36,37,37,38,38,39,39,40,40,41,41,42,42,43,43,44,44,45,45,47,47,48,48,49,49,50,50,51,51,52,52,53,53,54,54,55,55,56,56,57,57,58,58,59,59,60,60,61,61,62,62],"right_children":[2,4,6,8,10,12,14,16,18,20,22,24,26,28,30,32,34,36,38,40,42,44,46,48,50,52,54,56,58,60,62,64,66,68,70,72,74,76,78,80,82,84,86,88,90,92,-1,94,96,98,100,102,104,106,108,110,112,114,116,118,120,122,124,-1,-1,-1,-1,-1,-1,-1,-1,-1,-1,-1,-1,-1,-1,-1,-1,-1,-1,-1,-1,-1,-1,-1,-1,-1,-1,-1,-1,-1,-1,-1,-1,-1,-1,-1,-1,-1,-1,-1,-1,-1,-1,-1,-1,-1,-1,-1,-1,-1,-1,-1,-1,-1,-1,-1,-1,-1,-1,-1,-1,-1,-1],"split_conditions":[3.8925942E-2,1.2343787E-2,5.4E0,1.63E2,1E1,2.9282153E-1,7.339871E-2,1.4E1,2.1715419E-1,1E1,2.068443E-2,2.1300958E-1,1E1,9E0,4E0,1.1E1,1.3E1,1.4E1,1.9147496E-1,3.091E3,1.4E1,9E0,3.862E3,5E-1,1.2E1,5E0,4.055219E-1,7E0,7E0,5E-1,1.4E1,1.3E2,1.24E2,2.311E3,1.4E1,2.1090908E-1,2.1209678E-1,2.4786325E-1,1.053316E-1,4.545E-1,9.660787E-2,9E0,4.9944505E-1,1.3288397E-1,1.9217081E-1,1.2982456E-1,-2.1782683E-2,4.375E-1,1.2E1,3.7271938E-1,1.3E1,1.28E2,1.22E2,3.4923664E-1,2.6785713E-1,2.3703703E-1,1.27E2,1.25E2,9.96E2,4.545E-1,7.4E0,9.3E1,6.0606062E-2,-1.1935397E-2,-1.890151E-5,-1.4763064E-2,-1.934157E-2,-6.4538675E-3,-1.3179882E-2,-1.20190745E-2,-1.8256415E-2,-1.7261242E-2,-2.450327E-2,-2.7046565E-2,-9.517427E-3,-1.4276174E-2,-1.9585012E-2,-7.0946305E-3,-1.784864E-2,-3.9226664E-3,-1.10114E-2,-1.2047007E-2,-3.2133225E-2,-2.3866498E-3,-5.438159E-3,-1.1872237E-3,1.9046305E-2,-9.640538E-3,1.1077933E-3,-1.0401229E-2,-5.324703E-3,-4.8853103E-3,-1.2931535E-2,1.0614564E-2,2.0328652E-2,3.5495018E-3,1.0227054E-2,7.87328E-3,2.8385345E-2,1.4569811E-2,1.8977975E-2,1.761633E-2,8.228606E-4,8.480916E-3,3.0782847E-2,2.5125062E-2,1.7122682E-2,2.0989874E-2,3.2000814E-2,2.2074427E-3,-9.084831E-3,-2.187996E-2,1.1111434E-3,2.4699322E-3,-1.0395665E-3,1.7390787E-4,-1.8008298E-3,7.1195103E-3,1.887844E-2,6.1988817E-3,1.7551871E-4,-5.531211E-4,3.1722914E-3,1.6330505E-3,5.785218E-3],"split_indices":[2,2,0,0,3,2,2,7,12,7,2,2,7,7,3,3,3,3,9,10,7,5,10,6,7,5,2,3,3,6,7,4,4,10,3,12,12,12,11,6,11,3,9,11,12,11,0,6,7,12,7,4,4,12,9,9,4,4,10,6,0,10,11,0,0,0,0,0,0,0,0,0,0,0,0,0,0,0,0,0,0,0,0,0,0,0,0,0,0,0,0,0,0,0,0,0,0,0,0,0,0,0,0,0,0,0,0,0,0,0,0,0,0,0,0,0,0,0,0,0,0,0,0,0,0],"split_type":[0,0,0,0,0,0,0,0,0,0,0,0,0,0,0,0,0,0,0,0,0,0,0,0,0,0,0,0,0,0,0,0,0,0,0,0,0,0,0,0,0,0,0,0,0,0,0,0,0,0,0,0,0,0,0,0,0,0,0,0,0,0,0,0,0,0,0,0,0,0,0,0,0,0,0,0,0,0,0,0,0,0,0,0,0,0,0,0,0,0,0,0,0,0,0,0,0,0,0,0,0,0,0,0,0,0,0,0,0,0,0,0,0,0,0,0,0,0,0,0,0,0,0,0,0],"sum_hessian":[4.7387242E4,1.7526883E4,2.986036E4,4.9265786E3,1.2600304E4,5.0475205E3,2.481284E4,3.8534263E3,1.0731525E3,7.371722E3,5.2285815E3,4.3848003E3,6.627202E2,1.0714193E4,1.40986455E4,1.9562301E3,1.8971963E3,5.2874554E2,5.444069E2,6.953618E2,6.6763604E3,2.8218057E3,2.4067761E3,2.976485E3,1.408315E3,1.7004286E2,4.926774E2,3.1374902E2,1.0400444E4,4.838955E3,9.25969E3,7.798062E2,1.1764238E3,1.2007759E3,6.9642035E2,4.0481924E2,1.23926315E2,3.362922E2,2.0811469E2,6.544696E2,4.0892197E1,4.3975205E3,2.2788398E3,1.9312766E3,8.9052905E2,2.3872036E3,1.9572346E1,2.0167686E3,9.5971674E2,4.269745E2,9.813404E2,1.237938E2,4.6249054E1,3.7134012E2,1.2133726E2,2.4694693E2,6.680211E1,4.7073164E3,5.693128E3,3.118811E3,1.7201439E3,6.931682E3,2.3280085E3,7.385522E2,4.125403E1,8.6374774E2,3.126761E2,1.0981045E3,1.0267138E2,4.7403485E2,2.2238551E2,3.4071442E2,6.410484E1,1.099274E2,1.3998921E1,1.5449437E2,1.8179784E2,1.5374242E2,5.4372265E1,3.4836902E2,3.061006E2,2.1177113E1,1.9715084E1,2.5611096E3,1.8364108E3,2.2656023E3,1.3237425E1,1.877005E3,5.427155E1,1.2957089E2,7.609581E2,2.316491E3,7.071285E1,1.9674269E3,4.934167E1,2.542285E2,7.054882E2,4.075828E2,1.9391697E1,5.399929E2,4.4134747E2,9.857781E1,2.5215992E1,1.2001398E1,3.4247658E1,3.3799402E2,3.3346096E1,1.2264421E1,1.0907284E2,1.2752089E2,1.1942603E2,5.4967754E1,1.1834353E1,3.1686072E3,1.5387091E3,3.0934487E3,2.5996794E3,3.0695193E3,4.9291836E1,1.1961531E3,5.239908E2,5.774681E2,6.354214E3,4.0524716E2,1.9227615E3],"tree_param":{"num_deleted":"0","num_feature":"30","num_nodes":"125","size_leaf_vector":"1"}},{"base_weights":[2.0222433E-3,-1.3422579E-1,8.377188E-2,-7.568786E-2,-2.2017649E-1,3.934346E-2,2.131771E-1,-1.0109421E-1,-5.4242995E-2,-1.8184508E-1,-3.0583155E-1,5.281379E-3,7.556147E-2,4.585055E-1,1.921824E-1,-1.4831348E-1,-7.576045E-2,-3.725475E-2,-1.0822826E-1,-2.3546231E-1,-1.6077843E-1,-3.8563746E-1,-2.8352052E-1,1.0707213E-2,-5.407657E-2,5.6467306E-2,1.00434564E-1,4.700715E-1,2.2309369E-1,2.4691443E-1,1.5739505E-1,-1.5574114E-1,3.2645278E-2,-4.8916135E-2,-1.1505896E-1,-2.1009701E-3,-6.0408816E-2,-1.9504742E-1,-8.089737E-2,-2.0913462E-1,-3.272084E-1,-1.3101566E-1,-1.8355045E-1,-3.502218E-1,-5.463426E-1,-3.7337843E-1,-2.6247948E-1,1.6829995E-2,-3.7236594E-2,-4.5424987E-2,-2.5184223E-1,4.054739E-2,8.513576E-2,1.8937988E-2,1.0897546E-1,4.538842E-1,6.106974E-1,-1.478938E-3,1.9363752E-2,2.1647392E-1,2.8127217E-1,2.1345693E-1,1.4345583E-1,-7.390926E-3,-1.4073682E-2,1.437524E-2,-2.6302699E-3,6.7088245E-3,-2.83006E-3,-5.1691527E-3,-1.5774079E-2,-2.4578106E-3,1.4346562E-3,-4.0565548E-3,-8.240246E-4,-1.2804176E-2,7.180385E-4,-4.4029607E-3,1.1642709E-2,-1.706715E-3,-1.1136759E-2,-1.7542483E-2,-3.6345392E-3,-4.583891E-3,-1.065424E-2,-8.567183E-3,-1.4951301E-2,-2.425675E-2,-1.6170358E-2,-2.8429357E-2,-1.8039748E-2,-1.7418299E-2,-2.7122993E-2,-1.0836293E-2,-1.5507944E-2,1.1701214E-4,1.6803093E-3,1.2510203E-2,-2.349614E-3,-4.6646637E-3,5.661652E-4,-1.7757677E-2,-1.5555784E-3,3.3686676E-3,2.7284588E-4,4.540675E-3,-7.403278E-3,2.8634893E-3,-7.165243E-3,5.1844334E-3,1.11045595E-2,1.1472046E-2,2.3044152E-2,3.3891376E-2,1.5112201E-2,1.1441856E-2,3.390148E-3,1.7946461E-2,1.2083324E-2,1.4420494E-2,8.541514E-3,6.6088275E-3,1.2372374E-2],"categories":[],"categories_nodes":[],"categories_segments":[],"categories_sizes":[],"default_left":[0,0,0,0,0,0,0,0,0,0,0,0,0,0,0,0,0,0,0,0,0,0,0,0,0,0,0,0,0,0,0,0,0,0,0,0,0,0,0,0,0,0,0,0,0,0,0,0,0,0,0,0,0,0,0,0,0,0,0,0,0,0,0,0,0,0,0,0,0,0,0,0,0,0,0,0,0,0,0,0,0,0,0,0,0,0,0,0,0,0,0,0,0,0,0,0,0,0,0,0,0,0,0,0,0,0,0,0,0,0,0,0,0,0,0,0,0,0,0,0,0,0,0],"id":6,"left_children":[1,3,5,7,9,11,13,15,17,19,21,23,25,27,29,31,33,35,37,39,41,43,45,47,49,51,53,55,57,59,61,63,65,67,69,71,73,75,77,79,81,83,85,87,89,91,93,95,97,99,101,103,105,107,109,111,113,-1,-1,115,117,119,121,-1,-1,-1,-1,-1,-1,-1,-1,-1,-1,-1,-1,-1,-1,-1,-1,-1,-1,-1,-1,-1,-1,-1,-1,-1,-1,-1,-1,-1,-1,-1,-1,-1,-1,-1,-1,-1,-1,-1,-1,-1,-1,-1,-1,-1,-1,-1,-1,-1,-1,-1,-1,-1,-1,-1,-1,-1,-1,-1,-1],"loss_changes":[5.223355E2,8.846521E1,1.6850105E2,5.6950073E0,2.3335297E1,2.6918034E1,3.8493744E1,5.71624E0,5.2014008E0,5.5242004E0,3.8097687E0,3.622452E0,5.016838E0,1.5009842E0,1.3102341E1,2.2507706E0,3.2838058E0,3.515192E0,3.2066774E0,3.281456E0,2.374092E0,2.5298767E0,3.161438E0,3.025568E0,1.6003582E0,2.7280502E0,3.19376E0,1.0004425E0,1.2361919E0,2.7424164E0,3.2691727E0,1.557251E0,1.4643459E0,2.6168222E0,2.9270725E0,2.4879963E0,2.3688717E0,4.1506214E0,2.3453026E0,2.5638313E0,1.8245468E0,4.9433403E0,2.770897E0,1.2705078E0,1.4384651E-1,1.1843033E0,2.9873505E0,2.2213187E0,3.2849936E0,2.456084E0,8.8430905E-1,3.6237197E0,2.8415575E0,2.7243314E0,2.4620972E0,6.9101715E-1,9.348755E-1,0E0,0E0,2.6046982E0,3.775734E0,2.6306686E0,3.9375153E0,0E0,0E0,0E0,0E0,0E0,0E0,0E0,0E0,0E0,0E0,0E0,0E0,0E0,0E0,0E0,0E0,0E0,0E0,0E0,0E0,0E0,0E0,0E0,0E0,0E0,0E0,0E0,0E0,0E0,0E0,0E0,0E0,0E0,0E0,0E0,0E0,0E0,0E0,0E0,0E0,0E0,0E0,0E0,0E0,0E0,0E0,0E0,0E0,0E0,0E0,0E0,0E0,0E0,0E0,0E0,0E0,0E0,0E0,0E0,0E0],"parents":[2147483647,0,0,1,1,2,2,3,3,4,4,5,5,6,6,7,7,8,8,9,9,10,10,11,11,12,12,13,13,14,14,15,15,16,16,17,17,18,18,19,19,20,20,21,21,22,22,23,23,24,24,25,25,26,26,27,27,28,28,29,29,30,30,31,31,32,32,33,33,34,34,35,35,36,36,37,37,38,38,39,39,40,40,41,41,42,42,43,43,44,44,45,45,46,46,47,47,48,48,49,49,50,50,51,51,52,52,53,53,54,54,55,55,56,56,59,59,60,60,61,61,62,62],"right_children":[2,4,6,8,10,12,14,16,18,20,22,24,26,28,30,32,34,36,38,40,42,44,46,48,50,52,54,56,58,60,62,64,66,68,70,72,74,76,78,80,82,84,86,88,90,92,94,96,98,100,102,104,106,108,110,112,114,-1,-1,116,118,120,122,-1,-1,-1,-1,-1,-1,-1,-1,-1,-1,-1,-1,-1,-1,-1,-1,-1,-1,-1,-1,-1,-1,-1,-1,-1,-1,-1,-1,-1,-1,-1,-1,-1,-1,-1,-1,-1,-1,-1,-1,-1,-1,-1,-1,-1,-1,-1,-1,-1,-1,-1,-1,-1,-1,-1,-1,-1,-1,-1,-1],"split_conditions":[4.0613525E-2,4.8E1,1.2613264E-1,2.6453083E-2,1.12E2,7.40857E-2,2.8E0,1E0,7.273E-1,1E0,1.9654556E-1,9E0,9.645466E-2,2E0,4.6E0,3.3900708E-1,2.626775E-1,5.6818184E-2,1E1,1.2E1,1.1E1,1.4E1,1E0,3.1892696E-1,6.238502E-2,1.397E3,1.18E2,5.09763E-1,1.143E3,2.1825838E-1,6.0606062E-2,1.2E1,9E0,3.2786883E-2,1E0,4.22E2,3.5614848E-2,1.29E2,3.8123754E-1,4.8672568E-2,3.0016676E-1,9.583333E-2,9.090909E-2,1.7857144E-2,8.75E-1,7.594936E-2,1.3E1,5.8158886E-2,8.450704E-2,4.551137E-2,9.31677E-2,7.692308E-2,3.4553376E-1,1.1309904E-1,3.472288E-1,4.705246E-2,3.372549E-1,-1.478938E-3,1.9363752E-2,1.3157895E-1,1.0067508E-1,1.429E-1,3.3468944E-1,-7.390926E-3,-1.4073682E-2,1.437524E-2,-2.6302699E-3,6.7088245E-3,-2.83006E-3,-5.1691527E-3,-1.5774079E-2,-2.4578106E-3,1.4346562E-3,-4.0565548E-3,-8.240246E-4,-1.2804176E-2,7.180385E-4,-4.4029607E-3,1.1642709E-2,-1.706715E-3,-1.1136759E-2,-1.7542483E-2,-3.6345392E-3,-4.583891E-3,-1.065424E-2,-8.567183E-3,-1.4951301E-2,-2.425675E-2,-1.6170358E-2,-2.8429357E-2,-1.8039748E-2,-1.7418299E-2,-2.7122993E-2,-1.0836293E-2,-1.5507944E-2,1.1701214E-4,1.6803093E-3,1.2510203E-2,-2.349614E-3,-4.6646637E-3,5.661652E-4,-1.7757677E-2,-1.5555784E-3,3.3686676E-3,2.7284588E-4,4.540675E-3,-7.403278E-3,2.8634893E-3,-7.165243E-3,5.1844334E-3,1.11045595E-2,1.1472046E-2,2.3044152E-2,3.3891376E-2,1.5112201E-2,1.1441856E-2,3.390148E-3,1.7946461E-2,1.2083324E-2,1.4420494E-2,8.541514E-3,6.6088275E-3,1.2372374E-2],"split_indices":[2,0,2,2,0,2,0,25,6,25,12,3,2,3,0,12,12,8,5,3,3,3,25,12,2,10,10,2,10,2,8,3,3,11,6,10,2,4,12,11,12,11,8,8,6,8,3,2,11,2,11,8,12,8,12,11,12,0,0,11,8,6,12,0,0,0,0,0,0,0,0,0,0,0,0,0,0,0,0,0,0,0,0,0,0,0,0,0,0,0,0,0,0,0,0,0,0,0,0,0,0,0,0,0,0,0,0,0,0,0,0,0,0,0,0,0,0,0,0,0,0,0,0],"split_type":[0,0,0,0,0,0,0,0,0,0,0,0,0,0,0,0,0,0,0,0,0,0,0,0,0,0,0,0,0,0,0,0,0,0,0,0,0,0,0,0,0,0,0,0,0,0,0,0,0,0,0,0,0,0,0,0,0,0,0,0,0,0,0,0,0,0,0,0,0,0,0,0,0,0,0,0,0,0,0,0,0,0,0,0,0,0,0,0,0,0,0,0,0,0,0,0,0,0,0,0,0,0,0,0,0,0,0,0,0,0,0,0,0,0,0,0,0,0,0,0,0,0,0],"sum_hessian":[4.6893746E4,1.7585023E4,2.930872E4,1.04617705E4,7.1232524E3,2.1818967E4,7.489755E3,4.7868916E3,5.6748794E3,4.923199E3,2.2000532E3,1.1244735E4,1.0574231E4,5.8878687E2,6.900968E3,1.6697715E3,3.11712E3,4.3178237E3,1.3570557E3,1.3858542E3,3.537345E3,4.7712057E2,1.7229326E3,1.0303706E4,9.410288E2,5.983889E3,4.590342E3,5.602638E2,2.8523037E1,2.6793567E3,4.2216113E3,1.6040698E3,6.5701584E1,1.853359E3,1.263761E3,1.7150425E3,2.6027812E3,3.2344992E2,1.0336057E3,1.0793895E3,3.0646472E2,1.5362443E3,2.0011008E3,3.9356693E2,8.355365E1,3.2371786E2,1.3992147E3,9.137437E3,1.1662699E3,9.0276556E2,3.8263275E1,3.8489424E3,2.1349468E3,4.3574188E2,4.1545996E3,5.0622095E2,5.4042866E1,1.1556938E1,1.6966099E1,1.4245371E3,1.2548195E3,8.3779333E2,3.3838179E3,1.5110327E3,9.303719E1,1.5873826E1,4.9827755E1,7.3995476E1,1.7793635E3,1.195624E3,6.813695E1,6.781665E2,1.0368759E3,1.7679436E3,8.348377E2,2.5027847E2,7.317143E1,1.011242E3,2.236375E1,7.8091064E1,1.0012985E3,2.8007138E2,2.6393356E1,1.0399071E3,4.9633707E2,1.8120364E3,1.890644E2,6.2419952E1,3.3114697E2,7.27657E1,1.0787948E1,2.8466696E2,3.905089E1,7.168571E2,6.8235767E2,4.9034346E3,4.234002E3,3.7474606E1,1.1287953E3,4.893475E2,4.1341806E2,2.5649317E1,1.2613957E1,2.1808254E3,1.6681172E3,2.084799E3,5.0147877E1,3.5299066E2,8.275122E1,3.9709236E3,1.836762E2,1.6329702E1,4.8989124E2,4.340001E1,1.06428585E1,1.3146722E3,1.0986483E2,4.2109454E2,8.33725E2,3.0163852E2,5.3615485E2,3.0547595E3,3.2905826E2],"tree_param":{"num_deleted":"0","num_feature":"30","num_nodes":"123","size_leaf_vector":"1"}},{"base_weights":[-1.6481329E-3,-1.2649868E-1,8.29077E-2,-2.2090527E-1,-7.056615E-2,4.800132E-2,2.2516923E-1,-3.1028137E-1,-1.938595E-1,-9.027823E-2,-3.5689604E-2,1.9308247E-2,9.1749184E-2,1.8709318E-1,3.7152228E-1,-2.1898052E-1,-3.4104034E-1,-2.2477679E-1,-1.5581536E-1,-1.4019297E-3,-1.0210286E-1,-1.12721E-2,-7.5405404E-2,4.643737E-2,2.6329393E-3,1.0281643E-1,5.5740498E-2,2.1369298E-1,1.5458424E-1,3.1494746E-1,4.6038002E-1,-2.8897557E-1,-1.5288785E-1,-4.4522196E-1,-3.1365645E-1,-2.6763412E-1,-1.7209665E-1,-1.4413701E-1,-3.091112E-1,-3.4461582E-1,1.2358875E-2,-2.382108E-1,-9.441542E-2,-1.4185409E-2,2.7307045E-1,-1.2748261E-2,-1.05956115E-1,5.790605E-2,-7.264088E-2,1.9327251E-2,-2.7409349E-2,7.194426E-2,1.2920693E-1,-3.2081439E-3,1.02186866E-1,1.6755581E-1,2.5425854E-1,-1.2527391E-1,1.6276963E-1,1.8846749E-1,3.567947E-1,1.6771537E-1,4.788598E-1,-6.31985E-3,-1.7563742E-2,-5.4835295E-3,-2.0561675E-2,-1.9188603E-2,-2.4567349E-2,-1.0588906E-2,-1.6178593E-2,-1.11463545E-2,-1.510493E-2,-1.0870369E-2,-7.19513E-3,-4.512564E-3,-8.380328E-3,-1.6007933E-4,-1.6466768E-2,-2.537408E-2,-3.3891373E-3,1.3777994E-3,-1.5164258E-2,-1.451225E-2,-6.652545E-3,-6.34573E-3,-3.5547358E-3,-5.2608486E-4,-1.35744205E-2,3.0341713E-2,-1.1225401E-3,1.0142148E-3,-6.5036076E-3,-1.2053001E-2,-4.538956E-3,-1.73071E-2,2.968028E-3,-7.1656206E-3,1.8297248E-3,1.0293894E-3,-2.1003118E-2,-3.8655119E-3,9.176655E-4,2.4815407E-3,5.8972943E-3,7.7507184E-3,4.6081077E-3,-3.1448745E-3,2.0871423E-3,2.4706876E-2,4.738758E-3,6.5483577E-3,1.187057E-2,1.3212651E-2,4.651598E-3,-5.489898E-4,-2.3019513E-2,8.6040255E-3,2.4969012E-3,3.9732615E-3,1.51374405E-2,2.2342572E-2,1.5818838E-2,1.8389089E-2,-7.1560503E-3,2.2568572E-2,3.2758202E-2],"categories":[],"categories_nodes":[],"categories_segments":[],"categories_sizes":[],"default_left":[0,0,0,0,0,0,0,0,0,0,0,0,0,0,0,0,0,0,0,0,0,0,0,0,0,0,0,0,0,0,0,0,0,0,0,0,0,0,0,0,0,0,0,0,0,0,0,0,0,0,0,0,0,0,0,0,0,0,0,0,0,0,0,0,0,0,0,0,0,0,0,0,0,0,0,0,0,0,0,0,0,0,0,0,0,0,0,0,0,0,0,0,0,0,0,0,0,0,0,0,0,0,0,0,0,0,0,0,0,0,0,0,0,0,0,0,0,0,0,0,0,0,0,0,0,0,0],"id":7,"left_children":[1,3,5,7,9,11,13,15,17,19,21,23,25,27,29,31,33,35,37,39,41,43,45,47,49,51,53,55,57,59,61,63,65,67,69,71,73,75,77,79,81,83,85,87,89,91,93,95,97,99,101,103,105,107,109,111,113,115,117,119,121,123,125,-1,-1,-1,-1,-1,-1,-1,-1,-1,-1,-1,-1,-1,-1,-1,-1,-1,-1,-1,-1,-1,-1,-1,-1,-1,-1,-1,-1,-1,-1,-1,-1,-1,-1,-1,-1,-1,-1,-1,-1,-1,-1,-1,-1,-1,-1,-1,-1,-1,-1,-1,-1,-1,-1,-1,-1,-1,-1,-1,-1,-1,-1,-1,-1],"loss_changes":[4.904995E2,9.905051E1,1.3755092E2,1.6810883E1,8.097214E0,2.7921513E1,3.0343353E1,4.4740143E0,6.2703857E0,7.9104614E0,4.1268334E0,6.0778112E0,3.5055008E0,3.7137604E0,5.51416E0,1.8569965E0,3.311676E0,6.6257935E0,4.2638893E0,4.1834936E0,6.9285965E0,2.18833E0,3.10038E0,6.988826E0,4.1742263E0,5.4805374E0,5.6775556E0,4.4125214E0,4.4953156E0,3.5899734E0,2.2764206E0,1.9657593E0,2.338591E0,5.183716E-1,9.025955E-1,2.4405823E0,1.6657867E0,2.81538E0,1.0475311E0,1.5051122E0,4.0940595E0,1.9011955E0,4.7580795E0,2.4587145E0,2.6564093E0,2.0653489E0,2.2113276E0,2.762517E0,3.4772453E0,2.9717598E0,6.790494E0,3.1840324E0,3.4575653E0,2.4569905E0,3.322361E0,2.8229904E0,2.01342E0,2.1428163E0,1.9857941E0,2.1422052E0,1.7443695E0,1.7578204E0,1.6880646E0,0E0,0E0,0E0,0E0,0E0,0E0,0E0,0E0,0E0,0E0,0E0,0E0,0E0,0E0,0E0,0E0,0E0,0E0,0E0,0E0,0E0,0E0,0E0,0E0,0E0,0E0,0E0,0E0,0E0,0E0,0E0,0E0,0E0,0E0,0E0,0E0,0E0,0E0,0E0,0E0,0E0,0E0,0E0,0E0,0E0,0E0,0E0,0E0,0E0,0E0,0E0,0E0,0E0,0E0,0E0,0E0,0E0,0E0,0E0,0E0,0E0,0E0,0E0,0E0],"parents":[2147483647,0,0,1,1,2,2,3,3,4,4,5,5,6,6,7,7,8,8,9,9,10,10,11,11,12,12,13,13,14,14,15,15,16,16,17,17,18,18,19,19,20,20,21,21,22,22,23,23,24,24,25,25,26,26,27,27,28,28,29,29,30,30,31,31,32,32,33,33,34,34,35,35,36,36,37,37,38,38,39,39,40,40,41,41,42,42,43,43,44,44,45,45,46,46,47,47,48,48,49,49,50,50,51,51,52,52,53,53,54,54,55,55,56,56,57,57,58,58,59,59,60,60,61,61,62,62],"right_children":[2,4,6,8,10,12,14,16,18,20,22,24,26,28,30,32,34,36,38,40,42,44,46,48,50,52,54,56,58,60,62,64,66,68,70,72,74,76,78,80,82,84,86,88,90,92,94,96,98,100,102,104,106,108,110,112,114,116,118,120,122,124,126,-1,-1,-1,-1,-1,-1,-1,-1,-1,-1,-1,-1,-1,-1,-1,-1,-1,-1,-1,-1,-1,-1,-1,-1,-1,-1,-1,-1,-1,-1,-1,-1,-1,-1,-1,-1,-1,-1,-1,-1,-1,-1,-1,-1,-1,-1,-1,-1,-1,-1,-1,-1,-1,-1,-1,-1,-1,-1,-1,-1,-1,-1,-1,-1],"split_conditions":[5.5556E-2,2.1277E-2,1.78571E-1,7.692E-3,1.4E1,1.05263E-1,3.125E-1,1.2E1,1.4E1,7E0,1E1,6E0,1.05934285E-1,3.333E-1,4E-1,5.03E2,1.9587629E-1,1.5385E-2,1.4E1,2.1E1,1E1,4.8603353E-1,1.851369E-1,3.9372823E-1,5.455E-1,7.38255E-2,1E0,2.17391E-1,4E0,1.1E1,7E0,1.13E2,7.848233E-2,3.7037037E-2,5.5353243E-2,1.1E1,1.875E-1,1.1E1,4.705246E-2,2.0057307E-1,1.33E2,2.4427481E-1,3.3333E-2,3.686E3,2.1883786E-1,1.27E2,1.57E2,6E0,1.3E1,1.1E0,1E1,1.44928E-1,9.4444446E-2,2.6213592E-1,7E0,1.3E1,3.472288E-1,4.167E-1,3.472288E-1,4.00838E-1,3.089172E-1,1.28E2,6.25E-1,-6.31985E-3,-1.7563742E-2,-5.4835295E-3,-2.0561675E-2,-1.9188603E-2,-2.4567349E-2,-1.0588906E-2,-1.6178593E-2,-1.11463545E-2,-1.510493E-2,-1.0870369E-2,-7.19513E-3,-4.512564E-3,-8.380328E-3,-1.6007933E-4,-1.6466768E-2,-2.537408E-2,-3.3891373E-3,1.3777994E-3,-1.5164258E-2,-1.451225E-2,-6.652545E-3,-6.34573E-3,-3.5547358E-3,-5.2608486E-4,-1.35744205E-2,3.0341713E-2,-1.1225401E-3,1.0142148E-3,-6.5036076E-3,-1.2053001E-2,-4.538956E-3,-1.73071E-2,2.968028E-3,-7.1656206E-3,1.8297248E-3,1.0293894E-3,-2.1003118E-2,-3.8655119E-3,9.176655E-4,2.4815407E-3,5.8972943E-3,7.7507184E-3,4.6081077E-3,-3.1448745E-3,2.0871423E-3,2.4706876E-2,4.738758E-3,6.5483577E-3,1.187057E-2,1.3212651E-2,4.651598E-3,-5.489898E-4,-2.3019513E-2,8.6040255E-3,2.4969012E-3,3.9732615E-3,1.51374405E-2,2.2342572E-2,1.5818838E-2,1.8389089E-2,-7.1560503E-3,2.2568572E-2,3.2758202E-2],"split_indices":[1,1,1,1,7,1,1,3,7,3,3,3,11,6,1,10,12,1,3,10,7,9,9,9,6,11,25,1,5,7,7,4,8,8,11,3,6,3,11,9,4,9,1,10,8,4,10,7,7,19,5,1,11,9,7,7,12,6,12,9,9,4,1,0,0,0,0,0,0,0,0,0,0,0,0,0,0,0,0,0,0,0,0,0,0,0,0,0,0,0,0,0,0,0,0,0,0,0,0,0,0,0,0,0,0,0,0,0,0,0,0,0,0,0,0,0,0,0,0,0,0,0,0,0,0,0,0],"split_type":[0,0,0,0,0,0,0,0,0,0,0,0,0,0,0,0,0,0,0,0,0,0,0,0,0,0,0,0,0,0,0,0,0,0,0,0,0,0,0,0,0,0,0,0,0,0,0,0,0,0,0,0,0,0,0,0,0,0,0,0,0,0,0,0,0,0,0,0,0,0,0,0,0,0,0,0,0,0,0,0,0,0,0,0,0,0,0,0,0,0,0,0,0,0,0,0,0,0,0,0,0,0,0,0,0,0,0,0,0,0,0,0,0,0,0,0,0,0,0,0,0,0,0,0,0,0,0],"sum_hessian":[4.6460723E4,1.8760094E4,2.770063E4,6.9784526E3,1.1781641E4,2.2244008E4,5.456623E3,1.6187198E3,5.359733E3,7.5262476E3,4.255393E3,1.3434267E4,8.809741E3,4.331892E3,1.1247308E3,4.099623E2,1.2087576E3,2.954111E3,2.4056218E3,8.8388745E2,6.6423604E3,2.6360303E3,1.6193628E3,5.1134263E3,8.32084E3,6.7372085E3,2.0725325E3,2.3794126E3,1.9524794E3,6.899751E2,4.3475577E2,1.9746541E2,2.1249689E2,2.4841357E2,9.60344E2,1.6266709E3,1.3274402E3,2.237133E3,1.6848877E2,3.314562E1,8.507418E2,3.5350375E2,6.2888564E3,2.6102363E3,2.5793772E1,5.312426E2,1.0881202E3,4.6646753E3,4.4875098E2,5.348865E3,2.9719744E3,3.1066768E3,3.6305317E3,9.137514E2,1.158781E3,1.115655E3,1.2637577E3,5.507751E1,1.8974019E3,1.7290045E2,5.1707465E2,2.6419847E1,4.083359E2,5.5544136E1,1.4192128E2,1.8326411E2,2.9232773E1,1.1050884E2,1.3790472E2,8.7159615E1,8.731843E2,7.113637E2,9.153071E2,5.0658902E2,8.2085114E2,6.802153E2,1.5569177E3,1.0520126E1,1.5796864E2,2.0343824E1,1.2801795E1,8.12534E2,3.8207863E1,2.3530992E2,1.1819383E2,2.6255342E3,3.6633223E3,2.5746177E3,3.5618824E1,1.1618414E1,1.4175357E1,4.1517667E2,1.1606593E2,1.083871E2,9.797331E2,1.5881797E1,4.648794E3,2.7228198E2,1.7646901E2,5.3345146E3,1.43507E1,1.4213765E3,1.550598E3,2.0933567E3,1.01332007E3,2.13794E3,1.4925918E3,3.9235428E2,5.213971E2,2.0286896E1,1.1384941E3,7.340516E2,3.816035E2,1.1893882E3,7.436943E1,4.18403E1,1.3237206E1,1.7522787E3,1.4512326E2,8.936186E1,8.35386E1,1.570623E2,3.6001236E2,1.5962537E1,1.0457311E1,3.5633786E2,5.1998035E1],"tree_param":{"num_deleted":"0","num_feature":"30","num_nodes":"127","size_leaf_vector":"1"}},{"base_weights":[-3.5742517E-3,8.4988154E-2,-1.1345636E-1,2.3676936E-1,5.3086102E-2,-6.254529E-2,-2.1812725E-1,2.0743991E-1,4.4478595E-1,9.4111264E-2,1.8897695E-2,-4.7878567E-2,-1.05548464E-1,-1.8217565E-1,-2.862016E-1,1.7673428E-1,2.5780618E-1,3.1955272E-1,4.8490542E-1,7.854344E-2,1.2371268E-1,3.2730892E-3,5.661824E-2,-3.596166E-2,-8.53324E-2,2.208076E-2,-1.1330437E-1,-2.155149E-1,-1.528608E-1,-3.289478E-1,-2.4808994E-1,7.21882E-2,1.8520944E-1,-1.9644284E-1,2.6791817E-1,3.6532608E-1,1.7601735E-3,4.7262922E-1,3.2831777E-2,9.989119E-2,4.9461003E-2,4.0902615E-2,1.335752E-1,1.808079E-2,-2.6375672E-2,1.2643078E-1,4.190879E-2,-1.2775E-1,-2.9901598E-2,-5.9419766E-2,-1.2000885E-1,-9.3935214E-2,1.3695319E-1,-1.4303046E-1,-7.868365E-2,-1.9797564E-1,-3.234146E-1,-1.5552145E-1,1.1757881E-1,-3.631613E-1,-2.5960013E-1,-3.360255E-1,-2.2211625E-1,1.060802E-2,-7.456535E-4,2.7608741E-2,9.135447E-3,5.088478E-3,-3.3416886E-2,9.652368E-3,1.4957296E-2,1.3763945E-2,2.4540244E-2,1.9640895E-2,2.4469277E-2,5.2514705E-3,-7.2436044E-3,8.44219E-3,1.7200907E-3,2.8227938E-3,-1.1946997E-2,8.154026E-3,5.327188E-3,1.3003676E-3,-2.6468902E-3,-4.9409675E-3,-2.9998322E-4,-1.0450608E-2,7.052578E-3,1.0481112E-3,3.549964E-3,-5.2085468E-3,-1.3388564E-2,-2.47828E-3,-1.681534E-4,-4.2175427E-3,5.829893E-5,3.411301E-3,-6.4634318E-3,9.36454E-3,-8.832372E-3,1.1840449E-2,-2.0075238E-3,-7.81327E-3,-3.6410117E-3,8.796208E-4,-5.1859147E-3,-8.164366E-3,-1.2560173E-2,-1.7609488E-2,-6.1478926E-4,-6.4942776E-3,-9.430702E-3,1.673234E-2,-5.7776384E-3,-1.733414E-2,-2.6382059E-2,-1.3639462E-2,-2.4136635E-3,-1.2431032E-2,-2.0376531E-2,-4.605127E-3,-1.2495329E-2],"categories":[],"categories_nodes":[],"categories_segments":[],"categories_sizes":[],"default_left":[0,0,0,0,0,0,0,0,0,0,0,0,0,0,0,0,0,0,0,0,0,0,0,0,0,0,0,0,0,0,0,0,0,0,0,0,0,0,0,0,0,0,0,0,0,0,0,0,0,0,0,0,0,0,0,0,0,0,0,0,0,0,0,0,0,0,0,0,0,0,0,0,0,0,0,0,0,0,0,0,0,0,0,0,0,0,0,0,0,0,0,0,0,0,0,0,0,0,0,0,0,0,0,0,0,0,0,0,0,0,0,0,0,0,0,0,0,0,0,0,0,0,0],"id":8,"left_children":[1,3,5,7,9,11,13,15,17,19,21,23,25,27,29,31,33,35,37,39,41,43,45,47,49,51,53,55,57,59,61,63,65,67,69,71,-1,73,-1,75,77,79,81,83,85,87,89,91,93,95,97,99,101,103,105,107,109,111,113,115,117,119,121,-1,-1,-1,-1,-1,-1,-1,-1,-1,-1,-1,-1,-1,-1,-1,-1,-1,-1,-1,-1,-1,-1,-1,-1,-1,-1,-1,-1,-1,-1,-1,-1,-1,-1,-1,-1,-1,-1,-1,-1,-1,-1,-1,-1,-1,-1,-1,-1,-1,-1,-1,-1,-1,-1,-1,-1,-1,-1,-1,-1],"loss_changes":[4.4730722E2,1.2322821E2,1.0930087E2,2.6875229E1,2.9498226E1,8.700253E0,1.6375214E1,5.9485016E0,2.5849762E0,4.395874E0,6.7619123E0,4.5914326E0,3.4763756E0,4.2626495E0,3.694748E0,2.1229324E0,6.785469E0,1.747469E0,5.5630493E-1,3.886467E0,2.6841545E0,3.5627594E0,3.4455843E0,4.3409452E0,2.2248554E0,2.7033508E0,3.3936577E0,3.8231506E0,1.7036133E0,2.4906998E0,2.7335587E0,2.2273936E0,1.9449997E0,4.640999E0,3.295662E0,1.1799612E0,0E0,3.2562256E-1,0E0,4.55991E0,4.7678638E0,1.5451899E0,2.329319E0,3.0479412E0,3.9893975E0,2.895297E0,1.6907535E0,1.5682473E0,3.8242168E0,2.150413E0,1.8587809E0,2.3832216E0,1.8106664E0,1.6415901E0,3.691041E0,3.2259674E0,2.5526848E0,1.943531E0,1.2222358E0,1.7876816E0,9.9983215E-1,1.6386662E0,3.417038E0,0E0,0E0,0E0,0E0,0E0,0E0,0E0,0E0,0E0,0E0,0E0,0E0,0E0,0E0,0E0,0E0,0E0,0E0,0E0,0E0,0E0,0E0,0E0,0E0,0E0,0E0,0E0,0E0,0E0,0E0,0E0,0E0,0E0,0E0,0E0,0E0,0E0,0E0,0E0,0E0,0E0,0E0,0E0,0E0,0E0,0E0,0E0,0E0,0E0,0E0,0E0,0E0,0E0,0E0,0E0,0E0,0E0,0E0,0E0,0E0],"parents":[2147483647,0,0,1,1,2,2,3,3,4,4,5,5,6,6,7,7,8,8,9,9,10,10,11,11,12,12,13,13,14,14,15,15,16,16,17,17,18,18,19,19,20,20,21,21,22,22,23,23,24,24,25,25,26,26,27,27,28,28,29,29,30,30,31,31,32,32,33,33,34,34,35,35,37,37,39,39,40,40,41,41,42,42,43,43,44,44,45,45,46,46,47,47,48,48,49,49,50,50,51,51,52,52,53,53,54,54,55,55,56,56,57,57,58,58,59,59,60,60,61,61,62,62],"right_children":[2,4,6,8,10,12,14,16,18,20,22,24,26,28,30,32,34,36,38,40,42,44,46,48,50,52,54,56,58,60,62,64,66,68,70,72,-1,74,-1,76,78,80,82,84,86,88,90,92,94,96,98,100,102,104,106,108,110,112,114,116,118,120,122,-1,-1,-1,-1,-1,-1,-1,-1,-1,-1,-1,-1,-1,-1,-1,-1,-1,-1,-1,-1,-1,-1,-1,-1,-1,-1,-1,-1,-1,-1,-1,-1,-1,-1,-1,-1,-1,-1,-1,-1,-1,-1,-1,-1,-1,-1,-1,-1,-1,-1,-1,-1,-1,-1,-1,-1,-1,-1,-1,-1],"split_conditions":[1.7E1,5.3E0,4.9E1,2.9282153E-1,9.6E0,3.5E1,1.05E2,2.0817703E-1,1E1,1.3E1,1.4E1,7.273E-1,1.8343195E-1,1.3E1,6.452E-3,1.9101124E-1,7E0,1.32E2,5.09763E-1,1.23E2,1.08E2,1.25E2,5E0,5.1E1,8.86E2,4.286E-1,2.48503E-1,1.2E1,1.05E0,1.9414634E-1,1E0,1.111E-1,1.9283865E-1,2.9815304E-1,1.2E1,1.23E2,1.7601735E-3,1.2E1,3.2831777E-2,4.376E3,1.538E-1,9.286E-1,2.667E-1,8E0,1.2E1,9.7E0,2.4848485E-1,3E1,3.7220795E-2,9.286E-1,6E0,2.1E1,5.03E2,1.907E3,2.65E2,7E1,3.0016676E-1,1.2E2,2.1520875E-1,1.354E3,2.897033E-1,1.16E2,1.1E1,1.060802E-2,-7.456535E-4,2.7608741E-2,9.135447E-3,5.088478E-3,-3.3416886E-2,9.652368E-3,1.4957296E-2,1.3763945E-2,2.4540244E-2,1.9640895E-2,2.4469277E-2,5.2514705E-3,-7.2436044E-3,8.44219E-3,1.7200907E-3,2.8227938E-3,-1.1946997E-2,8.154026E-3,5.327188E-3,1.3003676E-3,-2.6468902E-3,-4.9409675E-3,-2.9998322E-4,-1.0450608E-2,7.052578E-3,1.0481112E-3,3.549964E-3,-5.2085468E-3,-1.3388564E-2,-2.47828E-3,-1.681534E-4,-4.2175427E-3,5.829893E-5,3.411301E-3,-6.4634318E-3,9.36454E-3,-8.832372E-3,1.1840449E-2,-2.0075238E-3,-7.81327E-3,-3.6410117E-3,8.796208E-4,-5.1859147E-3,-8.164366E-3,-1.2560173E-2,-1.7609488E-2,-6.1478926E-4,-6.4942776E-3,-9.430702E-3,1.673234E-2,-5.7776384E-3,-1.733414E-2,-2.6382059E-2,-1.3639462E-2,-2.4136635E-3,-1.2431032E-2,-2.0376531E-2,-4.605127E-3,-1.2495329E-2],"split_indices":[0,0,0,2,0,0,0,2,7,7,7,6,12,7,1,9,7,4,2,4,10,4,3,10,10,6,12,3,19,9,25,6,9,12,7,4,0,7,0,10,6,6,6,3,7,0,9,0,2,6,3,10,10,10,10,0,12,4,9,10,9,4,3,0,0,0,0,0,0,0,0,0,0,0,0,0,0,0,0,0,0,0,0,0,0,0,0,0,0,0,0,0,0,0,0,0,0,0,0,0,0,0,0,0,0,0,0,0,0,0,0,0,0,0,0,0,0,0,0,0,0,0,0],"split_type":[0,0,0,0,0,0,0,0,0,0,0,0,0,0,0,0,0,0,0,0,0,0,0,0,0,0,0,0,0,0,0,0,0,0,0,0,0,0,0,0,0,0,0,0,0,0,0,0,0,0,0,0,0,0,0,0,0,0,0,0,0,0,0,0,0,0,0,0,0,0,0,0,0,0,0,0,0,0,0,0,0,0,0,0,0,0,0,0,0,0,0,0,0,0,0,0,0,0,0,0,0,0,0,0,0,0,0,0,0,0,0,0,0,0,0,0,0,0,0,0,0,0,0],"sum_hessian":[4.596325E4,2.5450762E4,2.051249E4,4.4191655E3,2.1031596E4,1.3801264E4,6.7112256E3,3.8748284E3,5.44337E2,9.559137E3,1.1472459E4,1.0292874E4,3.50839E3,4.394217E3,2.3170088E3,2.4100552E3,1.4647732E3,1.3424748E2,4.100895E2,6.2669233E3,3.2922134E3,8.1129844E3,3.3594744E3,7.8099097E3,2.4829644E3,2.0088179E2,3.3075083E3,2.0530122E3,2.3412048E3,1.0885052E3,1.2285034E3,1.8143721E2,2.228618E3,3.14959E1,1.4332772E3,1.1538802E2,1.885946E1,3.8623178E2,2.3857735E1,3.6126497E3,2.6542737E3,3.509157E2,2.9412976E3,5.410946E3,2.7020386E3,5.83331E2,2.7761436E3,4.8244897E2,7.327461E3,1.4226074E3,1.0603569E3,1.0003411E2,1.0084768E2,1.7778643E3,1.529644E3,1.7683921E3,2.8462012E2,2.3188167E3,2.2388145E1,7.2605884E2,3.6244644E2,2.7740244E2,9.51101E2,6.904528E1,1.1239193E2,1.3595205E1,2.2150227E3,1.9780203E1,1.1715695E1,4.2396677E2,1.0093105E3,6.903812E1,4.6349903E1,7.125981E1,3.1497195E2,3.5389292E3,7.37204E1,2.961681E2,2.3581057E3,3.3319543E2,1.772028E1,1.403891E3,1.5374067E3,4.8682246E3,5.427209E2,5.923131E2,2.1097253E3,2.3808126E1,5.595228E2,1.6149916E3,1.1611519E3,4.1440817E2,6.804082E1,4.208363E3,3.1190981E3,1.0075906E3,4.1501675E2,4.941757E1,1.01093933E3,2.2447397E1,7.7586716E1,6.427219E1,3.6575497E1,1.4948524E3,2.8301184E2,3.157309E2,1.2139131E3,1.0731155E3,6.952766E2,2.6040353E2,2.4216562E1,1.309392E3,1.0094246E3,1.1368E1,1.1020146E1,6.6276715E2,6.3291718E1,3.4088092E2,2.1565517E1,1.26837944E2,1.505645E2,1.6825485E2,7.828462E2],"tree_param":{"num_deleted":"0","num_feature":"30","num_nodes":"123","size_leaf_vector":"1"}},{"base_weights":[9.630388E-4,-1.23898536E-1,7.748235E-2,-7.37646E-2,-2.0215411E-1,3.4994036E-2,1.770394E-1,-1.0149959E-1,-5.2211657E-2,-2.888507E-1,-1.7643845E-1,6.4118365E-3,6.7668796E-2,4.3759108E-1,1.6030179E-1,-1.3168502E-1,-6.861534E-2,-4.0335096E-2,-9.044021E-2,-3.8344473E-1,-2.7973917E-1,-2.028931E-1,-1.447568E-1,2.1694317E-2,-2.1307636E-2,1.0960173E-1,6.1010476E-2,3.154823E-1,4.7980118E-1,1.4405634E-1,2.4336125E-1,-1.48073E-1,-2.6022177E-2,-4.8291985E-2,-1.278381E-1,-7.978424E-2,-2.7513666E-2,-1.7845483E-1,-7.250529E-2,-4.7667718E-1,-2.401271E-1,-5.894198E-2,-2.845575E-1,-1.6640292E-1,-2.4095152E-1,-1.2235693E-1,-2.0640343E-1,-8.5976936E-2,2.705998E-2,-1.5151255E-1,-1.1826497E-2,1.2303161E-1,-6.509425E-2,-9.446211E-2,6.347747E-2,3.8031623E-1,1.4251672E-1,4.5372054E-1,5.510232E-1,1.745657E-1,1.2538157E-1,1.2901558E-1,2.9821905E-1,-2.6258811E-2,-7.2533647E-3,-1.8267684E-2,-1.9066133E-4,-1.678775E-3,-8.274147E-3,-2.7653499E-2,-5.8898767E-3,-1.3213649E-2,-2.9661993E-3,6.320602E-4,-2.0362418E-3,-5.5253473E-3,-1.7804315E-2,-7.593146E-3,-2.2354878E-3,-2.7694294E-2,-1.900323E-2,-5.162966E-3,-1.9955624E-2,-1.3337945E-2,5.3433124E-3,-1.6883753E-2,-1.3562994E-2,-9.677359E-3,-4.0244274E-3,-1.0660541E-2,-1.5711298E-2,-6.9130915E-3,-1.7498395E-3,-8.65035E-3,-1.5438956E-2,-7.4327434E-3,3.402209E-3,1.5571403E-2,1.279906E-3,-9.876305E-3,4.3642E-3,-1.7194683E-3,7.8527426E-4,3.6538958E-3,9.383954E-3,-1.009277E-2,1.0392354E-2,-8.236068E-3,6.3444707E-3,1.880966E-4,3.457435E-3,1.5204214E-2,2.7810773E-2,1.5990501E-2,-1.3987643E-2,2.3975857E-2,1.942024E-2,1.6786778E-2,2.8633818E-2,1.0244534E-2,7.427748E-3,6.3830535E-3,-1.38722835E-2,2.1226129E-2,4.8212362E-3,1.3425353E-2,1.7836612E-2],"categories":[],"categories_nodes":[],"categories_segments":[],"categories_sizes":[],"default_left":[0,0,0,0,0,0,0,0,0,0,0,0,0,0,0,0,0,0,0,0,0,0,0,0,0,0,0,0,0,0,0,0,0,0,0,0,0,0,0,0,0,0,0,0,0,0,0,0,0,0,0,0,0,0,0,0,0,0,0,0,0,0,0,0,0,0,0,0,0,0,0,0,0,0,0,0,0,0,0,0,0,0,0,0,0,0,0,0,0,0,0,0,0,0,0,0,0,0,0,0,0,0,0,0,0,0,0,0,0,0,0,0,0,0,0,0,0,0,0,0,0,0,0,0,0,0,0],"id":9,"left_children":[1,3,5,7,9,11,13,15,17,19,21,23,25,27,29,31,33,35,37,39,41,43,45,47,49,51,53,55,57,59,61,63,65,67,69,71,73,75,77,79,81,83,85,87,89,91,93,95,97,99,101,103,105,107,109,111,113,115,117,119,121,123,125,-1,-1,-1,-1,-1,-1,-1,-1,-1,-1,-1,-1,-1,-1,-1,-1,-1,-1,-1,-1,-1,-1,-1,-1,-1,-1,-1,-1,-1,-1,-1,-1,-1,-1,-1,-1,-1,-1,-1,-1,-1,-1,-1,-1,-1,-1,-1,-1,-1,-1,-1,-1,-1,-1,-1,-1,-1,-1,-1,-1,-1,-1,-1,-1],"loss_changes":[4.349067E2,6.7842316E1,1.1937837E2,6.297516E0,1.5005188E1,1.8474676E1,3.6744812E1,4.566597E0,2.6910896E0,1.2229004E0,4.3380737E0,4.4710054E0,2.5704308E0,2.4720535E0,1.067038E1,4.156063E0,2.651719E0,2.2891517E0,2.2065468E0,1.6613064E0,1.4848099E0,3.9001389E0,3.2539253E0,3.9326916E0,4.628768E0,2.9724636E0,3.0620213E0,1.4447489E0,4.489975E-1,3.7603607E0,8.093895E0,2.2809372E0,2.4386861E0,2.8326619E0,2.3411312E0,4.176801E0,1.8150704E0,2.8251157E0,2.5733485E0,3.825302E-1,1.1424196E0,1.1106219E0,8.8386536E-1,3.3698997E0,2.751419E0,2.4187355E0,2.1054764E0,3.129936E0,2.686211E0,2.8137894E0,2.1731734E0,3.7765617E0,3.433384E0,1.962674E0,2.656145E0,1.1265192E0,2.937542E0,2.8740692E-1,2.562008E-1,1.9556808E0,3.8198853E0,4.024144E0,1.4260788E0,0E0,0E0,0E0,0E0,0E0,0E0,0E0,0E0,0E0,0E0,0E0,0E0,0E0,0E0,0E0,0E0,0E0,0E0,0E0,0E0,0E0,0E0,0E0,0E0,0E0,0E0,0E0,0E0,0E0,0E0,0E0,0E0,0E0,0E0,0E0,0E0,0E0,0E0,0E0,0E0,0E0,0E0,0E0,0E0,0E0,0E0,0E0,0E0,0E0,0E0,0E0,0E0,0E0,0E0,0E0,0E0,0E0,0E0,0E0,0E0,0E0,0E0,0E0,0E0],"parents":[2147483647,0,0,1,1,2,2,3,3,4,4,5,5,6,6,7,7,8,8,9,9,10,10,11,11,12,12,13,13,14,14,15,15,16,16,17,17,18,18,19,19,20,20,21,21,22,22,23,23,24,24,25,25,26,26,27,27,28,28,29,29,30,30,31,31,32,32,33,33,34,34,35,35,36,36,37,37,38,38,39,39,40,40,41,41,42,42,43,43,44,44,45,45,46,46,47,47,48,48,49,49,50,50,51,51,52,52,53,53,54,54,55,55,56,56,57,57,58,58,59,59,60,60,61,61,62,62],"right_children":[2,4,6,8,10,12,14,16,18,20,22,24,26,28,30,32,34,36,38,40,42,44,46,48,50,52,54,56,58,60,62,64,66,68,70,72,74,76,78,80,82,84,86,88,90,92,94,96,98,100,102,104,106,108,110,112,114,116,118,120,122,124,126,-1,-1,-1,-1,-1,-1,-1,-1,-1,-1,-1,-1,-1,-1,-1,-1,-1,-1,-1,-1,-1,-1,-1,-1,-1,-1,-1,-1,-1,-1,-1,-1,-1,-1,-1,-1,-1,-1,-1,-1,-1,-1,-1,-1,-1,-1,-1,-1,-1,-1,-1,-1,-1,-1,-1,-1,-1,-1,-1,-1,-1,-1,-1,-1],"split_conditions":[4.0976956E-2,4.8E1,1.1534405E-1,2.6453083E-2,6.2602423E-3,7.395262E-2,2.8E0,1.3E1,7.273E-1,4.8135594E-2,1.4E1,5.455E-1,5.882353E-2,1E1,2.1300958E-1,9.167E-1,1.368E3,3.31E2,1.2E1,4.7492706E-3,5.006954E-2,7E1,1.25E2,3.3E1,1E1,4.6713614E-1,1E-1,1.28E2,4.055219E-1,5.3E0,1.2E1,7E0,7.4E1,1.1170568E-1,1.211778E-1,1.1E1,6.420233E-2,1.51E3,6.2015504E-2,1.4E1,3.7037037E-2,2.143E-1,6.0606062E-2,7.692E-1,7E-1,7.5E-1,1.284E3,3.0508474E-1,1.1235955E-2,1.2172212E-1,8.333E-1,3.75E-1,1.663E3,1.4E1,1E1,1.23E2,1.1940298E-1,2.160187E-1,2.6785713E-1,2.222E-1,4.509E3,6.2418725E-2,1.4E1,-2.6258811E-2,-7.2533647E-3,-1.8267684E-2,-1.9066133E-4,-1.678775E-3,-8.274147E-3,-2.7653499E-2,-5.8898767E-3,-1.3213649E-2,-2.9661993E-3,6.320602E-4,-2.0362418E-3,-5.5253473E-3,-1.7804315E-2,-7.593146E-3,-2.2354878E-3,-2.7694294E-2,-1.900323E-2,-5.162966E-3,-1.9955624E-2,-1.3337945E-2,5.3433124E-3,-1.6883753E-2,-1.3562994E-2,-9.677359E-3,-4.0244274E-3,-1.0660541E-2,-1.5711298E-2,-6.9130915E-3,-1.7498395E-3,-8.65035E-3,-1.5438956E-2,-7.4327434E-3,3.402209E-3,1.5571403E-2,1.279906E-3,-9.876305E-3,4.3642E-3,-1.7194683E-3,7.8527426E-4,3.6538958E-3,9.383954E-3,-1.009277E-2,1.0392354E-2,-8.236068E-3,6.3444707E-3,1.880966E-4,3.457435E-3,1.5204214E-2,2.7810773E-2,1.5990501E-2,-1.3987643E-2,2.3975857E-2,1.942024E-2,1.6786778E-2,2.8633818E-2,1.0244534E-2,7.427748E-3,6.3830535E-3,-1.38722835E-2,2.1226129E-2,4.8212362E-3,1.3425353E-2,1.7836612E-2],"split_indices":[2,0,2,2,2,2,0,7,6,11,7,6,11,7,2,6,10,10,7,2,11,0,4,10,7,9,9,4,2,0,7,7,10,11,9,7,11,10,11,7,8,6,11,6,6,6,10,9,8,11,6,6,10,7,7,4,11,8,9,6,10,8,7,0,0,0,0,0,0,0,0,0,0,0,0,0,0,0,0,0,0,0,0,0,0,0,0,0,0,0,0,0,0,0,0,0,0,0,0,0,0,0,0,0,0,0,0,0,0,0,0,0,0,0,0,0,0,0,0,0,0,0,0,0,0,0,0],"split_type":[0,0,0,0,0,0,0,0,0,0,0,0,0,0,0,0,0,0,0,0,0,0,0,0,0,0,0,0,0,0,0,0,0,0,0,0,0,0,0,0,0,0,0,0,0,0,0,0,0,0,0,0,0,0,0,0,0,0,0,0,0,0,0,0,0,0,0,0,0,0,0,0,0,0,0,0,0,0,0,0,0,0,0,0,0,0,0,0,0,0,0,0,0,0,0,0,0,0,0,0,0,0,0,0,0,0,0,0,0,0,0,0,0,0,0,0,0,0,0,0,0,0,0,0,0,0,0],"sum_hessian":[4.5517367E4,1.7295137E4,2.8222229E4,1.0542862E4,6.752275E3,1.9781402E4,8.440827E3,4.6086284E3,5.934234E3,1.542324E3,5.2099507E3,1.0552135E4,9.229268E3,5.0798376E2,7.932843E3,2.4013516E3,2.2072766E3,4.5291934E3,1.4050408E3,1.3189838E2,1.4104257E3,2.8362434E3,2.3737073E3,6.8021475E3,3.7499873E3,1.2625419E3,7.966726E3,1.3266727E2,3.753165E2,6.6373833E3,1.2954595E3,2.0785703E3,3.2278128E2,1.644688E3,5.6258875E2,1.1096831E3,3.41951E3,2.3632742E2,1.1687134E3,7.850346E1,5.3394905E1,3.0404093E1,1.3800215E3,1.4506971E3,1.3855464E3,1.7432622E3,6.30445E2,3.2217273E2,6.4799746E3,2.535122E2,3.496475E3,1.1726864E3,8.985539E1,1.23856804E2,7.842869E3,9.562474E1,3.704252E1,2.80113E2,9.520351E1,2.516985E3,4.1203984E3,4.210903E2,8.7436914E2,1.506263E1,2.0635078E3,1.8878906E1,3.0390237E2,1.4623384E3,1.8234961E2,1.17298565E1,5.508589E2,1.0959106E2,1.00009204E3,8.4653644E2,2.5729736E3,1.721127E2,6.421474E1,3.020064E2,8.66707E2,4.100274E1,3.7500725E1,2.9579718E1,2.3815187E1,1.3222607E1,1.7181486E1,2.714227E2,1.1085989E3,1.1014471E3,3.4924994E2,1.0078846E3,3.7766174E2,1.4742717E3,2.6899045E2,4.7740005E2,1.5304497E2,2.2901239E2,9.3160324E1,3.2057007E1,6.4479175E3,2.1270001E2,4.0812195E1,1.9215154E3,1.5749597E3,6.62724E2,5.0996243E2,6.003463E1,2.9820763E1,9.420955E1,2.964725E1,6.8038367E2,7.1624854E3,6.861628E1,2.7008465E1,2.6259779E1,1.078274E1,1.9625871E2,8.385429E1,1.0208656E1,8.499485E1,1.1589408E3,1.3580443E3,4.0978926E3,2.2505882E1,4.0633503E1,3.8045682E2,5.8361053E2,2.9075864E2],"tree_param":{"num_deleted":"0","num_feature":"30","num_nodes":"127","size_leaf_vector":"1"}},{"base_weights":[1.2511068E-3,8.1628785E-2,-9.7903445E-2,2.216947E-1,5.147909E-2,-5.4012652E-2,-1.8589893E-1,4.281737E-1,1.9664514E-1,1.7027577E-2,8.397626E-2,-9.510329E-2,-3.9682515E-2,-1.5455635E-1,-2.5849074E-1,3.0543008E-1,4.7236407E-1,1.6665104E-1,2.5072178E-1,-1.0445216E-1,2.1055324E-2,6.9172345E-2,1.1417091E-1,-1.1300688E-1,-4.106427E-2,-7.065197E-2,-2.8466959E-2,-1.9842722E-1,-1.1662778E-1,-2.0380586E-1,-2.8204522E-1,2.7868781E-2,2.624216E-1,4.9697667E-1,4.0630826E-1,2.009651E-1,1.3773818E-1,6.283438E-2,2.6881462E-1,-2.7320353E-2,-2.7422583E-1,9.9572E-3,4.5965225E-2,-9.7501494E-2,7.083396E-2,-7.081181E-2,1.19068265E-1,-1.1605922E-1,1.743445E-2,4.415578E-1,-5.7066258E-2,-5.8247186E-2,-1.9294861E-1,2.452121E-1,-3.0212352E-2,-1.8195312E-1,-2.9821455E-1,4.7782954E-2,-1.2491232E-1,-1.9420917E-1,-2.6285658E-2,-3.6706516E-1,-2.6020896E-1,1.48019865E-2,2.1798292E-3,2.560022E-2,1.6946657E-2,1.0940088E-2,2.2138342E-2,7.901918E-3,1.3098763E-2,-1.685942E-2,7.0994603E-3,-2.6098193E-4,2.6030017E-2,1.2408527E-2,1.6655078E-2,2.9305324E-3,-1.0241174E-2,-1.8728314E-2,-5.1242043E-3,2.2126378E-3,-3.597062E-4,3.2020842E-3,3.5911496E-4,4.1264347E-3,-1.3183951E-2,3.971245E-3,1.7817743E-3,5.152877E-3,-2.6102675E-2,5.8281287E-3,2.3397632E-2,-5.3878594E-3,-1.08150495E-2,3.327764E-2,2.1986922E-3,-4.03171E-3,2.7659617E-3,-1.2299464E-2,-2.4937834E-3,-1.834814E-2,-7.6228343E-3,1.8443111E-2,-2.7389484E-4,-3.991411E-3,-1.0895985E-3,-1.0726598E-2,-7.707288E-3,-1.594627E-2,-3.642775E-3,7.7235014E-3,-4.266265E-3,-5.5575487E-3,-8.975859E-3,-1.18714385E-2,-7.2850506E-3,-1.1953686E-2,-2.0444958E-2,-1.1748492E-2,-1.6405724E-2],"categories":[],"categories_nodes":[],"categories_segments":[],"categories_sizes":[],"default_left":[0,0,0,0,0,0,0,0,0,0,0,0,0,0,0,0,0,0,0,0,0,0,0,0,0,0,0,0,0,0,0,0,0,0,0,0,0,0,0,0,0,0,0,0,0,0,0,0,0,0,0,0,0,0,0,0,0,0,0,0,0,0,0,0,0,0,0,0,0,0,0,0,0,0,0,0,0,0,0,0,0,0,0,0,0,0,0,0,0,0,0,0,0,0,0,0,0,0,0,0,0,0,0,0,0,0,0,0,0,0,0,0,0,0,0,0,0,0,0,0,0],"id":10,"left_children":[1,3,5,7,9,11,13,15,17,19,21,23,25,27,29,31,33,35,37,39,41,43,45,47,49,51,53,55,57,59,61,-1,63,65,67,69,71,73,75,77,79,81,83,85,87,89,91,93,-1,95,97,99,101,103,105,107,109,111,113,115,-1,117,119,-1,-1,-1,-1,-1,-1,-1,-1,-1,-1,-1,-1,-1,-1,-1,-1,-1,-1,-1,-1,-1,-1,-1,-1,-1,-1,-1,-1,-1,-1,-1,-1,-1,-1,-1,-1,-1,-1,-1,-1,-1,-1,-1,-1,-1,-1,-1,-1,-1,-1,-1,-1,-1,-1,-1,-1,-1,-1],"loss_changes":[3.5943533E2,1.0517461E2,7.7972885E1,2.273352E1,2.2947224E1,7.929737E0,1.5247543E1,2.440033E0,6.342575E0,4.871064E0,4.706932E0,3.3651867E0,3.4683237E0,7.7898026E0,2.5505219E0,1.2510595E0,3.6466217E-1,2.4871674E0,4.750206E0,4.1764545E0,2.6624432E0,1.9677544E0,3.1506653E0,3.7266464E0,6.73148E0,4.0175333E0,3.511911E0,3.5224152E0,3.4392853E0,1.7921257E0,2.5269547E0,0E0,8.113208E-1,4.1882706E-1,5.873127E-1,2.9886475E0,2.831684E0,3.8806942E0,1.6145477E0,3.3799715E0,1.6797404E0,3.9206681E0,2.080659E0,2.1251802E0,2.1171837E0,7.121751E0,2.8997498E0,2.1398277E0,0E0,2.4627342E0,2.2330165E0,3.7794456E0,1.6642227E0,1.4465868E0,3.044304E0,1.6610146E0,1.4083977E0,1.7406495E0,1.7835121E0,1.2170238E0,0E0,1.4348183E0,1.8550415E0,0E0,0E0,0E0,0E0,0E0,0E0,0E0,0E0,0E0,0E0,0E0,0E0,0E0,0E0,0E0,0E0,0E0,0E0,0E0,0E0,0E0,0E0,0E0,0E0,0E0,0E0,0E0,0E0,0E0,0E0,0E0,0E0,0E0,0E0,0E0,0E0,0E0,0E0,0E0,0E0,0E0,0E0,0E0,0E0,0E0,0E0,0E0,0E0,0E0,0E0,0E0,0E0,0E0,0E0,0E0,0E0,0E0,0E0],"parents":[2147483647,0,0,1,1,2,2,3,3,4,4,5,5,6,6,7,7,8,8,9,9,10,10,11,11,12,12,13,13,14,14,15,15,16,16,17,17,18,18,19,19,20,20,21,21,22,22,23,23,24,24,25,25,26,26,27,27,28,28,29,29,30,30,32,32,33,33,34,34,35,35,36,36,37,37,38,38,39,39,40,40,41,41,42,42,43,43,44,44,45,45,46,46,47,47,49,49,50,50,51,51,52,52,53,53,54,54,55,55,56,56,57,57,58,58,59,59,61,61,62,62],"right_children":[2,4,6,8,10,12,14,16,18,20,22,24,26,28,30,32,34,36,38,40,42,44,46,48,50,52,54,56,58,60,62,-1,64,66,68,70,72,74,76,78,80,82,84,86,88,90,92,94,-1,96,98,100,102,104,106,108,110,112,114,116,-1,118,120,-1,-1,-1,-1,-1,-1,-1,-1,-1,-1,-1,-1,-1,-1,-1,-1,-1,-1,-1,-1,-1,-1,-1,-1,-1,-1,-1,-1,-1,-1,-1,-1,-1,-1,-1,-1,-1,-1,-1,-1,-1,-1,-1,-1,-1,-1,-1,-1,-1,-1,-1,-1,-1,-1,-1,-1,-1,-1],"split_conditions":[1.7E1,5.4E0,4.8E1,2.8E0,8.1586435E-2,2.4016304E-2,1.12E2,1E1,2.0817703E-1,9E0,1.1848025E-1,7.723577E-2,2.0970874E-1,1.3E1,1.2E1,1.6E0,2.1626873E-1,2.222E-1,9E0,6E0,1.4E1,1.40625E-1,8E0,1.05E0,4.2682927E-2,1.31E2,2.1002387E-1,1.2E1,9E0,1.32E2,1.9587629E-1,2.7868781E-2,1.32E2,1.3598575E-1,1.2E1,2.780873E-1,7E0,1.2907904E-1,1.4E1,1.25E2,6.744018E-2,5.8252428E-2,7E0,3.2786883E-2,1.0888889E-1,1.407344E-1,1.05E0,3.202765E-1,1.743445E-2,1.24E2,2.9815304E-1,1E1,3.571E-1,2.7E1,4.2674255E-2,1.2343787E-2,3.0016676E-1,1.2E2,1.3E1,7.152318E-2,-2.6285658E-2,1.35E2,1.24E2,1.48019865E-2,2.1798292E-3,2.560022E-2,1.6946657E-2,1.0940088E-2,2.2138342E-2,7.901918E-3,1.3098763E-2,-1.685942E-2,7.0994603E-3,-2.6098193E-4,2.6030017E-2,1.2408527E-2,1.6655078E-2,2.9305324E-3,-1.0241174E-2,-1.8728314E-2,-5.1242043E-3,2.2126378E-3,-3.597062E-4,3.2020842E-3,3.5911496E-4,4.1264347E-3,-1.3183951E-2,3.971245E-3,1.7817743E-3,5.152877E-3,-2.6102675E-2,5.8281287E-3,2.3397632E-2,-5.3878594E-3,-1.08150495E-2,3.327764E-2,2.1986922E-3,-4.03171E-3,2.7659617E-3,-1.2299464E-2,-2.4937834E-3,-1.834814E-2,-7.6228343E-3,1.8443111E-2,-2.7389484E-4,-3.991411E-3,-1.0895985E-3,-1.0726598E-2,-7.707288E-3,-1.594627E-2,-3.642775E-3,7.7235014E-3,-4.266265E-3,-5.5575487E-3,-8.975859E-3,-1.18714385E-2,-7.2850506E-3,-1.1953686E-2,-2.0444958E-2,-1.1748492E-2,-1.6405724E-2],"split_indices":[0,0,0,0,2,2,0,7,2,7,2,8,12,7,3,0,8,6,7,3,7,12,7,19,11,4,12,3,3,4,12,0,4,11,7,12,7,11,7,4,2,8,3,11,11,2,19,12,0,4,12,7,6,0,8,2,12,4,3,11,0,0,4,0,0,0,0,0,0,0,0,0,0,0,0,0,0,0,0,0,0,0,0,0,0,0,0,0,0,0,0,0,0,0,0,0,0,0,0,0,0,0,0,0,0,0,0,0,0,0,0,0,0,0,0,0,0,0,0,0,0],"split_type":[0,0,0,0,0,0,0,0,0,0,0,0,0,0,0,0,0,0,0,0,0,0,0,0,0,0,0,0,0,0,0,0,0,0,0,0,0,0,0,0,0,0,0,0,0,0,0,0,0,0,0,0,0,0,0,0,0,0,0,0,0,0,0,0,0,0,0,0,0,0,0,0,0,0,0,0,0,0,0,0,0,0,0,0,0,0,0,0,0,0,0,0,0,0,0,0,0,0,0,0,0,0,0,0,0,0,0,0,0,0,0,0,0,0,0,0,0,0,0,0,0],"sum_hessian":[4.5097594E4,2.4907223E4,2.0190371E4,4.4106035E3,2.049662E4,1.3472239E4,6.718132E3,4.7545123E2,3.9351523E3,9.949885E3,1.0546735E4,3.4820562E3,9.990183E3,4.694389E3,2.0237426E3,1.2795472E2,3.4749652E2,2.533825E3,1.4013274E3,3.1850842E2,9.631376E3,7.0792095E3,3.4675254E3,2.6146946E3,8.673617E2,2.6546406E3,7.3355425E3,2.1747207E3,2.5196682E3,6.121674E2,1.4115752E3,1.691372E1,1.11041E2,2.4841327E2,9.9083244E1,1.1559641E3,1.3778607E3,1.2348238E2,1.2778451E3,2.1980653E2,9.87019E1,6.663834E3,2.9675422E3,6.930855E1,7.009901E3,8.908681E1,3.3784387E3,2.5982656E3,1.642889E1,2.6982164E1,8.403795E2,2.4115127E3,2.4312804E2,4.560214E1,7.2899404E3,1.8689889E3,3.0573187E2,1.20644806E2,2.3990234E3,5.960027E2,1.6164698E1,2.8522717E2,1.126348E3,9.5947685E1,1.5093317E1,2.2479848E2,2.361479E1,1.7269184E1,8.181406E1,6.8064954E2,4.7531458E2,1.1528845E1,1.3663319E3,1.0836138E2,1.5121005E1,9.709194E2,3.069257E2,1.4855797E2,7.1248566E1,6.1556442E1,3.7145454E1,2.2210576E3,4.4427764E3,2.0236716E3,9.438706E2,3.350928E1,3.5799267E1,5.633635E3,1.3762664E3,6.486506E1,2.4221746E1,3.355672E3,2.2766392E1,2.401452E3,1.968136E2,1.682764E1,1.0154522E1,6.949308E2,1.4544875E2,1.0172883E2,2.3097837E3,4.4372864E1,1.9875517E2,3.022339E1,1.5378746E1,1.0564547E3,6.2334854E3,8.57562E2,1.01142694E3,2.7961923E2,2.611263E1,6.6879776E1,5.3765034E1,1.9185515E3,4.8047195E2,3.131231E2,2.828796E2,7.191565E1,2.1331152E2,8.2439624E2,3.0195178E2],"tree_param":{"num_deleted":"0","num_feature":"30","num_nodes":"121","size_leaf_vector":"1"}},{"base_weights":[-7.178976E-4,-1.2409527E-1,6.551176E-2,-2.234362E-1,-8.7203056E-2,2.15736E-1,4.032689E-2,-2.8893638E-1,-1.9810429E-1,-7.446118E-2,-1.4135037E-1,4.1813993E-1,1.9062737E-1,8.735143E-2,1.166411E-2,-3.310582E-1,-2.4164425E-1,-2.65661E-1,-1.7687127E-1,-9.73781E-2,-6.12649E-2,-1.4604379E-1,9.7420946E-2,2.8277937E-2,4.0580276E-1,1.5995649E-1,2.5085366E-1,8.880373E-2,-1.7689729E-1,-7.368965E-3,3.2765757E-2,-4.3892917E-1,-3.1367493E-1,-2.3088446E-1,-2.9016463E-2,-3.0638054E-1,-1.2732211E-1,-1.4448464E-1,-2.1345039E-1,-5.366257E-2,-1.2128657E-1,-5.3601224E-2,-1.15840726E-1,-3.767132E-2,-1.5506925E-1,-2.444283E-3,2.2639678E-1,8.5967295E-3,4.1186038E-1,1.9304718E-1,1.328163E-1,2.447752E-1,5.0166416E-1,5.4414034E-2,9.9776454E-2,5.9211203E-3,-2.560037E-1,-4.0452838E-2,3.218065E-3,4.8516404E-2,1.7035143E-3,-1.6530434E-2,-2.5399303E-2,-2.0775324E-2,-1.4394181E-2,-1.5384738E-2,-9.712773E-3,-1.1102828E-2,-1.694393E-2,1.9427175E-3,-1.0406238E-2,-1.4031236E-2,-6.199441E-3,-9.171364E-3,-1.3641347E-2,1.8491445E-2,-2.9234856E-3,-6.3208076E-3,1.0552882E-2,-2.7742528E-3,8.968512E-3,-9.793066E-3,-3.4823194E-3,-8.405718E-3,4.8597516E-3,-1.1651493E-2,-6.8468167E-3,3.1405985E-3,1.7957298E-2,2.2609008E-2,1.8610774E-2,4.536438E-3,1.0526708E-2,1.0447842E-2,5.172059E-3,1.3822545E-2,9.977468E-3,3.0022502E-2,1.960359E-2,1.6354487E-3,5.2034464E-3,1.8060968E-3,5.3003044E-3,-1.7829694E-2,-5.513034E-3,1.6056137E-3,-3.0904368E-3,2.6179518E-4,-9.302732E-3,-4.45703E-3,2.681804E-3,-3.514389E-3,1.8769784E-3],"categories":[],"categories_nodes":[],"categories_segments":[],"categories_sizes":[],"default_left":[0,0,0,0,0,0,0,0,0,0,0,0,0,0,0,0,0,0,0,0,0,0,0,0,0,0,0,0,0,0,0,0,0,0,0,0,0,0,0,0,0,0,0,0,0,0,0,0,0,0,0,0,0,0,0,0,0,0,0,0,0,0,0,0,0,0,0,0,0,0,0,0,0,0,0,0,0,0,0,0,0,0,0,0,0,0,0,0,0,0,0,0,0,0,0,0,0,0,0,0,0,0,0,0,0,0,0,0,0,0,0,0,0],"id":11,"left_children":[1,3,5,7,9,11,13,15,17,19,21,23,25,27,29,31,33,35,37,39,41,43,45,-1,47,49,51,53,55,57,59,61,63,65,-1,67,69,71,73,75,77,79,81,83,85,-1,87,-1,89,91,93,95,97,99,101,-1,103,105,107,109,111,-1,-1,-1,-1,-1,-1,-1,-1,-1,-1,-1,-1,-1,-1,-1,-1,-1,-1,-1,-1,-1,-1,-1,-1,-1,-1,-1,-1,-1,-1,-1,-1,-1,-1,-1,-1,-1,-1,-1,-1,-1,-1,-1,-1,-1,-1,-1,-1,-1,-1,-1,-1],"loss_changes":[3.6761108E2,5.7572433E1,1.1074585E2,7.0026093E0,7.896553E0,2.1279617E1,3.3792522E1,2.279457E0,4.3587494E0,2.800335E0,2.4595299E0,6.125488E-1,6.86998E0,3.6594696E0,6.2570057E0,1.0319672E0,1.9128685E0,4.087242E0,2.7411957E0,3.5357628E0,2.457859E0,2.0876846E0,8.1614256E-1,0E0,5.394821E-1,2.202858E0,1.7988892E0,3.5580292E0,1.2505304E0,2.8692877E0,3.6144762E0,4.6087837E-1,1.3004646E0,1.4765244E0,0E0,1.4736328E0,2.2677798E0,3.4368267E0,1.9050751E0,2.4646397E0,3.7604027E0,2.2779903E0,2.664669E0,2.9344041E0,2.7607613E0,0E0,4.737047E-1,0E0,5.0175476E-1,1.9775238E0,3.034668E0,1.7106476E0,7.71637E-2,2.460868E0,2.8346176E0,0E0,5.692687E-1,3.0795522E0,2.3714042E0,3.4596272E0,6.418251E0,0E0,0E0,0E0,0E0,0E0,0E0,0E0,0E0,0E0,0E0,0E0,0E0,0E0,0E0,0E0,0E0,0E0,0E0,0E0,0E0,0E0,0E0,0E0,0E0,0E0,0E0,0E0,0E0,0E0,0E0,0E0,0E0,0E0,0E0,0E0,0E0,0E0,0E0,0E0,0E0,0E0,0E0,0E0,0E0,0E0,0E0,0E0,0E0,0E0,0E0,0E0,0E0],"parents":[2147483647,0,0,1,1,2,2,3,3,4,4,5,5,6,6,7,7,8,8,9,9,10,10,11,11,12,12,13,13,14,14,15,15,16,16,17,17,18,18,19,19,20,20,21,21,22,22,24,24,25,25,26,26,27,27,28,28,29,29,30,30,31,31,32,32,33,33,35,35,36,36,37,37,38,38,39,39,40,40,41,41,42,42,43,43,44,44,46,46,48,48,49,49,50,50,51,51,52,52,53,53,54,54,56,56,57,57,58,58,59,59,60,60],"right_children":[2,4,6,8,10,12,14,16,18,20,22,24,26,28,30,32,34,36,38,40,42,44,46,-1,48,50,52,54,56,58,60,62,64,66,-1,68,70,72,74,76,78,80,82,84,86,-1,88,-1,90,92,94,96,98,100,102,-1,104,106,108,110,112,-1,-1,-1,-1,-1,-1,-1,-1,-1,-1,-1,-1,-1,-1,-1,-1,-1,-1,-1,-1,-1,-1,-1,-1,-1,-1,-1,-1,-1,-1,-1,-1,-1,-1,-1,-1,-1,-1,-1,-1,-1,-1,-1,-1,-1,-1,-1,-1,-1,-1,-1,-1],"split_conditions":[3.7220795E-2,1.2024136E-2,5.3E0,6.803E-3,4.9E1,2.8E0,9.6E0,2.2318214E-1,1E0,1E0,1.4E1,1.6E0,2.1300958E-1,4.509E3,6.217859E-2,1.8676586E-1,3.4923664E-1,2.2131148E-1,1.2E1,9E0,1.1312217E-1,4.8135594E-2,5.7E1,2.8277937E-2,1.8642746E-1,2.222E-1,1.7E-1,9.645466E-2,2.1551724E-1,2.0938024E-1,5.455E-1,3.508772E-2,9.150327E-2,1.3461539E-1,-2.9016463E-2,1.211778E-1,1.1E1,2.5974026E-2,1.22E2,1.7321145E-2,3.7271938E-1,3.1522956E-1,1.2113721E-1,4.920914E-2,2.0454545E-1,-2.444283E-3,6.24E2,8.5967295E-3,4.6713614E-1,2.1085595E-1,2.2277677E-1,2.8614008E-1,1E0,5.833E-1,1.08E2,5.9211203E-3,1E0,4.7577094E-2,4.1666666E-1,1.0391363E-1,9E0,-1.6530434E-2,-2.5399303E-2,-2.0775324E-2,-1.4394181E-2,-1.5384738E-2,-9.712773E-3,-1.1102828E-2,-1.694393E-2,1.9427175E-3,-1.0406238E-2,-1.4031236E-2,-6.199441E-3,-9.171364E-3,-1.3641347E-2,1.8491445E-2,-2.9234856E-3,-6.3208076E-3,1.0552882E-2,-2.7742528E-3,8.968512E-3,-9.793066E-3,-3.4823194E-3,-8.405718E-3,4.8597516E-3,-1.1651493E-2,-6.8468167E-3,3.1405985E-3,1.7957298E-2,2.2609008E-2,1.8610774E-2,4.536438E-3,1.0526708E-2,1.0447842E-2,5.172059E-3,1.3822545E-2,9.977468E-3,3.0022502E-2,1.960359E-2,1.6354487E-3,5.2034464E-3,1.8060968E-3,5.3003044E-3,-1.7829694E-2,-5.513034E-3,1.6056137E-3,-3.0904368E-3,2.6179518E-4,-9.302732E-3,-4.45703E-3,2.681804E-3,-3.514389E-3,1.8769784E-3],"split_indices":[2,2,0,1,0,0,0,12,25,25,5,0,2,10,2,12,12,9,3,3,11,11,0,0,9,6,11,2,12,12,6,8,9,9,0,9,3,8,4,2,12,12,11,8,12,0,10,0,9,9,12,12,25,6,10,0,25,11,12,9,5,0,0,0,0,0,0,0,0,0,0,0,0,0,0,0,0,0,0,0,0,0,0,0,0,0,0,0,0,0,0,0,0,0,0,0,0,0,0,0,0,0,0,0,0,0,0,0,0,0,0,0,0],"split_type":[0,0,0,0,0,0,0,0,0,0,0,0,0,0,0,0,0,0,0,0,0,0,0,0,0,0,0,0,0,0,0,0,0,0,0,0,0,0,0,0,0,0,0,0,0,0,0,0,0,0,0,0,0,0,0,0,0,0,0,0,0,0,0,0,0,0,0,0,0,0,0,0,0,0,0,0,0,0,0,0,0,0,0,0,0,0,0,0,0,0,0,0,0,0,0,0,0,0,0,0,0,0,0,0,0,0,0,0,0,0,0,0,0],"sum_hessian":[4.4986406E4,1.571343E4,2.9272979E4,4.253859E3,1.145957E4,4.2018667E3,2.5071111E4,1.1834454E3,3.0704133E3,9.278534E3,2.1810369E3,4.6199695E2,3.7398699E3,9.493651E3,1.5577459E4,6.2276514E2,5.606803E2,7.315005E2,2.3389128E3,3.3881785E3,5.8903555E3,2.1393726E3,4.166424E1,3.2214813E1,4.2978214E2,2.4803706E3,1.2594994E3,9.44242E3,5.12314E1,8.1905083E3,7.386951E3,8.306428E1,5.3970087E2,5.450463E2,1.56340275E1,5.64212E2,1.6728847E2,1.2431742E3,1.0957386E3,1.1990381E3,2.1891404E3,5.1668022E3,7.235532E2,1.6487097E2,1.9745016E3,1.9811544E1,2.1852695E1,1.1592953E1,4.1818918E2,1.1149065E3,1.365464E3,1.2316266E3,2.7872883E1,2.2854705E3,7.1569497E3,1.0718849E1,4.051255E1,1.9849209E3,6.2055874E3,4.9011675E3,2.4857834E3,3.459193E1,4.8472343E1,1.0601453E2,4.3368634E2,1.7360323E2,3.7144305E2,1.5913387E2,4.0507812E2,5.4900593E1,1.1238788E2,1.610087E2,1.0821655E3,7.304725E2,3.6526624E2,1.2605503E1,1.1864325E3,2.1564758E3,3.266456E1,5.126114E3,4.068844E1,2.636328E2,4.599204E2,8.3684555E1,8.118641E1,3.7035333E2,1.6041483E3,1.0449318E1,1.1403378E1,2.0217108E2,2.160181E2,1.6363664E2,9.5126984E2,3.784375E2,9.8702655E2,7.213137E2,5.103128E2,1.2303583E1,1.55693E1,1.591469E3,6.940016E2,6.385927E2,6.518357E3,2.3113293E1,1.7399256E1,4.5121967E2,1.5337013E3,6.1410894E3,6.449788E1,1.7515714E2,4.7260103E3,8.2582227E2,1.6599613E3],"tree_param":{"num_deleted":"0","num_feature":"30","num_nodes":"113","size_leaf_vector":"1"}},{"base_weights":[6.650833E-5,-8.321084E-2,8.7800175E-2,-4.1904174E-2,-1.8719597E-1,2.0128673E-1,5.9809785E-2,-6.638757E-2,-1.4036084E-2,-1.5754743E-1,-2.57015E-1,1.7646913E-1,4.0622833E-1,1.0468921E-1,4.3807454E-2,-4.8710417E-2,-9.627962E-2,-1.5908964E-2,2.4138533E-1,-2.0492357E-1,-1.398011E-1,-2.3946792E-1,-3.3911654E-1,9.085813E-2,1.8901457E-1,2.6377285E-1,4.3704715E-1,1.0142414E-1,4.5493805E-1,1.9143436E-2,5.5740096E-2,-6.479438E-2,-2.5213106E-2,-1.24198884E-1,-6.2165752E-2,4.2550433E-2,-2.2491649E-2,-7.335627E-3,3.3587602E-1,-1.4338551E-2,-2.1356317E-1,-1.4131929E-1,1.6113421E-2,-2.5378186E-1,-1.20749414E-1,-4.317217E-1,-2.6302615E-1,7.405801E-2,3.394286E-2,1.6477355E-1,2.4584529E-1,2.7662326E-2,2.0364769E-1,4.0462223E-1,5.2594703E-1,8.038137E-2,1.3539034E-1,2.507984E-1,3.1529266E-2,-5.3532425E-2,3.2076545E-2,6.17986E-2,1.4928813E-2,-3.5583617E-3,1.4827476E-3,-6.668728E-4,-6.958458E-3,-7.7413665E-3,-3.8237441E-3,1.5624024E-2,-3.4145552E-3,-8.631423E-3,3.165798E-3,-1.8053501E-3,3.2883108E-4,7.926433E-3,2.1119194E-2,-5.624194E-3,9.3463985E-3,-1.2199185E-2,-7.51814E-3,-6.9303187E-3,-2.0479828E-2,-1.4756179E-2,-1.0395015E-2,-1.2450294E-2,-2.3815148E-3,-2.8530587E-2,-1.8544968E-2,-1.102678E-2,-1.9848613E-2,2.8237775E-2,2.942079E-3,-3.5102982E-3,8.414996E-3,8.379984E-3,1.323611E-2,1.6239595E-2,2.412847E-3,1.5997326E-2,2.1859137E-2,2.9204989E-2,2.2198036E-2,-2.3959043E-2,4.1501587E-3,1.2527205E-2,6.000457E-3,1.790162E-2,6.0046185E-3,-1.6282391E-4,-6.1849183E-3,-9.434217E-3,1.7406397E-3,2.5254982E-3,6.819869E-3,-1.0969732E-3,5.644902E-3],"categories":[],"categories_nodes":[],"categories_segments":[],"categories_sizes":[],"default_left":[0,0,0,0,0,0,0,0,0,0,0,0,0,0,0,0,0,0,0,0,0,0,0,0,0,0,0,0,0,0,0,0,0,0,0,0,0,0,0,0,0,0,0,0,0,0,0,0,0,0,0,0,0,0,0,0,0,0,0,0,0,0,0,0,0,0,0,0,0,0,0,0,0,0,0,0,0,0,0,0,0,0,0,0,0,0,0,0,0,0,0,0,0,0,0,0,0,0,0,0,0,0,0,0,0,0,0,0,0,0,0,0,0,0,0,0,0],"id":12,"left_children":[1,3,5,7,9,11,13,15,17,19,21,23,25,27,29,31,33,35,37,39,41,43,45,47,49,51,53,55,57,59,61,63,65,67,69,71,73,-1,75,77,79,81,-1,83,85,87,89,91,-1,93,95,-1,97,99,101,103,105,107,-1,109,111,113,115,-1,-1,-1,-1,-1,-1,-1,-1,-1,-1,-1,-1,-1,-1,-1,-1,-1,-1,-1,-1,-1,-1,-1,-1,-1,-1,-1,-1,-1,-1,-1,-1,-1,-1,-1,-1,-1,-1,-1,-1,-1,-1,-1,-1,-1,-1,-1,-1,-1,-1,-1,-1,-1,-1],"loss_changes":[3.258253E2,9.826311E1,6.897185E1,1.1172255E1,1.342337E1,2.1778976E1,1.25071945E1,4.601383E0,3.668048E0,3.811966E0,2.7095108E0,4.100456E0,1.918663E0,5.1896935E0,3.779068E0,2.0692902E0,3.0765114E0,2.927472E0,2.0962138E0,2.043106E0,2.3790207E0,2.6873245E0,2.2730942E0,4.8092275E0,4.564789E0,1.3653655E0,8.807144E-1,3.232212E0,1.3478155E0,3.939512E0,2.139248E0,1.959734E0,3.0137203E0,2.589737E0,3.3705397E0,3.451574E0,2.7057087E0,0E0,6.263852E-1,1.1067158E0,2.248726E0,2.3567886E0,0E0,2.6443253E0,1.6199331E0,1.0657635E0,9.852419E-1,3.5461926E0,0E0,1.9560623E0,1.4290009E0,0E0,1.3378038E0,6.384659E-1,2.0816231E-1,4.1536655E0,3.0416546E0,2.5252974E-1,0E0,2.2336183E0,2.1553125E0,6.3397694E0,4.0485086E0,0E0,0E0,0E0,0E0,0E0,0E0,0E0,0E0,0E0,0E0,0E0,0E0,0E0,0E0,0E0,0E0,0E0,0E0,0E0,0E0,0E0,0E0,0E0,0E0,0E0,0E0,0E0,0E0,0E0,0E0,0E0,0E0,0E0,0E0,0E0,0E0,0E0,0E0,0E0,0E0,0E0,0E0,0E0,0E0,0E0,0E0,0E0,0E0,0E0,0E0,0E0,0E0,0E0,0E0],"parents":[2147483647,0,0,1,1,2,2,3,3,4,4,5,5,6,6,7,7,8,8,9,9,10,10,11,11,12,12,13,13,14,14,15,15,16,16,17,17,18,18,19,19,20,20,21,21,22,22,23,23,24,24,25,25,26,26,27,27,28,28,29,29,30,30,31,31,32,32,33,33,34,34,35,35,36,36,38,38,39,39,40,40,41,41,43,43,44,44,45,45,46,46,47,47,49,49,50,50,52,52,53,53,54,54,55,55,56,56,57,57,59,59,60,60,61,61,62,62],"right_children":[2,4,6,8,10,12,14,16,18,20,22,24,26,28,30,32,34,36,38,40,42,44,46,48,50,52,54,56,58,60,62,64,66,68,70,72,74,-1,76,78,80,82,-1,84,86,88,90,92,-1,94,96,-1,98,100,102,104,106,108,-1,110,112,114,116,-1,-1,-1,-1,-1,-1,-1,-1,-1,-1,-1,-1,-1,-1,-1,-1,-1,-1,-1,-1,-1,-1,-1,-1,-1,-1,-1,-1,-1,-1,-1,-1,-1,-1,-1,-1,-1,-1,-1,-1,-1,-1,-1,-1,-1,-1,-1,-1,-1,-1,-1,-1,-1,-1],"split_conditions":[5.8158886E-2,4.8E1,5.4E0,3.6805697E-2,1.12E2,2.9282153E-1,4E0,1E1,4.243E3,1E0,1.4E1,1E1,9E0,1.05E0,7.380721E-2,1.3E1,1.4E1,5.4985337E-2,1.1111111E-1,9E0,2.160187E-1,2.936508E-1,2.209857E-1,1.7E-1,2.1300958E-1,1.6E0,4.055219E-1,1.3E1,1.412E3,1.2E1,1.3226452E-1,3.360604E-1,3.2303467E-1,1.084E3,1.40625E-1,1.3E1,1.4E1,-7.335627E-3,7.4418604E-2,2.8583992E-1,2.1428572E-1,1.2624113E-1,1.6113421E-2,1.4E1,4.9987454E-3,2.9106261E-3,6.111111E-2,3.37214E-2,3.394286E-2,1.2E-1,1.2E1,2.7662326E-2,1.62E3,1.2E1,4E0,6.302514E-2,5.7E0,7.1E0,3.1529266E-2,5E0,5.6338027E-2,3.2E-1,4.8840746E-1,-3.5583617E-3,1.4827476E-3,-6.668728E-4,-6.958458E-3,-7.7413665E-3,-3.8237441E-3,1.5624024E-2,-3.4145552E-3,-8.631423E-3,3.165798E-3,-1.8053501E-3,3.2883108E-4,7.926433E-3,2.1119194E-2,-5.624194E-3,9.3463985E-3,-1.2199185E-2,-7.51814E-3,-6.9303187E-3,-2.0479828E-2,-1.4756179E-2,-1.0395015E-2,-1.2450294E-2,-2.3815148E-3,-2.8530587E-2,-1.8544968E-2,-1.102678E-2,-1.9848613E-2,2.8237775E-2,2.942079E-3,-3.5102982E-3,8.414996E-3,8.379984E-3,1.323611E-2,1.6239595E-2,2.412847E-3,1.5997326E-2,2.1859137E-2,2.9204989E-2,2.2198036E-2,-2.3959043E-2,4.1501587E-3,1.2527205E-2,6.000457E-3,1.790162E-2,6.0046185E-3,-1.6282391E-4,-6.1849183E-3,-9.434217E-3,1.7406397E-3,2.5254982E-3,6.819869E-3,-1.0969732E-3,5.644902E-3],"split_indices":[2,0,0,2,0,2,3,3,10,25,3,7,7,19,2,7,7,11,8,3,8,12,12,11,2,0,2,7,10,7,8,12,12,10,12,10,7,0,11,12,9,8,0,7,2,2,8,8,0,9,7,0,10,7,5,2,0,0,0,5,9,9,9,0,0,0,0,0,0,0,0,0,0,0,0,0,0,0,0,0,0,0,0,0,0,0,0,0,0,0,0,0,0,0,0,0,0,0,0,0,0,0,0,0,0,0,0,0,0,0,0,0,0,0,0,0,0],"split_type":[0,0,0,0,0,0,0,0,0,0,0,0,0,0,0,0,0,0,0,0,0,0,0,0,0,0,0,0,0,0,0,0,0,0,0,0,0,0,0,0,0,0,0,0,0,0,0,0,0,0,0,0,0,0,0,0,0,0,0,0,0,0,0,0,0,0,0,0,0,0,0,0,0,0,0,0,0,0,0,0,0,0,0,0,0,0,0,0,0,0,0,0,0,0,0,0,0,0,0,0,0,0,0,0,0,0,0,0,0,0,0,0,0,0,0,0,0],"sum_hessian":[4.4593555E4,2.2877828E4,2.1715727E4,1.6374633E4,6.5031953E3,4.295105E3,1.7420623E4,8.715917E3,7.6587163E3,4.5670576E3,1.9361378E3,3.8328262E3,4.622788E2,4.5774287E3,1.2843193E4,5.4786533E3,3.2372634E3,7.6038984E3,5.4817966E1,1.2416808E3,3.3253767E3,1.5984316E3,3.3770618E2,4.909295E2,3.3418967E3,8.3921684E1,3.7835712E2,4.536429E3,4.099968E1,4.1884785E3,8.654715E3,3.2513438E3,2.2273098E3,1.7788156E3,1.4584478E3,7.690113E2,6.8348867E3,1.0625131E1,4.4192837E1,5.396225E1,1.1877186E3,3.3151785E3,1.0198276E1,1.4254293E3,1.730023E2,1.5021474E2,1.8749142E2,4.7838715E2,1.2542371E1,2.3453796E3,9.965169E2,1.3022594E1,7.0899086E1,2.8130624E2,9.705086E1,2.8031719E3,1.7332572E3,2.0084757E1,2.0914923E1,6.322871E2,3.5561914E3,7.5355376E3,1.1191774E3,3.046061E3,2.0528273E2,2.018114E3,2.0919576E2,1.0820989E3,6.967167E2,2.2657036E1,1.4357908E3,6.703724E1,7.0197406E2,4.654509E3,2.180378E3,1.5417786E1,2.8775051E1,3.6570286E1,1.7391966E1,7.9985864E2,3.8785992E2,3.2834912E3,3.168719E1,7.4695294E2,6.784764E2,6.1943405E1,1.110589E2,4.3195244E1,1.070195E2,1.4434772E2,4.314371E1,1.33022785E1,4.6508487E2,3.4397236E1,2.3109824E3,1.9560472E2,8.009122E2,3.922709E1,3.1671997E1,8.1135254E1,2.00171E2,5.3195217E1,4.3855644E1,1.2225186E1,2.7909468E3,