tree
version=v4
num_class=1
num_tree_per_iteration=1
label_index=0
max_feature_idx=29
objective=lambdarank
feature_names=win_odds market_implied_prob implied_prob_norm odds_rank actual_wt draw draw_relative field_size jockey_win_rate jockey_place_rate jockey_rides trainer_win_rate trainer_place_rate last_6_avg last_6_best last_2_avg last_6_trend gear_change stable_change ai_unluckiness distance race_sec_sum sec_pos_1 sec_pos_2 sec_pos_pre venue track_type course race_class track_condition
feature_infos=[1:693] [0.0014430000000000001:1] [3.8570594858496301e-05:0.82030820619923317] [1:1650] [0:135] [0:77] [0:5.1333333333333337] [4:17] [0:1] [0:1] [0:4709] [0:1] [0:1] [0:1231] [0:1231] [0:14] [-9.6666666666666679:8.3333333333333321] none none none [0:2400] [54.68:153.16] [0:14] [0:14] [0:14] -1:1:0 -1:0:2 -1:0:1 -1:0:3:2:4:1 -1:0
tree_sizes=6963 6909 6924 6906 6907 6905 6947 6964

Tree=0
num_leaves=64
num_cat=0
split_feature=2 2 0 0 0 2 2 7 24 2 2 0 0 7 7 7 24 7 7 7 0 10 7 21 8 8 10 2 6 21 22 4 24 12 21 24 8 24 6 11 11 21 12 24 12 10 10 10 8 7 8 7 12 12 10 8 4 7 10 8 8 8 6
split_gain=3460.22 460.761 414.061 84.0227 71.4618 44.3412 42.372 13.8467 13.6097 11.7877 11.7373 11.3087 10.84 9.91226 7.2532 7.2172 7.17968 7.1834 7.11491 6.38462 5.97574 5.95934 5.46836 5.44536 5.30491 5.12465 5.06608 5.056 6.36189 5.04817 4.99138 4.96409 5.97375 4.81391 4.67191 4.64141 4.50305 4.45057 4.39846 5.12298 4.39291 4.27243 4.29238 4.2298 4.11249 4.09751 4.83128 3.95912 3.83026 3.80405 3.71166 3.52378 3.47654 3.89757 3.46128 3.61177 3.44983 4.50898 3.41951 3.4191 3.36508 3.34296 4.52847
threshold=0.06275588936347179 0.1198466252672165 30.500000000000004 3.7500000000000004 69.500000000000014 0.0370831309081191 0.086326893736460894 16.500000000000004 6.5000000000000009 0.048184046949455932 0.016602107886439756 5.2500000000000009 2.7500000000000004 11.500000000000002 10.500000000000002 10.500000000000002 10.500000000000002 12.500000000000002 13.500000000000002 13.500000000000002 93.500000000000014 1.0000000180025095e-35 9.5000000000000018 94.825000000000003 0.093767050318514858 0.10390278445834003 57.500000000000007 0.081298929252573204 0.54547727272727287 100.44500000000001 5.5000000000000009 119.50000000000001 6.5000000000000009 0.20532431885166605 69.395000000000024 10.500000000000002 0.089078045011107901 5.5000000000000009 0.96665000000000012 0.11294590734945723 0.10193479660719294 95.075000000000003 0.17108781311567692 10.500000000000002 0.19271776671833785 210.50000000000003 67.500000000000014 4398.5000000000009 0.057280916620323405 11.500000000000002 0.13514669502693458 13.500000000000002 0.33758726049039878 0.33375823259240006 452.50000000000006 0.10774080999350345 124.50000000000001 10.500000000000002 290.50000000000006 0.056002018163471244 0.065531357184685321 0.053660305276004176 0.087116666666666676
decision_type=2 2 2 2 2 2 2 2 2 2 2 2 2 2 2 2 2 2 2 2 2 2 2 2 2 2 2 2 2 2 2 2 2 2 2 2 2 2 2 2 2 2 2 2 2 2 2 2 2 2 2 2 2 2 2 2 2 2 2 2 2 2 2
left_child=2 6 5 12 10 7 8 22 13 19 -4 49 -3 27 24 -11 17 37 21 26 -6 -12 -1 25 -14 -21 -7 28 -2 -18 34 32 41 56 36 52 45 61 39 40 -17 42 -13 -35 60 46 -15 -10 58 -5 -26 -50 53 -20 55 -42 57 -24 -33 -29 -25 -8 -63
right_child=1 3 4 11 20 9 16 -9 47 15 18 31 14 30 -16 38 29 -19 35 23 -22 -23 33 44 50 -27 -28 59 -30 -31 -32 48 -34 43 -36 -37 -38 -39 -40 -41 54 -43 -44 -45 -46 -47 -48 -49 51 -51 -52 -53 -54 -55 -56 -57 -58 -59 -60 -61 -62 62 -64
leaf_value=-0.071108593088603109 -0.003888375507477101 0.083258595704981064 -0.069474663469198034 0.04546298834636063 -0.077793350582954376 -0.060552670817332038 0.011270243254531595 0.089750908797245718 -0.033982346808248805 -0.034167376064477485 0.034296786023593588 -0.017893920733869421 0.070559150767278186 0.024194658337387175 0.072236440633846238 -0.0090786217859388993 -0.059641515941501848 0.035094902581393569 -0.040890444170330331 -0.00042680145603382581 -0.090162486763188734 -0.059971491696595186 0.035070323905642076 -0.039596018138293443 -0.0076938420706268457 -0.040585741084671556 -0.027243070603430147 -0.028353424742083008 -0.040108750926868948 0.049873263841190306 0.047520663560205074 0.029274712711238771 0.022863731199339626 -0.035342330798250533 0.0063763342387463395 -0.087334285845247314 0.034847438784456716 -0.0041124405729390532 0.019522767128754743 -0.027351083072414507 -0.0017837988821630272 0.041703812222575291 0.060787728777233464 -0.082682681116939605 -0.043505335392919238 0.017227655553641502 -0.048670303312586628 0.05353048475370592 0.029358538388462398 0.058856592130920961 0.042946566315172574 0.045820002794155906 -0.079254964758899982 0.047576154846557417 0.018821963127662978 -0.089252696456323666 -0.071017519392405207 -0.048139392340804471 0.061114237211629174 0.018384357888820407 0.044827364342894402 0.036516849824527992 0.021143569060996747
leaf_weight=15.252104435465297 29.749062036629766 281.18733186414465 199.84784690785455 63.882585638202727 140.08308069012128 12.209432539064435 45.515281254425645 2.0085179822053751 25.490396791137758 27.585820841602981 1.6885507302358735 1.7638528235256661 13.638410852290688 3.8420321219600719 230.66503091645427 188.47807839466259 4.0002362965606144 170.65570683730766 103.88394030486234 57.899832875235006 322.32128720881883 235.18295918731019 1.6918540543410916 2.09036338888109 4.9303062837570932 9.2072632813360524 175.41742961434647 4.8885053438134518 20.46185583807528 1.4278800683096049 8.8258872460573894 11.804779259953646 17.726919203530997 193.73471054947004 284.49324235506356 5.928204698720946 31.155286352150142 15.339456582907586 14.448848012834786 32.578990298323333 5.389675661455839 50.983201501192525 100.30461421702057 4.8362151291221371 19.797466462478042 46.296505163190886 5.5772985001094639 1.3614196982234705 98.517815741710365 311.60674527822994 13.598074748180805 48.520860326942056 5.905842882115393 1.2601189455017436 26.475762802641839 1.5110783427953718 17.7973374670255 43.177277936134487 29.521747503895313 19.610247517935932 2.7113279411569238 71.175265545025468 146.50071899918839
leaf_count=258 381 1865 3342 668 2288 191 615 58 469 392 15 25 113 46 2019 2943 71 2263 1929 933 5015 3579 23 38 61 156 2702 62 278 15 92 151 248 3106 4115 107 420 234 189 530 98 574 1009 102 359 649 91 22 1235 3169 149 600 99 14 360 31 966 1092 301 221 29 840 1817
internal_value=-0.000258914 0.0420257 -0.0503344 0.0615406 -0.0719054 -0.0246778 0.0153772 -0.0410571 0.00504492 -0.0167557 -0.0597879 0.0505109 0.0764349 0.00708672 0.0691347 -0.00981151 0.0263263 0.027017 -0.0543171 -0.0241258 -0.0864153 -0.0592995 -0.0420073 -0.0133134 0.0468922 -0.00593671 -0.0294106 -0.00956314 -0.0186488 -0.0308334 0.0103585 0.0441677 0.0503414 -0.0403083 0.00947531 -0.044228 0.0196241 0.0220677 -0.00731274 -0.00883668 -0.00611787 0.0535239 0.059428 -0.0364953 -0.0334371 0.0111115 -0.0189496 -0.0295453 0.0385705 0.0565779 0.0294714 0.0347906 -0.0419269 -0.0398302 0.0106016 -0.0209371 -0.0523903 -0.0450019 0.0520194 0.00905825 0.00807458 0.0235935 0.0261703
internal_weight=4085.42 2215.02 1870.4 1278.65 1016.1 854.299 936.366 278.498 481.752 575.801 553.697 734.633 544.019 454.9 262.832 296.468 454.615 449.186 353.85 279.333 462.404 236.872 276.489 91.7063 32.1668 67.1071 187.627 74.7097 50.2109 5.42812 380.19 359.144 170.779 261.237 371.364 116.978 86.8711 278.531 268.882 254.434 221.855 153.052 102.068 198.571 24.5992 55.7158 9.41933 26.8518 188.365 375.489 18.5284 147.039 111.05 105.144 33.3765 6.90075 62.6665 44.8691 41.3265 24.4988 4.80169 263.191 217.676
internal_count=55832 24888 30944 12187 16388 14556 12701 5605 6846 8951 9085 7980 4207 6355 2342 4543 5855 5769 5743 4408 7303 3594 5547 1515 323 1089 2893 942 659 86 5413 4143 1856 5289 5321 2149 1206 3506 4151 3962 3432 1608 1034 3208 426 786 137 491 2287 3837 210 1835 2042 1943 489 129 2081 1115 452 283 67 3272 2657
is_linear=0
shrinkage=0.05


Tree=1
num_leaves=64
num_cat=0
split_feature=0 2 2 0 2 0 2 0 0 6 0 8 2 9 5 11 2 2 24 24 24 24 11 9 9 2 24 11 8 3 6 9 11 11 8 9 9 2 10 0 6 9 11 10 10 10 0 8 0 8 2 11 11 9 10 11 0 11 11 8 0 6 10
split_gain=4116.03 993.568 736.669 180.613 123.223 83.2992 66.4666 48.9883 26.1674 24.2674 15.2575 14.9432 12.429 15.3698 14.8616 13.991 12.3458 10.9899 12.5129 10.322 10.0262 9.85451 9.59323 10.0483 9.31452 9.12799 12.4244 12.3691 10.7686 9.85937 8.7086 10.5412 9.58475 10.939 8.6265 8.48609 13.031 8.376 11.6892 7.85401 7.79645 7.96014 16.5767 10.1849 9.70336 9.25447 7.7936 7.71613 17.8888 15.6653 14.2254 12.8211 9.62979 9.3766 9.37705 8.13007 7.56063 8.1286 14.9774 15.4491 13.7791 12.2558 15.7295
threshold=9.6500000000000004 0.25643834723061881 0.0370831309081191 4.5500000000000007 0.016602107886439756 2.5500000000000003 0.062242663287787478 6.1500000000000012 1.6500000000000001 0.27271363636363638 96.500000000000014 0.050216097507607228 0.2097208016690901 0.33290598220356493 8.5000000000000018 0.073545867247764879 0.1064638658668601 0.16951906698681782 8.5000000000000018 6.5000000000000009 9.5000000000000018 10.500000000000002 0.12068160450005375 0.47598036989213827 0.076309409111602847 0.2920214799238246 4.5000000000000009 0.095621315134612708 0.10390278445834003 1.5000000000000002 0.30385000000000001 0.22989008118318466 0.086970739613842538 0.069112026263978027 0.23587631727166614 0.12558467697827566 0.089049810031719481 0.029025695974837149 3.5000000000000004 4.3500000000000005 0.29285714285714287 0.4686868501527402 0.096213091633672351 2166.5000000000005 2737.5000000000005 2390.5000000000005 5.6500000000000012 0.086968266272050371 4.7500000000000009 0.21535426981534769 0.17239755980494795 0.10869964393491834 0.10193479660719294 0.4867640779625258 1709.5000000000002 0.081448845501387812 4.8500000000000005 0.087451202363607761 0.098172146984838018 0.21601975618413818 5.6500000000000012 0.16668333333333335 540.50000000000011
decision_type=2 2 2 2 2 2 2 2 2 2 2 2 2 2 2 2 2 2 2 2 2 2 2 2 2 2 2 2 2 2 2 2 2 2 2 2 2 2 2 2 2 2 2 2 2 2 2 2 2 2 2 2 2 2 2 2 2 2 2 2 2 2 2
left_child=1 3 4 9 10 8 20 11 -3 21 -2 24 14 -14 40 -16 19 18 56 -9 -4 35 23 -17 -5 26 28 -28 -7 -27 32 -32 33 -26 -15 36 -1 -6 -39 -37 -11 44 -43 -44 45 -42 -35 50 49 -49 -19 -50 -52 -51 -55 -56 -13 -58 59 -59 -60 -62 -63
right_child=2 5 6 7 37 25 -8 16 -10 12 -12 17 13 34 15 22 -18 47 -20 -21 -22 -23 -24 -25 30 29 27 -29 -30 -31 31 -33 -34 46 -36 39 -38 38 -40 -41 41 42 43 -45 -46 -47 -48 48 51 53 52 -53 -54 54 55 -57 57 58 60 -61 61 62 -64
leaf_value=0.029597006077073901 -0.069802379418997626 0.076755944459531489 -0.028320948233816631 -0.013418424565734261 -0.053552483522850407 0.047914566480174198 -0.013176245310346169 -0.002391453522862819 0.056908616962148474 -0.033996588901239889 -0.083294931470545328 0.036469515231129949 0.033927278544446909 0.012097722181801343 -0.0038193192621509969 0.054152319255621945 0.0039027299091073152 0.038235621064778187 -0.023272987566611454 -0.026639636233967218 -0.052274417482265127 -0.016383044215277278 -0.0051893245500014267 0.013633920736900736 0.042926943208285218 0.049513217094921846 0.035079471727940265 -0.022637948585605274 0.033180658690032172 0.018238531452373984 0.0069226797690221057 0.061111013823726607 0.057262077611450427 0.026947454888447728 0.041436916988184941 0.030792784602559027 -0.073582557688147102 0.035656911182721594 -0.045386231590519743 0.016765019952665262 0.0014257899665562777 0.044942095907433526 0.025416377227191651 -0.034375867477836282 -0.034171520083331602 0.04939608554530181 -0.027126755108755608 -0.0066166232420121112 -0.046204648660543808 0.068655478411683624 -0.015608005603926013 0.007761714050949841 0.023995621472247004 0.039118820180792685 -0.045081786877487907 0.022576540907611905 0.015939753909369178 -0.00090344325932522696 0.018567119576644957 -0.071020656365120602 0.017164413790276157 0.021342220686902724 -0.025203515405214583
leaf_weight=7.6561112256022152 490.79484654508997 202.20233555138111 1171.6528985463083 14.847769152838735 700.87806680984795 190.02750810980797 1376.9514181017876 1071.2478760693921 929.41155169904232 12.880632800399324 365.60606744117104 31.898832730948925 183.45657557249069 240.64099484682083 30.428271019249223 52.680618077516556 1211.4235231913626 35.217661887407303 25.015831280499697 45.763018297031522 45.37743479013443 12.140743270516394 12.361371964216231 21.56474968791008 37.521272175014019 296.58686092495918 20.155309841036797 17.207288533449173 356.97097852826118 27.54017186164856 62.753780871629715 10.472329065203665 37.764319472014904 13.917463302612306 27.96567314863205 989.77588789910078 5.0974573194980621 4.5002067089080802 393.45660584978759 110.96972545981407 159.94552358251531 33.995161920785904 13.263862848281862 15.380849793553351 17.985035836696625 10.728578031063078 12.784327656030653 105.18093749880791 35.977352112531662 10.83935636281967 41.911364138126373 15.856290020048617 24.218965232372284 20.358236029744148 8.7095148861408251 9.0576663166284543 619.6114999204874 179.86539642512798 321.58389881998301 8.2146634757518751 62.685698203742504 25.533765509724617 62.77314218133688
leaf_count=72 6735 253 7966 120 6715 256 7101 4119 1250 32 4805 67 284 399 67 90 3713 64 97 261 348 24 24 43 65 402 28 34 548 37 135 21 59 28 40 1653 12 25 3445 235 346 60 29 36 41 17 31 226 90 16 90 30 50 39 22 19 1423 439 714 27 146 62 207
internal_value=-5.86047e-05 0.0211829 -0.0381692 0.0111124 -0.0613443 0.0514024 -0.0207008 0.00522114 0.060455 0.0236321 -0.0755625 0.0113317 0.017164 0.0227716 0.0105142 0.0253465 0.000406672 0.00979755 0.0117571 -0.00338488 -0.0292141 0.0284203 0.0355936 0.0423837 0.0246055 0.0401264 0.0363938 0.0084978 0.0382992 0.0468559 0.0278276 0.0146723 0.037273 0.0255191 0.0151523 0.0289088 -0.0116427 -0.0502631 -0.0444698 0.0293786 0.00394326 0.00588791 0.0213315 -0.00668922 0.00076022 0.0044412 0.00105772 0.00127159 -0.00428572 0.00425882 0.0125663 -0.0296959 -0.00110394 0.0276203 0.0159537 -0.0105897 0.0124249 0.0118258 0.0079675 -0.00396591 0.0127169 0.00025701 -0.0117449
internal_weight=12711.2 8162.03 4549.22 6121.92 1955.24 2040.1 2593.98 4163.01 1131.61 1958.92 856.401 1834.57 833.278 452.063 381.215 117.035 2328.43 1644.51 1337.18 1117.01 1217.03 1125.64 86.6067 74.2454 190.061 908.488 584.361 37.3626 546.998 324.127 175.213 73.2261 101.987 64.2231 268.607 1113.5 12.7536 1098.83 397.957 1100.75 264.18 251.299 62.6399 28.6447 188.659 170.674 26.7018 307.327 205.979 154.146 101.348 51.8336 66.1303 48.9648 38.1254 17.7672 1312.17 1280.27 660.657 188.08 472.577 150.993 88.3069
internal_count=55832 18692 37140 15884 21725 2808 15415 12380 1503 3504 11540 4287 1508 723 785 224 8093 3828 3182 4380 8314 1996 157 133 459 1305 866 62 804 439 339 156 183 124 439 1972 84 10185 3470 1888 561 529 125 65 404 363 59 646 442 322 204 120 140 96 80 41 3085 3018 1595 466 1129 415 269
is_linear=0
shrinkage=0.05


Tree=2
num_leaves=64
num_cat=1
split_feature=0 0 2 0 2 0 2 2 1 2 11 12 11 10 11 24 22 5 8 6 8 0 4 6 21 10 25 9 4 1 12 9 8 6 6 9 9 4 12 9 11 11 9 6 6 11 24 10 6 11 10 4 22 11 10 12 10 2 11 21 21 21 4
split_gain=3494.58 704.513 611.25 202.798 95.3452 76.2558 56.7855 22.619 22.2605 20.8021 14.2116 14.9595 16.893 13.378 12.9217 12.0545 15.3004 12.0308 11.8491 11.6439 11.581 11.3725 10.7015 19.6495 12.5397 15.9274 25.3874 11.0689 10.354 12.34 9.89975 9.8643 9.57138 26.8514 13.8056 13.2146 10.9946 10.4333 9.94335 10.2759 10.4675 9.82233 9.60595 13.8307 13.5843 9.53886 9.43393 9.62435 9.23218 10.298 18.9271 11.9428 9.18374 8.9652 8.86401 8.75613 9.06233 8.89229 10.5046 10.1846 9.79822 9.63146 8.38348
threshold=9.3500000000000032 3.1500000000000008 0.0370831309081191 5.6500000000000012 0.016602107886439756 2.7500000000000004 0.058312101066894571 0.11815463282249515 0.58823514705882363 0.20023471432063664 0.048350977699686493 0.3384571628598933 0.14475725249006696 916.50000000000011 0.13465837407192846 5.5000000000000009 1.0000000180025095e-35 9.5000000000000018 0.058268153495241511 0.91668333333333341 0.10075251707635503 94.500000000000014 120.50000000000001 0.48335000000000006 69.115000000000023 1129.5000000000002 0 0.50596880426321789 129.50000000000003 0.18518509259259261 0.27948360831369196 0.45109756750486324 0.049452313903180965 0.51665000000000016 0.78175000000000006 0.18840799563810331 0.16716433874978834 122.50000000000001 0.22079480029213974 0.20430789804050001 0.05227068411373105 0.086558403121063041 0.48713513198121816 0.25835000000000002 0.74165000000000003 0.047790418984495216 1.5000000000000002 828.50000000000011 0.080100000000000018 0.065318102672471665 1203.5000000000002 127.50000000000001 6.5000000000000009 0.11907090710123247 982.50000000000011 0.35597196679755461 126.50000000000001 0.1428824483039903 0.10193479660719294 57.105000000000011 111.00500000000001 100.99500000000002 115.50000000000001
decision_type=2 2 2 2 2 2 2 2 2 2 2 2 2 2 2 2 2 2 2 2 2 2 2 2 2 2 1 2 2 2 2 2 2 2 2 2 2 2 2 2 2 2 2 2 2 2 2 2 2 2 2 2 2 2 2 2 2 2 2 2 2 2 2
left_child=1 5 4 9 21 8 -4 17 -1 18 13 22 14 31 -13 16 -8 -5 28 -19 -7 -2 23 -12 25 -24 -27 48 -3 -30 54 -11 33 45 -35 36 -34 55 39 -39 -41 -40 43 53 -44 -9 -18 -48 -26 50 -50 -52 -49 -43 -31 56 -37 58 59 -58 61 62 -61
right_child=2 3 6 7 -6 20 15 32 -10 10 11 12 -14 -15 -16 -17 46 19 -20 -21 -22 -23 24 -25 27 26 -28 -29 29 30 -32 -33 35 34 -36 37 -38 38 41 40 -42 42 44 -45 -46 -47 47 52 49 -51 51 -53 -54 -55 -56 -57 57 -59 -60 60 -62 -63 -64
leaf_value=0.054897440727817992 -0.066105050343325422 0.031790220639216167 -0.028947983974206355 -0.0037446055481422953 -0.047985086151220019 0.04555690303966882 -0.014146091443122092 -0.018294254760356048 0.075281539573561151 -0.014455352865364196 0.027831460775727502 0.0061817660199082851 0.038430088764430902 -0.047024712843614445 -0.049950867777579108 -0.030314430704653214 0.029391125854883033 0.019030505749523526 0.016581173594208066 -0.0043568533002870218 0.029812562854395538 -0.078452796523925519 0.068663979074776685 -0.0074371226756888443 0.064710765436092541 0.051989430865236899 -0.026304420673118185 -0.01689175772046482 0.066416162990625527 -0.010871266884885673 0.02109347793470448 0.038000527500638703 0.021876732764177058 -0.060748664338103997 0.01085537227276849 -0.015707769216475133 -0.030739225977941279 -0.062971045215745577 0.01856517279228392 0.023896395813384187 -0.017423562697907784 0.00070133921282522407 -0.0085729165208048557 -0.015930005270595328 0.06913900141837051 0.03771960615201278 -0.036827604660997576 -0.0021715839756253105 -0.023444436928227095 0.033777375252013846 0.069189216477263643 0.0016264738116575689 0.052561514697337698 0.047375588542682118 -0.08855087511533595 0.044013709167807634 -0.030399863630195079 -0.016948323577434178 0.0017833472566592319 0.011288283392803305 -0.021999495737707642 0.042660300674022864 0.029685373249805698
leaf_weight=957.06034416938201 424.44491464609746 242.92217583721504 1037.129278132692 1182.09172810358 995.27241200953722 171.35763865604531 1328.5407694876194 8.3013544082641584 155.72749492560979 15.899569563567637 437.22185698896646 60.046889014542103 36.197667337954044 11.36310091614723 12.36344265937805 103.40228708833456 29.350071214139462 124.70894164498895 1448.5568069070578 92.840274214046076 366.83648771047592 332.59570537158288 55.946641176939011 43.414096042513847 21.041842579841614 37.059951469302177 14.36802253872156 11.690517976880072 7.1260309173958367 15.403096310095863 18.677607476711273 20.540583178400993 13.133946076035498 12.876881405711176 14.105531543493269 30.457228250801563 40.681884407997131 9.2718304395675641 97.826368890702724 20.168662928044796 63.851564459502697 28.970751188695431 11.586583495140077 103.82456737011671 10.9265845939517 90.033379681408405 17.252635102719069 57.998500164598227 23.267714813351631 346.05361412465572 14.364335075020792 12.00918512046337 8.8310262337326986 15.954087167978285 4.822166070342063 20.571959778666496 10.271238572895525 24.503453314304352 128.11045172810555 164.26344726234674 13.213528104126452 47.603056594729424 99.395756706595421
leaf_count=1618 6593 579 7671 4733 10185 292 7119 26 267 39 796 124 64 28 32 704 121 429 3548 364 636 4953 82 100 33 68 36 26 19 81 43 35 37 51 39 100 133 33 273 55 222 97 44 392 24 213 100 293 52 626 22 28 24 39 13 55 39 80 385 496 44 116 263
internal_value=-4.47688e-05 0.0216998 -0.0353636 0.0129463 -0.058157 0.050277 -0.0198976 0.0024388 0.0577501 0.0218983 0.0270434 0.028178 0.0105398 0.000342499 -0.0034024 -0.0138237 -0.0126411 -0.00175594 0.0184253 0.00904983 0.0348255 -0.0715299 0.0300626 0.0246458 0.0349217 0.0502009 0.0301156 0.0310924 0.0276703 0.00592674 -0.00515341 0.015113 0.00787551 0.0208672 -0.0233164 0.00616997 -0.0178981 0.0076079 0.00104887 -0.0130174 -0.0075049 0.0059256 -0.00129422 -0.00590102 0.0291439 0.032991 0.0049852 -0.00353404 0.0324385 0.0307223 0.00942546 0.0384245 0.00506099 0.0172767 -0.0293919 0.0120227 0.0107517 0.0124053 0.0139593 0.0186191 0.0201708 0.0219609 0.0182237
internal_weight=11375.7 7040.88 4334.82 5389.9 1752.31 1650.98 2582.5 2479.55 1112.79 2910.36 1172.85 1125.05 108.608 47.8033 72.4103 1545.38 1441.97 1399.64 1737.51 217.549 538.194 757.041 1016.44 480.636 535.802 107.375 51.428 428.427 288.951 46.0289 38.9029 36.4402 1079.9 125.317 26.9824 954.587 53.8158 900.771 362.381 93.2921 84.0202 269.089 171.263 148.749 22.5132 98.3347 113.432 84.0822 416.737 395.695 49.6412 26.3735 66.8295 44.9248 20.2253 538.39 517.818 487.361 462.857 334.747 324.476 311.262 263.659
internal_count=55832 18069 37763 15256 21731 2813 16032 8782 1885 6474 2191 2089 220 102 156 8361 7657 5526 4283 793 928 11546 1869 896 973 186 104 787 735 156 137 74 3256 329 90 2927 170 2757 1179 310 277 869 596 528 68 239 538 417 761 728 102 50 317 136 94 1578 1523 1423 1343 958 919 875 759
cat_boundaries=0 1
cat_threshold=2
is_linear=0
shrinkage=0.05


Tree=3
num_leaves=64
num_cat=2
split_feature=0 0 2 0 2 0 2 2 1 24 21 24 22 24 22 2 24 22 22 0 24 4 3 9 9 10 9 0 2 22 9 3 10 10 5 6 24 3 21 0 21 25 21 4 10 21 6 9 24 25 2 24 9 9 9 0 21 23 9 2 9 0 6
split_gain=2811.9 547.386 501.481 154.518 80.9281 53.2132 49.9635 33.1897 16.9763 10.734 10.6473 10.5903 10.5381 9.9357 9.58404 9.57077 8.90217 15.4313 11.2991 11.5209 8.88688 8.79187 10.5679 9.48082 9.3618 8.52736 8.32971 8.09351 10.8854 9.86568 9.12213 8.22471 13.4628 7.62175 7.45761 14.6417 7.19627 7.18254 7.08903 14.7798 7.0803 7.04162 10.4528 7.00427 6.94669 7.72547 6.94546 10.7397 9.54778 6.81612 6.80231 6.80012 6.73743 11.6099 6.73357 9.83092 8.16362 10.4796 7.55085 16.4892 11.4357 8.5862 6.71151
threshold=9.3500000000000032 3.0500000000000003 0.0370831309081191 6.1500000000000012 0.016602107886439756 2.7500000000000004 0.058312101066894571 0.2097208016690901 0.58823514705882363 6.5000000000000009 136.64500000000001 6.5000000000000009 1.0000000180025095e-35 5.5000000000000009 6.5000000000000009 0.0092554787845226527 6.5000000000000009 6.5000000000000009 7.5000000000000009 5.3500000000000005 1.5000000000000002 130.50000000000003 3.5000000000000004 0.4910362125442887 0.23721320103705729 971.50000000000011 0.2906263257648915 6.3500000000000005 0.1198466252672165 1.5000000000000002 0.16716433874978834 2.5000000000000004 694.50000000000011 2954.5000000000005 10.500000000000002 0.45802272727272736 10.500000000000002 1.5000000000000002 93.27000000000001 4.7500000000000009 68.795000000000002 0 81.555000000000021 128.50000000000003 3320.5000000000005 94.645000000000024 0.16668333333333335 0.12235781945773617 4.5000000000000009 1 0.10917837609551466 9.5000000000000018 0.27519689922480622 0.26667856717838873 0.23721320103705729 5.5500000000000007 81.975000000000009 1.5000000000000002 0.21226704479685152 0.18971077750085971 0.19349351239358534 4.3500000000000005 0.080100000000000018
decision_type=2 2 2 2 2 2 2 2 2 2 2 2 2 2 2 2 2 2 2 2 2 2 2 2 2 2 2 2 2 2 2 2 2 2 2 2 2 2 2 2 2 1 2 2 2 2 2 2 2 1 2 2 2 2 2 2 2 2 2 2 2 2 2
left_child=1 5 4 7 15 8 51 10 37 12 16 21 33 34 -13 -2 17 46 -18 38 -14 22 23 27 -23 -12 -19 -5 -29 30 -30 -32 40 -8 35 -7 -6 -1 39 -20 -33 42 -25 -35 -11 -46 48 49 52 -48 -16 -4 53 54 58 56 57 -56 59 -3 -61 -60 -34
right_child=2 3 6 11 36 13 9 -9 -10 44 25 14 20 -15 50 -17 18 26 19 -21 -22 24 -24 41 -26 -27 -28 28 29 -31 31 32 62 43 -36 -37 -38 -39 -40 -41 -42 -43 -44 -45 45 -47 47 -49 -50 -51 -52 -53 -54 -55 55 -57 -58 -59 61 60 -62 -63 -64
leaf_value=0.053096127682027684 -0.07354110509905934 0.02602151800406928 -0.026493477734838046 -0.0067290766274713965 -0.044037647457645213 0.037176575078270088 -0.012191239998511669 0.027146130179804159 0.071530476394696368 -0.040730509147239302 0.009162933005230316 -0.065734080129485215 0.024810250894359592 -0.0093035590689014274 -0.026447935417028685 -0.061703814781517541 -0.026706757213276783 0.068836791518412641 -0.025862729669900133 -0.02379829202467032 -0.0055786066524870287 -0.019929448575626615 0.00015785679761917503 -0.033591376085269874 0.00054238591354003967 -0.046062250761728131 0.01993422771644604 0.0043071506396283703 0.051741090216864016 0.047185356309519332 0.028169301326311316 0.026380093460811601 -0.01113966049221818 -0.020898394173868212 0.057928901937852953 0.010278366878894576 -0.070693083947547281 0.026489979342101316 0.044180156681824345 0.044462344731608407 -0.02972431961082116 0.066741625334511431 0.044056410988377384 -0.061114044714764962 -0.03698078953126481 0.023978143624839215 -0.062593078237523719 0.014934090596313766 -0.0037990423301723052 0.0020240562600587959 0.0023198817086635638 -0.049427809988721892 0.017384560139928177 0.051144396669954142 -0.012096635516726618 0.040261422119214609 -0.036874208269439233 0.056376218969102693 0.061501203709085676 0.019089163922527068 -0.061613940265570738 0.028166887888449385 0.024107690822420456
leaf_weight=815.77781684696674 334.57752723491285 133.46144658327103 933.08174803107977 90.417452782392502 895.32908958382905 265.25103460997343 1205.6876441631466 1000.6374180652201 132.37746759620495 53.3908851146698 16.617347322404388 8.4095692560076696 31.960093680769205 13.595429909648372 35.421791475266218 348.75031464267522 25.65678533911705 22.046929806470871 15.790057003498079 16.982889220118523 97.303963661193848 82.912308177095838 856.11973734234925 6.6359411180019405 171.06559935957193 12.065286524593828 14.392176643013952 377.81015955656767 14.994749665260313 26.321314319968224 49.000629432499409 6.7981038913130751 17.547058895230293 45.195103168487549 30.412757277488708 62.516088411211967 26.057650078088045 26.180158292991109 23.301752485334873 14.181048512458799 32.542338438332081 11.418259099125864 12.496073268353937 14.238026224076746 10.450295820832254 10.340073771774767 7.0948781326878816 1262.3878349661827 39.045780283748172 9.607764695305379 48.938443083316088 33.480715770274401 430.43141082674265 42.803401485085487 16.607046239078048 16.184647008776665 13.873823978006838 8.4215534403920156 27.601577609777451 7.9817615300416973 9.7535199671983701 64.367145836353302 58.634436249732971
leaf_count=1566 6502 317 7343 304 9824 474 6772 1979 267 452 44 47 121 39 229 5044 81 37 45 83 533 372 3545 31 671 43 39 1368 40 65 137 23 63 259 51 129 361 52 48 34 138 26 33 88 80 56 27 3393 213 69 195 328 1090 91 48 38 41 15 44 23 24 155 183
internal_value=3.11395e-06 0.0203508 -0.0327604 0.0129417 -0.0544612 0.048745 -0.0184598 0.0195698 0.0548858 -0.0126494 0.0162014 0.00164417 -0.0116635 0.0326514 -0.0148335 -0.0674997 0.0165921 0.0172643 0.00169165 0.0120625 0.00193493 0.00248653 0.00389044 0.00842558 -0.00614074 -0.0140674 0.049522 0.00719085 0.00934729 0.0185983 0.0144068 0.0110041 0.00372317 -0.0130529 0.0342439 0.0320462 -0.0447915 0.0522688 0.0234946 0.0074121 -0.0200294 0.0356689 0.0171243 -0.0305326 -0.0311826 -0.00666291 0.0167018 0.0144071 0.020323 -0.0254237 -0.00975936 -0.0272879 0.0215438 0.026793 0.0232982 0.00751386 -0.00611017 0.0109429 0.026874 0.0200023 -0.0252935 0.0381712 0.0159891
internal_weight=10544.7 6504.89 4039.84 5158.78 1604.71 1346.11 2435.13 3251.3 974.335 1468.57 2250.66 1907.48 1394.38 371.775 92.7698 683.328 2221.98 2126.06 95.9125 70.2557 129.264 1814.71 1560.74 704.617 253.978 28.6826 36.4391 674.066 583.649 205.839 179.517 164.523 115.522 1265.12 358.18 327.767 921.387 841.958 53.2729 29.9711 39.3404 30.5503 19.132 59.4331 74.1813 20.7904 2089.62 1279.09 810.533 16.7026 84.3602 966.562 771.487 341.056 298.253 55.0871 38.9024 25.0286 243.165 151.197 17.7353 91.9687 76.1815
internal_count=55832 18069 37763 15491 21731 2578 16032 8021 1885 8361 6042 7470 7773 693 471 11546 5955 5664 291 210 654 6999 5956 2411 1043 87 76 2321 2017 649 584 544 407 7119 654 603 10185 1618 127 79 161 90 64 347 588 136 5588 3489 2099 96 424 7671 1886 796 705 142 104 63 563 364 47 199 246
cat_boundaries=0 1 2
cat_threshold=2 1
is_linear=0
shrinkage=0.05


Tree=4
num_leaves=64
num_cat=0
split_feature=0 0 2 0 2 2 0 6 5 0 12 8 0 8 10 12 11 11 11 9 12 2 12 10 10 11 8 11 8 11 6 11 2 5 6 2 8 9 9 11 9 10 4 6 12 4 4 2 9 8 4 10 10 6 12 10 9 11 8 0 8 10 10
split_gain=2330.21 477.055 419.575 146.533 69.1745 43.402 40.1948 15.9204 13.7082 13.1734 13.105 12.3311 11.2073 10.8537 12.4972 10.4798 9.87767 11.1402 10.9523 9.6938 18.5681 9.45814 9.29965 9.1856 10.9884 9.00516 11.7074 14.1098 9.53027 9.11985 11.0547 9.15187 8.59698 8.44082 12.9184 8.27619 7.92367 8.32863 7.86027 13.8354 7.78138 7.7314 7.67154 18.1938 10.0981 7.59077 7.50022 8.32985 7.42225 11.9803 7.41059 7.35082 8.43864 7.31702 7.31607 9.82494 7.21253 8.3526 9.13707 12.7398 12.0736 7.63072 7.42701
threshold=9.3500000000000032 2.7500000000000004 0.036890231792266338 6.1500000000000012 0.016602107886439756 0.062242663287787478 4.3500000000000005 0.31010000000000004 8.5000000000000018 1.8500000000000003 0.2885140947213588 0.039793498007826562 7.6500000000000012 0.092379852633894213 905.50000000000011 0.34071968532159908 0.059490728233154003 0.062509817781966709 0.063910810083058892 0.18594629671309651 0.2689422081138278 0.14071958695382805 0.33647650549203023 198.50000000000003 108.50000000000001 0.11294590734945723 0.10528955286913373 0.11510472518850183 0.11398538855854881 0.11041338065194532 0.087116666666666676 0.11113016962073567 0.25643834723061881 9.5000000000000018 0.78570714285714294 0.0092554787845226527 0.21576668659178436 0.18653755414136039 0.38785440733794591 0.05769657550616273 0.12037308888453928 216.50000000000003 123.50000000000001 0.57736428571428589 0.31960453831434732 126.50000000000001 117.50000000000001 0.23228431117127499 0.24880761910539209 0.061227493646855279 121.50000000000001 949.50000000000011 757.50000000000011 0.74165000000000003 0.34756793076358566 2892.5000000000005 0.23721320103705729 0.15564889521319245 0.092685000829600142 4.1500000000000012 0.10528955286913373 388.50000000000006 3443.5000000000005
decision_type=2 2 2 2 2 2 2 2 2 2 2 2 2 2 2 2 2 2 2 2 2 2 2 2 2 2 2 2 2 2 2 2 2 2 2 2 2 2 2 2 2 2 2 2 2 2 2 2 2 2 2 2 2 2 2 2 2 2 2 2 2 2 2
left_child=1 9 4 6 35 -4 7 46 10 -1 -9 23 15 -10 -15 -5 38 21 -19 20 -20 -18 25 24 40 29 27 -27 -28 -21 -31 -32 50 -14 53 -2 37 -23 -13 -40 -8 -12 43 -43 -45 -33 56 48 49 51 -16 52 -48 -35 55 -24 62 58 59 61 -60 -58 -3
right_child=2 3 5 12 -6 -7 11 8 13 -11 41 16 33 14 32 -17 17 18 19 22 -22 36 54 -25 -26 26 28 -29 -30 30 31 45 -34 34 -36 -37 -38 -39 39 -41 -42 42 -44 44 -46 -47 47 -49 -50 -51 -52 -53 -54 -55 -56 -57 57 -59 60 -61 -62 -63 -64
leaf_value=0.064424928107598145 -0.069822460312816012 0.031459539411738985 -0.025131524805628636 0.0039866123682673381 -0.042129167614514393 -0.011410812541161058 -0.000128758457328548 0.019991107802815287 0.048678957426160401 0.04998040080800463 -0.026330240638890556 0.030442027089638213 -0.0046894142079038246 0.00067544429048310673 -0.0068985191537064552 0.023982377082157846 -0.058218845538519221 0.041464869109283702 -0.044462631158126702 0.01169211037150817 0.013095027417520062 0.040461283118365304 0.050631667006753367 0.049244116063834942 -0.041894629382152153 -0.028866771909454109 -0.060917499674637977 0.02507388923649851 -0.0078921546184547754 0.055861068270277717 0.041429778208908093 0.0120930237779173 0.049119207751171123 0.0095989995804042633 -0.0010556883518113422 -0.058369734259126664 0.029057457960517882 -0.018734049674258263 -0.011431713517973044 0.047109423331733 0.048304729326628354 0.036785894524614157 -0.0035959073496074148 -0.061579231761401544 0.012175043905248773 -0.060666068389752449 0.024098332208053422 0.039027322506116111 0.03130899969947594 -0.020868399128296661 0.028747666365418978 -0.020279108068707887 0.087788713532146803 0.052830150128685943 0.015845314738741755 -0.0070161399416141662 -0.036757950604176588 0.057312660704824686 0.044503561878993111 0.047003655409714906 0.02012768233769328 0.0048801249719490243 0.076549728066580724
leaf_weight=207.13538665743545 307.70564142276999 130.8704389941413 1026.8622439466417 876.59444449888542 854.84072706475854 1313.7542953807861 14.544689902453682 282.38850383460522 51.157589481445029 663.31830977764912 20.622754462063313 127.193589232862 695.1946408865042 47.910321675240993 17.988536559045315 70.820720054209232 8.1344913318753225 31.68434501439333 22.007262259721756 891.7897251881659 38.568872712552547 6.8577160835266104 41.210741214454174 41.35361559689045 6.8644963577389708 15.493686959147452 9.9590442031621915 55.735797226428986 56.819711312651634 26.568263992667198 13.24960082024336 9.4955689460039121 42.190862752497196 18.035543348174542 93.614187657367438 323.67435413505882 16.434297561645508 44.503690250217915 32.798110172152519 14.579045012593268 19.293167226016521 44.714589014649391 83.459241077303886 8.6450674682855624 10.019871093332766 5.7586422413587561 28.765710552688688 257.9721297621727 175.11939990520477 19.834031105041504 76.954284228384495 7.0664305016398421 6.3485268056392661 21.402764461934566 78.346580766141415 9.0062674582004529 13.642725512385367 16.011457964777946 59.844081364572048 15.413839370012282 336.09745925664902 56.875068612396717 9.8175980895757657
leaf_count=450 6502 273 8537 3471 9962 7718 147 640 105 1435 56 332 3218 111 47 242 33 72 81 2596 99 14 97 86 24 53 38 149 175 54 31 32 80 68 410 5044 40 140 105 32 42 91 214 25 23 24 104 494 376 50 166 21 8 61 232 36 31 27 113 32 726 121 16
internal_value=-3.40357e-05 0.019143 -0.0306229 0.0134425 -0.0513997 -0.0174303 0.0194377 0.0245525 0.0185407 0.0534177 0.0134192 0.0137563 0.00176725 0.0282945 0.022659 0.00548133 0.0127602 0.0113442 0.0124269 0.0117047 -0.00781562 -0.00727384 0.0126792 0.0326474 0.0157852 0.0111724 -0.000759734 0.0133408 -0.0158001 0.0129115 0.0326578 0.0110302 0.0303393 -0.0024812 0.00905663 -0.0639513 -0.00116119 -0.0108304 0.0239668 0.00658275 0.0274863 0.00233718 0.00636338 0.0194779 -0.0219858 -0.0153744 0.0281906 0.0328093 0.0260449 0.0111801 0.0219939 0.0262498 0.0356133 0.0330601 0.0253945 0.0402927 0.0246096 0.0217849 0.0206044 0.00582539 0.0238119 -0.00317539 0.0346061
internal_weight=9930.93 6104.1 3826.84 5233.64 1486.22 2340.62 3457.98 1819.73 686.052 870.454 449.85 1638.25 1775.66 236.202 185.044 947.415 1556.2 1381.62 1305.69 1274.01 60.5761 75.9302 1213.43 82.056 40.7024 1084.87 138.008 71.2295 66.7788 946.862 55.0721 28.5038 137.134 828.247 133.052 631.38 67.7957 51.3614 174.571 47.3772 33.8379 167.462 146.839 63.3795 18.6649 15.2542 1133.68 495.106 237.134 62.0147 94.9428 42.1807 35.1142 39.4383 128.564 50.217 638.573 497.885 481.873 85.9316 395.942 70.5178 140.688
internal_count=55832 18069 37763 16184 21508 16255 8714 3950 1558 1885 1049 4764 7470 509 404 3713 4465 3996 3769 3697 180 227 3517 299 213 3152 415 202 213 2737 141 87 293 3757 539 11546 194 154 469 137 189 409 353 139 48 56 2392 1053 559 183 213 133 112 129 365 133 1339 1050 1023 184 839 152 289
is_linear=0
shrinkage=0.05


Tree=5
num_leaves=64
num_cat=0
split_feature=1 2 1 2 2 2 2 7 8 24 3 1 6 1 7 3 11 21 7 5 3 24 21 6 2 2 12 24 4 12 11 1 21 8 2 22 21 21 8 8 21 8 8 4 21 21 2 7 7 6 8 21 2 21 5 4 2 21 21 4 8 1 11
split_gain=1985.3 448.505 345.597 81.2029 67.5576 55.313 28.0059 15.61 15.7476 12.7387 12.7719 10.8428 10.4747 15.7679 10.9214 13.0699 10.8093 9.55834 9.06129 8.43075 8.69971 8.25663 10.2698 7.77475 7.67759 7.54145 7.21763 6.82036 6.79983 9.51804 10.8389 31.1719 19.5678 9.03747 7.11169 6.73984 6.6924 6.61741 12.8245 11.7875 8.2119 10.0765 10.2067 10.4739 7.3318 8.60886 6.93285 10.3529 9.02954 6.70564 6.90821 6.54874 8.23075 15.4227 11.4738 7.26532 7.20262 7.1058 6.93365 6.50886 7.10812 6.39394 6.36677
threshold=0.12422850000000001 0.0370831309081191 0.36375650000000004 0.21503262371328011 0.016602107886439756 0.061069751825739198 0.12444242583924339 11.500000000000002 0.083351810790835187 6.5000000000000009 5.5000000000000009 0.48809500000000006 0.21429285714285715 0.21739115217391308 9.5000000000000018 1.5000000000000002 0.12628823674078166 68.945000000000007 7.5000000000000009 3.5000000000000004 3.5000000000000004 4.5000000000000009 69.995000000000019 0.21429285714285715 0.0098507184456112385 0.021959227518597926 0.32858831475852757 9.5000000000000018 130.50000000000003 0.19921779399167894 0.10630015944976577 0.22991550000000002 120.49500000000002 0.10206935921221637 0.20023471432063664 5.5000000000000009 100.33500000000002 68.715000000000018 0.065531357184685321 0.16760299625468167 69.605000000000004 0.22730348136302131 0.10075251707635503 127.50000000000001 100.38500000000001 109.38500000000001 0.25643834723061881 12.500000000000002 12.500000000000002 0.85165000000000013 0.12508692628650905 70.295000000000002 0.19764545401745462 57.275000000000013 1.5000000000000002 123.50000000000001 0.18186996520963752 69.235000000000014 70.645000000000024 117.50000000000001 0.052339675380974636 0.28991582352941186 0.11328002084644433
decision_type=2 2 2 2 2 2 2 2 2 2 2 2 2 2 2 2 2 2 2 2 2 2 2 2 2 2 2 2 2 2 2 2 2 2 2 2 2 2 2 2 2 2 2 2 2 2 2 2 2 2 2 2 2 2 2 2 2 2 2 2 2 2 2
left_child=1 4 3 6 24 27 -2 8 17 10 18 -4 13 16 19 28 26 -5 -7 20 62 23 -23 -9 -1 -6 -8 -3 29 -16 32 -32 -31 -33 -30 -12 -24 39 -39 -25 49 42 -42 44 -44 -46 47 -45 -48 50 -40 52 56 -54 55 57 -15 -55 -53 -21 -61 -43 -14
right_child=2 5 11 7 25 9 12 21 -10 -11 35 -13 14 51 15 -17 -18 -19 -20 59 -22 22 36 37 -26 -27 -28 -29 34 30 31 33 -34 -35 -36 -37 -38 38 40 -41 41 61 43 46 45 -47 48 -49 -50 -51 -52 58 53 54 -56 -57 -58 -59 -60 60 -62 -63 -64
leaf_value=-0.066429327757848947 0.0032708377668217411 -0.022906761145747773 0.046653931725645414 -0.018731204231053199 -0.045994735031344311 -0.040459619405437623 0.012681073312021958 0.035541396102108429 0.0048571808182465903 -0.027156078502487586 -0.015017257183772927 0.058750776588522846 -0.056163237781997846 -0.0093155628900017592 0.023612918744160574 0.014601237192625025 0.03254045324607481 0.042806724740463931 -0.0045371568030797759 0.037957034590836679 0.028315258631303592 -0.01798638204976314 0.039236665369055387 0.058859919663095867 -0.054986363051254553 -0.035814441594028669 -0.011223537858250081 -0.047256182085659376 0.0019192873572192585 -0.026761754519237277 0.054294648134820891 -0.0013176983019376975 0.052082868676414089 -0.06701929822493119 0.037191745185314276 0.022620387794684286 -0.0062598946140092586 -0.0031324087333633554 0.020404216238405173 0.016857984696007682 0.044050380598803236 0.071978570435874356 0.036081739537654332 0.013768978230120944 -0.021028423873082056 0.038818286812205366 -0.018708819275831508 -0.036320730305096069 0.038851637219450473 0.04347072538150331 -0.022194890130843966 0.059810062886425888 0.052380308485157706 -0.049099656765567448 0.034321880436230794 -0.062548241283973224 0.034630348996273687 0.0029960160637789151 0.02849056518364735 0.045389271995547278 -0.010930274923836587 0.0361286489920076 -0.001792386433940069
leaf_weight=311.08458007394802 815.52604476525448 896.70352073572576 498.81776161282323 7.1639064326882353 264.25746342167258 17.809314794838428 692.28757913410664 426.39389764517546 139.433968141675 89.739911135286093 539.54334190487862 294.67020004498772 17.637979611754425 10.759257294237612 25.625214472413063 974.21382753178477 67.283089779317379 52.945636823773384 1228.7938906420022 12.056944817304609 5.7980261072516432 19.793252572417259 28.100184679031372 38.324188198894262 277.20427969750017 583.83517238497734 33.086154952645302 29.711632199585438 37.464718621224165 83.049778088927269 21.096539817750454 11.318234711885454 8.6930163204669935 9.7366360500454885 23.10226396471262 12.162580747157334 11.346652835607527 40.118100829422474 18.068821005523205 29.609915196895599 57.323428273200989 19.895132012665272 90.203177459537983 23.711448758840561 13.714764654636385 10.694985061883925 9.5206586718559247 18.260065242648125 23.95945280790329 10.27522438764572 20.108531318604946 19.319830305874348 14.151451438665388 8.4873049259185773 13.649635225534437 7.6119737923145285 69.885578639805317 28.611266560852528 207.11771654337645 6.4941380918025962 40.801541790366173 33.179942935705185 7.7501150593161574
leaf_count=6942 3667 7695 1189 22 3301 100 2098 844 348 737 3426 699 64 35 52 3079 176 108 6381 35 20 46 56 69 4604 7019 110 336 88 210 33 26 16 28 48 57 29 102 39 70 116 31 182 53 32 21 21 55 48 18 60 34 33 30 31 19 156 72 475 16 146 66 22
internal_value=7.16095e-05 -0.0252836 0.0207659 0.0153055 -0.0480177 -0.013681 0.0112994 0.0267841 0.0140796 -0.00877102 -0.00785356 0.0511462 0.0139642 0.0173819 0.0108459 0.0121151 0.013369 0.0354726 -0.00505035 -0.00589678 -0.0269455 0.0294735 0.0114031 0.0306854 -0.0610374 -0.0389865 0.0115907 -0.0236877 0.00111037 -0.00430507 -0.00964812 0.0113394 -0.0192909 -0.0317008 0.0153734 -0.0141875 0.0261498 0.0261542 0.0236399 0.0405529 0.0267182 0.0297985 0.0255573 0.0199798 0.0295032 0.00519305 0.00551356 -0.00802298 0.0224833 0.00761662 -0.00203331 0.0257617 0.0177763 0.00555247 -0.00580256 -0.0180521 0.0287673 -0.00892228 0.0311628 0.00516301 -0.00319708 0.049567 -0.0395657
internal_weight=9459.09 4250.85 5208.25 4414.76 1436.38 2814.46 3272.62 1142.15 199.544 1888.05 1798.31 793.488 2457.09 1172.25 1284.84 1194.3 792.657 60.1095 1246.6 90.5387 31.1861 942.602 59.2401 883.362 588.289 848.093 725.374 926.415 220.086 159.519 133.894 42.1514 91.7428 21.0549 60.567 551.706 39.4468 456.968 389.034 67.9341 348.916 300.463 247.388 190.065 114.613 24.4097 75.4516 41.9715 33.4801 48.4526 38.1774 379.594 153.156 72.5116 58.3602 44.7105 80.6448 37.0986 226.438 59.3526 47.2957 53.0751 25.3881
internal_count=55741 40598 15143 13255 21866 18732 10819 2436 478 10701 9964 1888 7152 3269 3883 3580 2384 130 6481 303 106 1958 131 1827 11546 10320 2208 8031 501 365 313 87 226 54 136 3483 85 983 844 139 742 625 528 412 235 53 177 108 69 117 99 885 376 185 152 121 191 102 509 197 162 97 86
is_linear=0
shrinkage=0.05


Tree=6
num_leaves=64
num_cat=0
split_feature=1 2 1 1 2 2 6 1 2 24 10 24 8 7 1 23 3 10 2 1 1 1 4 12 7 2 10 12 3 2 8 12 12 1 8 10 10 10 1 1 8 10 24 2 10 1 3 9 9 2 8 10 10 9 12 6 4 6 12 9 3 10 2
split_gain=1730.78 396.676 296.336 71.6563 54.4209 45.4429 15.932 14.3259 14.2744 13.0386 12.9059 11.6688 11.5573 10.0879 10.059 9.63722 10.3332 9.53594 8.11975 7.98244 7.87261 7.80012 7.23478 12.8074 7.10242 7.09112 7.07385 11.4504 7.05381 7.0522 7.76603 8.46223 7.01211 7.73128 6.95015 6.81484 6.88325 7.24503 6.70442 7.01445 6.60672 6.54247 11.7657 11.3272 8.4146 6.43268 7.52071 9.8134 6.62787 7.89148 8.94316 9.19005 6.41627 6.35268 5.96535 5.95618 9.69562 14.6791 7.15668 6.61097 5.91365 11.834 15.0938
threshold=0.12422850000000001 0.0370831309081191 0.36375650000000004 0.20204081632653062 0.016602107886439756 0.061069751825739198 0.22650000000000003 0.26671400000000006 0.11815463282249515 4.5000000000000009 4520.5000000000009 5.5000000000000009 0.24797567532126938 13.500000000000002 0.48809500000000006 1.0000000180025095e-35 5.5000000000000009 3741.5000000000005 0.25643834723061881 0.033333166666666671 0.32795700000000005 0.27027013513513515 123.50000000000001 0.18352236802301655 7.5000000000000009 0.0098507184456112385 1105.5000000000002 0.22149067232196054 1.5000000000000002 0.12444242583924339 0.034885925690751475 0.28378832766862361 0.22312091999570097 0.24390221951219518 0.059212084569547983 3068.5000000000005 15.500000000000002 62.500000000000007 0.27027013513513515 0.32795700000000005 0.23218273817850307 3604.5000000000005 7.5000000000000009 0.15822893311515468 3443.5000000000005 0.19419300000000003 2.5000000000000004 0.27519689922480622 0.1951299637832121 0.14885538843623178 0.068123083734942455 3236.5000000000005 1309.5000000000002 0.14009141262701985 0.21097604436486278 0.27921363636363644 128.50000000000003 0.39230000000000004 0.34443691262231596 0.19550244169023603 1.5000000000000002 2861.5000000000005 0.19381607151236815
decision_type=2 2 2 2 2 2 2 2 2 2 2 2 2 2 2 2 2 2 2 2 2 2 2 2 2 2 2 2 2 2 2 2 2 2 2 2 2 2 2 2 2 2 2 2 2 2 2 2 2 2 2 2 2 2 2 2 2 2 2 2 2 2 2
left_child=1 4 3 8 25 -3 9 17 -2 18 12 15 22 20 -4 16 24 60 35 -6 -9 32 34 -24 -7 -1 27 54 -22 -29 31 -31 33 -11 -10 36 -5 -38 -15 -40 41 42 44 -43 45 48 -47 -48 -36 50 -50 -52 -28 -32 -25 -54 58 -58 59 -57 61 -8 -63
right_child=2 5 14 6 19 11 7 13 10 21 -12 -13 -14 38 -16 -17 -18 -19 -20 -21 28 -23 23 26 -26 -27 52 29 -30 30 53 -33 -34 -35 40 -37 37 -39 39 -41 -42 43 -44 -45 -46 46 47 -49 49 -51 51 -53 55 -55 -56 56 57 -59 -60 -61 -62 62 -64
leaf_value=-0.063771723884607764 0.0013839914402102394 -0.022348811188802328 0.044433829763246398 0.056685234029501888 -0.042232437257534269 -0.04020035069202315 0.0089714062818722004 0.022581317517815992 0.022737230434133171 0.065432531851086884 -0.055132001623878851 -0.024631881950937021 -0.048249327762583838 0.058069080802019814 0.056529036525447302 0.0052698146840877494 -0.015009880752613834 -0.030986112075531248 0.036140346061806598 -0.032069362224047854 0.0011067071069570287 -0.0041908862395180525 -0.045455397103649028 0.0021912050643184333 -0.0055357336659254816 -0.052452472712075662 -0.019298751995253237 -0.0045403955043005128 0.04751309518190041 0.016365962867564202 0.065722071243035418 -0.058935819625003286 0.012673687971014154 -0.0063153843932123093 0.031569414389332792 0.035432240616650047 -0.00032914555967019656 0.023297401572920304 0.020844956448731099 0.044965596907090594 0.043733991254475579 0.033592064612885088 -0.02454855894386325 -0.02685665546921084 -0.037485038560380129 0.035880116618944052 -0.046686012156158641 0.024625438579682569 -0.0061072827502255947 -0.0041155388293571734 0.016024274534069016 -0.038178523823954473 0.016733553495881306 0.021475990996848701 -0.034696554998469097 0.033312403128429501 -0.041058068101983279 0.017909986482391102 0.035988283268387024 -0.023117969663696229 0.015648815985473546 0.023030426155625814 -0.06814586314213783
leaf_weight=292.85764518508222 582.39137287228368 898.16188113577664 469.65071988431737 14.676959022879599 467.46406221576035 14.983263991773127 155.98849792033434 237.52035696059465 184.06561143696308 14.289921702817084 7.4345457404851905 106.10563388094306 8.2119223698973638 22.888822145760059 271.13608884229325 135.11596990376711 452.07251273840666 13.259234622120855 198.4840008020401 329.31966127641499 85.749937437474728 53.266731772106141 11.412517368793486 48.654556095600128 1071.1847834680229 262.27793292608112 31.023337386548519 31.400928854942322 9.0530905260238779 9.4756921753287298 8.4482451453804952 6.1539088413119307 71.475738629698753 5.092819682089611 32.461530663073063 127.52550253272057 34.236741989850998 620.83770396187901 91.134477895917371 45.035403662361205 15.885613664984701 59.897170186042786 24.345120757818222 8.901472255587576 8.855660527944563 51.582629859447479 7.2476826161146191 14.428840450942515 61.084130384027958 102.37592373043299 323.32306446880102 8.0139689818024618 73.532298177480698 204.04284197464585 14.146746531128882 5.6559071168303481 12.103278711438177 82.435152921825647 6.6135505884885779 63.025877613574266 355.36963729956187 7.423559799790385 11.682349674403666
leaf_count=6942 2722 8031 1189 31 6247 92 370 550 537 57 32 877 31 43 699 700 3204 45 420 4073 202 144 51 177 5828 4604 126 145 28 24 16 28 206 28 97 296 97 1474 217 96 48 181 115 27 37 138 25 41 219 338 1095 33 228 631 60 13 51 275 17 256 1083 17 37
internal_value=8.36084e-05 -0.0243274 0.0196611 0.0146115 -0.0464054 -0.0131804 0.0209789 0.0164882 0.00804366 0.0250568 0.0105849 -0.00855271 0.0109066 0.0226757 0.0488608 -0.00753315 -0.00865774 0.0108963 0.0270912 -0.0380319 0.0177194 0.0110008 0.0112282 0.00701287 -0.00601392 -0.0584239 0.00801636 0.0130392 0.00553822 0.0176751 0.0207331 -0.0132829 0.019907 0.0465808 0.0140686 0.0248384 0.0228213 0.0220626 0.033031 0.0288224 0.0118476 0.0111266 0.00953674 0.0257709 0.0108985 0.011612 0.025495 0.000782004 0.00968302 0.00824715 0.0114724 0.0147133 0.00211601 0.0232351 -0.00611821 0.00484588 -0.000301076 0.0103606 -0.0136875 -0.018471 0.0119432 0.00442219 -0.0327195
internal_weight=9053.95 4029.54 5024.41 4283.62 1351.92 2677.62 2174.99 1035.11 2108.63 1139.89 1526.24 1779.46 1518.81 491.382 740.787 1673.36 1538.24 543.723 995.761 796.784 332.323 144.125 1510.59 608.125 1086.17 555.136 596.712 322.323 94.803 259.522 228.121 15.6296 90.8585 19.3827 902.468 797.277 669.751 655.074 159.059 136.17 718.403 702.517 633.719 68.7986 609.373 600.518 73.2592 21.6765 527.259 494.797 392.421 331.337 274.389 212.491 62.8013 243.366 169.834 94.5384 75.2953 68.6818 530.464 175.094 19.1059
internal_count=55741 40598 15143 13255 21866 18732 5441 2688 7814 2753 5092 10701 5060 1136 1888 9824 9124 1552 2318 10320 780 435 5029 2098 5920 11546 2047 1081 230 844 699 52 291 85 2931 1898 1602 1571 356 313 2394 2346 2138 208 2023 1986 204 66 1782 1685 1347 1128 966 647 237 840 612 326 286 269 1507 424 54
is_linear=0
shrinkage=0.05


Tree=7
num_leaves=64
num_cat=1
split_feature=0 0 0 0 0 0 0 0 7 8 21 0 24 24 23 3 8 9 10 10 10 23 21 24 9 10 6 24 4 9 10 0 10 10 21 7 0 21 9 11 6 4 10 8 11 25 8 10 3 8 4 8 11 21 3 8 9 11 5 5 21 21 11
split_gain=1505.46 313.931 274.077 72.5308 44.0154 35.7939 16.8942 11.3519 10.9637 16.1624 11.1277 8.83419 8.4241 8.37896 11.1346 7.60065 7.21613 11.64 10.7187 8.24313 6.6504 8.32281 9.29909 7.63465 7.57918 8.9536 7.10748 6.50196 6.26589 7.59866 6.71871 9.53469 6.28395 7.8623 6.06303 5.92608 7.0198 6.43922 6.09932 5.98354 5.85095 9.04127 5.80643 5.78689 5.61928 5.61907 5.49534 7.11808 5.45871 6.96664 5.44145 8.66944 7.60368 7.30683 9.62262 7.8868 13.5906 8.88746 8.37068 13.4425 6.75148 12.5569 9.1767
threshold=8.5500000000000025 25.500000000000004 2.7500000000000004 5.6500000000000012 14.500000000000002 58.500000000000007 3.7500000000000004 6.9500000000000011 11.500000000000002 0.093767050318514858 68.565000000000012 2.0500000000000003 9.5000000000000018 4.5000000000000009 1.0000000180025095e-35 5.5000000000000009 0.13514669502693458 0.48974617860944564 2861.5000000000005 2082.5000000000005 2799.5000000000005 1.0000000180025095e-35 82.930000000000021 3.5000000000000004 0.21734169140238507 132.50000000000003 0.75960000000000016 9.5000000000000018 125.50000000000001 0.49702058417443951 1393.5000000000002 10.500000000000002 787.50000000000011 730.50000000000011 82.075000000000003 8.5000000000000018 5.2500000000000009 123.43000000000002 0.3283956510203439 0.093870663565752813 0.8257500000000001 121.50000000000001 4154.5000000000009 0.11113933701135494 0.12387478633962644 0 0.079562112525653303 57.500000000000007 3.5000000000000004 0.10001333688983731 119.50000000000001 0.19559722180549913 0.062313048924145957 70.185000000000016 3.5000000000000004 0.054550414124882214 0.38785440733794591 0.047192127575255233 12.500000000000002 6.5000000000000009 108.32000000000001 100.09500000000001 0.069437211128828252
decision_type=2 2 2 2 2 2 2 2 2 2 2 2 2 2 2 2 2 2 2 2 2 2 2 2 2 2 2 2 2 2 2 2 2 2 2 2 2 2 2 2 2 2 2 2 2 1 2 2 2 2 2 2 2 2 2 2 2 2 2 2 2 2 2
left_child=2 4 11 6 13 -3 8 50 9 10 -4 -1 -10 14 15 28 19 18 -18 -11 24 22 44 43 -9 46 -27 42 29 32 -30 -32 33 -2 -20 36 38 -37 -8 -39 -34 -42 48 -23 -22 -33 47 -26 -6 -50 51 60 -53 54 -52 -55 57 -57 59 -58 61 -5 -62
right_child=1 5 3 7 27 -7 35 20 12 16 -12 -13 -14 -15 -16 -17 17 -19 34 -21 21 23 -24 -25 25 26 -28 -29 30 -31 31 45 40 -35 -36 37 -38 39 -40 -41 41 -43 -44 -45 -46 -47 -48 -49 49 -51 53 52 -54 55 -56 56 58 -59 -60 -61 62 -63 -64
leaf_value=0.054366196632501765 -0.0020006299727050813 -0.039428051024384174 -0.023382144899376511 0.013303459878405956 0.018753994263877707 -0.057848565240753075 -0.011525465782563487 -0.0058069500947064805 0.026091564954978393 -0.047317098110297176 0.038677047835488698 0.042630960751984165 -0.021389653623876528 -0.022195397979426403 0.0071880278794419971 -0.014867682620996992 0.032046089212406051 -0.030388408435135451 0.019658546189685669 0.0060294781937101118 -0.018306944817107831 0.045272487103979207 -0.051080528524005381 -0.014258422374484638 -0.034954395085955547 0.0050106789258860876 0.022363347767858081 -0.04699824382989326 -0.018422763042330308 0.031921962699743782 0.0077485580975483999 -0.012265504573374299 -0.013255158871745968 0.035753551465067736 -0.033387221983839983 0.015005147102947942 -0.041263246147926057 0.018464140464253858 0.032676766399418841 0.056496683798219517 -0.017970275845749822 0.031720329707280968 0.021745845406031052 -0.013227814400709918 0.0380973629276425 -0.060901423838156547 -0.027812278752168629 0.034224427850271535 -0.021768914963606025 -0.035038399371728118 0.0033990028765770717 0.034100007858512076 -0.023984645213478959 0.026648047204727562 -0.023995520534475172 0.045370622695205434 0.039293785318749296 -0.0061782712131295391 0.067403366315202592 -0.0036437818115675198 0.033714219624007273 0.040837143244061243 -0.019442190287974118
leaf_weight=250.73467564582825 297.13289681822062 683.1351131584961 8.2275613099336606 296.92828407976776 7.7014227733016005 429.5469169934513 18.007429382530976 209.10706128366292 830.49186041997746 14.914518252015116 59.173785818507895 444.97843906562775 9.4478401876986009 125.80817764764652 101.99003678932786 500.46273935772479 42.026631131768227 16.048219412565231 9.326141260564329 14.075152337551115 22.880928065627817 13.468991264700891 21.404125593602657 26.411676280200481 5.9166978523135176 335.94268952682614 71.583552241325378 28.623060366138816 199.03253791853786 14.141147181391714 68.428527565672994 20.035819031298161 249.36896830424666 14.460971154272555 12.752742454409598 1631.82204400911 9.545594856142996 24.100729614496231 13.773694194853304 18.114512041211128 17.431346103549004 19.278445776551962 7.2608439698815337 6.1610608845949164 5.4715994819998732 8.4404587484896201 30.032074641436338 10.008081942796705 745.71066161768977 114.04004649072886 135.81902255862951 7.1609275043010703 26.428969766944647 56.084263759898022 41.958765026181936 8.8842253014445287 34.334796965122223 142.08349761739373 9.0772212594747526 38.85772455483675 11.291090674698351 48.119614612311125 28.902710303664207
leaf_count=699 1690 9983 27 1056 33 8824 75 1080 1874 47 138 1189 25 1761 556 3994 106 52 22 36 122 43 113 150 36 1592 301 386 1231 61 361 124 1468 67 35 4729 38 68 45 38 119 87 58 30 20 64 162 37 7415 1174 539 24 117 186 239 23 112 588 19 160 33 147 113
internal_value=8.42217e-05 -0.0243932 0.0177093 0.013075 -0.0146894 -0.0465392 0.018069 0.00477798 0.0231768 0.0118503 0.0311016 0.0468603 0.0255575 -0.00979787 -0.00876509 -0.00992049 -3.82693e-05 0.00769358 0.017227 -0.0214161 0.000287779 -0.012026 -0.0262027 0.00329459 0.00206813 0.00569943 0.00805874 -0.0235483 -0.007193 -0.00430386 -0.0131659 -0.00236895 -0.00516098 -0.000248471 -0.0109806 0.0150422 -0.00366219 0.0155039 0.00763144 0.0347839 -0.0105116 0.00812515 -0.0227809 0.0269117 -0.00742179 -0.0266813 -0.015222 0.00852171 -0.0231536 -0.023529 0.00862176 0.01276 -0.0116018 0.00491117 -0.0030666 0.00981322 0.00576512 -0.0031447 0.0221149 0.0164983 0.0148841 0.0171432 -0.00450969
internal_weight=8723.91 3652.03 5071.88 4376.17 2539.35 1112.68 2731.85 1644.32 1016.48 176.545 67.4013 695.713 839.94 1636.01 1510.2 1408.21 109.143 80.1537 64.1055 28.9897 758.389 95.7984 49.7567 46.0417 662.59 453.483 407.526 903.336 907.751 611.814 295.937 96.9048 597.673 311.594 22.0789 1715.36 41.3267 1674.04 31.7811 42.2152 286.079 36.7098 874.713 19.6301 28.3525 28.4763 45.9569 15.9248 867.452 859.751 885.931 418.832 33.5899 467.1 177.778 289.322 233.237 150.968 82.2697 73.1925 385.242 345.048 40.1938
internal_count=55741 39456 16285 14397 20649 18807 7355 7042 2362 463 165 1888 1899 11583 9822 9266 298 215 163 83 3686 478 255 223 3208 2128 1893 9066 5272 3492 1780 549 3431 1757 57 4993 158 4835 120 106 1674 206 8680 73 142 188 235 73 8622 8589 3356 1490 141 1866 778 1088 902 611 291 272 1349 1203 146
cat_boundaries=0 1
cat_threshold=2
is_linear=0
shrinkage=0.05


end of trees

feature_importances:
implied_prob_norm=59
jockey_rides=52
win_odds=49
jockey_win_rate=46
jockey_place_rate=39
trainer_win_rate=39
race_sec_sum=33
sec_pos_pre=31
draw_relative=30
trainer_place_rate=23
actual_wt=22
market_implied_prob=21
field_size=20
odds_rank=14
draw=9
sec_pos_1=9
sec_pos_2=4
venue=4

parameters:
[boosting: gbdt]
[objective: lambdarank]
[metric: ndcg]
[tree_learner: serial]
[device_type: cpu]
[data_sample_strategy: bagging]
[data: ]
[valid: ]
[num_iterations: 500]
[learning_rate: 0.05]
[num_leaves: 64]
[num_threads: -1]
[seed: 0]
[deterministic: 0]
[force_col_wise: 0]
[force_row_wise: 0]
[histogram_pool_size: -1]
[max_depth: -1]
[min_data_in_leaf: 20]
[min_sum_hessian_in_leaf: 0.001]
[bagging_fraction: 0.8]
[pos_bagging_fraction: 1]
[neg_bagging_fraction: 1]
[bagging_freq: 5]
[bagging_seed: 3]
[bagging_by_query: 0]
[feature_fraction: 0.8]
[feature_fraction_bynode: 1]
[feature_fraction_seed: 2]
[extra_trees: 0]
[extra_seed: 6]
[early_stopping_round: 0]
[early_stopping_min_delta: 0]
[first_metric_only: 0]
[max_delta_step: 0]
[lambda_l1: 0]
[lambda_l2: 0]
[linear_lambda: 0]
[min_gain_to_split: 0]
[drop_rate: 0.1]
[max_drop: 50]
[skip_drop: 0.5]
[xgboost_dart_mode: 0]
[uniform_drop: 0]
[drop_seed: 4]
[top_rate: 0.2]
[other_rate: 0.1]
[min_data_per_group: 100]
[max_cat_threshold: 32]
[cat_l2: 10]
[cat_smooth: 10]
[max_cat_to_onehot: 4]
[top_k: 20]
[monotone_constraints: ]
[monotone_constraints_method: basic]
[monotone_penalty: 0]
[feature_contri: ]
[forcedsplits_filename: ]
[refit_decay_rate: 0.9]
[cegb_tradeoff: 1]
[cegb_penalty_split: 0]
[cegb_penalty_feature_lazy: ]
[cegb_penalty_feature_coupled: ]
[path_smooth: 0]
[interaction_constraints: ]
[verbosity: -1]
[saved_feature_importance_type: 0]
[use_quantized_grad: 0]
[num_grad_quant_bins: 4]
[quant_train_renew_leaf: 0]
[stochastic_rounding: 1]
[linear_tree: 0]
[max_bin: 255]
[max_bin_by_feature: ]
[min_data_in_bin: 3]
[bin_construct_sample_cnt: 200000]
[data_random_seed: 1]
[is_enable_sparse: 1]
[enable_bundle: 1]
[use_missing: 1]
[zero_as_missing: 0]
[feature_pre_filter: 1]
[pre_partition: 0]
[two_round: 0]
[header: 0]
[label_column: ]
[weight_column: ]
[group_column: ]
[ignore_column: ]
[categorical_feature: 25,26,27,28,29]
[forcedbins_filename: ]
[precise_float_parser: 0]
[parser_config_file: ]
[objective_seed: 5]
[num_class: 1]
[is_unbalance: 0]
[scale_pos_weight: 1]
[sigmoid: 1]
[boost_from_average: 1]
[reg_sqrt: 0]
[alpha: 0.9]
[fair_c: 1]
[poisson_max_delta_step: 0.7]
[tweedie_variance_power: 1.5]
[lambdarank_truncation_level: 30]
[lambdarank_norm: 1]
[label_gain: ]
[lambdarank_position_bias_regularization: 0]
[eval_at: 1,3]
[multi_error_top_k: 1]
[auc_mu_weights: ]
[num_machines: 1]
[local_listen_port: 12400]
[time_out: 120]
[machine_list_filename: ]
[machines: ]
[gpu_platform_id: -1]
[gpu_device_id: -1]
[gpu_use_dp: 0]
[num_gpu: 1]

end of parameters

pandas_categorical:[["HV", "ST"], ["0", "All Weather Track", "Turf"], ["0", "A"], ["0", "Class 2", "Class 3", "Class 4", "Class 5", "Griffin"], ["Good", "Yielding"]]
