tree
version=v4
num_class=1
num_tree_per_iteration=1
label_index=0
max_feature_idx=29
objective=lambdarank
feature_names=win_odds market_implied_prob implied_prob_norm odds_rank actual_wt draw draw_relative field_size jockey_win_rate jockey_place_rate jockey_rides trainer_win_rate trainer_place_rate last_6_avg last_6_best last_2_avg last_6_trend gear_change stable_change ai_unluckiness distance race_sec_sum sec_pos_1 sec_pos_2 sec_pos_pre venue track_type course race_class track_condition
feature_infos=[1:693] [0.0014430000000000001:1] [0.0011852905686848367:0.82030820619923317] [1:14] [0:135] [0:14] [0:1.1000000000000001] [4:16] [0:1] [0:1] [0:4709] [0:1] [0:1] none none none none none none [0.84999999999999998:1.1499999999999999] none none none none none -1:1:0 none none none none
tree_sizes=6973 6877 6900 6903 6916 6914 6880 6940 6920 6889 6914 6924 6916 6903 6902 6909 6945 6917 6918 6898 6919 6896 6932 6956 6889 6954 6900 6915 6905 6952 6902 6905 6941 6948 6940 6926 6939 6964

Tree=0
num_leaves=64
num_cat=1
split_feature=0 0 0 0 0 0 0 7 7 0 7 0 0 7 7 7 7 0 25 0 11 3 12 10 0 5 8 5 11 10 9 11 7 8 8 10 3 10 9 11 4 8 4 8 12 8 10 9 10 5 10 9 3 12 9 12 11 10 12 9 11 3 11
split_gain=3530.55 489.8 378.898 71.4055 52.2764 50.7832 50.609 12.9765 11.2156 10.443 10.1188 9.9463 9.02137 7.31814 7.14187 6.5303 6.21712 6.18212 5.74316 5.69858 4.98262 4.97982 4.87134 4.04332 4.00382 4.66724 3.9902 3.9756 3.76696 4.17277 3.76431 3.73192 3.66603 4.25752 5.26712 4.05898 4.03843 3.78751 4.56114 3.61333 3.39253 5.00118 4.53642 4.25607 4.44948 3.53304 5.76476 4.11759 4.08407 3.70381 3.37583 4.12386 3.22438 3.17749 3.09762 4.75082 3.91924 4.38611 3.71291 3.64834 3.34767 3.0553 3.88663
threshold=13.500000000000002 6.5500000000000007 34.500000000000007 3.7500000000000004 69.500000000000014 8.9500000000000011 22.500000000000004 11.500000000000002 12.500000000000002 2.6500000000000008 10.500000000000002 16.500000000000004 48.500000000000007 10.500000000000002 8.5000000000000018 10.500000000000002 9.5000000000000018 94.500000000000014 0 5.2500000000000009 0.046258594425460091 5.5000000000000009 0.17108781311567692 7.5000000000000009 11.500000000000002 11.500000000000002 0.093415688881864717 4.5000000000000009 0.11328002084644433 150.50000000000003 0.21786991225088445 0.10193479660719294 13.500000000000002 0.11052704294585596 0.10954110693378138 57.500000000000007 4.5000000000000009 452.50000000000006 0.1972597799722372 0.1028765884068482 115.50000000000001 0.20017889087656535 117.50000000000001 0.10662267985908268 0.31182960062852771 0.057043576428541971 428.50000000000006 0.13700276606954692 57.500000000000007 3.5000000000000004 2390.5000000000005 0.22160938208998912 5.5000000000000009 0.35057936993410749 0.29215795070976097 0.22182684589556037 0.048937066016369872 97.500000000000014 0.18423407535400213 0.28575717287815761 0.059946226844657745 9.5000000000000018 0.05556447870935504
decision_type=2 2 2 2 2 2 2 2 2 2 2 2 2 2 2 2 2 2 1 2 2 2 2 2 2 2 2 2 2 2 2 2 2 2 2 2 2 2 2 2 2 2 2 2 2 2 2 2 2 2 2 2 2 2 2 2 2 2 2 2 2 2 2
left_child=1 3 6 9 12 15 10 -5 14 -1 -2 28 18 26 -7 -3 -8 -6 20 -9 -4 -10 -21 -16 40 54 -11 -24 29 -12 -17 -31 35 34 -34 -13 -37 38 -38 -33 41 43 -42 44 -25 47 -47 -44 -49 -50 -48 -52 -51 -20 56 60 -26 -58 -59 -60 -56 -18 -63
right_child=2 5 4 7 17 8 16 19 21 13 11 32 -14 -15 23 30 61 -19 53 22 -22 -23 27 24 25 -27 -28 -29 -30 31 -32 39 33 -35 -36 36 37 -39 -40 -41 42 -43 45 -45 -46 46 50 48 49 52 51 -53 -54 -55 55 -57 57 58 59 -61 -62 62 -64
leaf_value=0.083459707395127453 -0.038631646824999526 0.012639335124650264 -0.020059837801014932 0.03672406485713741 -0.077471654673224588 -0.02917101868061352 -0.070352474947403432 0.059773901406029832 0.020839778560873802 0.068694170806098132 -0.024899277243038184 -0.055987664621708726 -0.070041994511251912 0.072713967598791979 -0.06873237009738152 0.024094298022379688 -0.038159243402050791 -0.09001571667184681 -0.066835538826021224 -0.004490484102402343 -0.052700843398347463 0.0062446178303686602 0.055632076189133163 0.015942998189247631 -0.047819716510393545 0.039692812877632329 0.034931905673429901 0.04293966563178666 -0.026139637635586639 -0.005782259558534791 0.035081710286559813 0.071570632237983933 -0.013116337980143975 -0.045352613108911206 0.082966682896971816 0.03430839476891262 -0.033972129454242044 -0.03092651351616368 -0.0025037240425754806 0.0088912283482790438 -0.030715656468488645 -0.04364553547527552 -0.024485498055403062 0.040526390682399716 -0.032116647830359023 -0.023191858326180401 0.012675837590040324 0.074107022543618534 -0.0075846004605088727 0.038918263879489934 -0.063742599100972408 -0.0011352782627036598 0.0016317693372914551 -0.011679556568570389 -0.02291036163563466 -0.03755687017932649 0.040883840935867534 0.06808703791946745 -0.0069291488012672769 0.052480218186069398 0.047747019249261696 -0.07468966401123088 -0.045027429698904095
leaf_weight=263.79089272813872 56.962400355376303 49.464127812534571 12.724436365067957 113.47942680353299 142.80895912484266 17.732646927237511 19.942715300247073 313.50025422079489 159.61953618004918 14.788299112580715 23.560824804008007 11.179432736709712 207.7209609511774 257.9581461683847 1.9340924471616734 109.08012524968944 216.09427746920846 314.57959346217103 97.819417972583324 4.0692753270268431 144.02537633338943 92.202864782186225 156.99644974642433 61.098818901926279 4.4088988676667205 5.782652224879711 21.437093106098473 101.63610063586384 24.748022248502821 127.63274218561128 273.17658500885591 2.5559731889516142 92.298336640233174 10.398650229210032 1.448717807419597 2.8346934635192147 18.420030178967863 113.07569722132757 30.717750241514295 22.898066718596965 9.4099712967872602 3.4484010310843578 5.4356834026984862 16.508472500368953 5.2281199558638027 21.47882965952158 53.08665714552626 3.4236715994775286 10.843122979626058 18.232474939431999 3.2201615744270411 14.357160978019236 8.5016748714260739 2.6828096117824307 3.3393938448280123 16.041324457619339 6.2292231153696767 1.7988344393670548 67.654791990295053 2.6868237531743935 3.3661489682272077 12.491947581060229 95.241791002685204
leaf_count=1721 766 591 193 1242 2312 212 261 3157 2223 119 378 178 3325 2204 37 1488 3570 4912 1454 57 2438 1451 1639 798 86 64 234 1175 439 2059 3413 19 1533 183 13 35 297 1822 433 339 145 49 88 188 85 328 729 24 150 215 50 217 112 31 50 220 86 15 978 29 41 230 1563
internal_value=0.00063947 0.0417662 -0.0516887 0.0629375 -0.0740974 0.0165805 -0.0282679 0.0521785 0.00737767 0.0762361 -0.0187032 -0.0163469 -0.0622915 0.0697587 0.00178053 0.0297343 -0.0432571 -0.0860991 -0.0560332 0.0552222 -0.0500512 0.0154959 0.0497902 0.00335989 0.00376337 -0.00404446 0.0487147 0.0506443 -0.00787024 -0.00531073 0.0319464 -0.00229596 -0.0224358 -0.0149985 -0.0116315 -0.026831 -0.0248561 -0.02589 -0.0143001 0.0151852 0.00747303 0.0153529 0.00287872 0.017809 0.0121548 0.00515989 -0.000507657 0.0164058 0.021827 0.0170637 0.00638737 -0.0126049 0.0270609 -0.0653632 -0.0064412 -0.0227831 -0.00195057 0.000629923 -0.00284594 -0.0046599 0.0125593 -0.0415885 -0.0484668
internal_weight=4101.31 2296.45 1804.86 1247.66 922.362 1048.79 882.502 689.682 617.07 557.974 538.731 481.769 464.973 294.184 365.248 431.721 343.771 457.389 257.252 576.202 156.75 251.822 262.702 347.515 345.581 111.308 36.2254 258.633 201.396 176.648 382.257 153.087 280.373 104.146 93.7471 176.228 165.048 162.213 49.1378 25.454 234.273 86.2838 147.989 82.8354 66.3269 138.579 92.1428 46.4366 41.0009 37.5773 70.664 17.5773 26.7341 100.502 105.525 22.7469 82.7786 78.3697 72.1405 70.3416 6.70554 323.828 107.734
internal_count=54493 25710 28783 11548 14665 14162 14118 7270 8670 4278 8494 7728 7441 2557 4996 5492 5624 7224 4116 6028 2631 3674 2871 4784 4747 1569 353 2814 3234 2795 4901 2417 4494 1729 1546 2765 2587 2552 730 358 3178 1120 2058 1071 883 1913 1324 589 501 477 996 267 327 1485 1505 311 1194 1108 1022 1007 91 5363 1793
cat_boundaries=0 1
cat_threshold=2
is_linear=0
shrinkage=0.05


Tree=1
num_leaves=64
num_cat=0
split_feature=0 0 0 0 0 0 7 0 7 0 7 0 0 3 5 5 12 8 11 12 9 11 9 8 8 12 7 12 12 8 4 11 0 5 9 12 12 0 8 11 0 11 3 4 8 9 8 0 12 9 9 3 12 4 11 8 8 11 12 1 9 11 8
split_gain=4130.47 1296.6 335 243.111 222.742 59.8866 55.3587 31.2925 25.9127 24.5109 26.5125 21.0328 20.1281 18.6669 18.4203 17.1155 16.202 14.9888 14.7633 12.6091 12.5197 12.2668 12.1252 12.8659 16.5136 14.1551 16.303 12.7862 11.5605 11.3281 11.6089 11.304 11.4917 20.0824 12.9908 16.198 12.5013 11.0668 10.5859 10.2459 10.1847 10.2566 9.9821 10.4562 9.95401 9.82634 9.69 9.62197 9.05722 14.2686 11.1932 8.69992 8.34361 8.31117 14.7137 8.225 8.01285 7.92385 7.76227 12.3374 9.74643 8.98139 8.91019
threshold=13.500000000000002 3.8500000000000001 38.500000000000007 2.6500000000000008 7.6500000000000012 22.500000000000004 10.500000000000002 69.500000000000014 12.500000000000002 1.6500000000000001 8.5000000000000018 9.4500000000000011 5.7500000000000009 1.5000000000000002 2.5000000000000004 9.5000000000000018 0.2816852908082102 0.22730348136302131 0.070204143782189657 0.20943092068663569 0.1233007584539092 0.086970739613842538 0.092332190102890746 0.050012632642748876 0.050409517937971778 0.3384571628598933 11.500000000000002 0.35057936993410749 0.29054911551862778 0.051290376290376298 116.50000000000001 0.12566293551125859 4.5500000000000007 3.5000000000000004 0.17869619146383622 0.20532431885166605 0.18160091826945043 3.1500000000000008 0.11398538855854881 0.11955174067252221 4.5500000000000007 0.12873481466947895 1.5000000000000002 131.50000000000003 0.054097093774545829 0.26875227603787333 0.062858006303155911 6.7500000000000009 0.28946996834078992 0.48585658077247257 0.46592651288372372 1.5000000000000002 0.25130765691261153 118.50000000000001 0.079883080567910672 0.030455275370457422 0.057573700514682004 0.1318803522564366 0.21128489013160126 0.23532650000000002 0.22223799161068536 0.11268026677616436 0.088548717070576904
decision_type=2 2 2 2 2 2 2 2 2 2 2 2 2 2 2 2 2 2 2 2 2 2 2 2 2 2 2 2 2 2 2 2 2 2 2 2 2 2 2 2 2 2 2 2 2 2 2 2 2 2 2 2 2 2 2 2 2 2 2 2 2 2 2
left_child=1 3 5 9 6 -2 12 -4 46 -1 -11 15 14 37 -3 55 18 38 19 -16 -14 -20 -8 47 -25 31 -27 40 -22 -18 -31 32 33 44 35 -34 -35 -10 -15 -30 -28 -42 43 48 -26 -33 -5 -24 49 50 53 -12 -37 -38 -55 -6 -17 -41 59 -44 -60 62 -62
right_child=2 4 7 8 11 -7 22 -9 13 10 51 -13 20 17 16 56 29 -19 21 -21 28 -23 23 24 25 26 27 -29 39 30 -32 45 34 36 -36 52 42 -39 -40 57 41 -43 58 -45 -46 -47 -48 -49 -50 -51 -52 -53 -54 54 -56 -57 -58 -59 60 -61 61 -63 -64
leaf_value=0.075622242702534148 -0.03047894449695351 0.014542155214660636 -0.063261313328222615 0.037366962299828201 0.016014322289170876 -0.048378652487502373 -0.017297908559648602 -0.079948940102493218 0.048811805497936372 0.027260441530676967 0.059074666176059346 -0.011743582956878152 0.043592733244456214 0.030861634150782566 -0.0343174738297145 -0.011827121685671869 0.049207899848633788 0.063414339655930019 -0.083027799447714268 0.03498079017163673 -0.030966390028414253 -0.023515262794568951 0.02721955321575379 -0.040294569252412017 0.066844393419199746 -0.028653212075327728 0.06854919434692032 0.018015145847620297 0.01521369518583429 0.044467750898520786 -0.01193307104377188 0.018012341349095736 0.042883818139705661 0.053498221719518416 0.010796508510439206 -0.071486491143868638 0.025443416606600391 0.035643298091711073 0.0014951328750294473 -0.053511771729348769 -0.0088359076827247938 0.040630405825718974 0.014893511841311796 0.021528025021660499 0.023330124260443431 -0.029333042159399483 0.024261052660370864 0.0025406598141604255 -0.039365751576458677 -0.050849698457316621 0.045704422193256322 0.021105744226259417 -0.01388372942147164 -0.054148613571036674 0.010641958789744339 -0.0063140083049720826 0.018239716476929648 0.0018977456853687407 0.055918407727480704 -0.050801745366611861 -0.019432691211686157 -0.028903092514080284 0.023825915055701335
leaf_weight=196.30592195689678 1199.3690768238157 159.03537245094776 556.88257258012891 166.18725751340389 43.480115599930286 765.53950569033623 32.452203787863255 566.90782282873988 298.82122927904129 72.690213739871979 1010.997775003314 1498.0286052785814 7.7653971910476676 58.269150212407112 13.819513961672785 26.85681552067399 11.996231988072394 18.723043352365494 16.097587555646896 12.502988800406454 109.06456525251269 18.737462550401688 251.39992620050907 14.749442636966704 13.584559917449949 14.04006092250347 25.137195512652397 157.86320544779301 32.632418639957905 10.762784361839293 59.899685993790627 17.059875555336475 7.666106365621089 14.409148648381231 2150.9617069289088 11.521988384425642 15.534789040684698 342.31676523387432 64.831193491816521 13.447853840887548 12.89518630504608 55.929681174457073 19.924951061606411 29.837787717580795 403.77486408501863 30.645793154835701 931.89090003073215 46.857454039156437 23.483276605606079 13.435369566082953 13.806500867009161 15.315401673316954 13.834908232092856 15.890560179948805 19.535374894738197 802.06357540562749 126.68248621374369 12.40314184129238 15.822735175490378 11.143308162689207 13.577440813183783 10.992863044142721 96.562801152467728
leaf_count=249 8494 288 6068 238 159 6997 96 7224 379 110 1343 7608 15 111 30 122 17 26 34 18 320 36 552 47 20 36 37 368 79 17 128 39 20 20 5588 43 23 468 118 41 33 131 36 40 709 90 1443 191 37 25 17 19 43 26 27 3216 445 33 29 30 32 27 188
internal_value=0.000466785 0.0164638 -0.0499058 0.0426788 0.00375032 -0.0374528 0.0109884 -0.0716796 0.0312 0.0593482 0.0564413 -0.00799609 -0.00498919 0.0381498 0.00281585 -0.0023771 -0.0101514 0.0217349 -0.0296619 -0.00140132 -0.0184723 -0.0510165 0.0131258 0.0134045 0.0124907 0.0127319 0.0237838 0.0267073 -0.0213488 0.00428411 -0.00334252 0.0117402 0.0121353 0.0175602 0.0103187 -0.0208035 0.00800705 0.0417809 0.0153957 -0.00341329 0.0413107 0.0313623 0.00581879 -0.0044977 0.0247465 -0.012402 0.0262446 0.0233424 -0.0121345 -0.00395723 0.00577019 0.0585081 -0.040058 -0.00504897 -0.0184203 -0.00516583 0.0129805 -0.0269266 0.0138942 -0.00866952 0.0190127 0.014192 0.0184932
internal_weight=12814.7 9725.96 3088.7 3176.35 6549.61 1964.91 4052.5 1123.79 1881.04 1295.31 1099 2497.11 478.165 782.961 302.852 999.083 143.816 141.823 61.1576 26.3225 175.313 34.8351 3574.33 3541.88 3243.62 3228.87 265.865 251.825 167.548 82.6587 70.6625 2963.01 2915.3 731.316 2183.98 33.023 313.957 641.138 123.1 58.4834 93.9621 68.8249 299.548 131.524 417.359 47.7057 1098.08 298.257 101.686 78.2026 64.7672 1026.31 25.3569 50.9607 35.4259 845.544 153.539 25.851 168.024 31.0683 136.956 121.133 110.14
internal_count=54493 25710 28783 4504 21206 15491 9656 13292 2783 1721 1472 11550 1056 1102 568 3942 280 255 118 48 488 70 8600 8504 7761 7714 605 569 473 162 145 7109 6980 1286 5694 106 557 847 229 153 201 164 537 195 729 129 1681 743 155 118 93 1362 86 76 53 3375 567 74 342 66 276 247 220
is_linear=0
shrinkage=0.05


Tree=2
num_leaves=64
num_cat=0
split_feature=2 2 2 0 2 2 2 7 2 7 7 0 2 0 0 8 7 9 11 11 8 8 12 8 2 12 10 10 8 12 10 2 12 9 10 12 11 10 10 10 8 10 12 11 12 12 9 12 5 8 8 11 8 10 9 8 10 8 12 12 9 5 11
split_gain=3465.75 675.427 608.689 231.881 93.5223 70.0545 48.7311 35.8591 35.786 20.187 19.4608 18.2651 14.1164 13.1584 10.1391 10.0494 13.2045 17.3116 14.0274 13.7026 12.6009 10.0878 14.2996 10.1728 9.93855 9.41598 9.23972 9.04894 8.70658 8.73658 10.0483 8.82289 10.3166 11.7987 8.51857 8.39115 7.51591 10.9548 17.1546 15.4813 14.4018 13.2604 10.785 8.80166 10.3529 8.67133 12.7909 10.6206 8.45961 18.9962 14.9978 10.0803 15.0122 8.60638 9.96015 15.7803 7.53928 7.44474 6.93872 14.153 11.2827 6.92664 6.84692
threshold=0.086665175596339392 0.30919470139646249 0.036991780102050918 4.5500000000000007 0.016339168493681031 0.062192239453034488 0.11644320948729557 12.500000000000002 0.21197454771504073 8.5000000000000018 12.500000000000002 1.6500000000000001 0.40553391617062245 3.1500000000000008 96.500000000000014 0.057043576428541971 10.500000000000002 0.4941765101001 0.048937066016369872 0.05227068411373105 0.051848597279177254 0.093415688881864717 0.28697054214010276 0.21070711749266638 0.026163436746457363 0.2967848379497392 4398.5000000000009 7.5000000000000009 0.048188305482865491 0.34071968532159908 269.50000000000006 0.13253103542748471 0.2100856269697868 0.23215053433239163 180.50000000000003 0.31432115741937078 0.085280128611963782 62.500000000000007 114.50000000000001 1105.5000000000002 0.2162548304466296 2194.5000000000005 0.34616359312253892 0.073828256189747352 0.25216368297872066 0.21304419078562983 0.48713513198121816 0.22224172908863923 6.5000000000000009 0.18839080926755583 0.10774080999350345 0.092303148733654944 0.12905618837943908 304.50000000000006 0.25006500260010406 0.074049139643820525 3443.5000000000005 0.22730348136302131 0.28432613297701836 0.2689422081138278 0.27044279785094089 2.5000000000000004 0.061920156702773343
decision_type=2 2 2 2 2 2 2 2 2 2 2 2 2 2 2 2 2 2 2 2 2 2 2 2 2 2 2 2 2 2 2 2 2 2 2 2 2 2 2 2 2 2 2 2 2 2 2 2 2 2 2 2 2 2 2 2 2 2 2 2 2 2 2
left_child=2 3 4 7 14 -4 -5 15 -9 11 27 -3 -11 -10 -1 20 17 21 -18 -20 -2 58 -23 25 -6 -24 -7 -8 -12 31 61 -30 33 -33 -15 -27 43 -38 -39 48 42 -42 -41 45 -45 46 62 -47 49 51 -50 -40 53 -53 55 -55 -43 -48 59 60 -17 -31 -21
right_child=1 9 5 6 24 26 10 8 13 12 28 -13 -14 34 -16 16 18 -19 19 36 -22 22 23 -25 -26 35 -28 -29 29 30 -32 32 -34 -35 -36 -37 37 38 39 40 41 56 -44 44 -46 47 57 -49 50 -51 -52 52 -54 54 -56 -57 -58 -59 -60 -61 -62 -63 -64
leaf_value=-0.066624817831928348 0.024287066008226169 0.070603861775969293 -0.029100128854354097 -0.00033065169302856704 -0.053230218559271104 -0.012545630125687726 0.050599999894929228 0.021010754857703384 0.050381522256502359 0.056757525072190541 0.031266595033582735 0.023053641697211712 0.06963283626161608 0.05455913272375959 -0.078424026343697065 0.048147621689286373 0.047803529120280429 -0.038313369435720501 -0.029021228553876656 0.028553250388981689 0.05378113569894645 0.020961007862858688 -0.047252952147290708 0.023604578372775426 -0.043186475371386986 0.03661616457517216 0.035036960651474831 0.0075205362737570756 0.0054989677562792489 0.025299923303198742 0.040522481422339725 -0.002998279973995481 0.013885216957035299 0.038381637023670631 0.032704378829592623 -0.019279404549351085 -0.020274994038196433 0.064113376598334812 0.042159051480583305 0.036985178960759167 0.030158827956473962 -0.041481034837393911 0.0052792665981179982 -0.005445999913200928 0.021764087588738379 0.049323961330550052 -0.051374963518195906 0.02012371503595364 0.02860703589511876 0.050916915258123988 -0.035358056889346921 -0.016879760823625141 -0.03445975524900554 0.024909736505939129 0.034387098519246144 -0.057223203254092282 0.0062277674329307255 0.0089411538889087525 0.042207462143695293 -0.034356772075428213 -0.015895702829568193 -0.040157055900997156 -0.00094497440604620014
leaf_weight=411.93185383267701 108.6530237197876 28.819831147789955 1102.2004067180678 1322.3264447469264 502.15108959190547 1368.4689716286957 12.29581359028816 318.66464620828629 253.29170159995556 599.28973580896854 96.970633909106255 67.487811103463173 330.17416924238205 51.58930017054081 326.27746033668518 24.508542828261852 55.563413962721825 16.804145961999893 12.978568553924559 71.940848678350449 54.317497216165066 79.806772969663143 20.392730891704559 17.339047566056252 483.42122932337224 9.1611948013305646 10.279039248824118 1414.0875821486115 224.07220986485481 9.2022879421710986 62.409520141780376 21.164486922323704 465.68180222809315 92.579879157245159 328.52995312213898 25.139697253704071 12.648470863699911 29.291113808751106 20.300295874476433 332.82732320576906 39.42746539413929 13.461277157068251 29.172091156244278 75.669437140226364 64.974987275898457 51.570609785616398 10.829510346055033 78.601496957242489 16.079561106860638 35.524871997535229 21.306946136057377 19.470551796257496 20.805889025330544 16.302677199244503 46.379112064838409 9.1195890605449659 21.517455652356148 9.6966405063867551 42.437261924147606 11.318666368722914 9.5595494061708433 7.2067047655582419 27.07537841796875
leaf_count=5500 196 54 8389 5374 5591 7463 28 684 421 1023 227 109 537 82 4767 45 86 40 23 125 84 150 41 37 4693 19 44 3822 733 23 137 54 1174 205 600 58 26 42 33 524 66 31 54 138 108 77 24 132 31 54 45 40 41 31 77 21 40 18 74 25 20 28 55
internal_value=0.000569872 0.0214727 -0.0355604 0.0152937 -0.0583831 -0.0197031 0.00737987 0.0270289 0.0346775 0.0590734 0.0116181 0.0372829 0.0613312 0.0415532 -0.0718399 0.0223668 0.020998 0.0107453 0.0232994 0.0220469 0.0341173 0.014185 0.00638348 -0.00976732 -0.0483038 -0.0203469 -0.0121909 0.00789189 0.0170456 0.0154826 0.0313683 0.0139243 0.0171825 0.030682 0.0356705 -0.00435063 0.022664 0.0258247 0.0266937 0.0249856 0.0303121 0.0102774 0.0344301 0.0171287 0.00712453 0.0227633 0.0130405 0.031692 0.0136623 0.0184518 -0.00784731 0.00973955 0.00386751 0.0126044 0.0205997 -0.00455336 -0.0121326 -0.0228814 0.0276732 0.0140834 0.030177 -0.00344828 0.0204871
internal_weight=11472.5 7267.82 4204.73 6242.05 1723.78 2480.95 3728 2514.05 952.076 1025.77 2405.67 96.3076 929.464 633.411 738.209 1561.97 1399 256.468 1142.54 1086.97 162.971 239.663 151.839 72.0327 985.572 54.6936 1378.75 1426.38 979.288 882.317 78.8185 803.498 579.426 113.744 380.119 34.3009 1073.99 683.635 670.986 641.695 436.406 74.4062 361.999 390.359 140.644 249.714 119.542 130.172 205.289 167.903 37.3865 132.378 112.078 91.2719 71.8014 25.4223 34.9787 20.5262 87.824 45.3868 34.0681 16.409 99.0162
internal_count=54493 18046 36447 16323 20551 15896 11805 4518 1787 1723 6431 163 1560 1103 10267 2731 2451 509 1942 1856 280 469 305 155 10284 118 7507 3850 2581 2354 188 2166 1433 259 682 77 1833 1156 1130 1088 715 137 578 677 246 431 222 209 373 297 76 243 210 169 129 52 71 42 164 90 65 51 180
is_linear=0
shrinkage=0.05


Tree=3
num_leaves=64
num_cat=1
split_feature=2 2 2 2 2 2 2 7 7 0 7 0 4 2 0 3 8 9 7 2 8 0 10 11 11 4 5 9 8 10 3 11 1 7 0 7 5 8 5 25 2 5 8 10 0 10 10 10 11 9 5 4 4 10 9 0 10 5 7 11 4 9 2
split_gain=2842.47 600.599 498.395 139.14 75.6095 75.4653 54.4924 23.2758 22.6795 18.6664 21.7302 17.78 15.5244 11.3937 11.293 10.656 9.44708 9.36646 9.36048 9.10606 12.9755 11.381 13.9181 12.092 20.3915 11.2431 11.3326 10.8689 10.7322 11.7854 10.6538 23.2372 9.38591 9.09523 8.96838 8.57651 8.3901 8.26884 8.20228 8.35629 8.16662 7.84719 8.28956 9.56074 7.65832 7.57016 13.6422 11.0986 16.2112 8.89679 8.85111 8.65345 8.57344 8.10722 7.901 7.62339 7.2969 7.2709 7.07512 6.96969 6.89739 6.73698 6.5691
threshold=0.086665175596339392 0.21197454771504073 0.036991780102050918 0.30919470139646249 0.12256804518948609 0.016683773093390624 0.062192239453034488 12.500000000000002 8.5000000000000018 4.5500000000000007 13.500000000000002 1.6500000000000001 133.50000000000003 0.40553391617062245 3.1500000000000008 4.5000000000000009 0.050216097507607228 0.16206742333587171 7.5000000000000009 0.17052420315287994 0.2300961509017975 5.3500000000000005 4276.5000000000009 0.10125067199708022 0.059490728233154003 122.50000000000001 1.5000000000000002 0.34322733120769705 0.2157665289401629 3542.5000000000005 1.5000000000000002 0.10515568156942869 0.16807950000000002 8.5000000000000018 94.500000000000014 12.500000000000002 9.5000000000000018 0.054790730113485613 9.5000000000000018 0 0.026163436746457363 7.5000000000000009 0.05567395051103477 721.50000000000011 7.6500000000000012 676.50000000000011 1015.5000000000001 1856.5000000000002 0.083163469232923379 0.1943065014309362 1.5000000000000002 126.50000000000001 115.50000000000001 468.50000000000006 0.28435946423882663 4.9500000000000011 3910.5000000000005 9.5000000000000018 11.500000000000002 0.050479129499422827 130.50000000000003 0.48974617860944564 0.12736787070965067
decision_type=2 2 2 2 2 2 2 2 2 2 2 2 2 2 2 2 2 2 2 2 2 2 2 2 2 2 2 2 2 2 2 2 2 2 2 2 2 2 2 1 2 2 2 2 2 2 2 2 2 2 2 2 2 2 2 2 2 2 2 2 2 2 2
left_child=2 4 5 7 38 34 -4 18 11 17 15 -5 16 -10 -9 19 62 -6 -3 21 30 23 25 24 -11 28 37 35 29 -23 31 -21 -30 -28 -1 -25 -32 -27 44 -40 -7 -35 -43 57 -2 50 52 49 51 -48 58 -49 -47 -52 -51 -50 -8 -44 -26 -16 -29 -41 -12
right_child=1 3 6 8 9 40 56 14 13 10 12 -13 -14 -15 59 -17 -18 -19 -20 20 -22 22 -24 27 45 26 33 60 32 -31 36 -33 -34 41 -36 -37 -38 -39 39 61 -42 42 43 -45 -46 46 47 48 55 54 53 -53 -54 -55 -56 -57 -58 -59 -60 -61 -62 -63 -64
leaf_value=-0.062482576461909446 0.0031042888808112696 -0.0056968349606897183 -0.027316620210098671 0.068552113170776433 -0.011642711170155128 -0.050345782347085213 -0.012529484416163387 0.047562358855699177 0.054434582612487549 0.03746322076752151 0.067236753119639947 0.018640324684616235 0.067255644005232554 0.066923731172448694 -0.00018680989180810828 -0.047870820810890162 0.015706075690808598 0.021631040711588351 0.02684633942514756 -0.058845593280534514 0.046787732730972371 0.012186601469671378 -0.047251372893087791 0.0097372680219011513 0.063414061584076767 0.059772473720225698 -0.054240668941370064 0.048927874431546878 0.0078996130077958453 0.047984517600066848 0.0045119192743472234 0.022951161488377343 -0.051420353630325544 0.0039023590178053607 -0.073990634960129337 0.055682096892864769 -0.049212071242747152 0.011254786606342899 0.015045723903821005 -0.011140549156378422 -0.040741133066582974 -0.056758189561384398 -0.012457080892764876 -0.02038456682480605 -0.0048063086791334982 -0.063897059922834107 0.072217119899160645 0.023103824083584877 0.0019626893402175877 -0.0076701033759392113 -0.0097445814678676149 -0.029338892717137646 -0.0068969177912246568 0.031492772348970355 0.03649133143121007 -0.050114975187384947 0.011602960448349669 0.040504493554459432 0.015540904402712464 0.034754053529886912 0.0056301530553994313 0.034206219770071773 0.027937043314718614
leaf_weight=379.10766924079508 528.0167870670557 22.675426229834557 1031.5587214082479 24.562455281615257 21.768028803169727 440.41037482675165 1271.0556857418269 228.1188967525959 523.61702436953783 56.386738710105419 12.73601823300123 65.222160175442696 16.47539459168911 280.41283778846264 14.906256929039953 8.4108534269034845 533.71908155456185 745.04555514454842 865.07135852426291 24.055519040673971 12.523096948862074 427.70558220893145 11.850079484283922 76.419928789138794 14.109931722283365 11.61297921836376 8.4746562018990499 59.315483629703522 15.086965315043928 24.297761902213097 114.44848409295082 13.586594253778456 11.950125291943548 197.81688079237938 305.90440429281443 11.714265570044516 7.7600037902593604 36.0215695053339 161.69021076709032 63.784649752080441 444.88943484611809 10.012243989855049 11.9088082164526 54.880466915667057 727.48738164640963 13.150419205427172 7.738699570298194 36.335118629038334 10.14840394258499 20.916193351149559 36.368118390440941 10.039525054395197 13.237658187747 17.728974416851997 19.63726170361042 22.849043361842632 32.115325056016445 14.216978833079336 17.035885810852051 335.44940619915724 10.886142902076243 9.3972288295626623 64.40411552041769
leaf_count=5574 2011 54 8389 54 64 5372 7356 421 1023 119 25 109 28 537 33 28 1515 1664 1636 49 27 1134 40 184 22 19 34 125 45 55 313 20 39 585 4912 24 23 101 602 260 4693 40 40 183 3320 33 12 84 26 57 91 21 38 40 46 68 151 34 40 649 27 29 146
internal_value=0.000540554 0.0202663 -0.0333803 0.0405794 0.00925878 -0.0551609 -0.018731 0.0311004 0.0561288 0.0140106 0.0115705 0.0322947 0.0193617 0.0587903 0.0389046 0.008247 0.01807 0.0206865 0.0260151 0.0085698 -0.00222371 0.0100122 0.0065507 0.0163848 0.0104136 0.00732445 0.000441648 0.0275356 0.0122806 0.0141109 -0.00606339 -0.0293218 -0.0183192 -0.00318592 -0.0676217 0.015844 0.00110055 0.0230831 0.000124923 0.00870088 -0.0455192 -0.00168794 -0.0138377 -0.00853282 -0.00147942 0.00403973 -0.00257558 0.00418909 -0.00731025 0.0230892 0.015995 0.0117506 -0.0353028 0.00376993 0.0137143 -0.0340984 -0.0119348 0.0163632 0.0372288 0.0332675 0.0422137 -0.00531761 0.0344255
internal_weight=10620.2 6715.2 3905.04 2360.04 4355.16 1570.31 2334.73 1466.22 893.814 2864.79 2097.97 89.7846 627.335 804.03 578.475 1470.64 610.859 766.814 887.747 1462.23 172.374 1289.85 835.835 454.018 295.682 823.985 344.945 158.336 479.04 452.003 159.851 37.6421 27.0371 297.31 685.012 88.1342 122.208 47.6345 1490.38 234.872 885.3 288.835 91.0185 81.0063 1255.5 239.295 154.052 127.664 79.3721 48.2922 85.2429 46.3746 26.3881 54.0971 40.5535 32.9974 1303.17 26.1258 31.1458 350.356 70.2016 73.1819 77.1401
internal_count=54493 18046 36447 4516 13530 20551 15896 2793 1723 7308 5580 163 1714 1560 1103 3866 1686 1728 1690 3838 432 3406 2349 1057 697 2309 1036 360 1273 1189 405 69 84 916 10486 208 336 120 6222 891 10065 882 297 257 5331 578 385 314 199 115 193 105 71 131 103 94 7507 74 62 682 152 289 171
cat_boundaries=0 1
cat_threshold=2
is_linear=0
shrinkage=0.05


Tree=4
num_leaves=64
num_cat=0
split_feature=2 2 2 2 2 2 2 7 7 0 0 0 3 7 9 2 8 9 11 11 9 9 7 8 7 11 11 0 5 0 2 4 9 7 4 11 2 6 10 10 0 9 4 4 11 2 3 10 6 10 9 8 2 3 4 11 5 10 8 9 8 7 3
split_gain=2377.72 452.77 418.705 125.827 82.0654 64.1273 45.8716 25.1307 22.3912 16.4185 11.8351 10.7686 9.43335 11.3056 10.1078 9.39762 8.73884 12.0721 10.9265 11.1354 9.15833 8.71504 9.13444 7.63092 7.79496 7.56718 11.4497 8.44232 7.84258 8.21962 7.56576 7.30444 7.30227 7.16861 11.1689 13.5359 9.68331 7.29058 7.20295 7.7507 9.52378 16.3544 13.6256 9.68664 7.11685 7.03249 6.89483 6.82841 10.2253 6.9547 6.69707 8.04485 9.50152 6.56703 7.66173 6.38448 6.16404 6.15753 6.49658 6.13877 6.13317 6.01691 7.64448
threshold=0.086665175596339392 0.21197454771504073 0.036991780102050918 0.30919470139646249 0.12256804518948609 0.016683773093390624 0.062192239453034488 8.5000000000000018 12.500000000000002 1.6500000000000001 5.6500000000000012 3.1500000000000008 3.5000000000000004 12.500000000000002 0.35721414314228689 0.40553391617062245 0.060526696846373108 0.26667856717838873 0.10488929429866295 0.046258594425460091 0.19955009831715942 0.22160938208998912 10.500000000000002 0.10528955286913373 9.5000000000000018 0.076501060122666567 0.07192926619540578 7.6500000000000012 4.5000000000000009 7.4500000000000011 0.0091842781799593032 126.50000000000001 0.33674339390159075 10.500000000000002 116.50000000000001 0.10655102815655346 0.134252185673359 0.55055000000000009 4276.5000000000009 3741.5000000000005 5.7500000000000009 0.46386048395261725 125.50000000000001 122.50000000000001 0.070204143782189657 0.026163436746457363 2.5000000000000004 1379.5000000000002 0.45800000000000007 3236.5000000000005 0.18519438008017949 0.034885925690751475 0.13083262323316758 1.5000000000000002 127.50000000000001 0.050479129499422827 8.5000000000000018 156.50000000000003 0.10528955286913373 0.22039523752303133 0.058835981471335362 13.500000000000002 2.5000000000000004
decision_type=2 2 2 2 2 2 2 2 2 2 2 2 2 2 2 2 2 2 2 2 2 2 2 2 2 2 2 2 2 2 2 2 2 2 2 2 2 2 2 2 2 2 2 2 2 2 2 2 2 2 2 2 2 2 2 2 2 2 2 2 2 2 2
left_child=2 4 5 8 12 30 -4 9 23 -5 16 -10 13 14 25 -9 56 18 19 -18 -20 22 -21 -3 -25 26 27 28 29 -2 -1 -8 -27 34 35 36 -12 60 39 40 41 42 -35 46 -23 -7 -42 48 57 -49 51 -48 -53 54 -11 -26 -6 -33 -59 61 -36 62 -24
right_child=1 3 6 7 10 45 31 15 11 53 33 -13 -14 -15 -16 -17 17 -19 20 21 -22 44 59 24 55 32 -28 -29 -30 -31 -32 47 -34 38 37 -37 -38 -39 -40 -41 43 -43 -44 -45 -46 -47 50 49 -50 -51 -52 52 -54 -55 -56 -57 -58 58 -60 -61 -62 -63 -64
leaf_value=-0.069698045335547396 -0.020127533051783109 0.029038083924048511 -0.025708121682013557 0.065410689548214163 0.021472889026496751 -0.047553133277926693 -0.009206814983612031 0.05218627408287585 0.04541747384895703 0.018633451497646284 -0.049247286722005734 0.030844314513696659 -0.0033830603260135484 0.013093785621806121 -0.020312013992101849 0.064187721328212752 0.04719315114198009 0.01752103610703418 0.052016957432497735 -0.042858496497371834 0.012525757012317534 0.0087462131024032969 0.029814148162448529 0.0018089349125005546 0.045189546396309982 0.0070781513222416964 -0.056409634708997028 -0.026783513861433947 0.033822166798169399 0.049566637716187939 -0.058755828635444152 -0.037908778186808906 0.060885454785234022 -0.016655621179819172 0.032455048971104968 0.060501436114156232 0.021240415847380182 -0.049540177141558117 -0.034964279905568635 0.036875017065816244 0.028411396311391574 -0.066036850858850346 0.03376717116736512 0.0055549149263359014 -0.019196502982134711 -0.038339843073005864 0.016328737510758345 -0.0037158408317377063 -0.0341404488882864 -0.05027817696561835 0.016121616650935706 0.0031767266700628246 -0.079825144065004294 0.048083476787863559 -0.024960170824392579 0.020125786853934267 0.041073171962784497 -0.010176568400738262 0.035323054905536923 0.045835953841711657 -0.021388011004310162 -0.012455600440866268 -0.019060904877660378
leaf_weight=305.62732534296811 22.718830615282062 354.78841445595026 989.43338437005877 21.310252383351326 290.4097943380475 410.26428439281881 962.18409051187336 473.58015894144773 207.04998471587896 37.281804367899895 8.2263381406664902 326.90683933347464 888.06512833014131 239.79911431670189 57.494675286114216 248.81102680414915 11.993800133466719 1183.4311796277761 19.24514926970005 7.675732694566249 61.903901167213917 31.410146310925484 35.448651574552059 55.675280071794987 27.067430317401886 155.44028025865555 11.173866257071493 23.124770112335682 20.080853149294853 5.1986263468861571 326.98458685539663 16.775232598185539 6.572032392024993 34.172693736851215 7.3755645155906704 11.483552642166613 11.950340017676352 15.405189495533703 8.3677670285105687 29.353130422532558 107.45877076685429 10.084261171519755 22.038883872330189 289.81503376737237 83.00492138415575 418.28861660230905 14.644320800900461 92.506233207881451 106.1640687957406 8.7807511836290342 248.27545487135649 7.1466675698757154 6.6620272174477577 11.904962778091429 13.81354635953903 414.48260739445686 46.541030824184418 58.29884747415781 9.0652006231248361 12.905520088970659 18.694246277213097 23.23809240013361 10.332346774637697
leaf_count=5317 93 671 8389 54 717 5372 5667 1023 421 71 36 682 4128 931 249 537 25 3079 40 27 169 87 77 138 45 571 53 109 58 14 5169 117 16 111 21 31 37 68 37 73 274 42 54 940 238 4693 38 542 704 61 721 20 29 16 22 836 105 373 43 26 75 74 37
internal_value=0.000553616 0.0192668 -0.0312264 0.0376053 0.00945539 -0.0520546 -0.0176595 0.053305 0.0284674 0.0274728 0.014634 0.0364953 -0.000211276 0.00498949 -0.0014498 0.0563199 0.0169126 0.0152587 0.00624872 0.000372162 0.0218914 -0.00238038 0.00929739 0.0234363 0.0194392 0.00298915 -0.0093575 -0.00196533 0.00999165 -0.00714949 -0.0640422 -0.0113077 0.00926085 0.00976831 -0.00519801 0.0171659 -0.00749849 -0.0222697 0.0111752 0.0116768 0.0106777 -0.00740483 0.00311365 0.0124563 -0.0115254 -0.0429019 0.0176624 -0.0182403 -0.0238224 -0.00775241 0.0134884 -0.00948831 -0.0368677 0.0146401 0.00684799 0.0216622 0.0241802 -0.0108035 -0.00405367 0.014184 -0.00615495 0.00826558 0.0187835
internal_weight=9995.41 6291.03 3704.37 2192.67 4098.36 1461.16 2243.21 806.702 1385.97 84.3106 2668.69 533.957 1429.67 541.603 301.804 722.391 1817.54 1480.59 297.158 216.009 81.1491 204.015 89.6003 852.014 497.225 244.309 82.2969 71.1231 47.9983 27.9175 632.612 1253.77 162.012 851.154 73.1352 31.6602 20.1767 41.475 778.019 769.651 740.298 66.2958 56.2116 674.002 114.415 828.553 384.187 291.59 190.303 101.287 276.728 28.453 13.8087 63.0003 51.0954 441.55 336.951 84.1393 67.364 81.9246 26.0698 69.0191 45.781
internal_count=54493 18046 36447 4516 13530 20551 15896 1723 2793 163 7308 1103 6222 2094 1163 1560 4701 3879 800 591 209 566 241 1690 1019 914 327 274 165 107 10486 7507 587 2607 268 104 73 164 2339 2302 2229 207 165 2022 325 10065 1082 1840 1237 603 808 87 49 109 93 881 822 533 416 214 96 188 114
is_linear=0
shrinkage=0.05


Tree=5
num_leaves=64
num_cat=2
split_feature=2 2 0 0 2 2 2 2 4 12 2 12 10 2 2 12 8 10 10 25 11 11 0 12 12 8 11 11 12 12 11 9 2 12 11 3 9 4 0 10 25 9 11 12 4 4 8 9 8 12 11 11 9 8 12 10 10 0 9 8 11 11 2
split_gain=2132.04 403.196 331.492 100.228 61.2963 53.0572 40.3728 16.5306 10.3578 10.5492 10.2299 11.498 8.46083 8.45178 8.36471 8.08527 8.08814 14.3241 12.3829 7.48477 8.92539 7.26292 10.5753 10.0881 7.84832 7.02396 13.57 9.0137 8.58742 7.23945 7.67129 8.49342 7.44721 6.66143 8.09677 6.65731 6.55432 6.49325 6.34154 6.31659 8.59458 6.20488 6.19383 6.13098 5.96266 8.33496 14.7722 8.74992 8.50757 6.95379 8.41774 8.338 6.95262 6.5433 6.18253 7.11937 6.50777 5.77923 7.16777 6.55236 5.7644 10.5954 5.56638
threshold=0.086665175596339392 0.25356790350055325 26.500000000000004 5.6500000000000012 0.32423003784400167 0.058162414894410944 0.016683773093390624 0.11494205979980469 122.50000000000001 0.19072644379482651 0.21197454771504073 0.3384571628598933 381.50000000000006 0.50903292300129876 0.04517778241693219 0.27848486952228885 0.19247931702748847 777.50000000000011 1646.5000000000002 0 0.1156604821171502 0.091670557688768237 6.2500000000000009 0.27948360831369196 0.24445060359694507 0.11052704294585596 0.026030491247882554 0.059946226844657745 0.16180720843250598 0.20248511536197578 0.06431304133606193 0.1990507246988987 0.18827291589259823 0.34756793076358566 0.13073043755776151 3.5000000000000004 0.12235781945773617 126.50000000000001 75.500000000000014 162.50000000000003 1 0.28880454415382656 0.09590883020283604 0.28946996834078992 127.50000000000001 120.50000000000001 0.13336129753914991 0.3283956510203439 0.19247931702748847 0.25130765691261153 0.093479712722332839 0.096891045546390511 0.30772042285200185 0.060837039858323602 0.28673668106371114 2194.5000000000005 2082.5000000000005 6.9500000000000011 0.21899948589176538 0.074868292218835106 0.062795106548233184 0.063910810083058892 0.2269623735008463
decision_type=2 2 2 2 2 2 2 2 2 2 2 2 2 2 2 2 2 2 2 1 2 2 2 2 2 2 2 2 2 2 2 2 2 2 2 2 2 2 2 2 1 2 2 2 2 2 2 2 2 2 2 2 2 2 2 2 2 2 2 2 2 2 2
left_child=2 3 5 10 15 14 38 -5 21 -10 25 19 -13 -6 -1 39 -17 37 -19 20 -12 57 23 -23 -24 26 -2 -28 -27 30 31 -29 -32 34 -14 36 -31 -18 -4 40 -3 -26 -25 -20 45 46 47 49 -48 -21 -51 -52 53 -46 55 -54 -56 -9 -59 -60 -30 -62 -55
right_child=1 4 6 7 13 -7 -8 8 9 -11 11 12 33 -15 -16 16 17 18 43 44 -22 22 24 42 41 28 27 29 60 35 32 -33 -34 -35 -36 -37 -38 -39 -40 -41 -42 -43 -44 -45 52 -47 48 -49 -50 50 51 -53 54 62 56 -57 -58 58 59 -61 61 -63 -64
leaf_value=-0.032413951732453629 -0.032022724590042698 -0.0088665715912016902 -0.055243688742499776 -0.0011316405247640796 0.050853782357822154 -0.013047336986136894 -0.043031115577214112 0.019034997836797209 -0.030600052985164567 0.0037184774698268645 0.027420019044383643 0.036980855669247019 -0.024127424415787926 0.067207372940759444 -0.023571440771984118 0.033001497861586092 0.060530744173894847 -0.041420788811339607 -0.0081622535114261301 0.041504034506740659 0.054001230429468555 -0.033094906524020723 -0.035572068451643873 -0.031313501335190744 0.02471477792554767 0.058457338579453177 0.032717449736402747 0.060276640809713566 0.0016749068060680173 -0.01701832449524086 -0.050987823577154284 -0.0058539151147395246 0.01692000811346054 -0.026029664479712739 0.039481156934581763 -0.019182245012414209 0.020021422652162245 0.014270990792377453 -0.065774473036527406 0.039022206606161375 0.046517777809106084 0.0034172753506425007 0.0071129074443717563 0.021163620803590542 0.021361462827021147 0.037551106769082028 -0.048056428795243022 0.059160889463990778 0.0046203729839974029 -0.030254479673195368 0.051627847045449864 0.0044716713877377611 -0.0140009209189133 -0.0038179357474026551 0.059296589924037503 0.032216733854608201 0.0061672055864094534 -0.054607864422534458 0.055110197133550753 -0.0099393113748550213 0.061104910329638218 0.012913233472519532 -0.060948055311298925
leaf_weight=554.69329200964421 12.875116184353827 16.542610570788383 236.07434242963791 1069.4576693009585 569.66659484058619 1272.0644825175405 570.42530382238328 297.06369322165847 23.685907118022442 410.09435506537557 311.67926070094109 13.282484300434588 8.6654549017548579 91.727982647716999 516.46350780688226 196.84528487175703 23.325264230370522 11.128033109009264 23.352213844656944 26.867380321025848 35.140995889902115 25.239660367369652 7.4037204682826987 11.958292677998541 96.497771300375462 10.054492145776747 115.76853148639202 7.4172654598951366 116.00173973292112 12.136385194957255 11.621751323342325 14.056991897523401 6.1864684224128714 24.502762854099274 11.836549863219259 11.327154010534285 751.51796836778522 11.241640552878378 362.4466794943437 337.51228801161051 12.149033427238466 52.973103929311037 85.217151567339897 75.264867961406708 8.8727539256215113 72.696923777461052 9.5690455585718137 18.296524107456207 38.519032128155231 10.317173257470129 14.029115930199621 28.250350244343281 21.130958691239357 8.7762164846062678 13.917700290679933 13.756929598748682 9.8378439247608167 5.8279873803257969 5.4419594183564213 13.412334099411963 11.61112631857395 643.93353138118982 8.2921616435050947
leaf_count=5584 43 43 3931 5081 1317 8273 7562 956 111 1480 687 32 21 218 4487 423 43 38 60 51 71 99 33 43 312 20 277 15 334 36 47 47 16 69 24 41 1968 24 6691 688 21 199 276 166 20 144 24 30 89 23 25 61 53 21 24 26 19 34 15 60 25 1758 21
internal_value=4.80198e-05 0.0183939 -0.0308009 0.0112182 0.0421794 -0.0199514 -0.0525494 0.00322763 0.00773282 0.00184457 0.0181298 0.0231892 0.00191542 0.0531218 -0.0281505 0.031948 0.0264097 0.0174183 0.0085775 0.025097 0.0301133 0.0119825 0.00608315 -0.00493092 0.0146778 0.0160519 0.0189572 0.019663 0.0125471 0.0178069 -0.00313354 0.0169878 -0.0273971 -0.00843362 0.0125961 0.0188684 0.0194328 0.0454864 -0.0616208 0.0371076 0.0145851 0.0171669 0.0023842 0.0142193 0.0193578 0.0237204 0.0168266 0.027987 -0.00586178 0.0208092 0.0102379 0.020119 0.00808577 -0.0134675 0.01762 0.00422354 0.0372942 0.0171034 -0.00614432 0.00883608 0.0119488 0.0137668 -0.0315729
internal_weight=9417.94 5905.78 3512.17 4537.02 1368.76 2343.22 1168.95 2104.27 1034.82 433.78 2432.75 708.238 58.2873 661.395 1071.16 707.361 341.157 144.312 109.745 649.95 346.82 601.036 279.29 122.415 156.875 1724.51 942.908 930.033 781.601 814.264 39.2825 21.4743 17.8082 45.0048 20.502 774.982 763.654 34.5669 598.521 366.204 28.6916 149.471 97.1754 98.6171 303.13 218.546 145.849 97.7605 48.0881 79.464 52.5966 42.2795 84.5846 25.9411 58.6434 34.8879 23.7555 321.746 24.6823 18.8543 771.546 655.545 17.0684
internal_count=54430 17902 36528 14861 3041 18344 18184 8699 3618 1591 6162 1535 146 1535 10071 1506 754 331 264 1389 758 2027 962 418 544 4627 2490 2447 2137 2170 125 62 63 114 45 2045 2004 67 10622 752 64 511 319 226 631 447 303 190 113 160 109 86 184 62 122 79 43 1065 109 75 2117 1783 42
cat_boundaries=0 1 2
cat_threshold=2 2
is_linear=0
shrinkage=0.05


Tree=6
num_leaves=64
num_cat=0
split_feature=2 2 1 1 2 2 2 2 1 6 9 1 9 7 12 2 12 12 2 9 19 4 7 12 4 12 2 2 9 4 8 12 6 9 12 12 4 9 4 5 4 4 2 8 5 9 7 2 7 12 3 2 7 12 5 6 1 6 3 12 3 5 12
split_gain=1836.35 333.212 291.021 116.425 51.2461 34.7851 22.9345 15.7717 12.3321 9.91127 9.58934 10.5108 11.2548 9.48931 10.2393 10.1629 12.2212 8.43307 8.39389 8.33662 8.30813 7.97993 7.89632 7.36701 7.16189 7.39212 9.03785 7.15164 9.96209 8.06206 7.99563 7.43345 7.27504 6.989 6.98676 8.34952 6.94848 9.09276 6.80516 16.3514 8.16338 6.75157 6.89247 6.638 6.58204 10.9595 6.45919 7.13407 6.20313 6.11328 9.59787 6.01676 5.76007 6.27385 5.74368 11.1378 5.73511 8.53894 5.73102 5.67498 5.61628 6.21562 5.60758
threshold=0.086665175596339392 0.2926425404272055 0.037749500000000012 0.17700500000000005 0.058297656839634726 0.016683773093390624 0.2165100618478801 0.10785636914476814 0.46536750000000005 0.20715000000000003 0.23215053433239163 0.21507850000000003 0.26667856717838873 12.500000000000002 0.1517549261083744 0.25356790350055325 0.20663386207563597 0.23203654204725155 0.04517778241693219 0.50214724007197875 1.0250000000000001 133.50000000000003 11.500000000000002 0.1941472188384426 126.50000000000001 0.28061690855501253 0.20329261140719904 0.26846542981198995 0.2906263257648915 120.50000000000001 0.22227836730110609 0.35597196679755461 0.90455000000000008 0.32543195763500304 0.31960453831434732 0.28990090902437876 128.50000000000003 0.47107212458046127 122.50000000000001 1.5000000000000002 131.50000000000003 118.50000000000001 0.24652549395969856 0.093415688881864717 8.5000000000000018 0.48753141011500561 8.5000000000000018 0.50903292300129876 9.5000000000000018 0.28697054214010276 1.5000000000000002 0.14627004066245142 11.500000000000002 0.22224172908863923 9.5000000000000018 0.79285000000000017 0.2740240000000001 0.30385000000000001 4.5000000000000009 0.32212211807800051 9.5000000000000018 3.5000000000000004 0.16180720843250598
decision_type=2 2 2 2 2 2 2 2 2 2 2 2 2 2 2 2 2 2 2 2 2 2 2 2 2 2 2 2 2 2 2 2 2 2 2 2 2 2 2 2 2 2 2 2 2 2 2 2 2 2 2 2 2 2 2 2 2 2 2 2 2 2 2
left_child=2 3 5 7 18 -1 9 54 22 10 17 12 59 14 -8 16 23 52 -4 48 38 27 -3 -15 25 33 49 29 34 30 -16 -31 -30 43 35 -29 41 -38 -9 40 -40 42 -18 -13 51 -46 47 -10 -14 -27 -51 -11 -5 -54 -2 -56 -43 -58 -20 -12 -60 -62 -6
right_child=1 8 4 6 62 -7 13 20 46 44 11 24 19 15 21 -17 36 -19 58 -21 -22 -23 -24 -25 -26 26 -28 28 32 31 -32 -33 -34 -35 -36 -37 37 -39 39 -41 -42 56 -44 -45 45 -47 -48 -49 -50 50 -52 -53 53 -55 55 -57 57 -59 60 -61 61 -63 -64
leaf_value=-0.05904970409248661 -0.003986792335388515 0.029571110537824099 -0.031692315624332203 -0.026402686883250367 0.010336337892010711 -0.041301379650964233 -0.049513525772160956 0.0096374169399110962 0.019683775293439509 0.030249881739036366 -0.029228337180601596 0.012438079162471444 -0.027146617403659354 0.013213616312242433 0.020814797759560501 0.039063080723391853 0.028619287839144716 0.034034496052536604 -0.0034621405668801074 -0.041802836298898909 0.050046157662356927 -0.015958935794968092 0.045436950361259824 -0.040467944986922272 0.038400709739252414 0.063143114628807478 0.0032755639302191777 0.033223912463305971 0.0014100676648704153 0.033445678601616811 -0.023377079287109918 -0.010748439561432904 0.045635557205420556 0.0037764963831149103 0.069521262320292876 -0.024182233895407062 -0.01092273495716577 0.033877439190396146 0.034457542659700087 -0.0012831485955418463 -0.015041032668192185 0.069245734165522613 -0.015108155462220399 0.046873954304802651 0.023367037808710391 -0.0021394872131447295 0.057133122968373973 0.06127438620935332 0.015742655576925921 0.052202421841004355 0.015352183365860694 0.0081271287314307536 0.024416921146524665 -0.023819747588574129 0.030454945385729522 -0.0018382460891626915 0.058371119700161546 0.019063496572609601 -0.024968348973863966 0.024267269273232018 -0.053601863417652031 0.031665207006390458 -0.012510699915470323
leaf_weight=563.78578787483275 672.27220380492508 100.46924440562725 515.90618521627039 8.0273454785346967 27.483471896499395 540.96371563058347 5.0990988835692397 713.45334436371922 25.680013954639435 32.327025204896927 26.07931937277317 37.422381699085236 8.7673526704311353 15.805709041655065 219.94446523487568 193.33244111388922 60.953069485723972 167.41006083786488 36.179723044857383 6.8711071871221057 11.049837395548819 13.839048609137533 357.37247579544783 10.729914113879202 55.276870064437389 16.689946629106998 27.913606598973274 34.936921939253807 105.28000614792109 241.37800227850676 10.735048271715639 9.9052982628345472 10.199771285057066 101.79917169362307 9.8568475246429426 7.7367824465036383 23.515568964183331 21.849588677287102 50.891047194600105 443.69547622278333 9.9597775638103467 16.953358888626099 10.575206123292444 22.353814955800772 219.47452332079411 52.114241026341915 297.71039674431086 17.227668739855289 219.42591301724315 28.884575121104717 45.510682225227356 623.82692547515035 55.527624666690826 7.6723302453756324 37.557737857103348 92.36129417270422 24.35513711720705 31.929074995219707 461.2333356551826 6.1211737990379325 2.8436410445719948 8.6042130216956121 1178.0522192176431
leaf_count=10622 3434 255 5584 26 157 7562 15 2618 54 92 102 94 28 40 475 435 148 403 207 25 35 30 840 30 119 34 75 71 246 507 29 28 19 269 16 24 66 46 161 1815 39 31 29 41 608 161 747 54 644 45 128 1754 147 29 148 449 47 79 4390 18 39 64 7903
internal_value=7.54387e-05 0.0173719 -0.0293728 0.0124723 -0.0189776 -0.0503589 0.0189943 0.0033266 0.047315 0.015491 0.0194195 0.0160626 0.00866332 0.0247401 0.0210689 0.0307295 0.0232934 0.0279036 -0.0271981 0.0124609 0.00688605 0.0216111 0.0419553 -0.008493 0.0219508 0.01871 0.0281668 0.022411 0.0135279 0.0255076 0.0187583 0.0317036 0.00531629 0.0117451 0.0315799 0.0228161 0.0277297 0.0106547 0.0064945 0.00205025 0.0263558 0.0330805 0.0221543 0.0253157 0.0119266 0.0184727 0.0545192 0.0363826 0.0140948 0.0357949 0.0296596 0.00921706 0.0134937 0.0185611 -0.00212689 0.00749725 0.0437516 0.0360726 -0.0226417 -0.0190591 -0.0241097 0.0104849 -0.0119898
internal_weight=9013.16 5678.11 3335.05 4879.65 2230.3 1104.75 2848.41 2031.24 798.46 1769.5 841.753 603.116 267.265 1078.91 668.911 409.999 216.667 238.637 1024.77 235.064 1229.05 663.812 457.842 26.5356 335.851 280.574 118.999 649.973 168.01 481.963 230.68 251.283 115.48 161.575 52.5306 42.6737 190.131 45.3652 1218 504.546 60.8508 144.766 71.5283 59.7762 927.743 271.589 340.618 42.9077 228.193 91.0852 74.3953 656.154 71.2273 63.2 802.191 129.919 73.2376 56.2842 508.861 32.2005 472.681 11.4479 1205.54
internal_count=54430 17902 36528 15952 18344 18184 7253 8699 1950 4842 2227 1622 817 2411 1460 951 516 605 10284 697 4668 1445 1095 70 805 686 282 1415 376 1039 504 535 265 404 111 95 446 112 4633 2015 200 334 177 135 2615 769 855 108 672 207 173 1846 202 176 4031 597 157 126 4700 120 4493 103 8060
is_linear=0
shrinkage=0.05


Tree=7
num_leaves=64
num_cat=1
split_feature=2 2 1 1 2 2 2 2 1 19 6 11 9 8 1 10 5 9 12 12 10 12 11 10 10 12 12 3 12 9 9 9 1 8 10 8 9 3 8 10 10 10 2 8 12 11 11 3 9 11 12 9 9 10 9 10 10 9 25 10 12 12 2
split_gain=1593.7 291.079 252.602 96.4927 43.6665 31.5454 21.7776 13.1834 11.4691 8.43548 8.2713 8.5696 8.18184 13.683 7.79443 7.41838 7.19386 7.47709 6.92507 17.0628 8.49334 7.47832 8.23758 7.90029 7.3354 6.85096 6.76169 6.67374 6.55105 6.34125 11.0286 8.21459 7.10737 9.78242 9.14029 6.40924 6.33222 6.68005 6.32081 9.30803 9.38474 7.45353 6.65901 10.5607 6.72227 7.65038 6.08867 6.07557 7.09635 9.7074 6.05644 6.957 5.97038 5.86009 5.85029 5.61422 10.5327 6.3273 7.11999 5.9846 5.61398 5.57955 5.38161
threshold=0.086665175596339392 0.2926425404272055 0.037749500000000012 0.17392650000000004 0.058297656839634726 0.014344437390576037 0.21197454771504073 0.11494205979980469 0.46536750000000005 1.0250000000000001 0.20715000000000003 0.094532305395610874 0.32543195763500304 0.090153388515686841 0.05409400000000001 52.500000000000007 9.5000000000000018 0.28200454105301276 0.26318186175822073 0.27445523142986916 1709.5000000000002 0.2361155427923137 0.056163315025751719 596.50000000000011 77.500000000000014 0.28990090902437876 0.18941112252761369 4.5000000000000009 0.24801896101274909 0.23215053433239163 0.17405323106981777 0.24338865496568327 0.21507850000000003 0.090925826750569025 3026.5000000000005 0.046747035985483597 0.28985696644620718 4.5000000000000009 0.093415688881864717 1153.5000000000002 1625.5000000000002 7.5000000000000009 0.097061763572183754 0.065776291341508739 0.1941472188384426 0.063700544261107342 0.048350977699686493 3.5000000000000004 0.19672443047134269 0.10125067199708022 0.2857318963088194 0.26771502757865728 0.27320382550565597 676.50000000000011 0.28106982230162064 721.50000000000011 1351.5000000000002 0.21951748584730971 0 516.50000000000011 0.21435950799114173 0.26318186175822073 0.1485100234440708
decision_type=2 2 2 2 2 2 2 2 2 2 2 2 2 2 2 2 2 2 2 2 2 2 2 2 2 2 2 2 2 2 2 2 2 2 2 2 2 2 2 2 2 2 2 2 2 2 2 2 2 2 2 2 2 2 2 2 2 2 1 2 2 2 2
left_child=2 3 5 7 14 -1 10 16 -3 -9 11 12 13 18 -4 -14 38 26 20 -20 21 22 23 -5 -24 53 -18 -16 -28 30 -13 -31 54 -34 -35 -32 -19 -38 39 41 -41 -2 44 -44 -43 -46 -10 -47 49 -49 -30 -52 -15 -21 62 59 -57 58 -58 -37 -39 -45 -33
right_child=1 8 4 6 -6 -7 -8 9 46 -11 -12 29 15 52 27 -17 17 36 19 25 -22 -23 24 -25 -26 -27 28 -29 50 31 35 32 33 34 -36 55 37 60 -40 40 -42 42 43 61 45 47 -48 48 -50 -51 51 -53 -54 -55 -56 56 57 -59 -60 -61 -62 -63 -64
leaf_value=-0.057997976604622706 -0.058357957803597593 0.040153554781977206 -0.030683881021732098 0.0025828853137740953 -0.011616834894157737 -0.040500782073514881 0.023190538062961369 0.0070474082642315253 0.0092596678899283906 0.052005996434768102 0.010879262459356607 -0.022048828695272447 0.040635175123596733 0.064464923176497477 -0.0010685740735027799 0.0023445615487659817 -0.057294098932757886 0.05953431012845696 -0.072773976876981547 0.058388557087633991 0.035430715722120434 0.031380225703961748 0.047639829859743563 0.057463262478303481 -0.017090054269675786 -0.029109926223764002 0.017667462753879905 -0.023288517593360411 -0.039593178669774416 -0.02449098354877479 0.075086761503233637 0.026588161201841855 0.057715413550459817 0.012154125182258039 0.042780000822780405 0.030854403764797474 0.023878234762364763 -0.056817566441425188 -0.0088073464439689352 -0.0225888645334178 -0.00030124038235778328 -0.030833895855218105 0.0019845581883041834 0.010912575782210526 0.027516620352038348 0.020106187041399225 0.053786449176468965 0.032132181554048234 -0.021592631974703111 -0.040194735679965177 0.015457917880817837 -0.048681457034253028 0.029803309663077211 0.0040319614552877716 0.017923430714492174 0.063905306152547789 0.028268797269711061 0.048262493843113208 -0.026712727342707156 -0.029676096657665692 0.0045434535223488042 0.035758187698596504 -0.023972991795681482
leaf_weight=452.04727842565626 4.5200215801596633 431.54557209461927 457.97039328422397 17.630495682358745 1173.6411183271557 598.84202381037176 1116.5460728406906 889.8443836197257 7.8730955347418776 10.557143360376356 891.06643989682198 8.2024915963411313 13.650073565542696 16.864975638687611 36.347609885036945 172.52006611227989 5.2212686240673056 8.6965180113911611 7.836347058415412 8.2222255095839554 43.766197733581066 28.107608906924725 4.845050871372222 10.441304408013819 45.284272342920303 7.9027022272348395 33.913228061050177 480.76296145282686 13.413281567394732 10.305078007280825 10.566442266106604 7.4771238714456585 24.390550650656223 71.022368393838406 37.083005994558334 11.091458454728128 54.387838650494814 4.7698823958635357 277.47851423919201 71.581013035029173 138.85089154914021 18.015250012278557 118.39244317635894 40.980364669114351 23.440573567524552 19.846234697848558 309.03517040982842 16.594427272677425 50.347944963723421 6.4394302293658248 20.053726226091388 5.35720171034336 47.174220338463783 12.491067513823507 100.47206549346447 28.148330107331276 16.757888771593571 16.950095109641552 9.0779953598976153 6.4628001675009719 17.058298379182816 50.370613798499107 17.771082580089569
leaf_count=9117 29 1095 5288 48 8060 9067 2627 3346 22 26 2633 26 34 33 221 521 30 23 26 19 116 73 10 21 156 25 155 4775 86 39 17 19 47 190 82 33 219 28 1462 423 699 109 598 197 111 85 833 70 310 42 98 30 114 43 297 50 41 39 29 22 81 196 69
internal_value=8.98237e-05 0.0164886 -0.0279386 0.0118952 -0.0181137 -0.0480273 0.0177632 0.00318605 0.0454576 0.00757454 0.0142061 0.0178546 0.0130915 0.0189905 -0.0259336 0.00515205 -0.000766433 0.00884777 0.0121443 -0.00740369 0.0168924 0.00926038 0.0013099 0.0229956 -0.0108338 0.0104976 -0.00233289 -0.0217267 0.00161236 0.0233904 0.0336674 0.0192854 0.0210324 0.0291129 0.0226596 0.0382811 0.0191128 0.0145006 -0.00263757 0.000422926 -0.00788265 0.00543159 0.00626871 0.0118398 -0.00240714 0.00198234 0.0526803 -0.00443781 -0.0110758 0.0119122 -0.0124119 0.00193588 0.0389316 0.025609 0.0125165 0.0338862 0.0401514 0.0245239 0.00894985 0.00856941 -0.00886512 0.0246124 -0.00899957
internal_weight=8668.32 5468.71 3199.61 4720.26 2148.72 1050.89 2820.13 1900.13 748.454 900.402 1703.58 812.515 436.737 250.566 975.081 186.17 999.729 162.871 186.527 36.4523 150.075 106.309 78.2011 28.0718 50.1293 28.616 77.9587 517.111 72.7374 375.779 107.258 268.521 258.216 132.496 108.105 99.055 84.9125 76.216 836.858 559.379 210.432 348.947 344.427 209.743 134.684 116.669 316.908 93.228 73.3818 23.0339 38.8242 25.4109 64.0392 20.7133 125.72 88.4886 70.9343 42.786 25.8359 17.5543 21.8282 91.351 25.2482
internal_count=54430 17902 36528 15952 18344 18184 7499 8453 1950 3372 4872 2239 1239 684 10284 555 5081 750 537 113 424 308 235 69 166 87 399 4996 369 1000 257 743 704 319 272 231 351 328 4331 2869 1122 1747 1718 991 727 618 855 507 422 112 214 128 147 62 385 214 159 109 70 55 109 393 88
cat_boundaries=0 1
cat_threshold=2
is_linear=0
shrinkage=0.05


Tree=8
num_leaves=64
num_cat=0
split_feature=2 2 2 0 2 2 2 0 6 2 4 5 12 9 9 11 9 12 9 10 12 12 12 11 4 0 11 12 0 11 12 11 10 9 4 10 12 12 6 10 11 11 4 6 10 2 11 9 5 12 11 11 11 12 10 3 2 10 5 11 12 6 6
split_gain=1403 252.54 224.962 80.5096 43.0735 27.6026 16.8749 10.2493 9.88101 9.22953 8.52395 9.846 12.8917 9.37849 8.68281 10.0064 7.74127 6.9123 8.61273 10.3993 10.6062 8.78918 9.7792 7.43909 7.36797 7.18479 7.628 7.93077 8.9227 6.82367 10.5514 9.13019 7.89033 7.35227 6.84808 6.79487 6.78631 7.9511 6.78238 6.72501 6.59426 9.80858 6.81772 6.38845 8.61043 6.0342 5.99903 5.86021 7.09595 8.88615 5.80162 7.88229 5.72282 5.67865 6.67375 6.24208 5.66862 12.7451 5.53485 5.51237 7.85201 5.49991 6.42632
threshold=0.086665175596339392 0.2926425404272055 0.036991780102050918 5.7500000000000009 0.016683773093390624 0.058297656839634726 0.21197454771504073 2.1500000000000008 0.20715000000000003 0.11978366139089028 122.50000000000001 1.5000000000000002 0.22182684589556037 0.2871732232700428 0.16716433874978834 0.12000659413122322 0.32543195763500304 0.28378832766862361 0.4867640779625258 1772.5000000000002 0.21189355943840543 0.26947127095281931 0.25635348573217992 0.11041338065194532 131.50000000000003 2.9500000000000006 0.15564889521319245 0.34756793076358566 3.3500000000000001 0.059490728233154003 0.18807480419300457 0.057313441111471963 2768.5000000000005 0.45422194385924958 117.50000000000001 2830.5000000000005 0.22728151245739189 0.24951690776158864 0.85165000000000013 248.50000000000003 0.079883080567910672 0.070425065665281686 130.50000000000003 0.16025000000000003 1165.5000000000002 0.23312335314425764 0.07509542123741679 0.30526763336913715 8.5000000000000018 0.33153879363699218 0.096213091633672351 0.097267484345150937 0.047192127575255233 0.16180720843250598 685.50000000000011 5.5000000000000009 0.1485100234440708 694.50000000000011 3.5000000000000004 0.11706319142272897 0.28721612001881675 0.40835000000000005 0.27920000000000006
decision_type=2 2 2 2 2 2 2 2 2 2 2 2 2 2 2 2 2 2 2 2 2 2 2 2 2 2 2 2 2 2 2 2 2 2 2 2 2 2 2 2 2 2 2 2 2 2 2 2 2 2 2 2 2 2 2 2 2 2 2 2 2 2 2
left_child=2 3 4 6 -1 -4 8 -3 16 -5 -11 -12 13 -13 -14 36 -2 18 23 39 -21 22 35 29 25 47 27 -27 -29 30 -8 33 34 52 -31 -22 -16 61 43 -20 41 -36 46 -26 -45 -46 -43 -19 49 -49 56 -52 -32 54 -7 -55 57 -18 -30 60 -39 62 -38
right_child=1 7 5 9 -6 53 17 -9 -10 10 11 12 14 -15 15 -17 50 24 19 20 21 -23 -24 -25 38 26 -28 28 58 32 31 -33 -34 -35 40 -37 37 59 -40 -41 -42 42 -44 44 45 -47 -48 48 -50 -51 51 -53 -54 55 -56 -57 -58 -59 -60 -61 -62 -63 -64
leaf_value=-0.054721011838140238 0.022156900346296783 0.050713201226019293 -0.023446775550129001 0.00049592860219300247 -0.035505367098930055 -0.0063303128114361026 0.037123023448021146 0.038503873268197028 0.010081148520725662 0.012173524888242415 0.02466250283105428 -0.041218588026531271 0.041747893648112933 -0.0024935352079266705 0.036695525538316794 -0.028650726909768883 0.037248936081726393 0.023786682499007793 -0.0064932114910813358 -0.041553963489105235 0.031964791408654228 -0.032467176595123534 0.059018969977469499 -0.005726684876508909 0.027111592522174162 0.023016772625566419 0.048780204906989248 0.023476936375249169 -0.0010120291102660483 0.018829726569813309 -0.041564698444063089 -0.045194706876641483 0.047374978639731079 0.042467249522834524 0.040013774958665892 -0.022339924861495199 -0.036505535881672678 0.017671474261667274 0.039044498303284672 0.031352934234603488 0.043903704013722969 0.017583779473096573 0.03777550381937142 -0.049745467736678706 -0.034984204009943287 0.016433180732004289 -0.026068447963136829 -0.034991010310176721 0.040366649550493044 0.014500106613347358 0.057753800258354616 0.01599285065125149 0.012229952028245367 -0.0085610494530347827 0.046720191283027616 -0.016140887868490671 0.0088894405388958899 -0.055577213517588257 -0.061963199398352237 0.049496735546316839 -0.009640022764326019 -0.050332088370987349 0.040271152053822298
leaf_weight=504.76388828735799 444.10467302054167 296.3589674346149 742.24561508558691 1104.2552216481417 690.69631180725992 17.269197780638937 34.031668767333031 409.27006880939007 871.33774088323116 435.93876137956977 38.504301801323891 31.774320635944605 14.112059429287909 30.780163835734129 15.897553101181982 24.50764187052846 5.7747100442647961 26.326881900429726 13.924508467316626 13.035891398787497 10.699670866131784 9.6517871394753438 11.566207274794577 15.280352599918841 11.00143241882324 286.5079235881567 25.733798481523991 14.691343046724798 7.4614709764718992 107.01466277241707 7.389513552188876 8.9033593386411649 72.351647615432739 12.379991561174391 53.333975650370121 12.478043206036089 5.7746887877583521 54.992424674332142 9.7329097464680654 74.747221320867538 95.9998849183321 15.58483797311783 13.716475434601305 12.757543697953222 8.3242980092763919 18.141979709267616 15.900769829750059 22.019049689173698 6.9619882255792609 15.422470062971113 12.337670184671877 134.25519633665681 14.938391104340552 672.36605327390134 9.0272591449320299 455.69814446941018 169.94818749651313 10.281331516802309 7.4370309561491013 7.3112110346555701 50.468068107962608 11.008311931043862 5.1616168022155762
leaf_count=10622 1232 855 7720 5732 10125 116 74 1095 2633 1522 121 159 41 136 56 124 16 58 36 46 26 28 20 39 29 695 60 36 21 270 23 25 151 25 121 39 27 211 21 175 205 37 28 43 21 43 47 68 16 41 28 394 37 4245 41 3659 518 51 23 23 227 58 16
internal_value=0.000105538 0.0157943 -0.0266317 0.0114903 -0.0436189 -0.0159244 0.0169247 0.0436317 0.0137364 0.00337518 0.00775316 0.00111499 -0.00248597 -0.0221638 0.00401887 0.000978504 0.0178371 0.0217654 0.0252688 0.0146742 -0.00190103 0.00974224 0.0214679 0.0285846 0.0172211 0.0196013 0.0226027 0.0204716 -0.00417257 0.0297457 0.0162574 -2.4939e-05 0.0325466 0.0115621 0.0289888 0.0027291 0.00579972 0.00215378 0.000843329 0.0254098 0.0345773 0.0254909 0.00835534 -0.00655949 -0.0160035 0.000261143 -0.00446134 0.00509569 -0.00598622 -0.0146052 0.012069 0.0195076 -0.00557361 -0.0110876 0.0118813 -0.011623 0.00620652 -0.0221914 -0.0314376 0.00751221 0.00460157 -0.0253828 -0.000269182
internal_weight=8361.67 5269.6 3092.07 4563.97 1195.46 1896.61 2733.49 705.629 1648.04 1830.49 726.231 290.292 251.788 62.5545 189.234 175.122 776.702 1085.45 612.929 146.103 57.4316 44.3957 34.7439 466.826 472.52 412.562 341.832 316.098 29.5898 451.545 77.6429 43.6113 373.902 34.7079 301.551 23.1777 150.614 134.716 59.9582 88.6717 194.536 98.5361 45.2021 50.2253 39.2238 26.4663 31.4856 70.7304 44.4035 37.4415 332.597 146.593 22.3279 1154.36 26.2965 1128.06 186.004 16.056 14.8985 112.772 105.46 21.9446 10.9363
internal_count=54430 17902 36528 15952 20747 15781 7499 1950 4872 8453 2721 1199 1078 295 783 742 2239 2627 1452 370 159 113 85 1082 1175 1018 835 775 80 1043 184 110 859 85 708 65 618 562 157 211 438 233 112 136 107 64 84 183 125 109 1007 422 60 8061 157 7904 585 67 44 461 438 101 43
is_linear=0
shrinkage=0.05


Tree=9
num_leaves=64
num_cat=0
split_feature=2 2 0 0 0 2 2 0 6 0 7 2 11 7 19 9 9 0 11 11 0 9 9 9 9 6 12 9 12 4 2 12 12 9 9 12 9 12 11 9 9 9 12 12 11 11 11 6 6 11 12 4 4 4 6 11 5 9 11 5 12 0 11
split_gain=1231.92 216.733 198.825 65.2181 33.8375 27.6641 13.756 10.0085 9.74176 9.29762 7.40662 7.54159 8.62404 7.04744 6.77558 6.6726 8.04193 7.99675 7.08562 6.6354 6.51774 6.16169 9.64429 6.38446 8.59998 6.36137 8.15873 6.15292 5.48697 5.41082 8.64279 7.72867 7.58698 7.19596 5.35786 5.35772 9.2158 6.96968 5.31729 5.25253 5.1807 4.99078 4.92231 9.12274 5.30687 7.63404 6.49621 4.88246 12.6177 10.7144 8.61869 6.91659 5.37657 7.46553 5.19755 9.77772 7.88599 8.74805 5.19568 5.15991 7.14328 5.13311 4.86183
threshold=0.086665175596339392 0.2926425404272055 26.500000000000004 5.7500000000000009 15.500000000000002 0.016683773093390624 0.21197454771504073 6.8500000000000005 0.21825000000000003 2.1500000000000008 12.500000000000002 0.25356790350055325 0.059719872664223454 11.500000000000002 1.0250000000000001 0.25532496539208732 0.26202484440566409 5.9500000000000011 0.10985276010671045 0.040013342228152109 3.6500000000000008 0.21845023363920299 0.23509651725577357 0.50014116318464164 0.29579569047752657 0.37980000000000008 0.28873361486074162 0.1990507246988987 0.12034482758620692 129.50000000000003 0.12426845737291874 0.22270370867145065 0.277871267642328 0.20575449584047587 0.24671591889559968 0.28061690855501253 0.32907896679669829 0.28255250093542877 0.10941398060185274 0.46778070570397229 0.5036945837711988 0.4941765101001 0.21304419078562983 0.21953634942349035 0.047192127575255233 0.056163315025751719 0.060309932511221999 0.72080000000000011 0.65480000000000016 0.10193479660719294 0.29337669777462588 129.50000000000003 133.50000000000003 122.50000000000001 0.19375000000000003 0.061920156702773343 5.5000000000000009 0.48585658077247257 0.093870663565752813 3.5000000000000004 0.29337669777462588 3.6500000000000008 0.063427244451262507
decision_type=2 2 2 2 2 2 2 2 2 2 2 2 2 2 2 2 2 2 2 2 2 2 2 2 2 2 2 2 2 2 2 2 2 2 2 2 2 2 2 2 2 2 2 2 2 2 2 2 2 2 2 2 2 2 2 2 2 2 2 2 2 2 2
left_child=2 3 4 6 -1 -4 8 14 28 -3 27 12 -12 -11 15 29 -17 18 -18 -10 21 -14 -23 24 -24 26 -26 38 -2 34 -31 -32 -33 -34 -5 36 -30 -37 -8 -27 41 -9 44 -44 -38 -46 -47 48 52 -49 -51 -50 53 -29 -55 -56 57 59 -58 61 -61 -57 -48
right_child=1 9 5 7 -6 -7 10 40 19 13 11 -13 20 -15 -16 16 17 -19 -20 -21 -22 22 23 -25 25 39 -28 47 35 30 31 32 33 -35 -36 37 42 -39 -40 -41 -42 -43 43 -45 45 46 62 49 51 50 -52 -53 -54 54 55 56 58 -59 -60 60 -62 -63 -64
leaf_value=-0.011751676699896789 0.058758069759515676 0.048536304036090584 -0.052614294217756076 0.013704501343847148 -0.025310811849653649 -0.035652380293943624 0.041062775212214485 0.00045835376671014545 -0.024312402992019051 0.02419610428825196 -0.010002991250259545 0.0337735216308096 0.044350930236585158 0.040218943619699826 0.051209833815314049 -0.050082294864233504 -0.0039294539692370798 0.0077110851206034772 -0.04677369076239319 0.0098988419381863743 0.035339851841168203 -0.044803282493562961 0.038011380190641708 0.048836102673820492 0.029245541818004962 -0.042373171940648519 -0.012943957199682363 0.011440638299640152 0.018666816970019425 -0.053610147363877397 -0.037822765782544898 0.045055953644824349 0.026682566616841569 -0.050268840877377353 0.04205919403218529 0.062357432506633892 0.021771392281564446 0.020190726767380741 0.0020276425066024627 0.0042976882881008991 -0.030763951870903083 0.025185558941307102 0.048164712991903641 0.0044264860493667601 -0.066418096955512512 0.030896845997627289 -0.0476707199824567 0.043133358227798228 -0.040289581545688041 -0.03576625216144521 0.022437520831212573 0.015637372782268913 -0.021045743953128707 0.0345330998680419 0.049619625112758671 -0.0097782311719260082 0.0041888056279348737 0.027193349191276802 0.049816281252324596 -0.0057610918653147377 -0.068232925940804476 0.036198290128172807 -2.7073048864489013e-05
leaf_weight=1314.474884968251 7.812350057065486 278.18125290796161 479.75051601417363 260.15490953251719 707.92985416483134 481.79343993030488 43.591511800885201 1030.1288627367467 14.424433395266531 88.825134217739105 21.859578140079975 170.42375878989697 17.358489453792572 301.79326159879565 9.0296096503734571 6.9252738058567038 62.994436774402857 319.16914035193622 11.395852912217377 813.88534053787589 70.532294519245625 6.925642952322959 23.358047176152468 13.066778443753718 30.742873027920723 11.459291368722917 18.268712066113949 295.22744838520885 281.1511039249599 7.2200134210288516 7.5544849708676329 13.784001812338831 6.5399238094687444 5.6737341284751892 17.800172202289104 10.108351744711397 10.292934022843836 320.95382838696241 10.906881913542746 12.720986239612101 13.038645368069409 20.818438526242971 13.362995676696299 110.54312574863434 6.8568316400051108 7.9145875424146679 9.9670613147318381 44.766431737691164 16.062549971044067 9.2108003944158572 20.552238844335079 8.4294644296169263 9.7514675557613355 73.606127180159092 19.98206839710474 20.637037165462974 9.5222974494099635 24.336003325879574 18.096287593245506 12.04155717790127 7.3803810477256766 8.6010124981403333 11.570883795619009
leaf_count=10107 18 855 10622 942 8237 7562 97 5492 46 255 66 435 43 840 22 34 246 1264 56 2513 168 17 63 27 76 40 56 731 808 43 42 42 18 26 53 22 27 904 27 37 75 98 35 363 28 27 37 100 46 24 51 18 27 175 39 59 27 61 39 34 27 17 44
internal_value=0.000147149 0.0150076 -0.0253973 0.0110278 -0.016498 -0.0441153 0.0159828 0.00365077 0.0130923 0.0415504 0.0204417 0.0258297 0.019847 0.0365754 0.00816714 0.00762674 0.00333033 0.00427021 -0.0104928 0.00930308 0.0230388 0.0165593 0.0124198 0.0160352 0.0115961 0.00316602 0.0135197 0.0171669 0.0170626 0.0130252 -0.00398449 0.00669435 0.0196303 -0.00906445 0.0155203 0.0166464 0.0131048 0.0214782 0.0332506 -0.0178201 0.000559563 0.00094818 0.00393354 0.00914356 -0.00991884 -0.0189023 -0.00784022 0.0157016 0.0139975 0.0276754 0.00442514 -0.0210411 0.0157166 0.0164491 0.024063 0.0176725 0.0113278 0.00271752 0.0340849 -0.00952342 -0.0295005 0.00374677 -0.022075
internal_weight=8113.24 5129.29 2983.95 4460.49 2022.4 961.544 2668.26 1792.23 1618.84 668.8 1049.42 396.716 226.293 390.618 728.242 719.212 400.485 393.559 74.3903 828.31 204.433 133.901 116.542 109.617 96.5499 73.1919 49.0116 652.702 790.534 318.727 40.7722 33.5521 25.9977 12.2137 277.955 782.722 451.66 331.062 54.4984 24.1803 1063.99 1050.95 170.508 123.906 46.6023 36.3094 29.4525 598.203 523.674 74.5295 29.763 24.492 499.182 489.43 194.203 120.597 100.615 72.996 27.6186 48.66 19.4219 29.238 21.5379
internal_count=54430 17902 36528 15952 18344 18184 7499 8453 4872 1950 2627 1028 593 1095 2788 2766 1600 1566 302 2559 527 359 316 299 272 209 132 1599 2313 1166 171 128 86 44 995 2295 1369 926 124 77 5665 5590 561 398 163 136 108 1475 1300 175 75 64 1236 1209 478 303 264 198 66 137 61 76 81
is_linear=0
shrinkage=0.05


Tree=10
num_leaves=64
num_cat=0
split_feature=0 2 2 2 2 2 0 0 19 11 10 11 3 10 8 2 9 9 12 10 2 9 8 10 0 10 10 12 9 12 4 4 11 0 9 4 12 11 2 2 0 4 12 11 10 0 2 10 10 11 4 9 4 10 12 2 11 9 12 4 3 10 11
split_gain=993.321 236.548 180.224 32.6604 29.2586 29.0585 14.8288 10.7041 10.0776 6.1629 8.19376 7.97355 6.13474 6.5633 6.12508 10.2187 9.64849 8.38073 6.31473 5.96204 5.79731 5.86013 6.57009 6.25832 5.60904 6.61079 6.30192 5.53913 5.94686 5.91923 5.3331 5.28913 5.23529 5.21978 8.59012 5.20807 5.46713 7.87501 7.52518 7.91053 5.17426 5.17102 7.82283 8.98903 4.97994 4.81222 4.78858 4.65546 5.1497 4.58703 11.4304 4.74327 6.72925 6.96755 5.14511 7.1619 7.12011 4.85523 7.62513 7.11864 7.92637 7.14759 9.69124
threshold=8.0500000000000025 0.036991780102050918 0.28287405675542393 0.017039691943811334 0.21197454771504073 0.067497483009189188 6.7500000000000009 2.6500000000000008 1.0250000000000001 0.24478940512375166 102.50000000000001 0.12566293551125859 5.5000000000000009 57.500000000000007 0.030455275370457422 0.15994935864973811 0.29215795070976097 0.29890592679966504 0.25757899369603771 138.50000000000003 0.10298181250785497 0.46778070570397229 0.068574640648839655 1117.5000000000002 7.6500000000000012 2642.5000000000005 19.500000000000004 0.21435950799114173 0.309286580655179 0.29264834496335684 116.50000000000001 126.50000000000001 0.091670557688768237 5.2500000000000009 0.28435946423882663 131.50000000000003 0.27542264621567086 0.099842270900971516 0.25356790350055325 0.22133168358685915 1.6500000000000001 117.50000000000001 0.31182960062852771 0.11268026677616436 739.50000000000011 190.50000000000003 0.094888015212690011 767.50000000000011 3741.5000000000005 0.16484265053747346 130.50000000000003 0.50214724007197875 126.50000000000001 1517.5000000000002 0.22616973412045357 0.18074551424332416 0.063080230981034352 0.4686868501527402 0.19310549716229233 111.50000000000001 1.5000000000000002 1190.5000000000002 0.11187641984612801
decision_type=2 2 2 2 2 2 2 2 2 2 2 2 2 2 2 2 2 2 2 2 2 2 2 2 2 2 2 2 2 2 2 2 2 2 2 2 2 2 2 2 2 2 2 2 2 2 2 2 2 2 2 2 2 2 2 2 2 2 2 2 2 2 2
left_child=2 3 4 45 6 -3 8 40 9 10 11 14 -7 -14 18 16 31 -17 -1 -15 21 22 44 -24 26 -26 -22 -9 -29 47 -11 -16 -10 34 -13 41 38 -38 39 -37 -4 42 43 -6 -8 -2 -21 -30 -49 51 -51 57 53 -53 56 -56 -54 59 -59 -12 -61 62 -62
right_child=1 5 7 -5 35 12 20 27 32 30 49 33 13 19 15 17 -18 -19 -20 46 24 -23 23 -25 25 -27 -28 28 29 -31 -32 -33 -34 -35 -36 36 37 -39 -40 -41 -42 -43 -44 -45 -46 -47 -48 48 -50 50 -52 52 54 -55 55 -57 -58 58 -60 60 61 -63 -64
leaf_value=0.031949810458152504 -0.047801821352309891 -0.018092933922002626 0.053431368242601987 -0.032241890540060998 0.014441116190250639 -0.0047629381956876297 -0.027644605816847446 0.046976650524549315 0.006191402629981517 0.0024515447196869558 0.014756983929279779 -0.042341711427128698 0.01280521581198246 -0.042944256130230569 -0.022670269009964564 -0.016922573813999937 -0.051267329895146069 0.019324630642628987 -0.021731953104531958 -0.011558650162330236 -0.040863087881945023 -0.035119423793793007 0.054047668710295975 0.0081994765750461693 -0.0047997360765656321 -0.037564604563309595 0.0033118561100032788 0.036366282310906481 0.029383906258676009 0.02957963359441251 0.05630252180031934 0.02127636283968401 0.058042257816376536 0.041332121100940103 0.037697322431980755 0.035370855540337136 -0.046463044608446497 0.0054995627288963872 0.039211510874523653 -0.01644120033147474 0.039501032935821336 0.023666229280873252 0.031228007165816293 -0.019875287367105452 0.020099217860391615 -0.063297852226787923 -0.045610642322327727 -0.017518997453736921 0.024668906327192978 -0.032468524992320856 0.048866398233107851 -0.041218978181793771 -0.0029265959707121154 0.014657770333341933 -0.029268054933699474 0.03192984316920041 0.073244323501946554 -0.0090524573550990889 0.018399870835268461 -0.0027134695997259885 0.016071554423500854 0.0042091517298866359 -0.0024772491698155474
leaf_weight=18.642461054027084 410.2199327936396 967.57100072130561 77.456179987639189 628.78093264531344 261.65942087769508 1004.0561366584152 9.223624277859928 28.817967280745506 6.89037708193064 7.0840396285057095 528.0162214897573 6.4177561253309268 23.80504465661943 17.314210318028927 21.207781758159403 29.020258493721485 22.74901407957077 35.398290477693081 7.7579999640583983 289.99246846698225 8.2328570336103422 5.063010908663272 18.931125320494179 12.265475530177353 98.905679315328598 18.232858315110207 417.06924852728844 51.487774379551411 12.714025907218454 38.572511080652475 13.098978042602537 10.110616974532602 16.588032960891724 16.697021283209324 7.0180426836013794 11.682561159133913 8.8369608819484693 41.688564702868462 25.48148313164711 19.942195005714893 478.24574889987707 447.070013679564 64.587804906070232 20.584361299872398 13.391329374164341 57.070926348678768 10.705454085022209 26.047970488667488 10.014438331127165 16.982165165245537 5.7932031899690619 16.86406655237079 5.8276844099163991 8.3371403738856298 11.590011633932592 8.1372723728418332 6.4785353690385818 27.31702583283186 341.66459675505757 157.04026439413428 450.94078630581498 380.61050690710545 83.45016660913825
leaf_count=56 9387 9864 273 9814 687 6201 58 70 25 24 1715 25 157 176 92 98 110 93 32 2351 46 30 69 65 551 113 2060 123 32 93 31 35 39 48 19 30 27 118 59 65 1458 1139 158 56 65 1329 72 83 25 77 15 68 22 33 46 20 18 98 1115 368 1554 1355 310
internal_value=-0.000198591 -0.020549 0.0152411 -0.0396824 0.0108555 -0.0114839 0.0083865 0.0381019 0.0102375 0.0098966 0.009647 -0.000737154 -0.00673256 -0.0125182 -0.00560413 -0.0104568 -0.0264845 0.00299543 0.016175 -0.0144138 0.00140581 0.0163078 0.0211465 0.0360217 -0.000211595 -0.00989966 0.00245673 0.0270285 0.0228879 0.014943 0.0374014 -0.00848284 0.0428252 0.0226645 -0.000534197 0.0187127 0.00839151 -0.00358875 0.0189912 0.00269879 0.0414427 0.020112 0.0155305 0.0119384 0.000626656 -0.0496944 -0.012771 0.0033684 -0.00580352 0.010534 -0.01178 0.0107848 -0.00340441 -0.0227337 0.0118022 -0.00402464 0.0371731 0.0111972 0.0163675 0.0100049 0.00766436 0.00944549 0.013175
internal_weight=7903.45 3409.52 4493.94 1096.07 3770.58 2313.44 2869.05 723.357 2267.73 2244.25 2224.07 175.019 1345.87 341.817 144.886 118.486 54.0674 64.4185 26.4005 318.012 601.315 58.8746 53.8116 31.1966 542.441 117.139 425.302 167.655 138.837 87.3489 20.183 31.3184 23.4784 30.1328 13.4358 901.533 107.632 50.5255 57.1062 31.6248 555.702 793.902 346.832 282.244 22.615 467.291 300.698 48.7764 36.0624 2049.05 22.7754 2026.27 57.2347 25.2012 32.0335 19.7273 12.3062 1969.04 368.982 1600.06 1072.04 915.001 534.391
internal_count=54445 39351 15094 20530 12937 18821 10598 2157 7541 7477 7422 608 8957 2756 516 428 237 191 88 2599 3057 287 257 134 2770 664 2106 426 356 233 55 127 64 92 44 2339 299 145 154 95 1731 2040 901 743 123 10716 2423 140 108 6814 92 6722 207 101 106 66 40 6515 1213 5302 3587 3219 1864
is_linear=0
shrinkage=0.05


Tree=11
num_leaves=64
num_cat=1
split_feature=2 0 2 2 1 0 2 7 6 11 7 5 11 10 12 12 11 2 6 5 2 10 10 10 4 5 4 10 2 5 2 6 12 2 12 11 10 8 12 12 12 10 4 2 5 8 11 12 10 11 10 10 4 2 25 11 8 6 11 12 11 12 4
split_gain=884.531 178.245 175.037 39.2616 33.4262 27.2192 17.0556 12.0755 10.4881 7.95092 7.84261 10.0355 18.7819 9.25796 7.94622 6.54228 7.03254 6.9777 6.24529 8.24987 9.74899 7.96436 7.56802 10.0612 9.10535 7.89817 7.47531 6.95511 6.60164 6.50641 8.4636 8.2581 7.45245 6.49915 6.00319 5.96758 5.95412 10.4915 6.68485 10.5924 9.32265 6.1955 5.95203 5.94007 5.92806 8.85686 6.31051 5.8201 5.80233 5.63221 5.54889 5.52672 7.2991 5.35192 5.34023 6.29797 5.39708 5.83935 5.90692 14.9878 5.33294 5.56494 6.74512
threshold=0.088536503714804121 3.1500000000000008 0.036991780102050918 0.11978366139089028 0.017095000000000003 2.6500000000000008 0.067497483009189188 12.500000000000002 0.48335000000000006 0.24478940512375166 9.5000000000000018 5.5000000000000009 0.11328002084644433 92.500000000000014 0.40791848755462673 0.33153879363699218 0.1156604821171502 0.17697460219817118 0.36035 8.5000000000000018 0.14627004066245142 1309.5000000000002 1153.5000000000002 1203.5000000000002 123.50000000000001 7.5000000000000009 123.50000000000001 1534.5000000000002 0.14233466201912151 5.5000000000000009 0.18455872808866033 0.46410000000000007 0.20598148621404436 0.18074551424332416 0.277871267642328 0.13384960369884996 1190.5000000000002 0.21535426981534769 0.29158544385968249 0.31432115741937078 0.26415956676209867 3236.5000000000005 114.50000000000001 0.22133168358685915 5.5000000000000009 0.19247931702748847 0.10043828196032732 0.20532431885166605 872.50000000000011 0.040013342228152109 144.50000000000003 839.50000000000011 126.50000000000001 0.02196903591014392 0 0.033222958057395148 0.05567395051103477 0.10555000000000002 0.096891045546390511 0.25130765691261153 0.077032473188450759 0.22043198868296501 122.50000000000001
decision_type=2 2 2 2 2 2 2 2 2 2 2 2 2 2 2 2 2 2 2 2 2 2 2 2 2 2 2 2 2 2 2 2 2 2 2 2 2 2 2 2 2 2 2 2 2 2 2 2 2 2 2 2 2 2 1 2 2 2 2 2 2 2 2
left_child=2 5 4 54 -1 -2 -4 8 -7 10 11 13 51 -5 18 16 17 42 34 21 36 22 24 -24 -20 35 43 33 -29 30 -30 -31 -33 -28 -12 47 38 41 40 -40 60 -38 -15 -23 -10 46 -46 50 -27 -22 -26 -13 -53 -6 -3 -56 57 -57 59 -59 61 62 -21
right_child=1 3 6 9 53 7 -8 -9 44 -11 14 12 -14 15 -16 -17 -18 -19 19 20 49 26 23 -25 25 48 27 28 29 31 -32 32 -34 -35 -36 -37 37 -39 39 -41 -42 -43 -44 -45 45 -47 -48 -49 -50 -51 -52 52 -54 -55 55 56 -58 58 -60 -61 -62 -63 -64
leaf_value=-0.050959721170673516 0.03990291929928743 0.0026230820413113108 -0.017460772237197785 -0.059722367744891106 -0.037709351650653644 0.021624861050500432 -0.007788318941805851 0.033813014468070592 -0.04414635499587391 0.03923661001193663 0.011104955602277171 0.062075759102866279 -0.044463513925716618 0.0003003695029934939 -0.017796593185962991 0.027408253706859689 -0.062097075935664707 0.0078595349938661765 -0.010219920463469201 0.020092965035010884 -0.03754794436066132 0.026311592246645255 -0.08392037851225842 -0.0077192627848880289 0.028090892719922041 -0.024319324324135569 0.0039134921458584193 -0.028182046492474879 0.008379954852835915 0.053559454600613489 -0.053982636719482259 -0.046169165446489184 0.010125042909337984 0.062606075166232775 0.017146177842945715 -0.03232418285012021 -0.030750316526136107 0.02078900147175931 -0.075523462039785494 0.013226514471766855 0.041310663539362143 0.034143866110663043 -0.03531998868668608 -0.012329492132747984 0.05060072397634733 -0.014662604631885692 -0.0028439666833471968 0.020270576509379894 0.020199209821029046 0.019174073991059502 -0.034470660456309407 -0.0076378077891512686 0.057975909896318206 -0.028676310775903619 0.042356176074242309 -0.037063338364161161 -0.0027700867275873391 -0.023859759632871815 -0.032356923397130997 0.037821011233614359 -0.048711976209946779 0.02763090970483887 -0.045750568962544723
leaf_weight=351.93566657043993 529.75036829337478 551.63345194421709 941.47479433286935 7.6600815542042247 262.51712194364518 198.50250684469938 883.40203966666013 154.54473714530468 7.4346230328083029 24.800894938409328 1022.4709588065743 14.731409542262552 8.3915982246398908 22.219574593007565 23.020122226327658 15.399361751973627 5.5805842727422705 53.82005600631237 108.39990488812327 7.796386703848837 4.4389335289597502 86.09720042720437 6.1293661445379284 14.770331155508755 5.47723464667797 26.867717962712049 9.8657864257693308 18.437787290662527 12.059739179909231 9.9623524621129018 9.9124976992607099 6.4813522920012465 63.271062187850475 9.0369939953088743 687.86437980085611 6.6347429975867263 35.939336255192757 19.275526136159897 5.3087380714714518 9.1681099049746972 26.186578124761581 4.0972440838813773 24.836275335401297 11.24458836764097 12.612668439745905 28.928069494664669 9.8263544142246229 112.44841176271439 10.059500042349098 310.57009653747082 10.043297655880449 9.9142508618533629 7.4039402306079856 436.84276122413576 6.9315455593168727 25.352230180054903 321.53761744126678 23.247239790856838 17.727937828749418 17.087985180318356 4.4618499130010596 18.879287347197533 7.7620354369282722
leaf_count=8745 1731 3040 9864 31 4952 504 6442 421 21 68 3213 37 42 87 99 56 21 165 399 26 16 256 21 54 18 105 40 97 36 27 33 28 197 21 2093 28 184 76 27 38 85 14 120 32 27 80 28 349 35 894 42 45 23 6833 31 162 1815 153 112 72 25 65 44
internal_value=-0.000193411 0.0128911 -0.0221405 0.0081582 -0.0383916 0.0324073 -0.0127784 0.0227659 0.0161306 0.0110468 0.0108052 0.000384695 0.0221277 -0.00640453 0.0114553 -0.00305287 -0.0074592 -0.00443656 0.0117046 0.00854639 0.0135093 0.00435322 -0.00104328 -0.0300672 0.00112365 0.00829228 0.0112214 0.00378116 -0.000655115 0.00433604 -0.0197541 0.0109762 0.00489422 0.0319731 0.0135346 0.0139119 0.00247289 -0.00951798 0.0114118 -0.0193186 0.018247 -0.0241092 -0.0185002 0.0218479 -0.00241673 0.00362301 0.0271966 0.0163091 -0.0121918 0.0183748 -0.0123925 0.0395634 0.0204136 -0.032067 -0.000593411 -0.00490123 -0.00571013 -0.017043 -0.00830148 0.00227125 0.00272089 0.00938468 -0.0127561
internal_weight=7700.49 4824.31 2876.17 3882.72 1051.3 941.599 1824.88 411.849 257.304 2919.2 2894.4 169.957 40.4412 129.516 2724.44 121.856 106.456 100.876 2701.42 991.084 453.884 537.2 300.831 20.8997 279.931 171.531 236.369 139.028 120.125 101.687 21.9722 79.7148 69.7524 18.9028 1710.34 134.604 138.875 59.3121 79.563 14.4768 65.0861 40.0366 47.0558 97.3418 58.8017 51.3671 22.439 127.969 36.9272 315.009 15.5205 32.0496 17.3182 699.36 963.518 411.885 404.953 83.4154 58.0632 40.3352 38.8996 34.4377 15.5584
internal_count=54445 17609 36836 14797 20530 2812 16306 1081 660 9412 9344 627 147 480 8717 449 393 372 8618 3312 1494 1818 1051 75 976 577 767 479 418 321 69 252 225 61 5306 437 584 274 310 65 245 198 207 288 156 135 55 409 140 910 60 105 68 11785 5385 2345 2314 499 337 225 160 135 70
cat_boundaries=0 1
cat_threshold=2
is_linear=0
shrinkage=0.05


Tree=12
num_leaves=64
num_cat=0
split_feature=2 0 2 2 2 0 2 7 9 0 3 0 0 3 2 4 1 6 8 4 9 7 4 10 11 4 6 6 10 11 6 9 8 2 4 9 8 4 9 2 9 3 8 11 0 10 11 10 6 2 6 10 9 10 10 9 11 10 11 7 9 9 8
split_gain=796.337 160.128 156.604 37.9592 30.5158 23.3116 15.0594 10.6246 7.41135 7.22186 7.36693 5.82713 5.73093 5.69571 5.22677 6.73139 10.562 7.5403 7.78813 6.40051 5.0114 4.94498 5.11242 4.89257 4.81375 7.38055 9.12139 5.94509 5.09923 7.6782 9.26371 5.80881 7.89466 5.00252 6.32609 4.78004 5.56812 4.76545 5.38226 4.7989 4.41846 4.62951 4.56462 4.38523 5.07837 5.43371 4.91845 5.74843 4.34215 4.32715 4.32199 4.1867 5.18535 4.1293 4.32726 4.78416 4.1809 4.10208 4.09061 4.48687 5.57337 6.76551 8.37565
threshold=0.087634031120155442 3.1500000000000008 0.036991780102050918 0.11978366139089028 0.017039691943811334 2.6500000000000008 0.062192239453034488 12.500000000000002 0.29215795070976097 3.0500000000000003 1.5000000000000002 94.500000000000014 5.3500000000000005 2.5000000000000004 0.2926425404272055 116.50000000000001 0.33908050000000006 0.26970000000000005 0.19247931702748847 124.50000000000001 0.47107212458046127 9.5000000000000018 131.50000000000003 2194.5000000000005 0.077732626319745715 110.50000000000001 0.087100000000000011 0.34520000000000001 311.50000000000006 0.057973442903213275 0.63965000000000016 0.46778070570397229 0.057804896159382217 0.10298181250785497 125.50000000000001 0.089049810031719481 0.054319268200419553 124.50000000000001 0.28290610948113271 0.09931033024685508 0.48713513198121816 3.5000000000000004 0.10390278445834003 0.077999264164827095 7.6500000000000012 15.500000000000002 0.11812167534838861 42.500000000000007 0.16025000000000003 0.40553391617062245 0.32290000000000002 1605.5000000000002 0.309286580655179 162.50000000000003 374.50000000000006 0.46692762893310613 0.13384960369884996 548.50000000000011 0.24478940512375166 9.5000000000000018 0.20069913407570936 0.21549225841643707 0.070431393391797339
decision_type=2 2 2 2 2 2 2 2 2 2 2 2 2 2 2 2 2 2 2 2 2 2 2 2 2 2 2 2 2 2 2 2 2 2 2 2 2 2 2 2 2 2 2 2 2 2 2 2 2 2 2 2 2 2 2 2 2 2 2 2 2 2 2
left_child=2 5 4 24 11 21 40 8 48 10 14 -1 58 -8 15 16 -10 18 -17 23 -21 22 -2 -19 25 35 37 33 -29 -30 31 32 -31 57 50 -3 -37 -27 39 -39 42 -42 -4 -26 -45 -46 47 -47 -7 -23 51 52 -35 -48 -55 56 -56 -28 59 60 -5 -62 -63
right_child=1 3 6 12 -6 7 13 -9 9 -11 -12 -13 -14 -15 -16 17 -18 19 -20 20 -22 49 -24 -25 43 26 27 28 29 30 -32 -33 -34 34 -36 36 -38 38 -40 -41 41 -43 -44 44 45 46 53 -49 -50 -51 -52 -53 -54 54 55 -57 -58 -59 -60 -61 61 62 -64
leaf_value=-0.042127583235396837 0.03165080631341128 0.034327779543822441 -0.016782643693573872 0.035585661908146549 -0.029761487417945254 0.039112981811217563 0.028175649215999351 0.032854654701213452 0.010381075629599751 0.029920632044229251 0.041353075112900074 -0.05397275140823881 0.0076973126830429178 -0.0088498554707654841 0.018285099300720392 -0.010043605071469086 -0.056430120093674811 0.036176971010260454 0.049661545376020931 -0.059534076745979686 -0.010391816236815272 0.036964316158759315 -0.0069220976016304298 -0.014189913293243792 0.045859105871963207 0.042602345361662255 0.016223339420440873 -0.014057294732308476 0.025908772596906538 0.0071272160397647588 0.011485763369185201 0.022569231655156178 -0.044328512413986602 -0.035567502363862663 -0.056555506469487919 -0.046180614147548198 -0.013529982985767217 0.018166476937231064 0.037198058324790034 -0.056535679074268021 0.074281032082915671 -0.0028086956485887165 -0.028245119561442489 0.0076261440792416701 0.038507222221378111 -0.058737057116315119 0.012711514770095064 0.00069197480488306388 0.015863261042467321 0.047651154708304826 -0.056904145039521625 0.038841849903884285 0.04027377499926435 -0.058777767982097023 -0.019936830169980164 -0.055742866638006199 0.017288991988520155 -0.015983674198256918 0.03829678558132138 0.012802118553143157 -0.046046679459257396 0.044903166701490756 -0.002821690124240371
leaf_weight=233.77884958218783 65.110555909574032 4.4652196317911139 629.44099204801023 11.425136126577852 589.9897744525224 43.615442231297493 10.494844429194925 147.78330241516232 10.341669052839281 35.902677282691002 12.411400742828844 186.78275371156633 997.24017186462879 1009.853862002492 31.894181773066521 9.0029230564832705 13.821229845285414 9.9577503427863139 13.887149587273596 7.8964257538318661 15.124488823115824 288.22619186714292 9.8957314118742925 9.3477264419198018 5.7002138048410407 16.857935860753059 15.687728960067032 42.446754019707441 35.1490025408566 10.960263427346943 58.676778569817543 6.8494766093790522 23.303337503224611 9.0732910893857532 13.416095931082962 15.425349980592726 85.069688178598881 3.9942025728523713 6.8867182396352282 4.6559606343507767 2.3157994821667662 12.246409485116599 100.75658494979143 226.38107979111373 8.0958599373698217 4.1293636783957473 10.399255093187092 278.54172965697944 37.21914816647768 141.08572870865464 4.3791188225150099 4.7124697566032401 2.998586691915988 6.868527114391326 25.621571656316519 6.4387884251773349 10.689415279775856 26.735292533412576 15.113725975155829 1745.1426118128002 7.7820298895239821 10.343153357505797 82.69165725260973
leaf_count=5748 224 20 7080 35 9814 109 32 421 22 90 44 4968 3873 7702 83 24 39 23 32 22 40 958 34 24 28 75 90 251 174 57 297 39 172 65 93 112 526 22 29 34 6 129 1147 1158 34 35 59 1653 108 515 29 20 12 52 163 48 65 183 36 5121 25 28 294
internal_value=-0.000126645 0.0123132 -0.021401 0.00786366 -0.0370973 0.0312664 -0.0124147 0.0222231 0.015949 0.0100105 0.00466334 -0.0473883 0.0107591 -0.00846903 0.000908428 -0.00529227 -0.0278351 0.0030599 0.0261788 -0.0094428 -0.0272481 0.0384069 0.0265618 0.0117893 -0.000661899 -0.00494817 -0.00079625 -0.00397834 0.00105775 0.00581238 -0.00126617 -0.0194658 -0.0278688 -0.0155797 -0.0296954 -0.0162925 -0.0185416 0.0241919 0.00421611 -0.022042 -0.0178204 0.00945073 -0.0183643 0.0022189 0.0017879 -0.00197985 -0.00293634 -0.000176186 0.028408 0.0404764 -0.012668 -0.00112658 -0.016729 -0.0159361 -0.0219402 -0.0160216 -0.0089781 -0.00407375 0.0123897 0.0121789 0.00248877 -0.00126196 0.00248413
internal_weight=7522.53 4746.87 2775.66 3844.35 1010.55 902.524 1765.11 398.206 250.422 169.588 133.685 420.562 2869.74 1020.35 121.274 89.3794 24.1629 65.2165 22.8901 42.3264 23.0209 504.318 75.0063 19.3055 974.609 391.743 286.783 254.388 177.386 134.939 99.7899 41.1131 34.2636 77.0026 34.5796 104.96 100.495 32.3948 15.5369 8.65016 744.76 14.5622 730.198 582.866 577.166 350.785 342.689 282.671 80.8346 429.312 21.1635 16.7843 12.0719 60.0176 49.6183 42.7498 36.311 42.423 1872.5 1857.38 112.242 100.817 93.0348
internal_count=54445 17819 36626 15007 20530 2812 16096 1081 660 443 353 10716 9412 7734 309 226 61 165 56 109 62 1731 258 47 5595 2300 1642 1482 990 739 565 268 229 492 219 658 638 160 85 56 8362 135 8227 3295 3267 2109 2075 1688 217 1473 126 97 77 387 328 276 228 273 5539 5503 382 347 322
is_linear=0
shrinkage=0.05


Tree=13
num_leaves=64
num_cat=0
split_feature=2 0 2 0 2 2 2 6 3 0 11 4 6 9 9 11 1 4 9 4 6 4 9 11 12 12 12 12 2 9 10 12 12 12 10 3 10 9 10 9 11 9 11 4 3 4 11 12 10 3 10 11 10 4 0 12 9 6 11 10 12 4 0
split_gain=708.736 149.054 144.986 28.8258 28.1369 18.3333 14.3707 4.94004 7.74043 10.2938 10.6708 8.06559 7.62092 7.22557 9.97954 8.02918 13.5207 8.51968 9.69499 11.2085 9.44493 8.35661 7.65392 7.27554 6.72297 6.13869 5.96161 7.6673 7.01198 6.46777 5.8386 15.3216 7.17763 11.0554 6.34936 7.68663 7.83412 7.24798 6.4214 6.2649 6.13613 8.18165 7.33728 5.79698 5.67789 5.79308 5.67404 7.98312 5.59955 8.86133 7.31168 6.53602 5.49795 5.48788 6.58962 5.40133 5.36938 5.33589 5.30239 5.2479 9.83681 7.3579 8.65749
threshold=0.088536503714804121 3.1500000000000008 0.036991780102050918 58.500000000000007 0.12578400510606483 0.30919470139646249 0.062192239453034488 0.20715000000000003 1.5000000000000002 4.4500000000000011 0.1123525546881039 118.50000000000001 0.74165000000000003 0.50214724007197875 0.33198924488364184 0.059251268725835533 0.16001000000000001 131.50000000000003 0.23622950227551834 115.50000000000001 0.36035 127.50000000000001 0.22273906733198631 0.077466451994917071 0.22671142439333583 0.27445523142986916 0.27398547333021311 0.26947127095281931 0.20329261140719904 0.32956856571664406 255.50000000000003 0.21128489013160126 0.1941472188384426 0.18839411420362889 4276.5000000000009 1.5000000000000002 339.50000000000006 0.1897757838395914 516.50000000000011 0.47311337861812769 0.086970739613842538 0.32956856571664406 0.071480275395199452 134.50000000000003 1.5000000000000002 110.50000000000001 0.11085043261927303 0.22224172908863923 532.50000000000011 3.5000000000000004 649.50000000000011 0.078302938231132796 971.50000000000011 128.50000000000003 3.9500000000000006 0.18639207293654203 0.28985696644620718 0.89445000000000008 0.097884500169629782 1835.5000000000002 0.20090978158906372 127.50000000000001 5.6500000000000012
decision_type=2 2 2 2 2 2 2 2 2 2 2 2 2 2 2 2 2 2 2 2 2 2 2 2 2 2 2 2 2 2 2 2 2 2 2 2 2 2 2 2 2 2 2 2 2 2 2 2 2 2 2 2 2 2 2 2 2 2 2 2 2 2 2
left_child=2 5 3 -1 -3 -2 -4 26 11 10 56 12 -9 14 15 16 -11 18 19 -17 22 -20 23 -21 -15 -25 27 30 29 58 31 -6 33 55 35 37 -37 -34 -38 -35 41 42 52 -28 45 -33 47 -19 57 50 -50 -52 -39 54 -12 -32 -10 -22 -29 60 -16 62 -61
right_child=1 4 6 -5 7 -7 -8 8 9 13 53 -13 -14 24 59 17 -18 46 21 20 48 -23 -24 25 -26 -27 43 28 -30 -31 32 44 34 39 -36 36 38 40 -40 -41 -42 -43 -44 -45 -46 -47 -48 -49 49 -51 51 -53 -54 -55 -56 -57 -58 -59 -60 61 -62 -63 -64
leaf_value=-0.029708151531535748 0.022390954035234677 0.00087052794736136834 -0.017082750888198339 -0.048010702283328981 0.021111517311629927 0.037085110634577569 -0.0079054209832169469 -0.026102503954738204 0.01434392792633063 -0.042709775628320956 0.0096587717030188723 0.0052471089452806813 0.016684088898495018 0.0082932940167251331 -0.020337652968550331 -0.037810432486106799 0.030427377677200135 -0.06106862417911272 -0.0090766497691468079 0.016796142356941116 0.041091041252810434 0.017364087412534156 0.040312956256738697 -0.071927024497526609 -0.038538474927248899 -0.014159215377344768 0.015710928679552597 -0.062714718581664761 0.01852794886238095 0.013238981073877316 0.0020136679964753682 -0.073013846131016691 0.064370182748902008 -0.037857717374714397 -0.007132048426872881 0.039956748152731397 -0.012824345128416265 0.046887751894832755 0.012728541294354169 0.021094711896763936 0.041099674566686312 0.030040889231939941 -0.031279589669870794 0.061083341469898293 -0.0079498523642208344 -0.0081148528221748652 -0.060017379933038621 -0.00050515564145799043 -0.04774812694654422 0.065446456256097782 -0.016428896683233388 0.024184842706230222 -0.0033631226596362654 0.019788924736474409 -0.040942890968131314 0.034329696785602624 0.030977532412540993 -0.0075649208261416292 -0.012115401337953198 0.029626509627169586 0.027964666935438306 -0.0079381670868340307 -0.0076873774283867519
leaf_weight=656.20718669053167 379.36798632889986 1110.05783174932 725.28589791152626 320.05399663606659 50.07019367069006 481.93072989210486 1035.6876017190516 41.377033315598965 80.954245585948229 7.19501869380474 11.926906116306784 341.11852370202541 13.904378071427343 14.744854211807253 11.562063202261923 10.172203928232191 51.915769029408693 6.593593716621398 144.29824226722121 12.068110089749096 47.995127554982901 37.68773128837347 7.8916761949658385 6.5843848586082485 15.956439461559055 15.250015199184416 586.44962374120951 11.399571180343633 13.513547517359255 7.9579631127417079 41.888310231268406 7.7231354862451536 11.932596646249293 22.383689932525161 28.797130234539509 23.870089881122112 27.493475563824177 8.6579533815383929 232.49848928675056 5.642682582139968 34.78229545801878 46.302934236824512 13.267565153539179 7.1252981424331656 49.189658284187317 6.1980776190757751 7.0299049466848365 31.131160914897919 5.5844306647777548 7.2078221775591365 13.833935372531412 34.890875019133091 14.659508705139158 15.752241786569355 13.969611320644615 18.703698489814997 121.08294127508998 6.3842769563198081 9.4858987331390363 51.945504363626242 119.28807489946485 40.9934461414814 22.183573164045811
leaf_count=11785 1081 6243 8362 8745 148 1731 7944 117 259 36 54 874 31 52 54 45 175 37 572 38 142 133 25 26 81 56 1780 57 40 31 124 25 22 84 107 70 104 20 799 22 67 107 42 16 180 19 37 125 25 24 56 123 33 57 61 48 381 27 36 156 412 183 99
internal_value=-9.04976e-05 0.0118508 -0.0202533 -0.0357084 0.00755355 0.0306129 -0.0116853 0.0103525 0.00826637 0.0106635 0.0195621 0.00237594 -0.0153408 0.00769454 0.00873627 0.00433958 0.0215251 0.00176523 0.00439296 0.0130595 0.016341 -0.003601 -0.00403618 -0.0143596 -0.0160467 -0.0315797 0.0125861 0.00941295 -0.0111933 -0.0251181 0.0107681 0.000457806 0.0129662 -2.1702e-05 0.0155687 0.0171498 0.0125432 0.0272392 0.0100264 -0.0259885 0.0234738 0.0160775 -0.00159502 0.0162556 -0.0159282 -0.0441192 -0.0187758 -0.0110905 0.0236893 0.0133562 0.00644288 0.0126538 0.0152954 -0.00348239 -0.0176378 0.0119891 0.0243126 0.0353787 -0.0397332 0.0168463 0.0236966 0.00906007 0.0184601
internal_weight=7359.06 4621.82 2737.23 976.261 3760.53 861.299 1760.97 2650.47 1370.47 974.074 243.686 396.4 55.2814 730.388 699.687 453.714 59.1108 394.603 349.849 167.863 157.691 181.986 41.7942 33.9025 30.7013 21.8344 1279.99 686.418 42.357 28.8434 644.061 113.181 530.88 88.6184 442.262 413.465 283.862 129.603 259.992 28.0264 117.67 82.888 36.585 593.575 63.1109 13.9212 44.7547 37.7248 115.896 61.5171 54.3092 48.7248 23.3175 41.6488 25.8965 60.592 202.037 54.3794 20.8855 245.973 130.85 115.123 74.1291
internal_count=54445 17609 36836 20530 14797 2812 16306 8554 4573 3551 812 1022 148 2739 2606 1702 211 1491 1292 587 542 705 145 120 133 82 3981 2185 164 124 2021 372 1649 278 1371 1264 973 291 903 106 269 202 95 1796 224 44 199 162 397 228 204 179 53 172 115 172 640 169 93 904 466 438 255
is_linear=0
shrinkage=0.05


Tree=14
num_leaves=64
num_cat=3
split_feature=2 2 2 2 2 2 2 7 8 9 6 0 4 6 7 7 2 7 1 8 8 9 6 4 25 6 9 4 9 12 12 11 8 8 12 12 12 4 2 6 12 9 8 8 2 12 4 8 8 8 4 6 5 8 12 8 8 6 0 11 9 25 25
split_gain=627.869 130.978 129.592 31.5489 27.2838 12.0752 7.44659 8.19117 9.29549 7.81324 9.80626 6.96583 6.72227 8.69953 6.33576 5.57855 5.12021 5.07186 5.52822 5.07035 11.3357 6.21395 9.6691 8.36574 8.67908 7.96758 6.46475 6.96489 5.74949 5.31578 4.99407 4.97146 4.92468 6.80768 6.33776 6.34147 5.62497 4.46319 9.03989 4.89289 4.6753 6.86801 8.65996 6.56607 5.50612 5.42142 4.33405 4.87547 4.08701 20.0083 10.0603 7.64258 10.4331 8.92567 8.76863 7.89084 7.37624 7.11927 6.47332 10.6541 7.33408 6.06389 6.04653
threshold=0.087634031120155442 0.28287405675542393 0.036991780102050918 0.12578400510606483 0.017039691943811334 0.062192239453034488 0.2165100618478801 11.500000000000002 0.056815446229264245 0.4941765101001 0.74165000000000003 2.1500000000000008 131.50000000000003 0.24040000000000003 13.500000000000002 12.500000000000002 0.005551196026972763 8.5000000000000018 0.60661750000000014 0.060151479049737021 0.061013739866467097 0.18772242493664101 0.10555000000000002 120.50000000000001 0 0.26970000000000005 0.18356403870102503 118.50000000000001 0.22378973365658952 0.29054911551862778 0.14109156632640077 0.097884500169629782 0.049199788336556145 0.047224304514409468 0.27445523142986916 0.24209053250793069 0.23515416610154169 121.50000000000001 0.22133168358685915 0.53590000000000015 0.31182960062852771 0.4867640779625258 0.086241304936090293 0.080010887316276549 0.22133168358685915 0.28673668106371114 125.50000000000001 0.011305826111409364 0.08962924792558534 0.0875932265315362 122.50000000000001 0.16025000000000003 3.5000000000000004 0.083351810790835187 0.27490823030296035 0.063032927256233509 0.061962442483811636 0.39230000000000004 4.4500000000000011 0.10941398060185274 0.1951299637832121 1 2
decision_type=2 2 2 2 2 2 2 2 2 2 2 2 2 2 2 2 2 2 2 2 2 2 2 2 1 2 2 2 2 2 2 2 2 2 2 2 2 2 2 2 2 2 2 2 2 2 2 2 2 2 2 2 2 2 2 2 2 2 2 2 2 1 1
